svm_type c_svc
kernel_type polynomial
degree 3
gamma 0.00735294
coef0 0
nr_class 5
total_sv 276
rho -10.0301 -0.0217271 5.59421 -4.59825 -2.53363 22.6784 15.7248 26.4455 2.24152 2.21835
label 0 1 2 3 4
probA -0.122213 -0.0831596 -0.0858793 0.160917 -0.0686308 -0.114766 -0.220104 -0.159919 0.0727197 0.0213897
probB 0.0441383 -0.204029 -0.0777376 -0.118182 -0.256002 -0.103688 -0.111454 0.0762372 0.203726 0.0146756
nr_sv 57 61 45 56 57
SV
7.970307941085737e-10 2.283421435105099e-10 6.778577576911666e-10 1.110082882219456e-09 1:96 2:147 3:96 4:181 5:101 6:215 7:114 8:247 9:134 10:275 11:154 12:301 13:172 14:325 15:190 16:352 17:214 18:363 19:245 20:357 21:275 22:335 23:301 24:310 25:329 26:279 27:352 28:247 29:364 30:208 31:365 32:167 33:361 34:127 35:106 36:110 37:119 38:103 39:136 40:105 41:153 42:110 43:171 44:118 45:218 46:116 47:238 48:104 49:258 50:98 51:281 52:94 53:305 54:96 55:195 56:148 57:195 58:173 59:194 60:200 61:194 62:226 63:170 64:233 65:185 66:240 67:201 68:246 69:216 70:239 71:232 72:232 73:126 74:142 75:137 76:136 77:152 78:137 79:164 80:147 81:151 82:150 83:136 84:150 85:240 86:147 87:252 88:136 89:269 90:135 91:285 92:139 93:272 94:147 95:255 96:149 97:162 98:261 99:175 100:262 101:192 102:260 103:203 104:264 105:217 106:260 107:240 108:258 109:265 110:257 111:243 112:283 113:221 114:296 115:205 116:299 117:193 118:297 119:176 120:286 121:167 122:264 123:193 124:272 125:204 126:274 127:218 128:271 129:258 130:261 131:218 132:276 133:204 134:279 135:192 136:277 
0 0 2.103505903208286e-11 3.176566808023409e-10 1:107 2:144 3:107 4:176 5:113 6:208 7:123 8:239 9:133 10:268 11:145 12:298 13:158 14:326 15:177 16:349 17:204 18:356 19:240 20:353 21:280 22:340 23:317 24:319 25:347 26:293 27:369 28:259 29:380 30:218 31:386 32:175 33:391 34:131 35:106 36:101 37:117 38:87 39:138 40:87 41:160 42:93 43:180 44:105 45:199 46:107 47:229 48:94 49:262 50:89 51:294 52:91 53:321 54:107 55:190 56:132 57:186 58:154 59:181 60:176 61:176 62:199 63:164 64:220 65:173 66:226 67:184 68:228 69:198 70:226 71:213 72:223 73:124 74:138 75:135 76:132 77:152 78:133 79:170 80:142 81:152 82:148 83:135 84:149 85:236 86:143 87:252 88:133 89:271 90:134 91:288 92:140 93:273 94:149 95:254 96:148 97:162 98:274 99:165 100:262 101:175 102:253 103:183 104:256 105:194 106:254 107:213 108:265 109:237 110:279 111:213 112:288 113:196 114:293 115:183 116:293 117:174 118:291 119:165 120:283 121:168 122:273 123:176 124:269 125:184 126:270 127:195 128:271 129:226 130:278 131:193 132:270 133:183 134:271 135:175 136:269 
0 0 1.752649172762792e-10 0 1:89 2:156 3:89 4:185 5:92 6:216 7:101 8:249 9:116 10:278 11:137 12:306 13:158 14:332 15:178 16:357 17:207 18:367 19:238 20:364 21:269 22:342 23:298 24:313 25:327 26:285 27:352 28:252 29:365 30:210 31:370 32:168 33:371 34:126 35:84 36:98 37:98 38:85 39:118 40:82 41:139 42:88 43:158 44:102 45:197 46:91 47:224 48:76 49:255 50:68 51:287 52:72 53:315 54:86 55:186 56:136 57:185 58:162 59:184 60:187 61:182 62:213 63:163 64:226 65:175 66:233 67:189 68:237 69:206 70:232 71:222 72:226 73:106 74:142 75:121 76:129 77:143 78:130 79:162 80:147 81:142 82:152 83:120 84:151 85:229 86:138 87:246 88:120 89:270 90:118 91:292 92:129 93:275 94:142 95:250 96:144 97:141 98:260 99:158 100:251 101:177 102:249 103:192 104:254 105:209 106:250 107:238 108:255 109:271 110:262 111:240 112:299 113:211 114:315 115:192 116:315 117:175 118:312 119:156 120:295 121:151 122:262 123:178 124:258 125:193 126:262 127:211 128:260 129:262 130:264 131:208 132:293 133:190 134:295 135:175 136:291 
7.852429324475538e-12 1.231745893601448e-10 0 4.130834855531583e-10 1:106 2:151 3:104 4:182 5:108 6:213 7:120 8:244 9:137 10:273 11:158 12:300 13:177 14:328 15:196 16:358 17:225 18:372 19:262 20:370 21:303 22:352 23:341 24:327 25:376 26:295 27:399 28:256 29:407 30:212 31:410 32:165 33:410 34:119 35:104 36:91 37:116 38:84 39:131 40:87 41:146 42:93 43:161 44:103 45:208 46:102 47:237 48:89 49:267 50:83 51:299 52:84 53:331 54:92 55:184 56:144 57:179 58:172 59:174 60:198 61:169 62:225 63:163 64:241 65:175 66:249 67:189 68:253 69:205 70:249 71:221 72:244 73:123 74:139 75:132 76:130 77:148 78:132 79:166 80:146 81:149 82:147 83:132 84:147 85:237 86:147 87:248 88:132 89:270 90:131 91:295 92:138 93:274 94:147 95:253 96:149 97:175 98:269 99:175 100:264 101:186 102:263 103:200 104:268 105:215 106:264 107:247 108:267 109:281 110:268 111:254 112:293 113:226 114:305 115:209 116:307 117:195 118:303 119:182 120:288 121:181 122:272 123:189 124:276 125:202 126:279 127:218 128:278 129:272 130:270 131:221 132:283 133:205 134:284 135:192 136:280 
2.234968696937138e-10 0 9.671319785138014e-11 3.696926278857127e-12 1:72 2:133 3:71 4:169 5:72 6:204 7:78 8:242 9:88 10:278 11:104 12:316 13:126 14:351 15:154 16:378 17:191 18:388 19:230 20:383 21:260 22:358 23:282 24:323 25:300 26:286 27:313 28:249 29:323 30:209 31:325 32:168 33:323 34:128 35:87 36:103 37:105 38:91 39:129 40:88 41:155 42:93 43:181 44:105 45:208 46:104 47:234 48:92 49:261 50:88 51:289 52:92 53:308 54:106 55:196 56:119 57:195 58:152 59:194 60:185 61:193 62:220 63:160 64:222 65:176 66:233 67:194 68:242 69:213 70:234 71:229 72:225 73:107 74:114 75:122 76:106 77:142 78:106 79:158 80:117 81:140 82:126 83:120 84:126 85:234 86:119 87:252 88:107 89:273 90:108 91:289 92:117 93:275 94:130 95:254 96:129 97:145 98:291 99:163 100:286 101:181 102:287 103:195 104:291 105:209 106:289 107:227 108:292 109:249 110:299 111:226 112:308 113:209 114:311 115:194 116:311 117:179 118:308 119:163 120:302 121:153 122:292 123:181 124:294 125:195 126:297 127:209 128:296 129:238 130:298 131:208 132:292 133:194 134:293 135:180 136:290 
4.378452007696829e-10 7.416153096068311e-10 6.523494662357959e-10 8.05152283463265e-10 1:64 2:120 3:66 4:157 5:72 6:194 7:79 8:229 9:91 10:262 11:112 12:290 13:138 14:312 15:168 16:332 17:199 18:337 19:230 20:333 21:260 22:313 23:287 24:292 25:308 26:262 27:320 28:227 29:327 30:192 31:334 32:155 33:337 34:117 35:88 36:104 37:108 38:88 39:135 40:86 41:160 42:94 43:184 44:107 45:214 46:108 47:238 48:95 49:264 50:87 51:291 52:87 53:312 54:102 55:200 56:138 57:201 58:163 59:201 60:187 61:201 62:211 63:176 64:228 65:189 66:233 67:202 68:236 69:214 70:232 71:227 72:228 73:117 74:137 75:133 76:132 77:151 78:134 79:165 80:145 81:148 82:148 83:131 84:146 85:238 86:146 87:250 88:134 89:268 90:132 91:285 92:137 93:271 94:146 95:253 96:148 97:152 98:266 99:172 100:260 101:189 102:256 103:202 104:260 105:214 106:256 107:232 108:261 109:252 110:265 111:233 112:281 113:216 114:290 115:202 116:292 117:188 118:290 119:171 120:283 121:161 122:268 123:189 124:270 125:202 126:272 127:214 128:270 129:243 130:267 131:215 132:272 133:202 134:274 135:189 136:272 
4.27631165159261e-10 0 4.42855334514634e-10 3.358858203421723e-10 1:56 2:135 3:57 4:172 5:58 6:208 7:67 8:243 9:80 10:275 11:104 12:302 13:130 14:324 15:164 16:339 17:201 18:340 19:237 20:339 21:270 22:324 23:295 24:304 25:317 26:278 27:329 28:247 29:332 30:212 31:335 32:179 33:336 34:145 35:94 36:105 37:113 38:96 39:134 40:98 41:155 42:102 43:176 44:111 45:224 46:110 47:247 48:102 49:269 50:98 51:291 52:97 53:310 54:105 55:198 56:140 57:197 58:167 59:197 60:194 61:196 62:220 63:176 64:234 65:186 66:236 67:197 68:239 69:208 70:236 71:219 72:232 73:121 74:138 75:134 76:131 77:151 78:133 79:163 80:145 81:148 82:148 83:131 84:146 85:238 86:145 87:250 88:133 89:267 90:132 91:282 92:139 93:270 94:147 95:253 96:148 97:152 98:271 99:166 100:263 101:184 102:257 103:197 104:260 105:211 106:256 107:231 108:260 109:247 110:265 111:232 112:280 113:213 114:287 115:198 116:289 117:184 118:289 119:165 120:284 121:159 122:273 123:184 124:271 125:198 126:272 127:212 128:270 129:239 130:268 131:212 132:268 133:197 134:269 135:184 136:269 
9.485202285865366e-11 6.230897759068064e-11 7.926481563764896e-11 0 1:28 2:106 3:28 4:153 5:33 6:204 7:40 8:256 9:56 10:299 11:80 12:337 13:111 14:371 15:152 16:392 17:187 18:400 19:217 20:397 21:241 22:375 23:253 24:342 25:262 26:304 27:272 28:268 29:281 30:235 31:286 32:206 33:287 34:176 35:125 36:77 37:149 38:66 39:176 40:60 41:204 42:66 43:224 44:80 45:261 46:92 47:275 48:86 49:286 50:90 51:296 52:100 53:299 54:111 55:247 56:116 57:251 58:142 59:256 60:166 61:260 62:191 63:212 64:207 65:228 66:216 67:242 68:222 69:254 70:220 71:261 72:215 73:153 74:112 75:172 76:107 77:188 78:109 79:199 80:119 81:186 82:122 83:170 84:120 85:252 86:132 87:266 88:130 89:277 90:135 91:279 92:147 93:273 94:148 95:263 96:143 97:178 98:288 99:204 100:265 101:226 102:260 103:237 104:263 105:249 106:263 107:254 108:277 109:242 110:310 111:243 112:314 113:231 114:324 115:219 116:323 117:208 118:320 119:192 120:307 121:190 122:287 123:221 124:273 125:233 126:275 127:243 128:277 129:239 130:303 131:237 132:306 133:226 134:309 135:215 136:305 
1 2.366794521445572e-10 3.856335538334058e-10 8.263713949811132e-10 1:56 2:148 3:56 4:186 5:57 6:225 7:61 8:265 9:75 10:301 11:99 12:329 13:127 14:348 15:163 16:356 17:199 18:353 19:234 20:350 21:271 22:339 23:302 24:321 25:326 26:295 27:340 28:259 29:346 30:218 31:348 32:175 33:349 34:136 35:86 36:116 37:99 38:97 39:121 40:89 41:145 42:88 43:168 44:96 45:229 46:98 47:252 48:91 49:276 50:93 51:298 52:99 53:316 54:116 55:200 56:140 57:199 58:169 59:199 60:197 61:199 62:225 63:169 64:236 65:183 66:241 67:199 68:247 69:215 70:241 71:230 72:236 73:119 74:140 75:135 76:134 77:151 78:135 79:162 80:146 81:148 82:146 83:132 84:143 85:239 86:145 87:250 88:135 89:266 90:134 91:279 92:140 93:267 94:143 95:252 96:145 97:141 98:280 99:159 100:269 101:182 102:265 103:198 104:268 105:215 106:265 107:239 108:271 109:260 110:282 111:241 112:305 113:217 114:318 115:198 116:321 117:180 118:318 119:158 120:306 121:147 122:281 123:182 124:275 125:199 126:277 127:215 128:276 129:254 130:284 131:216 132:299 133:198 134:301 135:181 136:298 
3.108375924105105e-10 2.872914502860111e-11 0 5.080719526860412e-11 1:93 2:129 3:95 4:167 5:103 6:207 7:111 8:244 9:123 10:280 11:135 12:316 13:150 14:349 15:172 16:373 17:203 18:378 19:238 20:373 21:270 22:350 23:298 24:318 25:321 26:283 27:335 28:242 29:341 30:199 31:345 32:155 33:347 34:113 35:97 36:110 37:115 38:97 39:138 40:98 41:162 42:108 43:184 44:119 45:206 46:120 47:232 48:106 49:261 50:98 51:290 52:100 53:312 54:116 55:196 56:140 57:194 58:163 59:192 60:187 61:190 62:213 63:167 64:231 65:180 66:238 67:195 68:245 69:211 70:238 71:226 72:233 73:117 74:138 75:130 76:127 77:151 78:128 79:168 80:144 81:149 82:149 83:129 84:150 85:234 86:144 87:249 88:128 89:271 90:126 91:288 92:139 93:274 94:148 95:252 96:148 97:158 98:298 99:172 100:283 101:187 102:275 103:198 104:278 105:212 106:275 107:230 108:283 109:247 110:297 111:229 112:307 113:213 114:314 115:198 116:316 117:185 118:315 119:171 120:308 121:165 122:297 123:187 124:292 125:199 126:293 127:213 128:292 129:237 130:296 131:211 132:293 133:198 134:295 135:186 136:294 
3.143275902981375e-11 3.855674096531241e-10 0 6.420296314642029e-10 1:22 2:143 3:20 4:186 5:21 6:231 7:24 8:274 9:41 10:308 11:73 12:334 13:112 14:353 15:157 16:362 17:194 18:364 19:222 20:353 21:240 22:328 23:255 24:301 25:268 26:274 27:281 28:244 29:291 30:213 31:296 32:183 33:294 34:152 35:85 36:114 37:113 38:105 39:143 40:104 41:172 42:110 43:200 44:121 45:245 46:119 47:258 48:107 49:270 50:99 51:284 52:95 53:295 54:102 55:220 56:148 57:224 58:172 59:229 60:196 61:234 62:220 63:195 64:235 65:209 66:240 67:221 68:245 69:232 70:241 71:241 72:233 73:117 74:140 75:136 76:132 77:156 78:133 79:169 80:147 81:153 82:150 83:134 84:149 85:239 86:148 87:253 88:131 89:269 90:129 91:279 92:137 93:271 94:147 95:255 96:150 97:146 98:279 99:178 100:270 101:203 102:264 103:217 104:267 105:229 106:264 107:240 108:270 109:248 110:279 111:235 112:293 113:222 114:301 115:208 116:303 117:193 118:301 119:171 120:295 121:157 122:279 123:201 124:277 125:215 126:278 127:227 128:277 129:240 130:280 131:224 132:281 133:211 134:283 135:198 136:283 
1.697293637723826e-10 0 0 0 1:62 2:127 3:62 4:167 5:68 6:208 7:80 8:247 9:97 10:279 11:120 12:309 13:146 14:333 15:175 16:352 17:212 18:358 19:246 20:351 21:274 22:333 23:299 24:307 25:316 26:278 27:326 28:245 29:331 30:207 31:334 32:171 33:335 34:134 35:87 36:113 37:108 38:100 39:135 40:103 41:160 42:109 43:186 44:116 45:214 46:118 47:240 48:110 49:266 50:105 51:293 52:105 53:314 54:118 55:199 56:136 57:200 58:160 59:201 60:184 61:202 62:209 63:173 64:227 65:187 66:232 67:202 68:236 69:217 70:231 71:230 72:226 73:118 74:132 75:131 76:121 77:151 78:122 79:166 80:137 81:150 82:142 83:130 84:141 85:234 86:140 87:250 88:125 89:269 90:126 91:283 92:139 93:270 94:146 95:250 96:145 97:157 98:275 99:175 100:272 101:190 102:271 103:201 104:273 105:212 106:270 107:229 108:272 109:249 110:273 111:231 112:284 113:214 114:287 115:203 116:288 117:191 118:287 119:176 120:285 121:163 122:275 123:191 124:277 125:201 126:279 127:212 128:277 129:243 130:274 131:213 132:274 133:202 134:275 135:191 136:274 
0 3.084373550377112e-11 0 3.729713225807067e-10 1:90 2:159 3:92 4:190 5:103 6:225 7:123 8:260 9:140 10:292 11:157 12:327 13:175 14:359 15:193 16:390 17:226 18:399 19:269 20:390 21:309 22:362 23:345 24:328 25:377 26:290 27:395 28:251 29:401 30:201 31:399 32:152 33:394 34:103 35:67 36:91 37:75 38:75 39:92 40:74 41:112 42:79 43:133 44:91 45:190 46:80 47:218 48:61 49:251 50:53 51:286 52:55 53:317 54:70 55:159 56:136 57:157 58:167 59:152 60:197 61:148 62:227 63:142 64:249 65:153 66:255 67:169 68:258 69:187 70:251 71:209 72:244 73:95 74:137 75:103 76:121 77:123 78:123 79:143 80:142 81:122 82:149 83:102 84:149 85:224 86:137 87:240 88:114 89:266 90:111 91:287 92:127 93:269 94:142 95:243 96:145 97:166 98:302 99:165 100:289 101:174 102:281 103:184 104:283 105:197 106:278 107:228 108:285 109:262 110:299 111:239 112:319 113:211 114:330 115:197 116:331 117:185 118:329 119:174 120:319 121:172 122:302 123:177 124:298 125:187 126:298 127:200 128:298 129:250 130:300 131:205 132:305 133:192 134:305 135:182 136:304 
2.023970936176561e-10 0 0 0 1:55 2:144 3:56 4:185 5:62 6:227 7:69 8:269 9:84 10:307 11:108 12:342 13:138 14:368 15:174 16:387 17:220 18:388 19:262 20:377 21:291 22:350 23:312 24:319 25:324 26:278 27:330 28:236 29:331 30:199 31:331 32:161 33:327 34:121 35:83 36:128 37:101 38:112 39:130 40:113 41:156 42:120 43:182 44:131 45:220 46:133 47:242 48:122 49:266 50:115 51:291 52:113 53:311 54:122 55:203 56:146 57:207 58:179 59:210 60:212 61:215 62:245 63:182 64:259 65:196 66:264 67:211 68:267 69:225 70:263 71:238 72:259 73:116 74:137 75:131 76:129 77:151 78:130 79:164 80:143 81:148 82:148 83:129 84:147 85:234 86:143 87:248 88:131 89:267 90:130 91:280 92:139 93:268 94:148 95:250 96:148 97:159 98:309 99:184 100:308 101:201 102:301 103:214 104:305 105:225 106:300 107:235 108:303 109:248 110:301 111:235 112:295 113:226 114:297 115:214 116:299 117:201 118:299 119:186 120:302 121:167 122:308 123:200 124:313 125:214 126:314 127:225 128:311 129:240 130:302 131:225 132:282 133:214 134:285 135:201 136:285 
3.171506866946983e-10 6.91724125355989e-10 6.826274934051476e-10 8.71886248462133e-10 1:94 2:147 3:91 4:180 5:92 6:215 7:96 8:249 9:102 10:282 11:116 12:313 13:134 14:339 15:158 16:360 17:186 18:368 19:219 20:365 21:260 22:350 23:296 24:331 25:326 26:304 27:344 28:270 29:354 30:230 31:363 32:188 33:368 34:146 35:96 36:102 37:109 38:92 39:126 40:90 41:143 42:95 43:161 44:105 45:227 46:100 47:250 48:90 49:274 50:86 51:298 52:93 53:318 54:107 55:191 56:134 57:188 58:158 59:184 60:181 61:180 62:205 63:167 64:224 65:174 66:229 67:183 68:232 69:194 70:230 71:206 72:226 73:117 74:142 75:129 76:131 77:148 78:131 79:163 80:144 81:145 82:147 83:128 84:147 85:233 86:143 87:250 88:131 89:271 90:131 91:289 92:143 93:272 94:148 95:251 96:147 97:148 98:282 99:157 100:260 101:170 102:252 103:181 104:256 105:194 106:254 107:213 108:265 109:235 110:286 111:212 112:303 113:192 114:309 115:178 116:309 117:165 118:306 119:154 120:300 121:157 122:281 123:170 124:270 125:181 126:270 127:194 128:271 129:224 130:284 131:192 132:286 133:179 134:286 135:168 136:284 
0 0 5.128034310112564e-11 0 1:74 2:144 3:74 4:179 5:77 6:216 7:84 8:254 9:97 10:290 11:119 12:322 13:145 14:345 15:173 16:361 17:211 18:361 19:248 20:357 21:278 22:339 23:306 24:318 25:325 26:288 27:339 28:253 29:344 30:215 31:347 32:177 33:347 34:139 35:95 36:118 37:113 38:106 39:138 40:109 41:162 42:119 43:185 44:131 45:210 46:131 47:237 48:119 49:263 50:108 51:292 52:106 53:316 54:120 55:200 56:139 57:198 58:162 59:198 60:184 61:197 62:208 63:177 64:228 65:187 66:234 67:199 68:238 69:211 70:235 71:223 72:231 73:128 74:140 75:139 76:132 77:156 78:131 79:170 80:138 81:157 82:144 83:140 84:146 85:235 86:140 87:251 88:131 89:269 90:134 91:282 92:141 93:269 94:148 95:252 96:147 97:169 98:281 99:182 100:277 101:194 102:275 103:202 104:278 105:214 106:276 107:229 108:281 109:245 110:286 111:228 112:288 113:213 114:286 115:203 116:285 117:193 118:284 119:182 120:283 121:174 122:280 123:194 124:281 125:202 126:283 127:214 128:282 129:239 130:286 131:213 132:275 133:203 134:276 135:194 136:273 
2.033246980546621e-10 0 4.900049401101428e-11 1.83533586890558e-11 1:36 2:147 3:31 4:190 5:35 6:236 7:41 8:276 9:57 10:316 11:81 12:352 13:117 14:377 15:156 16:387 17:192 18:388 19:221 20:383 21:245 22:369 23:265 24:341 25:276 26:304 27:288 28:266 29:296 30:225 31:305 32:185 33:308 34:147 35:88 36:113 37:115 38:98 39:144 40:100 41:174 42:106 43:202 44:118 45:228 46:119 47:248 48:109 49:267 50:103 51:287 52:99 53:303 54:105 55:214 56:137 57:216 58:159 59:218 60:183 61:220 62:207 63:182 64:227 65:197 66:232 67:212 68:237 69:226 70:233 71:238 72:226 73:118 74:142 75:135 76:135 77:153 78:135 79:167 80:142 81:152 82:147 83:136 84:148 85:239 86:141 87:254 88:135 89:270 90:136 91:280 92:142 93:270 94:148 95:255 96:147 97:136 98:281 99:162 100:270 101:190 102:268 103:210 104:274 105:230 106:269 107:249 108:273 109:260 110:282 111:246 112:303 113:227 114:311 115:205 116:312 117:184 118:310 119:158 120:300 121:143 122:283 123:188 124:280 125:209 126:283 127:228 128:280 129:256 130:282 131:228 132:298 133:207 134:301 135:186 136:297 
4.584466906519757e-10 0 1.671388010529977e-10 6.266896404160932e-11 1:110 2:158 3:105 4:190 5:111 6:224 7:125 8:257 9:141 10:289 11:160 12:320 13:178 14:350 15:199 16:374 17:227 18:384 19:263 20:382 21:306 22:365 23:342 24:341 25:372 26:312 27:393 28:274 29:401 30:229 31:400 32:181 33:395 34:137 35:105 36:92 37:117 38:87 39:132 40:89 41:147 42:94 43:161 44:105 45:196 46:101 47:227 48:89 49:258 50:83 51:290 52:86 53:319 54:97 55:185 56:145 57:182 58:177 59:180 60:209 61:177 62:242 63:164 64:252 65:176 66:260 67:189 68:264 69:204 70:259 71:218 72:254 73:120 74:138 75:129 76:127 77:147 78:130 79:163 80:148 81:146 82:150 83:128 84:148 85:230 86:148 87:245 88:130 89:268 90:128 91:289 92:139 93:272 94:148 95:250 96:150 97:167 98:293 99:170 100:286 101:180 102:282 103:192 104:286 105:205 106:283 107:234 108:288 109:264 110:293 111:240 112:315 113:215 114:324 115:200 116:325 117:188 118:322 119:176 120:310 121:174 122:295 123:184 124:298 125:194 126:300 127:208 128:299 129:255 130:294 131:210 132:301 133:196 134:301 135:185 136:299 
3.593339247695016e-10 3.425861558723176e-10 5.826843679273294e-10 1.570270519249172e-09 1:9 2:130 3:12 4:175 5:19 6:221 7:33 8:263 9:62 10:295 11:97 12:323 13:132 14:349 15:169 16:367 17:202 18:366 19:227 20:354 21:245 22:326 23:265 24:300 25:283 26:273 27:298 28:243 29:308 30:212 31:309 32:181 33:304 34:149 35:77 36:99 37:101 38:85 39:130 40:79 41:161 42:83 43:190 44:95 45:241 46:99 47:259 48:89 49:278 50:84 51:294 52:87 53:302 54:102 55:215 56:141 57:219 58:169 59:224 60:197 61:230 62:224 63:189 64:241 65:204 66:245 67:220 68:249 69:232 70:245 71:243 72:239 73:112 74:139 75:131 76:128 77:151 78:130 79:168 80:147 81:150 82:149 83:129 84:147 85:236 86:148 87:250 88:130 89:269 90:128 91:282 92:138 93:271 94:148 95:252 96:149 97:140 98:274 99:172 100:269 101:199 102:267 103:215 104:269 105:228 106:265 107:241 108:265 109:250 110:267 111:241 112:280 113:229 114:288 115:215 116:291 117:198 118:291 119:172 120:286 121:149 122:274 123:199 124:277 125:215 126:278 127:228 128:275 129:243 130:270 131:229 132:271 133:215 134:275 135:199 136:275 
1 8.711101504301153e-11 0 0 1:98 2:154 3:92 4:187 5:91 6:221 7:96 8:257 9:103 10:288 11:116 12:316 13:135 14:336 15:161 16:348 17:192 18:355 19:234 20:361 21:283 22:362 23:322 24:349 25:350 26:325 27:369 28:292 29:379 30:250 31:386 32:206 33:389 34:165 35:106 36:93 37:121 38:82 39:139 40:83 41:156 42:87 43:172 44:97 45:210 46:93 47:239 48:81 49:270 50:77 51:300 52:84 53:325 54:99 55:186 56:136 57:179 58:159 59:172 60:180 61:164 62:202 63:157 64:229 65:165 66:232 67:173 68:234 69:184 70:233 71:196 72:232 73:119 74:142 75:131 76:129 77:151 78:130 79:166 80:148 81:148 82:151 83:129 84:149 85:232 86:146 87:249 88:128 89:272 90:128 91:291 92:141 93:274 94:149 95:252 96:149 97:146 98:289 99:150 100:269 101:162 102:260 103:172 104:264 105:184 106:262 107:209 108:274 109:237 110:291 111:212 112:310 113:189 114:313 115:176 116:313 117:165 118:311 119:153 120:306 121:152 122:288 123:164 124:277 125:174 126:277 127:185 128:278 129:227 130:290 131:186 132:290 133:175 134:289 135:165 136:288 
4.192724661842919e-11 8.869822641201833e-11 6.373941547172048e-11 2.251103506454121e-10 1:36 2:133 3:36 4:179 5:45 6:225 7:61 8:268 9:84 10:308 11:107 12:345 13:131 14:379 15:163 16:401 17:204 18:408 19:244 20:401 21:273 22:377 23:292 24:338 25:309 26:299 27:324 28:258 29:334 30:214 31:340 32:170 33:337 34:126 35:68 36:89 37:92 38:74 39:120 40:75 41:146 42:87 43:172 44:106 45:223 46:105 47:246 48:90 49:270 50:81 51:293 52:77 53:316 54:84 55:199 56:131 57:201 58:170 59:202 60:207 61:204 62:245 63:173 64:258 65:189 66:264 67:206 68:267 69:221 70:261 71:236 72:255 73:95 74:115 75:112 76:101 77:137 78:105 79:157 80:128 81:134 82:135 83:109 84:132 85:239 86:129 87:256 88:107 89:281 90:104 91:299 92:117 93:286 94:134 95:261 96:135 97:147 98:320 99:169 100:317 101:195 102:312 103:211 104:315 105:226 106:310 107:247 108:315 109:266 110:319 111:249 112:351 113:231 114:364 115:213 116:366 117:195 118:365 119:169 120:352 121:157 122:325 123:195 124:325 125:211 126:326 127:226 128:324 129:254 130:324 131:228 132:334 133:212 134:336 135:195 136:335 
1.109579278329288e-10 6.481712778402902e-11 0 3.974825868938521e-10 1:-28 2:149 3:-32 4:204 5:-31 6:260 7:-20 8:310 9:9 10:354 11:54 12:383 13:104 14:399 15:153 16:405 17:192 18:401 19:218 20:386 21:232 22:352 23:251 24:322 25:273 26:293 27:292 28:262 29:303 30:229 31:300 32:195 33:293 34:165 35:79 36:110 37:114 38:105 39:147 40:104 41:178 42:106 43:208 44:115 45:248 46:117 47:262 48:110 49:276 50:104 51:290 52:101 53:299 54:105 55:232 56:149 57:239 58:178 59:248 60:208 61:257 62:237 63:192 64:256 65:214 66:259 67:231 68:262 69:248 70:260 71:260 72:254 73:114 74:142 75:140 76:136 77:162 78:134 79:172 80:146 81:158 82:149 83:137 84:148 85:244 86:148 87:262 88:137 89:277 90:137 91:284 92:146 93:276 94:150 95:262 96:150 97:110 98:290 99:159 100:288 101:202 102:286 103:220 104:291 105:236 106:287 107:248 108:289 109:250 110:291 111:237 112:315 113:224 114:332 115:206 116:337 117:185 118:336 119:148 120:325 121:119 122:293 123:198 124:300 125:216 126:303 127:232 128:301 129:243 130:295 131:228 132:306 133:211 134:311 135:193 136:311 
0 1.338461192007071e-10 5.932351177387476e-10 1.888874004230767e-10 1:61 2:123 3:60 4:162 5:65 6:203 7:77 8:242 9:95 10:275 11:118 12:306 13:144 14:332 15:175 16:352 17:213 18:359 19:247 20:351 21:275 22:330 23:299 24:302 25:317 26:272 27:329 28:239 29:335 30:202 31:336 32:168 33:336 34:135 35:83 36:108 37:105 38:95 39:134 40:99 41:160 42:110 43:186 44:118 45:218 46:121 47:244 48:112 49:270 50:104 51:297 52:103 53:318 54:115 55:201 56:137 57:202 58:161 59:203 60:185 61:205 62:210 63:173 64:227 65:187 66:233 67:203 68:237 69:218 70:231 71:231 72:226 73:115 74:127 75:130 76:120 77:151 78:122 79:166 80:137 81:148 82:140 83:128 84:138 85:235 86:140 87:252 88:126 89:271 90:126 91:285 92:137 93:272 94:144 95:252 96:144 97:153 98:274 99:174 100:274 101:192 102:274 103:203 104:276 105:214 106:274 107:231 108:274 109:251 110:273 111:232 112:286 113:215 114:287 115:203 116:288 117:191 118:287 119:174 120:287 121:160 122:275 123:191 124:278 125:202 126:280 127:214 128:278 129:244 130:273 131:214 132:275 133:203 134:276 135:192 136:276 
0 0 8.679813680204078e-11 0 1:58 2:151 3:63 4:189 5:70 6:226 7:83 8:264 9:104 10:295 11:129 12:325 13:155 14:344 15:187 16:355 17:221 18:353 19:255 20:347 21:284 22:328 23:310 24:306 25:329 26:279 27:340 28:246 29:343 30:207 31:344 32:171 33:341 34:134 35:80 36:112 37:100 38:98 39:125 40:95 41:150 42:98 43:174 44:107 45:203 46:106 47:227 48:97 49:254 50:93 51:281 52:99 53:302 54:114 55:192 56:133 57:193 58:153 59:193 60:174 61:195 62:195 63:174 64:223 65:186 66:225 67:199 68:228 69:211 70:224 71:223 72:220 73:109 74:141 75:120 76:134 77:139 78:133 79:155 80:142 81:139 82:151 83:121 84:151 85:231 86:139 87:244 88:129 89:264 90:131 91:276 92:138 93:263 94:147 95:245 96:146 97:168 98:294 99:180 100:275 101:192 102:261 103:202 104:265 105:213 106:260 107:226 108:272 109:242 110:291 111:228 112:287 113:217 114:287 115:206 116:289 117:195 118:289 119:183 120:292 121:176 122:290 123:194 124:279 125:204 126:278 127:214 128:279 129:230 130:288 131:215 132:269 133:204 134:270 135:195 136:270 
0 3.58630776534833e-10 7.867836248015974e-10 2.741329203747978e-10 1:91 2:141 3:92 4:173 5:99 6:203 7:107 8:233 9:118 10:262 11:133 12:290 13:153 14:314 15:178 16:334 17:209 18:339 19:241 20:336 21:271 22:321 23:295 24:300 25:313 26:273 27:325 28:243 29:332 30:209 31:336 32:174 33:335 34:139 35:98 36:112 37:109 38:97 39:129 40:93 41:151 42:96 43:170 44:106 45:216 46:106 47:239 48:96 49:264 50:92 51:287 52:95 53:308 54:107 55:193 56:138 57:193 58:160 59:192 60:182 61:192 62:205 63:172 64:221 65:184 66:226 67:196 68:230 69:210 70:225 71:224 72:221 73:120 74:140 75:133 76:131 77:150 78:133 79:164 80:146 81:149 82:147 83:132 84:146 85:236 86:146 87:251 88:132 89:269 90:131 91:284 92:141 93:270 94:146 95:253 96:147 97:157 98:254 99:172 100:248 101:186 102:245 103:201 104:249 105:216 106:245 107:238 108:247 109:264 110:250 111:240 112:267 113:218 114:275 115:202 116:277 117:187 118:275 119:173 120:269 121:164 122:256 123:186 124:259 125:201 126:260 127:216 128:258 129:256 130:251 131:217 132:259 133:202 134:261 135:186 136:259 
3.114164277552141e-10 2.501590702058905e-10 6.684020852580608e-10 1.101384161955818e-09 1:50 2:144 3:53 4:181 5:58 6:218 7:64 8:254 9:76 10:290 11:95 12:323 13:122 14:350 15:158 16:368 17:196 18:374 19:231 20:367 21:256 22:345 23:277 24:315 25:294 26:281 27:307 28:246 29:315 30:213 31:323 32:178 33:325 34:142 35:75 36:119 37:97 38:98 39:130 40:91 41:162 42:95 43:190 44:108 45:218 46:109 47:243 48:97 49:271 50:91 51:298 52:97 53:312 54:119 55:205 56:136 57:206 58:163 59:208 60:187 61:210 62:214 63:169 64:228 65:187 66:232 67:205 68:236 69:221 70:232 71:236 72:226 73:110 74:144 75:126 76:136 77:144 78:136 79:160 80:147 81:143 82:150 83:125 84:150 85:234 86:147 87:250 88:136 89:268 90:135 91:284 92:143 93:270 94:150 95:251 96:151 97:136 98:279 99:162 100:271 101:184 102:264 103:200 104:269 105:213 106:264 107:230 108:269 109:248 110:276 111:231 112:289 113:214 114:297 115:199 116:299 117:183 118:298 119:160 120:293 121:146 122:280 123:184 124:279 125:200 126:279 127:213 128:277 129:239 130:278 131:213 132:281 133:200 134:283 135:184 136:282 
0 9.993665249404926e-11 1.930501677334269e-10 2.096337058392673e-11 1:47 2:159 3:52 4:200 5:58 6:239 7:64 8:277 9:77 10:310 11:99 12:337 13:130 14:355 15:166 16:367 17:205 18:370 19:244 20:367 21:276 22:354 23:302 24:332 25:319 26:303 27:330 28:271 29:335 30:235 31:340 32:199 33:343 34:163 35:87 36:117 37:103 38:96 39:129 40:85 41:157 42:85 43:183 44:97 45:221 46:100 47:246 48:89 49:273 50:89 51:297 52:99 53:309 54:121 55:204 56:132 57:205 58:155 59:205 60:178 61:206 62:202 63:176 64:225 65:189 66:229 67:203 68:233 69:217 70:230 71:229 72:226 73:120 74:142 75:133 76:131 77:150 78:130 79:164 80:142 81:149 82:146 83:132 84:146 85:238 86:143 87:251 88:132 89:268 90:133 91:282 92:144 93:269 94:148 95:252 96:147 97:147 98:284 99:170 100:276 101:190 102:271 103:205 104:275 105:220 106:271 107:237 108:274 109:256 110:281 111:239 112:289 113:222 114:292 115:207 116:294 117:191 118:293 119:171 120:290 121:153 122:283 123:190 124:281 125:205 126:283 127:221 128:281 129:250 130:281 131:221 132:281 133:206 134:283 135:191 136:282 
4.827683848348557e-10 2.140233632577654e-10 4.073708025707247e-10 2.092488072980544e-10 1:49 2:138 3:50 4:176 5:51 6:214 7:56 8:252 9:72 10:286 11:97 12:316 13:125 14:342 15:160 16:366 17:193 18:372 19:224 20:364 21:250 22:335 23:274 24:308 25:298 26:280 27:312 28:248 29:318 30:214 31:320 32:180 33:322 34:146 35:83 36:115 37:101 38:103 39:124 40:94 41:151 42:93 43:177 44:104 45:237 46:105 47:258 48:96 49:281 50:95 51:301 52:102 53:314 54:117 55:206 56:138 57:207 58:167 59:208 60:195 61:209 62:221 63:176 64:229 65:190 66:235 67:205 68:243 69:219 70:237 71:230 72:230 73:117 74:141 75:134 76:132 77:152 78:133 79:168 80:145 81:151 82:146 83:133 84:146 85:235 86:144 87:251 88:133 89:270 90:133 91:285 92:142 93:271 94:146 95:253 96:146 97:124 98:255 99:153 100:253 101:180 102:254 103:198 104:258 105:215 106:254 107:235 108:253 109:255 110:255 111:237 112:293 113:215 114:308 115:196 116:309 117:177 118:306 119:150 120:291 121:134 122:258 123:179 124:264 125:198 126:267 127:215 128:264 129:246 130:260 131:215 132:288 133:197 134:290 135:178 136:288 
4.291985203107894e-10 4.403847613390914e-10 2.032358178254794e-10 0 1:89 2:153 3:89 4:183 5:91 6:212 7:95 8:241 9:102 10:269 11:112 12:297 13:128 14:321 15:150 16:337 17:183 18:341 19:221 20:339 21:256 22:328 23:283 24:312 25:305 26:289 27:322 28:264 29:331 30:234 31:337 32:204 33:341 34:172 35:100 36:120 37:115 38:103 39:137 40:98 41:161 42:98 43:184 44:104 45:207 46:103 47:234 48:97 49:261 50:97 51:287 52:101 53:308 54:117 55:194 56:126 57:188 58:144 59:183 60:162 61:178 62:180 63:164 64:204 65:172 66:208 67:182 68:211 69:195 70:209 71:208 72:207 73:120 74:145 75:131 76:130 77:149 78:129 79:162 80:144 81:149 82:148 83:131 84:149 85:239 86:144 87:253 88:128 89:272 90:128 91:284 92:142 93:273 94:149 95:255 96:148 97:150 98:260 99:160 100:243 101:174 102:234 103:183 104:237 105:194 106:236 107:210 108:249 109:230 110:268 111:207 112:271 113:190 114:270 115:180 116:269 117:171 118:267 119:158 120:263 121:156 122:257 123:174 124:252 125:183 126:253 127:193 128:254 129:222 130:266 131:191 132:250 133:181 134:250 135:172 136:249 
0 0 3.522105893493408e-11 0 1:42 2:111 3:43 4:155 5:46 6:198 7:54 8:240 9:74 10:275 11:102 12:305 13:129 14:333 15:158 16:360 17:193 18:365 19:225 20:358 21:245 22:332 23:266 24:305 25:290 26:272 27:307 28:237 29:319 30:199 31:327 32:157 33:328 34:117 35:92 36:109 37:114 38:98 39:141 40:103 41:166 42:110 43:190 44:121 45:212 46:120 47:235 48:112 49:258 50:102 51:284 52:97 53:304 54:106 55:201 56:137 57:203 58:165 59:205 60:193 61:207 62:222 63:173 64:234 65:188 66:237 67:203 68:242 69:217 70:237 71:231 72:232 73:120 74:139 75:135 76:140 77:150 78:137 79:163 80:139 81:149 82:142 83:135 84:143 85:234 86:139 87:249 88:137 89:264 90:138 91:279 92:138 93:264 94:142 95:250 96:142 97:147 98:270 99:168 100:268 101:189 102:263 103:203 104:268 105:216 106:263 107:233 108:266 109:250 110:269 111:233 112:288 113:216 114:298 115:202 116:300 117:187 118:299 119:167 120:289 121:154 122:272 123:189 124:277 125:203 126:278 127:216 128:277 129:243 130:272 131:215 132:275 133:202 134:278 135:188 136:276 
1.862382930525084e-10 4.277920597812001e-11 6.534304459369895e-11 1.695926865095976e-10 1:-17 2:95 3:-24 4:144 5:-26 6:198 7:-21 8:253 9:-1 10:301 11:33 12:341 13:71 14:374 15:112 16:399 17:152 18:405 19:183 20:398 21:203 22:370 23:221 24:335 25:241 26:300 27:263 28:266 29:284 30:228 31:294 32:188 33:296 34:150 35:72 36:88 37:103 38:72 39:141 40:71 41:176 42:84 43:210 44:104 45:245 46:108 47:263 48:92 49:284 50:83 51:303 52:79 53:316 54:94 55:219 56:144 57:222 58:176 59:226 60:208 61:230 62:240 63:177 64:256 65:195 66:262 67:212 68:269 69:229 70:265 71:244 72:257 73:109 74:135 75:132 76:130 77:154 78:132 79:170 80:145 81:149 82:150 83:127 84:148 85:237 86:144 87:253 88:132 89:272 90:131 91:282 92:138 93:272 94:148 95:254 96:148 97:124 98:311 99:160 100:306 101:190 102:301 103:203 104:306 105:213 106:300 107:221 108:303 109:218 110:308 111:211 112:329 113:203 114:345 115:191 116:349 117:176 118:349 119:151 120:337 121:135 122:313 123:185 124:320 125:199 126:320 127:209 128:317 129:213 130:312 131:207 132:317 133:197 134:323 135:184 136:322 
0 0 9.361606443766662e-11 0 1:19 2:120 3:24 4:167 5:27 6:214 7:38 8:258 9:57 10:299 11:86 12:335 13:123 14:366 15:162 16:391 17:201 18:396 19:237 20:388 21:264 22:357 23:288 24:322 25:312 26:287 27:331 28:249 29:340 30:208 31:341 32:165 33:339 34:122 35:86 36:109 37:109 38:92 39:137 40:88 41:167 42:97 43:192 44:111 45:221 46:110 47:241 48:98 49:263 50:88 51:286 52:90 53:298 54:107 55:208 56:136 57:212 58:161 59:215 60:186 61:220 62:213 63:176 64:226 65:195 66:232 67:214 68:239 69:229 70:233 71:242 72:225 73:113 74:142 75:131 76:133 77:150 78:132 79:165 80:144 81:149 82:148 83:130 84:148 85:233 86:146 87:249 88:134 89:266 90:132 91:281 92:140 93:268 94:147 95:251 96:148 97:132 98:270 99:163 100:262 101:192 102:258 103:212 104:259 105:229 106:256 107:250 108:260 109:265 110:268 111:251 112:309 113:231 114:327 115:211 116:332 117:190 118:330 119:160 120:312 121:141 122:273 123:192 124:272 125:212 126:273 127:229 128:271 129:254 130:272 131:229 132:299 133:211 134:303 135:191 136:302 
0 0 0 1.61594133014757e-10 1:78 2:122 3:77 4:160 5:82 6:198 7:91 8:235 9:103 10:272 11:120 12:307 13:138 14:340 15:159 16:372 17:191 18:381 19:227 20:380 21:259 22:354 23:288 24:322 25:313 26:286 27:331 28:247 29:339 30:205 31:344 32:160 33:346 34:117 35:92 36:118 37:105 38:95 39:131 40:91 41:158 42:99 43:181 44:113 45:208 46:110 47:237 48:95 49:267 50:85 51:297 52:89 53:314 54:113 55:195 56:141 57:193 58:167 59:191 60:192 61:189 62:219 63:163 64:230 65:176 66:237 67:190 68:243 69:207 70:238 71:222 72:233 73:118 74:139 75:133 76:130 77:153 78:131 79:165 80:147 81:150 82:150 83:131 84:149 85:235 86:148 87:250 88:133 89:271 90:129 91:284 92:141 93:274 94:150 95:254 96:152 97:147 98:282 99:158 100:270 101:177 102:266 103:192 104:270 105:211 106:267 107:234 108:272 109:255 110:286 111:235 112:315 113:212 114:329 115:193 116:330 117:176 118:328 119:158 120:313 121:155 122:283 123:177 124:275 125:192 126:276 127:211 128:276 129:247 130:287 131:211 132:312 133:193 134:313 135:177 136:310 
1.211083504843601e-10 0 0 1.160395969514647e-11 1:33 2:156 3:37 4:202 5:43 6:246 7:53 8:286 9:74 10:319 11:106 12:344 13:140 14:363 15:179 16:375 17:216 18:374 19:249 20:365 21:272 22:341 23:291 24:315 25:305 26:287 27:312 28:255 29:316 30:222 31:321 32:189 33:323 34:155 35:87 36:122 37:111 38:102 39:142 40:92 41:174 42:95 43:203 44:106 45:231 46:107 47:255 48:101 49:280 50:99 51:302 52:106 53:314 54:125 55:218 56:133 57:220 58:157 59:224 60:182 61:227 62:207 63:189 64:231 65:205 66:235 67:221 68:238 69:235 70:233 71:246 72:227 73:116 74:146 75:133 76:136 77:151 78:135 79:168 80:146 81:151 82:150 83:133 84:150 85:241 86:146 87:257 88:135 89:275 90:134 91:287 92:144 93:275 94:149 95:258 96:149 97:154 98:286 99:180 100:270 101:205 102:262 103:220 104:266 105:233 106:260 107:247 108:266 109:258 110:281 111:247 112:288 113:233 114:292 115:219 116:293 117:205 118:293 119:181 120:293 121:165 122:283 123:205 124:274 125:220 126:274 127:233 128:272 129:252 130:277 131:233 132:276 133:220 134:279 135:205 136:279 
0 0 0 3.147003157549365e-10 1:97 2:155 3:86 4:190 5:81 6:225 7:86 8:262 9:95 10:298 11:108 12:334 13:122 14:366 15:141 16:393 17:171 18:402 19:214 20:400 21:262 22:385 23:308 24:366 25:351 26:342 27:383 28:309 29:397 30:266 31:404 32:219 33:409 34:172 35:104 36:103 37:113 38:87 39:129 40:80 41:150 42:80 43:168 44:92 45:204 46:88 47:240 48:80 49:275 50:80 51:309 52:91 53:334 54:112 55:181 56:136 57:172 58:155 59:162 60:174 61:151 62:193 63:142 64:225 65:152 66:229 67:162 68:232 69:176 70:231 71:193 72:230 73:121 74:147 75:131 76:138 77:146 78:137 79:161 80:145 81:145 82:146 83:131 84:146 85:235 86:143 87:251 88:136 89:269 90:138 91:288 92:147 93:268 94:147 95:250 96:145 97:131 98:298 99:130 100:275 101:145 102:261 103:157 104:266 105:170 106:262 107:197 108:276 109:223 110:300 111:199 112:320 113:175 114:328 115:160 116:329 117:147 118:328 119:133 120:317 121:138 122:296 123:148 124:281 125:159 126:281 127:172 128:281 129:211 130:298 131:173 132:303 133:159 134:303 135:148 136:302 
1.156182713412607e-10 2.585934021850001e-10 7.229724397032988e-11 0 1:83 2:129 3:86 4:161 5:95 6:193 7:102 8:225 9:110 10:257 11:126 12:286 13:149 14:312 15:178 16:331 17:211 18:337 19:243 20:331 21:274 22:313 23:298 24:287 25:314 26:256 27:322 28:224 29:329 30:192 31:335 32:161 33:335 34:126 35:95 36:106 37:113 38:97 39:133 40:100 41:154 42:107 43:174 44:117 45:204 46:118 47:230 48:109 49:256 50:101 51:283 52:97 53:310 54:104 55:194 56:136 57:195 58:155 59:195 60:176 61:195 62:197 63:180 64:216 65:190 66:220 67:201 68:223 69:212 70:220 71:223 72:216 73:116 74:138 75:130 76:131 77:150 78:133 79:166 80:146 81:148 82:150 83:129 84:149 85:234 86:145 87:249 88:133 89:268 90:131 91:285 92:139 93:271 94:148 95:252 96:149 97:159 98:266 99:174 100:250 101:191 102:243 103:204 104:245 105:215 106:242 107:233 108:248 109:253 110:261 111:234 112:280 113:217 114:288 115:204 116:291 117:191 118:289 119:174 120:283 121:165 122:265 123:192 124:255 125:204 126:256 127:216 128:255 129:245 130:261 131:216 132:269 133:203 134:271 135:191 136:270 
0 0 0 2.28726149739275e-10 1:86 2:153 3:88 4:188 5:96 6:224 7:107 8:256 9:123 10:287 11:143 12:313 13:162 14:333 15:190 16:347 17:225 18:349 19:258 20:345 21:288 22:332 23:312 24:311 25:334 26:283 27:347 28:250 29:352 30:209 31:350 32:168 33:344 34:129 35:91 36:114 37:103 38:98 39:124 40:92 41:147 42:95 43:166 44:106 45:216 46:103 47:237 48:89 49:261 50:82 51:285 52:83 53:306 54:95 55:199 56:133 57:201 58:165 59:203 60:196 61:204 62:228 63:179 64:238 65:193 66:244 67:208 68:247 69:222 70:242 71:235 72:236 73:121 74:141 75:134 76:132 77:151 78:132 79:167 80:142 81:151 82:146 83:135 84:145 85:238 86:137 87:253 88:126 89:270 90:125 91:286 92:132 93:272 94:138 95:255 96:140 97:165 98:277 99:182 100:272 101:195 102:270 103:209 104:273 105:223 106:270 107:240 108:271 109:262 110:270 111:242 112:277 113:226 114:283 115:211 116:285 117:197 118:284 119:183 120:280 121:170 122:277 123:196 124:279 125:210 126:280 127:225 128:278 129:254 130:271 131:223 132:270 133:208 134:272 135:196 136:270 
2.783465855761254e-10 2.396574125127005e-10 3.462506961753435e-10 4.838660931697853e-10 1:65 2:138 3:64 4:171 5:65 6:205 7:74 8:242 9:87 10:275 11:106 12:308 13:130 14:336 15:158 16:358 17:192 18:368 19:226 20:367 21:256 22:350 23:281 24:326 25:305 26:300 27:327 28:269 29:341 30:232 31:347 32:193 33:349 34:157 35:93 36:106 37:109 38:83 39:135 40:73 41:163 42:74 43:190 44:85 45:228 46:89 47:255 48:81 49:281 50:83 51:303 52:93 53:319 54:111 55:207 56:131 57:207 58:153 59:207 60:176 61:207 62:199 63:178 64:232 65:192 66:236 67:205 68:238 69:218 70:236 71:232 72:235 73:119 74:139 75:132 76:127 77:153 78:127 79:168 80:141 81:152 82:151 83:131 84:151 85:246 86:145 87:262 88:133 89:282 90:134 91:297 92:147 93:284 94:156 95:264 96:156 97:165 98:299 99:184 100:290 101:198 102:283 103:208 104:288 105:218 106:286 107:232 108:295 109:249 110:310 111:228 112:308 113:214 114:310 115:203 116:309 117:193 118:307 119:180 120:304 121:175 122:299 123:196 124:300 125:206 126:302 127:217 128:302 129:239 130:309 131:215 132:290 133:205 134:289 135:195 136:287 
6.986327032772272e-11 2.695651019099024e-11 1.874375577474257e-10 2.404327524527657e-10 1:47 2:147 3:40 4:182 5:38 6:218 7:42 8:255 9:52 10:296 11:68 12:336 13:94 14:366 15:127 16:387 17:168 18:399 19:215 20:400 21:265 22:394 23:312 24:380 25:348 26:352 27:370 28:313 29:380 30:268 31:388 32:223 33:393 34:181 35:91 36:92 37:104 38:68 39:129 40:53 41:157 42:53 43:180 44:65 45:228 46:70 47:261 48:61 49:295 50:66 51:325 52:86 53:343 54:115 55:201 56:117 57:195 58:139 59:189 60:160 61:182 62:183 63:157 64:220 65:170 66:227 67:184 68:232 69:200 70:229 71:217 72:225 73:119 74:129 75:134 76:117 77:152 78:116 79:169 80:131 81:152 82:133 83:135 84:133 85:247 86:137 87:267 88:123 89:287 90:125 91:305 92:139 93:286 94:142 95:266 96:141 97:136 98:269 99:154 100:260 101:170 102:256 103:179 104:262 105:192 106:261 107:215 108:274 109:241 110:294 111:213 112:303 113:190 114:304 115:177 116:302 117:166 118:297 119:151 120:285 121:145 122:269 123:171 124:275 125:179 126:279 127:192 128:281 129:231 130:291 131:190 132:283 133:177 134:281 135:168 136:276 
0 2.285198716034434e-11 3.376991532711345e-10 1.283452539166498e-09 1:68 2:123 3:73 4:160 5:79 6:196 7:86 8:231 9:101 10:262 11:121 12:293 13:144 14:318 15:172 16:340 17:205 18:345 19:234 20:339 21:261 22:319 23:282 24:294 25:301 26:266 27:318 28:235 29:327 30:200 31:332 32:165 33:336 34:130 35:94 36:118 37:113 38:104 39:138 40:103 41:163 42:110 43:187 44:121 45:215 46:120 47:241 48:110 49:265 50:103 51:291 52:101 53:311 54:113 55:204 56:137 57:205 58:161 59:206 60:187 61:206 62:212 63:179 64:225 65:192 66:229 67:205 68:233 69:218 70:228 71:231 72:223 73:123 74:141 75:137 76:139 77:153 78:139 79:167 80:141 81:152 82:146 83:137 84:147 85:240 86:140 87:253 88:137 89:267 90:138 91:280 92:139 93:267 94:144 95:253 96:144 97:163 98:272 99:179 100:263 101:196 102:257 103:206 104:261 105:217 106:257 107:233 108:264 109:244 110:273 111:233 112:284 113:217 114:290 115:205 116:290 117:194 118:289 119:179 120:283 121:172 122:272 123:195 124:269 125:205 126:270 127:216 128:269 129:237 130:272 131:216 132:270 133:205 134:273 135:194 136:270 
0 2.886050895269706e-10 0 1.427329477882484e-11 1:102 2:150 3:97 4:179 5:98 6:208 7:104 8:237 9:113 10:266 11:126 12:295 13:143 14:321 15:166 16:343 17:196 18:352 19:233 20:350 21:270 22:339 23:302 24:322 25:327 26:300 27:347 28:272 29:359 30:239 31:364 32:202 33:365 34:167 35:108 36:104 37:119 38:93 39:136 40:91 41:155 42:92 43:172 44:100 45:208 46:98 47:234 48:88 49:263 50:87 51:290 52:93 53:313 54:107 55:188 56:134 57:184 58:156 59:180 60:178 61:175 62:201 63:165 64:226 65:174 66:231 67:183 68:235 69:195 70:232 71:208 72:228 73:120 74:143 75:130 76:132 77:147 78:132 79:161 80:145 81:147 82:148 83:130 84:148 85:234 86:143 87:250 88:130 89:270 90:130 91:287 92:141 93:270 94:147 95:251 96:147 97:152 98:274 99:157 100:257 101:170 102:248 103:181 104:251 105:193 106:249 107:214 108:259 109:236 110:278 111:216 112:291 113:196 114:298 115:183 116:298 117:172 118:296 119:159 120:289 121:159 122:272 123:172 124:267 125:182 126:268 127:194 128:268 129:227 130:275 131:194 132:275 133:182 134:275 135:172 136:274 
7.131803822366825e-11 0 0 3.22036568000577e-10 1:-22 2:154 3:-14 4:206 5:-5 6:260 7:10 8:313 9:41 10:358 11:89 12:386 13:151 14:400 15:209 16:409 17:256 18:408 19:287 20:398 21:296 22:363 23:299 24:323 25:298 26:281 27:299 28:242 29:302 30:206 31:296 32:172 33:284 34:142 35:83 36:110 37:111 38:88 39:146 40:80 41:182 42:84 43:212 44:97 45:232 46:101 47:248 48:93 49:267 50:90 51:282 52:95 53:289 54:111 55:230 56:138 57:243 58:158 59:258 60:178 61:274 62:199 63:218 64:237 65:238 66:239 67:255 68:241 69:267 70:237 71:276 72:230 73:116 74:142 75:136 76:131 77:154 78:131 79:172 80:144 81:155 82:146 83:136 84:147 85:239 86:144 87:253 88:134 89:268 90:135 91:276 92:145 93:268 94:150 95:254 96:149 97:199 98:313 99:227 100:287 101:250 102:276 103:263 104:281 105:275 106:275 107:284 108:287 109:279 110:310 111:282 112:321 113:276 114:328 115:264 116:328 117:250 118:327 119:229 120:323 121:209 122:309 123:249 124:293 125:262 126:294 127:273 128:293 129:273 130:307 131:274 132:307 133:263 134:308 135:250 136:307 
9.463149741629051e-11 3.356500600300889e-11 0 0 1:95 2:163 3:94 4:202 5:98 6:239 7:106 8:276 9:120 10:308 11:137 12:337 13:157 14:354 15:184 16:362 17:218 18:361 19:255 20:355 21:291 22:344 23:327 24:327 25:352 26:300 27:368 28:267 29:376 30:224 31:376 32:183 33:376 34:141 35:97 36:109 37:106 38:87 39:128 40:79 41:153 42:81 43:178 44:87 45:203 46:82 47:233 48:72 49:266 50:70 51:296 52:80 53:316 54:104 55:192 56:119 57:189 58:139 59:186 60:158 61:183 62:178 63:166 64:212 65:178 66:215 67:192 68:215 69:209 70:210 71:225 72:205 73:116 74:144 75:130 76:135 77:148 78:132 79:162 80:137 81:147 82:145 83:132 84:147 85:237 86:134 87:255 88:127 89:274 90:130 91:288 92:139 93:273 94:144 95:255 96:141 97:171 98:292 99:180 100:269 101:190 102:258 103:198 104:261 105:209 106:258 107:225 108:268 109:246 110:289 111:225 112:281 113:211 114:278 115:200 116:277 117:191 118:278 119:184 120:285 121:179 122:287 123:190 124:276 125:198 126:276 127:210 128:276 129:235 130:284 131:210 132:258 133:199 134:260 135:191 136:260 
2.194266488615175e-10 5.773231783492588e-11 8.764865053339045e-11 3.420423637626361e-10 1:19 2:82 3:15 4:127 5:14 6:173 7:21 8:215 9:40 10:252 11:71 12:286 13:106 14:312 15:140 16:339 17:181 18:346 19:219 20:339 21:253 22:308 23:287 24:277 25:319 26:243 27:339 28:201 29:349 30:155 31:352 32:110 33:352 34:69 35:74 36:94 37:103 38:92 39:131 40:97 41:157 42:105 43:182 44:115 45:228 46:112 47:245 48:98 49:265 50:88 51:286 52:77 53:310 54:72 55:204 56:139 57:205 58:166 59:207 60:193 61:208 62:221 63:178 64:234 65:190 66:239 67:203 68:244 69:216 70:239 71:227 72:233 73:106 74:137 75:125 76:132 77:148 78:131 79:164 80:144 81:146 82:149 83:124 84:148 85:235 86:135 87:250 88:121 89:270 90:117 91:285 92:122 93:272 94:136 95:252 96:138 97:142 98:266 99:169 100:269 101:192 102:266 103:200 104:270 105:209 106:267 107:227 108:268 109:246 110:264 111:225 112:287 113:206 114:298 115:196 116:300 117:185 118:298 119:166 120:289 121:152 122:270 123:191 124:278 125:200 126:281 127:209 128:279 129:238 130:268 131:206 132:277 133:197 134:279 135:188 136:277 
7.352860673208894e-10 7.865754658619292e-10 4.245503468893878e-10 5.448824576709304e-10 1:44 2:140 3:49 4:178 5:57 6:214 7:67 8:249 9:82 10:281 11:107 12:307 13:137 14:329 15:171 16:347 17:207 18:351 19:241 20:343 21:267 22:321 23:287 24:296 25:302 26:266 27:311 28:234 29:317 30:200 31:322 32:167 33:322 34:133 35:86 36:108 37:105 38:89 39:132 40:84 41:158 42:91 43:183 44:102 45:224 46:101 47:245 48:88 49:267 50:82 51:290 52:86 53:305 54:105 55:203 56:134 57:205 58:160 59:206 60:187 61:207 62:213 63:182 64:228 65:194 66:233 67:207 68:236 69:218 70:233 71:229 72:227 73:118 74:140 75:132 76:130 77:150 78:131 79:163 80:144 81:149 82:148 83:131 84:147 85:238 86:144 87:253 88:132 89:269 90:130 91:281 92:138 93:271 94:146 95:254 96:147 97:162 98:273 99:178 100:264 101:194 102:260 103:207 104:262 105:220 106:259 107:234 108:263 109:246 110:272 111:234 112:283 113:221 114:289 115:207 116:291 117:193 118:290 119:176 120:285 121:168 122:272 123:194 124:272 125:208 126:273 127:221 128:272 129:239 130:272 131:220 132:272 133:207 134:275 135:193 136:273 
2.241892280639182e-10 4.066011191593949e-11 0 2.807247715255996e-10 1:35 2:179 3:33 4:218 5:35 6:260 7:48 8:296 9:76 10:323 11:106 12:348 13:132 14:372 15:165 16:386 17:203 18:385 19:235 20:375 21:259 22:356 23:274 24:328 25:288 26:299 27:302 28:267 29:310 30:232 31:315 32:195 33:315 34:159 35:87 36:107 37:104 38:90 39:125 40:81 41:152 42:76 43:174 44:85 45:217 46:86 47:236 48:80 49:257 50:82 51:275 52:90 53:289 54:106 55:196 56:124 57:197 58:144 59:199 60:163 61:201 62:183 63:173 64:214 65:187 66:220 67:200 68:223 69:213 70:219 71:224 72:211 73:108 74:143 75:125 76:136 77:142 78:135 79:160 80:140 81:144 82:146 83:125 84:146 85:226 86:138 87:243 88:133 89:261 90:134 91:275 92:141 93:260 94:144 95:242 96:143 97:164 98:288 99:180 100:257 101:196 102:241 103:209 104:244 105:221 106:239 107:234 108:251 109:242 110:280 111:233 112:299 113:220 114:313 115:207 116:316 117:193 118:315 119:180 120:306 121:174 122:284 123:196 124:261 125:209 126:260 127:220 128:259 129:235 130:278 131:219 132:287 133:207 134:291 135:195 136:291 
5.886053629799281e-11 0 0 0 1:2 2:144 3:5 4:191 5:10 6:239 7:22 8:284 9:51 10:321 11:92 12:350 13:138 14:373 15:183 16:389 17:221 18:389 19:250 20:379 21:265 22:347 23:276 24:314 25:286 26:279 27:293 28:246 29:300 30:213 31:304 32:182 33:302 34:152 35:69 36:117 37:93 38:89 39:130 40:75 41:168 42:79 43:205 44:93 45:232 46:99 47:256 48:91 49:279 50:89 51:299 52:95 53:307 54:113 55:223 56:132 57:229 58:160 59:237 60:187 61:244 62:215 63:202 64:236 65:217 66:241 67:232 68:245 69:243 70:242 71:252 72:236 73:112 74:141 75:130 76:128 77:152 78:129 79:172 80:143 81:150 82:151 83:128 84:152 85:234 86:143 87:251 88:128 89:271 90:128 91:283 92:139 93:272 94:150 95:251 96:150 97:170 98:291 99:195 100:280 101:218 102:271 103:233 104:275 105:243 106:271 107:255 108:274 109:262 110:282 111:257 112:299 113:247 114:309 115:235 116:311 117:219 118:310 119:197 120:306 121:178 122:291 123:218 124:285 125:232 126:285 127:243 128:283 129:256 130:282 131:245 132:285 133:234 134:288 135:219 136:288 
6.830560071279384e-10 6.171490854068918e-10 3.077305502123016e-10 1.139686804946336e-09 1:86 2:119 3:85 4:152 5:87 6:188 7:97 8:223 9:111 10:253 11:129 12:282 13:147 14:308 15:170 16:335 17:202 18:343 19:236 20:342 21:266 22:323 23:294 24:296 25:318 26:266 27:336 28:230 29:346 30:192 31:353 32:152 33:354 34:113 35:103 36:93 37:122 38:91 39:139 40:97 41:155 42:105 43:172 44:114 45:215 46:115 47:238 48:103 49:262 50:96 51:288 52:94 53:310 54:106 55:194 56:141 57:192 58:167 59:189 60:193 61:187 62:218 63:168 64:229 65:179 66:235 67:192 68:239 69:206 70:233 71:219 72:227 73:119 74:138 75:132 76:131 77:150 78:133 79:164 80:146 81:147 82:149 83:130 84:148 85:235 86:145 87:250 88:133 89:269 90:130 91:285 92:138 93:271 94:147 95:252 96:149 97:149 98:259 99:166 100:255 101:182 102:253 103:196 104:256 105:211 106:253 107:233 108:253 109:258 110:255 111:235 112:277 113:215 114:288 115:199 116:289 117:185 118:287 119:168 120:276 121:156 122:261 123:183 124:266 125:196 126:267 127:211 128:265 129:250 130:257 131:213 132:267 133:198 134:269 135:184 136:267 
1.051900560237934e-10 0 4.896589399923932e-11 3.653920791049226e-10 1:59 2:145 3:61 4:185 5:66 6:225 7:76 8:264 9:90 10:301 11:108 12:338 13:135 14:371 15:170 16:393 17:208 18:399 19:244 20:392 21:272 22:367 23:292 24:333 25:305 26:295 27:316 28:258 29:322 30:220 31:325 32:183 33:325 34:146 35:93 36:103 37:111 38:88 39:136 40:84 41:162 42:90 43:187 44:100 45:212 46:100 47:236 48:89 49:262 50:83 51:287 52:87 53:305 54:104 55:202 56:129 57:203 58:149 59:204 60:169 61:205 62:192 63:179 64:219 65:191 66:225 67:205 68:228 69:218 70:224 71:229 72:218 73:115 74:143 75:131 76:132 77:152 78:132 79:167 80:143 81:150 82:150 83:130 84:150 85:235 86:143 87:253 88:133 89:271 90:132 91:284 92:142 93:271 94:149 95:253 96:148 97:162 98:299 99:177 100:275 101:195 102:263 103:208 104:266 105:220 106:262 107:237 108:272 109:249 110:296 111:238 112:322 113:222 114:333 115:208 116:335 117:194 118:334 119:176 120:324 121:172 122:299 123:196 124:282 125:208 126:281 127:220 128:281 129:241 130:296 131:220 132:312 133:208 134:313 135:195 136:313 
3.209516991727387e-10 0 1.357244359211354e-10 2.389544962350542e-10 1:59 2:129 3:60 4:171 5:65 6:213 7:72 8:252 9:87 10:288 11:111 12:323 13:139 14:353 15:169 16:376 17:207 18:383 19:244 20:378 21:276 22:353 23:302 24:320 25:324 26:283 27:339 28:246 29:344 30:205 31:345 32:163 33:343 34:120 35:92 36:134 37:109 38:117 39:135 40:111 41:162 42:116 43:189 44:123 45:210 46:123 47:238 48:115 49:266 50:109 51:294 52:113 53:314 54:129 55:202 56:143 57:203 58:168 59:204 60:194 61:205 62:221 63:172 64:229 65:187 66:237 67:204 68:244 69:221 70:237 71:237 72:229 73:118 74:144 75:132 76:138 77:149 78:136 79:165 80:142 81:149 82:145 83:133 84:146 85:236 86:140 87:252 88:134 89:270 90:135 91:285 92:140 93:269 94:144 95:253 96:143 97:151 98:285 99:165 100:273 101:186 102:267 103:204 104:272 105:222 106:266 107:243 108:272 109:260 110:283 111:244 112:302 113:225 114:312 115:206 116:314 117:186 118:313 119:167 120:304 121:159 122:286 123:186 124:284 125:204 126:285 127:222 128:284 129:251 130:284 131:223 132:289 133:205 134:292 135:187 136:289 
0 0 1.963072385211315e-10 2.83213658063791e-10 1:95 2:142 3:94 4:183 5:97 6:225 7:108 8:263 9:126 10:300 11:151 12:329 13:175 14:356 15:203 16:377 17:238 18:383 19:278 20:376 21:318 22:353 23:354 24:326 25:386 26:292 27:403 28:252 29:408 30:202 31:409 32:150 33:407 34:101 35:85 36:88 37:101 38:77 39:124 40:79 41:145 42:86 43:163 44:99 45:208 46:95 47:238 48:87 49:268 50:87 51:297 52:95 53:321 54:109 55:191 56:138 57:189 58:168 59:186 60:198 61:184 62:228 63:156 64:239 65:174 66:249 67:194 68:255 69:215 70:248 71:236 72:241 73:112 74:126 75:126 76:122 77:143 78:125 79:162 80:134 81:143 82:132 83:126 84:132 85:238 86:141 87:254 88:132 89:273 90:133 91:293 92:138 93:274 94:141 95:256 96:142 97:159 98:273 99:173 100:275 101:189 102:278 103:203 104:281 105:221 106:279 107:256 108:275 109:295 110:265 111:265 112:297 113:232 114:314 115:214 116:316 117:199 118:312 119:180 120:298 121:166 122:276 123:191 124:287 125:205 126:288 127:223 128:285 129:285 130:269 131:229 132:293 133:210 134:294 135:196 136:290 
4.829679500878564e-11 0 2.110568960925233e-10 1.017227742707293e-09 1:54 2:107 3:57 4:146 5:63 6:183 7:71 8:220 9:85 10:254 11:109 12:285 13:136 14:313 15:165 16:336 17:202 18:342 19:236 20:334 21:260 22:309 23:281 24:280 25:298 26:250 27:308 28:218 29:316 30:186 31:323 32:153 33:326 34:117 35:81 36:107 37:107 38:96 39:136 40:102 41:164 42:110 43:191 44:120 45:220 46:119 47:244 48:109 49:267 50:102 51:292 52:96 53:311 54:108 55:205 56:137 57:207 58:165 59:208 60:193 61:209 62:222 63:175 64:227 65:190 66:233 67:205 68:239 69:220 70:233 71:233 72:226 73:113 74:140 75:130 76:133 77:150 78:133 79:165 80:144 81:148 82:148 83:128 84:148 85:235 86:144 87:250 88:134 89:269 90:133 91:284 92:140 93:271 94:148 95:252 96:149 97:144 98:255 99:168 100:257 101:188 102:256 103:202 104:260 105:217 106:257 107:233 108:258 109:252 110:254 111:234 112:276 113:218 114:286 115:202 116:289 117:186 118:287 119:166 120:277 121:152 122:260 123:188 124:268 125:202 126:270 127:218 128:268 129:245 130:259 131:218 132:266 133:202 134:269 135:187 136:267 
0 0 1.756303134128651e-11 1.605181528723396e-10 1:-24 2:89 3:-28 4:141 5:-27 6:197 7:-21 8:253 9:-3 10:303 11:29 12:350 13:75 14:382 15:129 16:399 17:185 18:401 19:225 20:390 21:245 22:354 23:260 24:311 25:273 26:268 27:287 28:226 29:300 30:186 31:301 32:146 33:295 34:112 35:76 36:91 37:112 38:81 39:150 40:81 41:186 42:92 43:217 44:108 45:248 46:100 47:261 48:84 49:276 50:70 51:290 52:58 53:300 54:63 55:229 56:137 57:238 58:172 59:246 60:207 61:255 62:242 63:190 64:258 65:214 66:265 67:237 68:271 69:255 70:263 71:267 72:250 73:112 74:137 75:136 76:134 77:158 78:133 79:175 80:140 81:157 82:147 83:134 84:147 85:238 86:132 87:255 88:120 89:270 90:116 91:279 92:120 93:272 94:131 95:256 96:134 97:131 98:306 99:172 100:308 101:207 102:304 103:223 104:307 105:235 106:298 107:245 108:293 109:249 110:288 111:242 112:308 113:231 114:323 115:217 116:330 117:200 118:332 119:167 120:327 121:142 122:308 123:205 124:318 125:222 126:316 127:234 128:311 129:244 130:294 131:231 132:304 133:219 134:311 135:203 136:315 
7.073352370432051e-11 0 0 5.300550234226012e-10 1:28 2:121 3:30 4:163 5:35 6:206 7:45 8:248 9:63 10:287 11:92 12:319 13:125 14:342 15:165 16:356 17:209 18:356 19:247 20:349 21:271 22:326 23:288 24:296 25:302 26:264 27:309 28:228 29:314 30:191 31:316 32:155 33:313 34:121 35:73 36:106 37:97 38:90 39:127 40:86 41:155 42:89 43:181 44:100 45:222 46:103 47:244 48:93 49:268 50:89 51:291 52:90 53:306 54:105 55:206 56:126 57:208 58:153 59:211 60:179 61:214 62:205 63:178 64:225 65:193 66:228 67:209 68:230 69:223 70:228 71:235 72:223 73:107 74:123 75:124 76:109 77:149 78:110 79:162 80:129 81:145 82:139 83:121 84:138 85:233 86:130 87:248 88:112 89:271 90:112 91:283 92:125 93:272 94:140 95:249 96:140 97:151 98:278 99:176 100:271 101:195 102:267 103:211 104:270 105:225 106:264 107:239 108:268 109:254 110:272 111:241 112:284 113:228 114:293 115:213 116:296 117:196 118:296 119:177 120:290 121:158 122:278 123:195 124:278 125:211 126:278 127:225 128:274 129:248 130:273 131:227 132:276 133:212 134:281 135:196 136:280 
5.972644524291973e-11 3.532911758958719e-10 7.679402824075821e-11 6.454859545656588e-10 1:56 2:144 3:61 4:182 5:68 6:216 7:75 8:252 9:87 10:287 11:109 12:317 13:135 14:346 15:168 16:369 17:206 18:374 19:240 20:367 21:269 22:343 23:293 24:315 25:312 26:283 27:324 28:249 29:332 30:214 31:339 32:180 33:342 34:143 35:80 36:127 37:96 38:106 39:121 40:99 41:150 42:99 43:179 44:108 45:222 46:108 47:252 48:100 49:280 50:98 51:308 52:105 53:324 54:126 55:204 56:137 57:204 58:158 59:204 60:181 61:205 62:203 63:178 64:216 65:190 66:222 67:204 68:227 69:217 70:222 71:229 72:215 73:118 74:140 75:132 76:135 77:148 78:135 79:163 80:141 81:148 82:144 83:131 84:145 85:240 86:141 87:254 88:135 89:270 90:136 91:284 92:141 93:270 94:145 95:255 96:145 97:150 98:263 99:171 100:257 101:192 102:254 103:206 104:256 105:221 106:255 107:240 108:257 109:260 110:264 111:241 112:288 113:222 114:297 115:205 116:297 117:190 118:296 119:170 120:287 121:158 122:265 123:191 124:262 125:206 126:263 127:221 128:263 129:251 130:266 131:221 132:282 133:205 134:284 135:190 136:282 
0 7.58709011576782e-11 0 0 1:117 2:145 3:110 4:179 5:111 6:216 7:125 8:252 9:145 10:286 11:165 12:321 13:181 14:353 15:202 16:380 17:233 18:389 19:272 20:387 21:316 22:371 23:359 24:349 25:402 26:320 27:435 28:281 29:450 30:229 31:453 32:170 33:452 34:116 35:108 36:77 37:119 38:81 39:127 40:85 41:138 42:90 43:150 44:99 45:201 46:94 47:234 48:83 49:269 50:78 51:302 52:82 53:338 54:90 55:179 56:143 57:171 58:169 59:162 60:196 61:153 62:222 63:146 64:244 65:157 66:252 67:172 68:256 69:189 70:252 71:208 72:247 73:128 74:136 75:135 76:129 77:150 78:132 79:162 80:143 81:148 82:145 83:135 84:144 85:235 86:144 87:247 88:131 89:270 90:132 91:295 92:139 93:272 94:146 95:251 96:148 97:177 98:297 99:167 100:287 101:176 102:284 103:187 104:288 105:201 106:285 107:239 108:290 109:278 110:295 111:247 112:319 113:215 114:328 115:199 116:329 117:188 118:326 119:177 120:311 121:181 122:298 123:182 124:300 125:191 126:301 127:205 128:301 129:266 130:296 131:207 132:305 133:193 134:304 135:184 136:301 
2.515068884018374e-10 2.376315514294538e-10 1.653030297338974e-09 9.661269599118798e-10 1:37 2:118 3:38 4:160 5:43 6:204 7:52 8:245 9:75 10:280 11:107 12:306 13:141 14:324 15:175 16:341 17:206 18:346 19:237 20:339 21:265 22:317 23:290 24:294 25:312 26:266 27:324 28:232 29:328 30:198 31:332 32:161 33:333 34:124 35:88 36:98 37:109 38:93 39:131 40:95 41:151 42:100 43:171 44:109 45:226 46:109 47:248 48:99 49:271 50:94 51:295 52:95 53:312 54:106 55:197 56:141 57:197 58:167 59:198 60:193 61:198 62:220 63:175 64:234 65:186 66:237 67:198 68:240 69:210 70:237 71:220 72:234 73:112 74:135 75:128 76:133 77:144 78:134 79:157 80:142 81:143 82:145 83:126 84:144 85:237 86:143 87:252 88:133 89:269 90:133 91:283 92:136 93:271 94:145 95:254 96:146 97:151 98:271 99:171 100:267 101:187 102:263 103:200 104:267 105:212 106:263 107:229 108:266 109:244 110:268 111:231 112:285 113:215 114:294 115:201 116:297 117:187 118:294 119:170 120:287 121:157 122:271 123:187 124:273 125:200 126:275 127:212 128:273 129:239 130:269 131:214 132:274 133:201 134:277 135:188 136:276 
-0 0 4.581838886335421e-11 3.461669843988152e-11 1:-18 2:131 3:-16 4:185 5:-11 6:242 7:-4 8:296 9:14 10:342 11:53 12:376 13:103 14:396 15:156 16:404 17:207 18:405 19:248 20:398 21:279 22:375 23:306 24:342 25:327 26:303 27:338 28:260 29:345 30:217 31:349 32:178 33:350 34:137 35:68 36:87 37:102 38:70 39:140 40:65 41:178 42:70 43:212 44:82 45:246 46:86 47:264 48:75 49:284 50:68 51:305 52:67 53:319 54:78 55:223 56:135 57:229 58:167 59:234 60:198 61:239 62:229 63:201 64:264 65:215 66:265 67:227 68:266 69:236 70:264 71:244 72:260 73:111 74:139 75:135 76:129 77:160 78:129 79:178 80:147 81:157 82:153 83:132 84:151 85:239 86:143 87:257 88:127 89:278 90:125 91:291 92:134 93:279 94:146 95:259 96:147 97:155 98:330 99:186 100:314 101:211 102:302 103:222 104:305 105:232 106:300 107:242 108:311 109:246 110:328 111:237 112:331 113:226 114:339 115:215 116:343 117:204 118:344 119:181 120:342 121:166 122:328 123:210 124:320 125:220 126:320 127:229 128:318 129:237 130:326 131:227 132:316 133:218 134:321 135:208 136:323 
-1.907065767212743e-10 3.095185185710933e-10 4.148347184852474e-11 1.479141475626956e-10 1:84 2:142 3:81 4:178 5:86 6:213 7:95 8:247 9:109 10:280 11:128 12:313 13:145 14:342 15:165 16:370 17:197 18:380 19:230 20:378 21:267 22:363 23:300 24:344 25:331 26:316 27:352 28:282 29:364 30:240 31:366 32:197 33:364 34:152 35:105 36:97 37:118 38:87 39:135 40:85 41:151 42:91 43:166 44:101 45:236 46:95 47:256 48:82 49:277 50:77 51:297 52:81 53:314 54:94 55:196 56:135 57:194 58:167 59:191 60:198 61:188 62:230 63:165 64:238 65:177 66:246 67:191 68:252 69:206 70:247 71:219 72:243 73:127 74:140 75:139 76:128 77:156 78:130 79:170 80:143 81:156 82:144 83:138 84:144 85:238 86:141 87:254 88:127 89:271 90:125 91:284 92:136 93:272 94:140 95:255 96:141 97:148 98:272 99:161 100:270 101:180 102:272 103:193 104:276 105:209 106:274 107:231 108:277 109:253 110:286 111:230 112:301 113:206 114:310 115:190 116:311 117:175 118:307 119:159 120:295 121:155 122:276 123:180 124:284 125:193 126:286 127:209 128:287 129:245 130:287 131:207 132:290 133:191 134:290 135:177 136:287 
-3.13261748242209e-10 5.758504374365907e-10 8.386214294498345e-10 1.898490036361588e-10 1:67 2:166 3:65 4:204 5:67 6:241 7:75 8:276 9:92 10:306 11:117 12:330 13:146 14:347 15:175 16:359 17:206 18:362 19:239 20:357 21:271 22:342 23:300 24:322 25:323 26:298 27:340 28:268 29:348 30:234 31:349 32:198 33:348 34:163 35:95 36:107 37:111 38:92 39:135 40:89 41:158 42:93 43:180 44:103 45:219 46:104 47:241 48:96 49:264 50:91 51:287 52:92 53:305 54:106 55:201 56:136 57:200 58:162 59:200 60:187 61:199 62:212 63:178 64:230 65:188 66:236 67:199 68:240 69:210 70:236 71:220 72:231 73:119 74:141 75:132 76:131 77:149 78:131 79:164 80:144 81:148 82:148 83:131 84:147 85:237 86:144 87:251 88:132 89:268 90:130 91:282 92:139 93:270 94:147 95:252 96:148 97:158 98:274 99:172 100:261 101:188 102:254 103:199 104:258 105:210 106:255 107:225 108:262 109:241 110:276 111:225 112:284 113:210 114:290 115:198 116:291 117:185 118:290 119:171 120:286 121:164 122:274 123:187 124:270 125:199 126:270 127:210 128:270 129:233 130:274 131:209 132:272 133:198 134:274 135:186 136:273 
-1.082024822880977e-10 1.024831182883331e-09 3.918968330367686e-10 1.071307044275685e-10 1:41 2:144 3:40 4:182 5:42 6:221 7:51 8:258 9:70 10:291 11:96 12:319 13:127 14:340 15:162 16:354 17:199 18:356 19:232 20:350 21:261 22:332 23:286 24:308 25:306 26:279 27:321 28:245 29:331 30:210 31:337 32:172 33:340 34:136 35:87 36:110 37:106 38:97 39:131 40:97 41:155 42:101 43:178 44:111 45:222 46:108 47:246 48:99 49:271 50:95 51:296 52:96 53:316 54:109 55:201 56:140 57:201 58:165 59:200 60:189 61:200 62:213 63:174 64:230 65:186 66:234 67:198 68:237 69:211 70:233 71:223 72:229 73:116 74:139 75:133 76:132 77:151 78:133 79:164 80:146 81:149 82:148 83:130 84:147 85:236 86:147 87:251 88:134 89:269 90:132 91:282 92:140 93:271 94:148 95:253 96:150 97:153 98:269 99:171 100:260 101:188 102:255 103:200 104:258 105:212 106:256 107:227 108:261 109:242 110:271 111:226 112:283 113:211 114:289 115:199 116:289 117:185 118:288 119:170 120:280 121:160 122:268 123:188 124:268 125:200 126:269 127:211 128:269 129:235 130:271 131:211 132:271 133:199 134:272 135:187 136:270 
-4.088157629364243e-10 2.222719025181776e-10 0 5.561022008384725e-11 1:100 2:143 3:102 4:175 5:107 6:206 7:123 8:235 9:140 10:263 11:159 12:290 13:177 14:314 15:199 16:335 17:225 18:342 19:255 20:336 21:287 22:316 23:316 24:291 25:340 26:261 27:358 28:225 29:366 30:188 31:370 32:149 33:369 34:109 35:99 36:106 37:112 38:97 39:130 40:99 41:148 42:104 43:167 44:112 45:211 46:111 47:239 48:100 49:269 50:92 51:298 52:93 53:322 54:105 55:194 56:143 57:193 58:171 59:191 60:198 61:189 62:226 63:170 64:235 65:181 66:240 67:195 68:245 69:209 70:239 71:223 72:234 73:120 74:140 75:131 76:131 77:149 78:132 79:164 80:146 81:148 82:149 83:131 84:149 85:232 86:146 87:248 88:132 89:268 90:130 91:288 92:138 93:272 94:147 95:251 96:149 97:163 98:263 99:177 100:265 101:190 102:266 103:202 104:269 105:215 106:265 107:238 108:267 109:264 110:262 111:242 112:283 113:222 114:291 115:208 116:293 117:195 118:290 119:180 120:281 121:166 122:266 123:192 124:273 125:204 126:276 127:218 128:274 129:256 130:265 131:218 132:274 133:205 134:275 135:193 136:272 
-3.874049695702765e-10 8.190844608607429e-10 1 2.48493497911648e-10 1:61 2:162 3:64 4:197 5:71 6:232 7:77 8:265 9:89 10:299 11:111 12:328 13:142 14:349 15:177 16:364 17:217 18:370 19:258 20:367 21:298 22:356 23:330 24:335 25:353 26:305 27:366 28:268 29:370 30:229 31:371 32:190 33:371 34:151 35:92 36:111 37:112 38:97 39:135 40:93 41:159 42:95 43:181 44:102 45:217 46:99 47:241 48:91 49:266 50:90 51:290 52:95 53:311 54:107 55:201 56:131 57:201 58:151 59:202 60:171 61:202 62:191 63:182 64:220 65:193 66:224 67:204 68:227 69:215 70:223 71:226 72:221 73:119 74:143 75:133 76:135 77:150 78:134 79:165 80:144 81:150 82:147 83:133 84:147 85:237 86:143 87:252 88:134 89:270 90:134 91:285 92:142 93:271 94:147 95:254 96:148 97:164 98:275 99:180 100:255 101:193 102:247 103:204 104:250 105:216 106:247 107:237 108:258 109:258 110:279 111:238 112:280 113:220 114:280 115:207 116:280 117:196 118:279 119:181 120:277 121:172 122:273 123:194 124:263 125:205 126:263 127:217 128:264 129:249 130:276 131:218 132:267 133:205 134:266 135:195 136:265 
-3.829531684701936e-10 2.952959943291328e-10 3.865575859950191e-10 4.539984094538215e-10 1:56 2:123 3:56 4:162 5:60 6:203 7:65 8:241 9:80 10:278 11:98 12:315 13:118 14:346 15:145 16:371 17:181 18:376 19:217 20:368 21:244 22:339 23:269 24:309 25:295 26:278 27:314 28:242 29:324 30:204 31:329 32:166 33:332 34:128 35:84 36:108 37:101 38:89 39:126 40:84 41:151 42:87 43:177 44:96 45:234 46:96 47:258 48:87 49:281 50:85 51:303 52:91 53:314 54:110 55:205 56:136 57:204 58:167 59:205 60:196 61:205 62:227 63:170 64:244 65:186 66:246 67:201 68:250 69:217 70:245 71:230 72:241 73:118 74:138 75:133 76:132 77:151 78:133 79:164 80:141 81:149 82:145 83:131 84:144 85:239 86:142 87:254 88:132 89:270 90:132 91:283 92:138 93:272 94:145 95:254 96:145 97:126 98:286 99:150 100:284 101:177 102:281 103:193 104:284 105:209 106:279 107:226 108:278 109:240 110:277 111:224 112:303 113:206 114:319 115:188 116:324 117:171 118:323 119:146 120:314 121:131 122:287 123:175 124:293 125:193 126:294 127:209 128:289 129:233 130:282 131:207 132:294 133:190 134:300 135:173 136:300 
-4.46576822837868e-10 0 4.136587802508265e-10 3.636574751958308e-10 1:68 2:119 3:69 4:155 5:75 6:193 7:85 8:228 9:100 10:261 11:123 12:293 13:151 14:319 15:181 16:342 17:216 18:346 19:255 20:342 21:292 22:324 23:326 24:301 25:352 26:271 27:368 28:237 29:375 30:196 31:376 32:154 33:375 34:110 35:86 36:124 37:104 38:111 39:126 40:108 41:152 42:111 43:178 44:119 45:209 46:119 47:237 48:110 49:268 50:102 51:300 52:103 53:331 54:112 55:194 56:133 57:193 58:165 59:190 60:199 61:188 62:233 63:167 64:229 65:180 66:237 67:197 68:244 69:215 70:236 71:229 72:226 73:118 74:138 75:130 76:132 77:147 78:130 79:164 80:138 81:148 82:143 83:131 84:144 85:240 86:133 87:255 88:121 89:276 90:120 91:296 92:124 93:278 94:134 95:258 96:136 97:148 98:259 99:166 100:268 101:181 102:269 103:197 104:272 105:212 106:268 107:236 108:264 109:268 110:253 111:240 112:269 113:217 114:273 115:200 116:275 117:184 118:273 119:168 120:268 121:154 122:262 123:182 124:278 125:198 126:281 127:214 128:278 129:260 130:258 131:215 132:259 133:199 134:261 135:183 136:260 
-1.097495852852895e-10 4.639970314880259e-10 0 5.218651714153911e-10 1:87 2:143 3:88 4:175 5:92 6:208 7:99 8:240 9:111 10:272 11:128 12:302 13:144 14:328 15:163 16:345 17:190 18:352 19:220 20:351 21:251 22:336 23:277 24:316 25:303 26:292 27:325 28:264 29:338 30:230 31:346 32:194 33:351 34:157 35:95 36:113 37:109 38:97 39:132 40:91 41:155 42:93 43:178 44:102 45:215 46:101 47:241 48:92 49:270 50:91 51:298 52:97 53:318 54:115 55:194 56:135 57:191 58:154 59:188 60:173 61:185 62:192 63:169 64:218 65:178 66:222 67:187 68:225 69:199 70:223 71:210 72:220 73:116 74:143 75:131 76:133 77:150 78:132 79:166 80:144 81:148 82:148 83:130 84:148 85:234 86:144 87:250 88:132 89:270 90:133 91:286 92:142 93:270 94:148 95:251 96:148 97:154 98:272 99:165 100:254 101:178 102:243 103:188 104:245 105:198 106:243 107:216 108:254 109:232 110:273 111:216 112:285 113:198 114:294 115:187 116:294 117:177 118:293 119:164 120:286 121:161 122:270 123:178 124:260 125:187 126:260 127:198 128:261 129:223 130:271 131:198 132:275 133:187 134:276 135:178 136:274 
-4.322512228887516e-10 4.294279412004584e-10 3.168674241854892e-10 1.109146958176021e-10 1:63 2:147 3:66 4:185 5:70 6:223 7:77 8:264 9:91 10:303 11:113 12:338 13:140 14:368 15:176 16:391 17:218 18:398 19:257 20:387 21:287 22:361 23:308 24:326 25:321 26:288 27:330 28:248 29:331 30:207 31:331 32:169 33:330 34:132 35:89 36:113 37:108 38:98 39:134 40:95 41:159 42:99 43:183 44:111 45:219 46:110 47:242 48:100 49:266 50:96 51:288 52:98 53:305 54:110 55:204 56:136 57:206 58:162 59:208 60:188 61:210 62:215 63:179 64:233 65:195 66:239 67:212 68:244 69:229 70:238 71:245 72:232 73:115 74:141 75:129 76:131 77:148 78:131 79:165 80:143 81:147 82:149 83:129 84:149 85:239 86:143 87:252 88:131 89:270 90:131 91:285 92:140 93:272 94:147 95:255 96:148 97:169 98:302 99:189 100:292 101:204 102:288 103:216 104:290 105:227 106:287 107:242 108:290 109:257 110:297 111:243 112:306 113:230 114:311 115:218 116:313 117:206 118:312 119:191 120:308 121:178 122:301 123:205 124:299 125:216 126:299 127:228 128:297 129:249 130:297 131:228 132:295 133:216 134:297 135:205 136:296 
-0 0 5.434434437227456e-10 4.67945187087746e-10 1:61 2:125 3:64 4:163 5:71 6:200 7:80 8:236 9:95 10:268 11:116 12:296 13:140 14:318 15:167 16:337 17:197 18:345 19:229 20:339 21:258 22:320 23:285 24:297 25:310 26:268 27:330 28:235 29:339 30:195 31:341 32:155 33:341 34:119 35:88 36:95 37:108 38:85 39:131 40:87 41:155 42:92 43:179 44:103 45:224 46:98 47:242 48:89 49:263 50:83 51:285 52:82 53:307 54:89 55:200 56:133 57:201 58:159 59:202 60:185 61:202 62:212 63:172 64:223 65:187 66:228 67:202 68:232 69:218 70:227 71:232 72:221 73:117 74:138 75:132 76:132 77:150 78:133 79:165 80:142 81:150 82:146 83:131 84:145 85:236 86:140 87:250 88:130 89:267 90:128 91:283 92:133 93:269 94:141 95:252 96:143 97:143 98:250 99:164 100:245 101:186 102:244 103:202 104:246 105:218 106:242 107:240 108:242 109:260 110:247 111:241 112:272 113:219 114:285 115:202 116:288 117:186 118:285 119:164 120:273 121:150 122:253 123:187 124:255 125:202 126:256 127:218 128:253 129:253 130:250 131:218 132:265 133:202 134:267 135:187 136:266 
-0 3.04984676884558e-10 0 0 1:81 2:153 3:79 4:189 5:80 6:224 7:85 8:259 9:95 10:292 11:114 12:320 13:139 14:339 15:171 16:351 17:209 18:352 19:248 20:350 21:284 22:336 23:314 24:319 25:334 26:291 27:346 28:255 29:354 30:220 31:357 32:186 33:356 34:150 35:95 36:109 37:113 38:98 39:137 40:98 41:161 42:104 43:185 44:115 45:213 46:110 47:239 48:98 49:267 50:91 51:296 52:94 53:319 54:106 55:198 56:140 57:196 58:166 59:194 60:193 61:192 62:220 63:165 64:231 65:178 66:239 67:195 68:245 69:212 70:238 71:230 72:231 73:117 74:139 75:133 76:131 77:150 78:132 79:167 80:143 81:150 82:146 83:132 84:145 85:239 86:142 87:256 88:132 89:274 90:132 91:292 92:138 93:275 94:144 95:256 96:145 97:147 98:277 99:167 100:271 101:183 102:271 103:198 104:273 105:217 106:269 107:238 108:269 109:263 110:273 111:241 112:279 113:220 114:283 115:202 116:286 117:185 118:285 119:169 120:282 121:154 122:276 123:183 124:281 125:199 126:281 127:217 128:279 129:255 130:273 131:218 132:269 133:201 134:271 135:186 136:269 
-0 1.507587875768007e-09 9.201126097656761e-10 1 1:67 2:131 3:71 4:166 5:76 6:200 7:84 8:234 9:99 10:265 11:120 12:294 13:143 14:319 15:170 16:339 17:201 18:346 19:233 20:338 21:262 22:318 23:288 24:294 25:310 26:266 27:326 28:233 29:334 30:198 31:339 32:162 33:343 34:127 35:86 36:110 37:105 38:96 39:131 40:95 41:155 42:99 43:179 44:110 45:221 46:107 47:246 48:97 49:271 50:92 51:297 52:94 53:318 54:108 55:200 56:139 57:199 58:164 59:199 60:188 61:199 62:213 63:174 64:229 65:186 66:233 67:198 68:237 69:210 70:233 71:222 72:229 73:117 74:137 75:132 76:130 77:151 78:132 79:164 80:145 81:148 82:147 83:130 84:146 85:237 86:145 87:252 88:132 89:270 90:130 91:284 92:138 93:272 94:146 95:254 96:148 97:149 98:260 99:168 100:257 101:186 102:255 103:199 104:260 105:212 106:255 107:230 108:260 109:249 110:262 111:230 112:280 113:213 114:289 115:199 116:291 117:185 118:288 119:167 120:279 121:155 122:263 123:186 124:269 125:199 126:270 127:212 128:269 129:243 130:264 131:212 132:270 133:199 134:271 135:186 136:269 
-1.510261527523403e-10 0 2.515864265754386e-10 5.67721326924885e-11 1:111 2:157 3:109 4:188 5:112 6:219 7:125 8:251 9:138 10:281 11:151 12:312 13:161 14:343 15:175 16:361 17:204 18:367 19:244 20:372 21:291 22:367 23:334 24:346 25:372 26:315 27:397 28:272 29:403 30:221 31:404 32:168 33:404 34:119 35:100 36:97 37:109 38:88 39:124 40:87 41:139 42:90 43:154 44:98 45:197 46:94 47:228 48:83 49:261 50:80 51:294 52:87 53:326 54:100 55:176 56:138 57:171 58:168 59:165 60:195 61:158 62:224 63:149 64:241 65:161 66:252 67:176 68:258 69:191 70:253 71:208 72:248 73:120 74:140 75:129 76:130 77:148 78:131 79:163 80:144 81:146 82:150 83:129 84:149 85:230 86:145 87:247 88:130 89:272 90:130 91:294 92:139 93:274 94:149 95:249 96:150 97:155 98:294 99:156 100:282 101:165 102:278 103:176 104:283 105:189 106:280 107:218 108:291 109:249 110:301 111:220 112:322 113:194 114:327 115:179 116:326 117:166 118:322 119:160 120:309 121:161 122:296 123:167 124:292 125:178 126:296 127:191 128:297 129:240 130:302 131:190 132:305 133:177 134:304 135:165 136:299 
-0 7.142302996441215e-10 6.006779673403695e-10 4.804446150039455e-10 1:80 2:131 3:83 4:167 5:90 6:200 7:100 8:234 9:113 10:266 11:135 12:296 13:158 14:323 15:185 16:345 17:213 18:351 19:242 20:346 21:273 22:325 23:299 24:300 25:323 26:270 27:337 28:235 29:345 30:197 31:352 32:159 33:355 34:120 35:89 36:103 37:104 38:88 39:125 40:87 41:147 42:92 43:169 44:104 45:216 46:105 47:243 48:95 49:270 50:91 51:298 52:93 53:321 54:106 55:196 56:139 57:196 58:165 59:195 60:192 61:195 62:217 63:177 64:231 65:187 66:235 67:197 68:239 69:209 70:234 71:222 72:230 73:117 74:138 75:130 76:128 77:150 78:130 79:165 80:147 81:147 82:150 83:128 84:148 85:235 86:146 87:249 88:131 89:270 90:129 91:287 92:138 93:273 94:148 95:252 96:150 97:160 98:266 99:175 100:263 101:191 102:260 103:202 104:264 105:214 106:261 107:235 108:263 109:258 110:262 111:238 112:288 113:219 114:299 115:206 116:301 117:192 118:299 119:175 120:287 121:166 122:270 123:192 124:272 125:203 126:273 127:216 128:272 129:249 130:266 131:217 132:279 133:204 134:282 135:192 136:279 
-0 1 0 1.980279488697715e-10 1:29 2:132 3:33 4:175 5:39 6:218 7:50 8:256 9:67 10:291 11:93 12:318 13:127 14:339 15:165 16:353 17:201 18:356 19:230 20:348 21:252 22:324 23:272 24:296 25:288 26:265 27:297 28:232 29:303 30:201 31:306 32:170 33:304 34:139 35:80 36:108 37:105 38:92 39:133 40:86 41:161 42:92 43:188 44:102 45:237 46:104 47:257 48:95 49:277 50:91 51:296 52:94 53:306 54:109 55:211 56:140 57:213 58:167 59:216 60:192 61:218 62:217 63:187 64:234 65:200 66:237 67:213 68:240 69:224 70:238 71:233 72:233 73:114 74:139 75:132 76:129 77:152 78:131 79:167 80:146 81:149 82:149 83:129 84:147 85:237 86:147 87:251 88:131 89:270 90:130 91:283 92:140 93:272 94:149 95:254 96:150 97:156 98:276 99:181 100:268 101:202 102:260 103:213 104:263 105:224 106:260 107:236 108:264 109:244 110:273 111:235 112:286 113:224 114:294 115:211 116:296 117:199 118:296 119:179 120:289 121:163 122:276 123:201 124:274 125:212 126:275 127:223 128:273 129:238 130:274 131:223 132:274 133:212 134:276 135:201 136:276 
-0 3.856735516965548e-11 2.704186627322422e-11 3.177358017707751e-11 1:1 2:115 3:-2 4:165 5:-2 6:219 7:2 8:275 9:28 10:321 11:70 12:355 13:114 14:382 15:160 16:402 17:204 18:405 19:238 20:397 21:253 22:363 23:263 24:322 25:280 26:288 27:297 28:250 29:308 30:215 31:305 32:178 33:296 34:149 35:96 36:90 37:127 38:80 39:158 40:80 41:188 42:85 43:211 44:102 45:249 46:103 47:263 48:90 49:279 50:85 51:292 52:84 53:299 54:93 55:228 56:148 57:235 58:177 59:244 60:206 61:252 62:234 63:193 64:252 65:215 66:258 67:237 68:264 69:255 70:257 71:267 72:245 73:114 74:134 75:134 76:127 77:154 78:132 79:172 80:148 81:151 82:150 83:130 84:146 85:239 86:150 87:253 88:134 89:270 90:132 91:281 92:141 93:271 94:150 95:254 96:152 97:132 98:293 99:175 100:289 101:214 102:284 103:230 104:287 105:243 106:283 107:259 108:286 109:266 110:292 111:256 112:321 113:240 114:337 115:226 116:341 117:207 118:338 119:170 120:327 121:144 122:295 123:211 124:299 125:227 126:299 127:240 128:298 129:259 130:295 131:241 132:315 133:228 134:318 135:211 136:318 
-0 0 0 1.790788796921407e-10 1:81 2:115 3:82 4:148 5:85 6:181 7:96 8:214 9:114 10:245 11:134 12:273 13:155 14:299 15:177 16:321 17:202 18:331 19:230 20:330 21:262 22:316 23:293 24:297 25:322 26:272 27:345 28:241 29:358 30:201 31:363 32:160 33:365 34:120 35:100 36:91 37:119 38:88 39:136 40:93 41:154 42:101 43:169 44:112 45:214 46:112 47:241 48:99 49:269 50:93 51:298 52:94 53:323 54:104 55:194 56:138 57:191 58:161 59:189 60:185 61:187 62:209 63:171 64:223 65:181 66:228 67:193 68:230 69:205 70:227 71:216 72:224 73:118 74:133 75:133 76:130 77:151 78:131 79:165 80:142 81:149 82:147 83:131 84:145 85:234 86:143 87:250 88:132 89:271 90:131 91:289 92:137 93:272 94:148 95:251 96:148 97:161 98:261 99:172 100:259 101:184 102:258 103:195 104:261 105:205 106:257 107:224 108:261 109:247 110:261 111:227 112:283 113:210 114:290 115:199 116:290 117:188 118:289 119:174 120:280 121:165 122:263 123:185 124:268 125:196 126:270 127:206 128:268 129:240 130:263 131:208 132:270 133:198 134:271 135:188 136:269 
-3.163958059735856e-10 0 1.267873453707228e-10 4.373874211263816e-10 1:57 2:131 3:60 4:169 5:68 6:206 7:77 8:242 9:92 10:275 11:114 12:304 13:138 14:332 15:168 16:356 17:201 18:362 19:234 20:355 21:262 22:333 23:286 24:305 25:308 26:274 27:322 28:240 29:329 30:202 31:333 32:166 33:336 34:131 35:83 36:92 37:108 38:81 39:135 40:84 41:158 42:94 43:181 44:107 45:216 46:108 47:242 48:98 49:267 50:95 51:294 52:99 53:315 54:113 55:201 56:138 57:201 58:163 59:201 60:189 61:201 62:215 63:176 64:231 65:188 66:237 67:201 68:241 69:213 70:238 71:225 72:234 73:108 74:126 75:125 76:117 77:147 78:121 79:160 80:140 81:142 82:143 83:121 84:140 85:237 86:145 87:251 88:131 89:271 90:131 91:285 92:142 93:273 94:151 95:253 96:151 97:152 98:282 99:171 100:271 101:188 102:265 103:201 104:271 105:215 106:265 107:231 108:272 109:247 110:282 111:232 112:293 113:218 114:300 115:202 116:302 117:189 118:300 119:172 120:295 121:160 122:282 123:188 124:279 125:201 126:281 127:215 128:279 129:239 130:281 131:217 132:281 133:202 134:284 135:189 136:283 
-3.629135936137379e-10 3.170017685531483e-10 8.523733131643438e-10 7.493356129558068e-10 1:71 2:131 3:75 4:168 5:83 6:204 7:90 8:238 9:102 10:269 11:120 12:297 13:143 14:323 15:169 16:344 17:197 18:351 19:225 20:344 21:251 22:324 23:272 24:299 25:291 26:272 27:304 28:243 29:313 30:209 31:320 32:174 33:324 34:138 35:87 36:118 37:106 38:106 39:130 40:103 41:154 42:107 43:177 44:115 45:225 46:115 47:247 48:105 49:271 50:102 51:295 52:104 53:313 54:115 55:202 56:142 57:202 58:167 59:202 60:193 61:203 62:218 63:177 64:231 65:189 66:236 67:201 68:240 69:214 70:236 71:226 72:230 73:116 74:140 75:133 76:134 77:150 78:134 79:166 80:145 81:150 82:147 83:131 84:146 85:236 86:145 87:251 88:134 89:269 90:134 91:284 92:140 93:270 94:145 95:252 96:146 97:155 98:275 99:170 100:265 101:188 102:260 103:201 104:264 105:215 106:260 107:232 108:266 109:247 110:274 111:232 112:291 113:214 114:298 115:200 116:299 117:186 118:298 119:169 120:291 121:163 122:275 123:187 124:273 125:201 126:275 127:215 128:274 129:240 130:274 131:214 132:276 133:200 134:277 135:187 136:275 
-9.439338212854383e-11 0 0 1 1:-40 2:160 3:-33 4:216 5:-25 6:273 7:-8 8:326 9:27 10:370 11:82 12:400 13:146 14:416 15:208 16:426 17:253 18:423 19:276 20:408 21:279 22:372 23:283 24:330 25:281 26:296 27:282 28:257 29:285 30:218 31:281 32:181 33:268 34:152 35:65 36:109 37:100 38:83 39:142 40:70 41:185 42:75 43:220 44:93 45:242 46:97 47:258 48:87 49:273 50:83 51:286 52:86 53:289 54:100 55:237 56:131 57:252 58:162 59:269 60:191 61:287 62:222 63:227 64:260 65:248 66:263 67:267 68:264 69:279 70:258 71:287 72:246 73:107 74:139 75:133 76:130 77:156 78:129 79:174 80:143 81:155 82:149 83:132 84:148 85:241 86:140 87:256 88:130 89:271 90:130 91:276 92:141 93:270 94:147 95:256 96:146 97:189 98:333 99:229 100:312 101:258 102:300 103:272 104:305 105:284 106:299 107:290 108:309 109:279 110:328 111:287 112:338 113:281 114:349 115:269 116:350 117:252 118:349 119:227 120:344 121:201 122:331 123:256 124:319 125:270 126:320 127:280 128:317 129:276 130:326 131:281 132:322 133:271 134:325 135:256 136:323 
-1.596256009855531e-10 3.739036936338275e-10 0 0 1:64 2:142 3:65 4:178 5:70 6:214 7:76 8:249 9:88 10:282 11:107 12:313 13:132 14:339 15:163 16:361 17:199 18:367 19:235 20:361 21:264 22:339 23:290 24:314 25:312 26:286 27:326 28:252 29:335 30:219 31:340 32:182 33:340 34:147 35:85 36:118 37:104 38:103 39:129 40:97 41:157 42:99 43:184 44:107 45:215 46:109 47:241 48:99 49:269 50:96 51:296 52:99 53:316 54:114 55:199 56:140 57:199 58:165 59:199 60:191 61:199 62:217 63:173 64:232 65:186 66:238 67:200 68:243 69:215 70:239 71:227 72:231 73:115 74:140 75:129 76:132 77:148 78:132 79:165 80:144 81:148 82:147 83:129 84:148 85:235 86:144 87:251 88:131 89:271 90:130 91:287 92:139 93:273 94:146 95:253 96:147 97:150 98:278 99:170 100:267 101:187 102:260 103:200 104:264 105:214 106:260 107:230 108:266 109:247 110:275 111:230 112:287 113:215 114:292 115:201 116:294 117:186 118:293 119:170 120:289 121:158 122:278 123:187 124:275 125:200 126:276 127:214 128:275 129:239 130:275 131:214 132:274 133:200 134:275 135:187 136:274 
-4.116503635139797e-10 0 5.442376234287463e-10 4.149688796324363e-10 1:61 2:142 3:60 4:180 5:60 6:220 7:65 8:259 9:81 10:295 11:104 12:325 13:134 14:347 15:166 16:364 17:199 18:369 19:233 20:362 21:264 22:341 23:291 24:317 25:312 26:288 27:326 28:254 29:332 30:218 31:332 32:183 33:330 34:148 35:95 36:112 37:105 38:91 39:128 40:80 41:153 42:84 43:178 44:94 45:222 46:100 47:244 48:86 49:271 50:82 51:296 52:89 53:311 54:110 55:199 56:133 57:199 58:158 59:200 60:182 61:201 62:208 63:171 64:226 65:185 66:229 67:199 68:233 69:215 70:228 71:229 72:222 73:122 74:139 75:135 76:134 77:150 78:133 79:162 80:139 81:149 82:144 83:134 84:144 85:240 86:141 87:253 88:135 89:268 90:135 91:280 92:141 93:267 94:146 95:253 96:146 97:156 98:287 99:170 100:270 101:188 102:263 103:203 104:264 105:217 106:260 107:232 108:262 109:244 110:277 111:234 112:292 113:220 114:300 115:205 116:304 117:190 118:303 119:172 120:299 121:163 122:283 123:189 124:272 125:203 126:272 127:216 128:268 129:238 130:274 131:219 132:286 133:205 134:290 135:190 136:290 
-7.434396112430099e-11 7.484329795981831e-11 0 3.373252424488212e-10 1:35 2:112 3:38 4:159 5:43 6:206 7:53 8:248 9:76 10:285 11:106 12:316 13:140 14:343 15:176 16:365 17:213 18:371 19:244 20:364 21:269 22:341 23:289 24:314 25:310 26:280 27:327 28:245 29:336 30:207 31:337 32:167 33:333 34:129 35:82 36:93 37:105 38:84 39:133 40:85 41:162 42:90 43:191 44:103 45:229 46:102 47:255 48:91 49:279 50:85 51:305 52:81 53:324 54:92 55:215 56:139 57:217 58:166 59:220 60:191 61:223 62:218 63:185 64:235 65:201 66:240 67:218 68:244 69:234 70:241 71:248 72:237 73:113 74:133 75:130 76:130 77:151 78:131 79:166 80:141 81:149 82:148 83:129 84:146 85:250 86:144 87:266 88:132 89:287 90:131 91:302 92:136 93:289 94:149 95:269 96:150 97:165 98:279 99:188 100:277 101:210 102:273 103:223 104:278 105:237 106:275 107:254 108:277 109:270 110:280 111:252 112:307 113:235 114:313 115:221 116:313 117:207 118:310 119:186 120:299 121:175 122:281 123:211 124:282 125:223 126:285 127:236 128:284 129:262 130:282 131:234 132:295 133:221 134:295 135:208 136:291 
-2.450514096608908e-10 0 4.283032233901961e-10 2.018012222038152e-10 1:57 2:96 3:56 4:133 5:60 6:175 7:70 8:212 9:86 10:249 11:112 12:282 13:139 14:308 15:166 16:332 17:198 18:340 19:227 20:334 21:250 22:312 23:273 24:286 25:292 26:253 27:306 28:220 29:317 30:185 31:323 32:148 33:324 34:111 35:86 36:95 37:110 38:86 39:137 40:88 41:163 42:96 43:188 44:106 45:212 46:107 47:238 48:99 49:264 50:92 51:290 52:91 53:312 54:105 55:200 56:138 57:201 58:164 59:201 60:189 61:201 62:215 63:171 64:232 65:185 66:236 67:199 68:238 69:214 70:237 71:228 72:233 73:112 74:126 75:128 76:121 77:150 78:122 79:164 80:136 81:147 82:144 83:124 84:142 85:232 86:138 87:248 88:128 89:269 90:128 91:284 92:136 93:270 94:149 95:249 96:149 97:154 98:274 99:171 100:270 101:187 102:265 103:200 104:272 105:213 106:266 107:226 108:272 109:242 110:277 111:227 112:294 113:214 114:302 115:200 116:304 117:186 118:302 119:170 120:293 121:161 122:276 123:187 124:278 125:199 126:280 127:212 128:278 129:234 130:278 131:213 132:281 133:201 134:282 135:188 136:280 
-0 3.104100253171228e-10 1.863833373098468e-11 1.204912482383034e-10 1:27 2:151 3:28 4:190 5:33 6:231 7:44 8:271 9:64 10:306 11:96 12:333 13:132 14:354 15:168 16:367 17:200 18:370 19:226 20:361 21:244 22:335 23:261 24:301 25:277 26:268 27:289 28:234 29:297 30:200 31:298 32:168 33:294 34:139 35:88 36:99 37:113 38:86 39:140 40:86 41:165 42:92 43:189 44:105 45:234 46:105 47:248 48:96 49:264 50:90 51:281 52:86 53:297 54:94 55:211 56:142 57:216 58:170 59:222 60:198 61:228 62:225 63:189 64:242 65:204 66:247 67:219 68:250 69:231 70:245 71:242 72:239 73:114 74:140 75:132 76:129 77:152 78:130 79:167 80:148 81:150 82:150 83:130 84:148 85:236 86:148 87:253 88:131 89:272 90:127 91:281 92:140 93:273 94:149 95:255 96:149 97:147 98:282 99:175 100:274 101:201 102:268 103:215 104:272 105:228 106:267 107:241 108:272 109:252 110:277 111:239 112:292 113:225 114:304 115:211 116:308 117:196 118:307 119:172 120:300 121:156 122:283 123:200 124:285 125:214 126:285 127:226 128:284 129:245 130:279 131:226 132:284 133:213 134:287 135:198 136:287 
-0 8.013344489679725e-11 0 1 1:48 2:117 3:50 4:155 5:54 6:192 7:61 8:229 9:75 10:263 11:97 12:291 13:121 14:316 15:152 16:332 17:186 18:334 19:217 20:329 21:241 22:312 23:258 24:288 25:274 26:261 27:284 28:231 29:294 30:198 31:303 32:169 33:307 34:140 35:83 36:112 37:110 38:99 39:140 40:101 41:169 42:109 43:196 44:121 45:224 46:124 47:244 48:114 49:266 50:108 51:286 52:104 53:305 54:114 55:210 56:142 57:211 58:168 59:213 60:195 61:213 62:222 63:178 64:231 65:193 66:235 67:208 68:240 69:221 70:237 71:233 72:231 73:114 74:136 75:131 76:130 77:152 78:131 79:168 80:144 81:150 82:148 83:128 84:148 85:237 86:144 87:253 88:132 89:270 90:131 91:282 92:138 93:271 94:150 95:253 96:149 97:151 98:272 99:173 100:265 101:193 102:260 103:204 104:265 105:217 106:261 107:230 108:265 109:241 110:270 111:227 112:284 113:212 114:289 115:199 116:291 117:187 118:291 119:171 120:285 121:159 122:272 123:191 124:272 125:203 126:274 127:216 128:272 129:237 130:271 131:214 132:273 133:202 134:275 135:190 136:274 
-0 1.27596584090634e-10 0 2.070588116985074e-10 1:62 2:150 3:62 4:185 5:67 6:221 7:78 8:255 9:95 10:287 11:119 12:313 13:144 14:333 15:171 16:347 17:205 18:351 19:240 20:347 21:274 22:335 23:305 24:317 25:331 26:293 27:352 28:264 29:362 30:230 31:364 32:191 33:365 34:154 35:96 36:105 37:115 38:93 39:138 40:92 41:161 42:97 43:181 44:108 45:216 46:105 47:238 48:97 49:261 50:93 51:285 52:94 53:306 54:105 55:199 56:139 57:197 58:166 59:195 60:192 61:193 62:217 63:177 64:234 65:186 66:238 67:197 68:241 69:208 70:237 71:219 72:232 73:121 74:141 75:133 76:130 77:152 78:131 79:164 80:145 81:149 82:148 83:132 84:147 85:239 86:146 87:251 88:132 89:268 90:131 91:281 92:140 93:269 94:147 95:253 96:149 97:174 98:275 99:183 100:263 101:193 102:257 103:200 104:258 105:209 106:255 107:225 108:262 109:243 110:271 111:228 112:282 113:214 114:286 115:204 116:288 117:196 118:288 119:186 120:284 121:179 122:273 123:194 124:270 125:200 126:269 127:209 128:268 129:237 130:270 131:212 132:273 133:203 134:274 135:195 136:273 
-2.541001363384607e-11 0 0 5.461518400790215e-11 1:105 2:139 3:110 4:167 5:118 6:195 7:128 8:223 9:140 10:250 11:155 12:276 13:171 14:300 15:190 16:323 17:213 18:331 19:241 20:327 21:269 22:304 23:294 24:275 25:317 26:245 27:334 28:211 29:344 30:178 31:349 32:140 33:347 34:104 35:99 36:106 37:112 38:99 39:128 40:101 41:147 42:107 43:167 44:115 45:208 46:114 47:235 48:104 49:260 50:96 51:288 52:94 53:313 54:103 55:191 56:143 57:190 58:171 59:188 60:199 61:186 62:227 63:172 64:231 65:180 66:238 67:192 68:243 69:205 70:238 71:219 72:233 73:121 74:137 75:132 76:132 77:150 78:133 79:167 80:145 81:149 82:148 83:131 84:147 85:233 86:145 87:249 88:133 89:269 90:131 91:285 92:138 93:271 94:148 95:251 96:149 97:174 98:263 99:180 100:263 101:188 102:262 103:200 104:266 105:212 106:263 107:229 108:263 109:248 110:265 111:231 112:278 113:216 114:285 115:204 116:286 117:191 118:282 119:183 120:275 121:179 122:265 123:190 124:268 125:202 126:270 127:213 128:269 129:240 130:266 131:213 132:269 133:202 134:270 135:190 136:267 
-2.774657905048759e-10 8.400924569707639e-11 1.411232195872739e-09 0 1:37 2:137 3:39 4:175 5:43 6:212 7:49 8:249 9:70 10:279 11:100 12:302 13:132 14:319 15:166 16:332 17:196 18:337 19:224 20:331 21:249 22:313 23:270 24:290 25:286 26:264 27:297 28:236 29:304 30:206 31:309 32:176 33:309 34:146 35:91 36:99 37:115 38:92 39:138 40:91 41:161 42:92 43:183 44:100 45:226 46:100 47:247 48:93 49:269 50:92 51:289 52:95 53:304 54:107 55:206 56:133 57:207 58:154 59:209 60:176 61:210 62:198 63:182 64:217 65:195 66:221 67:208 68:224 69:218 70:222 71:228 72:217 73:116 74:141 75:133 76:133 77:151 78:132 79:166 80:143 81:150 82:147 83:133 84:147 85:238 86:144 87:252 88:133 89:270 90:134 91:283 92:142 93:270 94:148 95:253 96:148 97:153 98:265 99:175 100:253 101:194 102:245 103:206 104:247 105:216 106:245 107:229 108:252 109:241 110:263 111:228 112:275 113:215 114:283 115:204 116:284 117:192 118:284 119:173 120:278 121:161 122:264 123:194 124:261 125:205 126:261 127:215 128:260 129:233 130:263 131:214 132:264 133:204 134:265 135:193 136:265 
-1.186421218798048e-10 0 2.381618271162134e-10 0 1:44 2:152 3:44 4:187 5:48 6:222 7:56 8:256 9:75 10:286 11:101 12:313 13:130 14:332 15:163 16:347 17:196 18:349 19:224 20:344 21:250 22:331 23:270 24:314 25:286 26:292 27:298 28:262 29:304 30:229 31:308 32:195 33:306 34:162 35:95 36:110 37:113 38:97 39:135 40:92 41:157 42:94 43:180 44:102 45:220 46:100 47:238 48:94 49:256 50:92 51:274 52:94 53:290 54:105 55:199 56:132 57:200 58:155 59:199 60:179 61:201 62:201 63:179 64:221 65:189 66:226 67:200 68:229 69:211 70:225 71:221 72:219 73:120 74:140 75:134 76:132 77:152 78:131 79:164 80:144 81:149 82:149 83:133 84:149 85:233 86:143 87:246 88:133 89:260 90:132 91:272 92:140 93:262 94:148 95:247 96:147 97:163 98:284 99:178 100:266 101:192 102:258 103:203 104:259 105:210 106:256 107:223 108:263 109:234 110:277 111:225 112:288 113:214 114:293 115:206 116:294 117:195 118:295 119:180 120:292 121:173 122:283 123:193 124:271 125:203 126:270 127:211 128:270 129:227 130:277 131:213 132:277 133:205 134:279 135:195 136:279 
-0 0 1.088853717473841e-10 0 1:104 2:149 3:99 4:179 5:99 6:211 7:107 8:243 9:117 10:274 11:128 12:305 13:141 14:335 15:159 16:362 17:187 18:373 19:225 20:369 21:268 22:358 23:310 24:338 25:345 26:312 27:370 28:277 29:380 30:236 31:386 32:192 33:391 34:149 35:105 36:99 37:116 38:85 39:133 40:82 41:152 42:84 43:169 44:92 45:211 46:85 47:239 48:76 49:271 50:75 51:302 52:85 53:324 54:106 55:186 56:130 57:179 58:152 59:171 60:174 61:164 62:197 63:157 64:223 65:165 66:227 67:175 68:229 69:188 70:227 71:203 72:225 73:119 74:141 75:131 76:129 77:149 78:129 79:167 80:144 81:149 82:148 83:130 84:149 85:232 86:144 87:250 88:129 89:271 90:129 91:291 92:141 93:272 94:150 95:250 96:149 97:150 98:284 99:153 100:267 101:164 102:257 103:175 104:261 105:187 106:258 107:207 108:269 109:228 110:287 111:209 112:301 113:190 114:307 115:177 116:308 117:166 118:305 119:155 120:298 121:158 122:282 123:166 124:277 125:176 126:278 127:188 128:277 129:217 130:284 131:189 132:284 133:176 134:285 135:166 136:283 
-2.594692355947859e-10 0 0 0 1:68 2:116 3:71 4:156 5:78 6:196 7:85 8:233 9:96 10:268 11:114 12:301 13:138 14:328 15:167 16:349 17:200 18:354 19:235 20:348 21:269 22:325 23:301 24:300 25:327 26:269 27:342 28:231 29:349 30:190 31:356 32:149 33:359 34:108 35:87 36:116 37:110 38:107 39:136 40:111 41:160 42:118 43:184 44:127 45:225 46:130 47:247 48:120 49:270 50:116 51:293 52:112 53:316 54:118 55:201 56:148 57:200 58:172 59:200 60:198 61:199 62:223 63:178 64:233 65:188 66:239 67:200 68:243 69:211 70:239 71:223 72:235 73:118 74:138 75:133 76:131 77:153 78:133 79:166 80:145 81:150 82:149 83:132 84:148 85:238 86:144 87:253 88:132 89:271 90:132 91:285 92:138 93:273 94:148 95:255 96:149 97:162 98:278 99:174 100:267 101:190 102:261 103:202 104:266 105:216 106:262 107:232 108:269 109:246 110:278 111:232 112:288 113:216 114:297 115:202 116:298 117:188 118:298 119:174 120:293 121:167 122:277 123:190 124:274 125:202 126:277 127:216 128:275 129:239 130:277 131:215 132:277 133:201 134:280 135:188 136:278 
-4.551940987014008e-11 0 1.931491276810835e-11 0 1:108 2:145 3:104 4:177 5:105 6:207 7:117 8:235 9:133 10:261 11:152 12:288 13:168 14:313 15:183 16:339 17:205 18:350 19:234 20:348 21:264 22:332 23:294 24:309 25:322 26:281 27:343 28:251 29:354 30:215 31:359 32:177 33:361 34:137 35:107 36:104 37:120 38:96 39:136 40:97 41:152 42:100 43:168 44:108 45:214 46:111 47:241 48:98 49:270 50:93 51:298 52:97 53:324 54:108 55:188 56:147 57:184 58:176 59:179 60:205 61:175 62:234 63:158 64:236 65:171 66:245 67:186 68:251 69:203 70:244 71:221 72:237 73:124 74:139 75:135 76:131 77:152 78:132 79:165 80:146 81:150 82:147 83:134 84:146 85:236 86:146 87:249 88:132 89:269 90:131 91:287 92:140 93:271 94:146 95:252 96:148 97:162 98:260 99:169 100:257 101:182 102:256 103:194 104:260 105:209 106:257 107:238 108:258 109:266 110:261 111:241 112:288 113:215 114:302 115:198 116:303 117:185 118:300 119:171 120:283 121:167 122:263 123:183 124:263 125:195 126:266 127:210 128:264 129:261 130:262 131:212 132:284 133:196 134:286 135:184 136:281 
-1.354115411282263e-12 2.18485773954515e-10 6.634589991156839e-11 0 1:91 2:156 3:94 4:186 5:101 6:215 7:113 8:246 9:131 10:271 11:145 12:297 13:158 14:325 15:179 16:345 17:205 18:351 19:232 20:348 21:257 22:336 23:274 24:311 25:288 26:285 27:303 28:255 29:313 30:221 31:320 32:187 33:321 34:153 35:104 36:101 37:119 38:94 39:137 40:94 41:155 42:98 43:171 44:107 45:217 46:104 47:241 48:94 49:266 50:90 51:291 52:95 53:310 54:108 55:196 56:141 57:194 58:167 59:192 60:194 61:190 62:220 63:172 64:232 65:184 66:239 67:196 68:242 69:209 70:238 71:222 72:232 73:123 74:140 75:135 76:131 77:152 78:132 79:165 80:147 81:150 82:150 83:134 84:149 85:236 86:147 87:251 88:132 89:270 90:131 91:285 92:141 93:271 94:149 95:253 96:150 97:166 98:289 99:174 100:278 101:185 102:273 103:197 104:275 105:210 106:272 107:227 108:277 109:245 110:288 111:229 112:290 113:214 114:295 115:202 116:297 117:189 118:295 119:178 120:291 121:171 122:287 123:186 124:286 125:198 126:287 127:212 128:286 129:238 130:286 131:213 132:276 133:200 134:278 135:188 136:276 
-0 0 1.292371734879101e-10 0 1:72 2:137 3:72 4:171 5:74 6:207 7:81 8:241 9:94 10:274 11:115 12:304 13:140 14:328 15:169 16:348 17:199 18:350 19:231 20:346 21:265 22:329 23:297 24:307 25:325 26:279 27:342 28:245 29:352 30:207 31:357 32:169 33:359 34:131 35:90 36:109 37:106 38:95 39:128 40:89 41:151 42:91 43:172 44:100 45:218 46:98 47:243 48:88 49:270 50:87 51:296 52:94 53:317 54:109 55:195 56:139 57:193 58:165 59:191 60:191 61:189 62:218 63:170 64:233 65:181 66:238 67:192 68:242 69:205 70:239 71:217 72:235 73:117 74:141 75:132 76:129 77:151 78:130 79:164 80:147 81:149 82:150 83:130 84:148 85:235 86:146 87:250 88:130 89:270 90:129 91:286 92:140 93:271 94:148 95:251 96:149 97:153 98:276 99:169 100:268 101:183 102:263 103:194 104:266 105:206 106:263 107:227 108:270 109:250 110:277 111:229 112:293 113:209 114:300 115:196 116:300 117:183 118:298 119:169 120:290 121:162 122:277 123:183 124:277 125:195 126:278 127:207 128:277 129:241 130:278 131:207 132:280 133:195 134:281 135:183 136:278 
-0 1.422639605338541e-10 0 0 1:62 2:117 3:66 4:154 5:76 6:189 7:86 8:224 9:99 10:258 11:118 12:289 13:143 14:315 15:173 16:336 17:206 18:343 19:237 20:335 21:266 22:313 23:288 24:286 25:306 26:255 27:319 28:221 29:328 30:185 31:335 32:149 33:337 34:113 35:91 36:100 37:114 38:93 39:137 40:92 41:159 42:95 43:181 44:103 45:220 46:103 47:242 48:95 49:264 50:93 51:286 52:92 53:309 54:98 55:201 56:135 57:201 58:162 59:201 60:188 61:201 62:214 63:182 64:227 65:192 66:230 67:202 68:233 69:211 70:230 71:221 72:226 73:118 74:138 75:133 76:131 77:152 78:132 79:166 80:146 81:149 82:150 83:131 84:148 85:236 86:146 87:250 88:132 89:268 90:131 91:282 92:138 93:270 94:147 95:253 96:149 97:164 98:273 99:177 100:258 101:192 102:251 103:204 104:254 105:215 106:250 107:230 108:257 109:244 110:269 111:231 112:288 113:217 114:296 115:204 116:298 117:192 118:297 119:176 120:290 121:171 122:272 123:192 124:265 125:204 126:265 127:215 128:263 129:237 130:269 131:216 132:274 133:204 134:276 135:192 136:274 
-1.50089643426133e-11 0 3.190726351247298e-10 0 1:55 2:147 3:57 4:186 5:64 6:227 7:76 8:264 9:91 10:300 11:108 12:335 13:133 14:363 15:164 16:380 17:198 18:386 19:234 20:382 21:267 22:365 23:297 24:340 25:320 26:304 27:336 28:266 29:345 30:224 31:353 32:183 33:354 34:144 35:84 36:104 37:104 38:87 39:130 40:82 41:157 42:85 43:182 44:95 45:224 46:97 47:247 48:87 49:271 50:86 51:294 52:92 53:311 54:105 55:204 56:137 57:205 58:160 59:206 60:183 61:207 62:205 63:183 64:245 65:195 66:248 67:205 68:249 69:215 70:249 71:223 72:247 73:117 74:139 75:132 76:126 77:152 78:126 79:167 80:145 81:151 82:151 83:130 84:150 85:236 86:145 87:252 88:127 89:271 90:127 91:284 92:142 93:272 94:151 95:254 96:152 97:169 98:311 99:186 100:302 101:194 102:294 103:203 104:297 105:213 106:295 107:222 108:303 109:238 110:313 111:221 112:300 113:211 114:294 115:201 116:294 117:192 118:293 119:185 120:299 121:176 122:310 123:194 124:308 125:203 126:309 127:213 128:309 129:232 130:311 131:211 132:282 133:202 134:281 135:194 136:281 
-3.11552745239543e-10 0 3.416548056959438e-10 1.288321095736104e-10 1:12 2:124 3:14 4:168 5:17 6:215 7:28 8:263 9:53 10:306 11:86 12:342 13:121 14:375 15:161 16:400 17:205 18:404 19:245 20:400 21:271 22:372 23:292 24:336 25:311 26:296 27:324 28:252 29:332 30:206 31:335 32:163 33:334 34:122 35:85 36:109 37:105 38:99 39:128 40:96 41:152 42:101 43:177 44:113 45:218 46:112 47:241 48:101 49:266 50:96 51:290 52:95 53:310 54:108 55:200 56:144 57:202 58:180 59:205 60:214 61:208 62:248 63:179 64:266 65:193 66:270 67:208 68:274 69:222 70:270 71:234 72:265 73:116 74:137 75:131 76:129 77:150 78:129 79:162 80:144 81:147 82:148 83:130 84:147 85:235 86:144 87:250 88:131 89:268 90:129 91:282 92:138 93:270 94:147 95:251 96:147 97:148 98:304 99:173 100:310 101:196 102:310 103:211 104:314 105:224 106:309 107:246 108:308 109:269 110:300 111:248 112:319 113:227 114:331 115:212 116:334 117:196 118:332 119:173 120:324 121:156 122:310 123:196 124:324 125:211 126:326 127:225 128:323 129:261 130:306 131:225 132:308 133:211 134:312 135:197 136:309 
