svm_type c_svc
kernel_type polynomial
degree 3
gamma 0.00735294
coef0 0
nr_class 5
total_sv 208
rho 15.4471 -3.09217 21.5821 -14.9436 -29.8388 23.8393 -7.2486 0.331881 -7.02421 -15.323
label 0 1 2 3 4
probA -0.175967 0.0118245 0.00339756 -0.0746435 -0.0702491 -0.138438 -0.533875 0.00136792 0.0321322 0.145381
probB 0.31626 0.146919 0.2401 -1.23712 -0.150583 -0.0772759 -1.18666 0.0932528 -1.47266 -1.67077
nr_sv 42 51 49 54 12
SV
1.211934787910135e-10 0 0 0 1:70 2:181 3:71 4:218 5:76 6:254 7:88 8:288 9:103 10:322 11:120 12:351 13:142 14:375 15:169 16:391 17:202 18:396 19:235 20:389 21:264 22:372 23:293 24:354 25:318 26:329 27:340 28:300 29:354 30:267 31:362 32:232 33:365 34:195 35:91 36:121 37:109 38:101 39:134 40:93 41:160 42:93 43:185 44:103 45:220 46:101 47:248 48:91 49:275 50:93 51:301 52:104 53:321 54:125 55:202 56:125 57:201 58:137 59:201 60:150 61:200 62:163 63:177 64:198 65:188 66:201 67:200 68:203 69:213 70:201 71:224 72:199 73:121 74:143 75:136 76:136 77:153 78:133 79:166 80:137 81:154 82:142 83:137 84:145 85:240 86:139 87:255 88:134 89:271 90:137 91:285 92:145 93:270 94:145 95:254 96:143 97:157 98:276 99:167 100:245 101:189 102:231 103:204 104:235 105:219 106:232 107:240 108:248 109:253 110:282 111:239 112:313 113:219 114:330 115:201 116:331 117:184 118:328 119:165 120:310 121:165 122:274 123:189 124:251 125:204 126:252 127:218 128:252 129:244 130:278 131:218 132:299 133:202 134:301 135:186 136:298 
7.156048710939992e-11 3.344797207435136e-10 5.973678726853616e-10 5.489944995182585e-11 1:41 2:121 3:40 4:161 5:41 6:203 7:47 8:243 9:64 10:279 11:90 12:309 13:121 14:328 15:157 16:337 17:194 18:337 19:233 20:337 21:267 22:327 23:299 24:310 25:327 26:286 27:345 28:254 29:354 30:217 31:360 32:179 33:364 34:141 35:97 36:93 37:123 38:83 39:149 40:82 41:175 42:85 43:198 44:95 45:240 46:99 47:262 48:88 49:285 50:84 51:309 52:84 53:328 54:97 55:212 56:137 57:211 58:163 59:210 60:187 61:209 62:211 63:180 64:233 65:192 66:236 67:205 68:239 69:217 70:237 71:230 72:233 73:125 74:138 75:141 76:125 77:161 78:125 79:173 80:143 81:158 82:147 83:139 84:145 85:246 86:146 87:260 88:127 89:281 90:127 91:295 92:141 93:282 94:149 95:262 96:151 97:151 98:286 99:174 100:283 101:192 102:276 103:201 104:279 105:211 106:275 107:226 108:281 109:246 110:283 111:226 112:279 113:211 114:279 115:201 116:281 117:191 118:282 119:173 120:285 121:159 122:286 123:191 124:289 125:201 126:289 127:211 128:288 129:239 130:283 131:211 132:264 133:201 134:266 135:192 136:267 
2.441510587276718e-10 2.088484798128837e-10 3.562781847500282e-10 2.238023292066646e-12 1:84 2:139 3:88 4:174 5:95 6:210 7:105 8:245 9:121 10:280 11:139 12:313 13:163 14:339 15:190 16:360 17:224 18:363 19:261 20:359 21:297 22:339 23:328 24:311 25:352 26:278 27:366 28:240 29:370 30:196 31:368 32:153 33:365 34:109 35:92 36:107 37:109 38:97 39:131 40:103 41:151 42:111 43:172 44:121 45:207 46:119 47:234 48:109 49:259 50:101 51:287 52:97 53:313 54:107 55:192 56:146 57:190 58:171 59:188 60:195 61:186 62:220 63:170 64:234 65:180 66:241 67:194 68:245 69:207 70:240 71:222 72:234 73:121 74:139 75:133 76:134 77:150 78:134 79:164 80:145 81:149 82:148 83:133 84:147 85:236 86:146 87:249 88:135 89:266 90:133 91:282 92:139 93:269 94:148 95:252 96:149 97:177 98:288 99:178 100:276 101:188 102:270 103:199 104:274 105:211 106:270 107:228 108:276 109:244 110:287 111:231 112:292 113:217 114:297 115:204 116:298 117:192 118:297 119:182 120:292 121:181 122:286 123:190 124:283 125:201 126:284 127:213 128:283 129:234 130:285 131:213 132:280 133:201 134:281 135:190 136:279 
1.92068393241699e-10 0 4.283922711453311e-11 1.7925557165854e-11 1:71 2:143 3:69 4:180 5:71 6:218 7:77 8:259 9:88 10:299 11:103 12:339 13:124 14:375 15:155 16:398 17:200 18:405 19:248 20:401 21:290 22:387 23:325 24:360 25:355 26:325 27:376 28:286 29:388 30:243 31:393 32:198 33:398 34:152 35:85 36:90 37:105 38:73 39:131 40:69 41:160 42:74 43:184 44:89 45:216 46:88 47:244 48:75 49:277 50:73 51:309 52:81 53:333 54:100 55:199 56:130 57:197 58:153 59:194 60:174 61:191 62:195 63:166 64:227 65:180 66:233 67:195 68:236 69:211 70:233 71:226 72:228 73:113 74:140 75:128 76:133 77:148 78:134 79:167 80:144 81:147 82:151 83:127 84:150 85:246 86:145 87:265 88:135 89:286 90:137 91:306 92:145 93:286 94:153 95:265 96:153 97:154 98:310 99:169 100:291 101:183 102:278 103:194 104:283 105:208 106:279 107:229 108:296 109:253 110:316 111:231 112:328 113:210 114:331 115:195 116:330 117:182 118:329 119:168 120:324 121:165 122:310 123:183 124:297 125:195 126:297 127:209 128:299 129:243 130:315 131:208 132:308 133:195 134:307 135:183 136:306 
9.569781008807502e-11 4.572060780531489e-10 4.489437805757726e-11 0 1:50 2:118 3:47 4:159 5:49 6:200 7:61 8:238 9:81 10:272 11:106 12:303 13:131 14:332 15:160 16:356 17:190 18:362 19:218 20:352 21:236 22:327 23:250 24:297 25:266 26:266 27:282 28:235 29:295 30:202 31:306 32:168 33:311 34:134 35:91 36:103 37:115 38:95 39:140 40:96 41:164 42:103 43:187 44:114 45:233 46:115 47:255 48:104 49:277 50:98 51:297 52:96 53:311 54:109 55:210 56:149 57:209 58:184 59:208 60:220 61:207 62:254 63:174 64:253 65:187 66:263 67:203 68:271 69:218 70:265 71:230 72:253 73:119 74:136 75:135 76:130 77:154 78:133 79:167 80:149 81:150 82:153 83:131 84:150 85:238 86:148 87:251 88:133 89:270 90:131 91:282 92:137 93:273 94:151 95:254 96:153 97:157 98:295 99:172 100:294 101:186 102:293 103:197 104:297 105:207 106:293 107:219 108:294 109:229 110:300 111:218 112:310 113:208 114:317 115:197 116:318 117:185 118:317 119:172 120:310 121:164 122:298 123:185 124:305 125:197 126:306 127:207 128:304 129:223 130:300 131:208 132:297 133:198 134:299 135:187 136:297 
0 5.726048441284109e-11 2.493362652229558e-10 2.938728437359842e-11 1:56 2:165 3:51 4:201 5:52 6:241 7:59 8:281 9:72 10:321 11:90 12:358 13:113 14:387 15:145 16:403 17:185 18:406 19:226 20:405 21:262 22:388 23:290 24:359 25:316 26:324 27:335 28:288 29:347 30:247 31:350 32:206 33:350 34:169 35:87 36:115 37:103 38:98 39:127 40:95 41:152 42:100 43:176 44:111 45:225 46:112 47:249 48:101 49:274 50:95 51:298 52:99 53:316 54:114 55:198 56:139 57:198 58:172 59:198 60:205 61:197 62:237 63:167 64:258 65:182 66:262 67:196 68:265 69:211 70:261 71:225 72:257 73:115 74:141 75:127 76:131 77:145 78:131 79:162 80:143 81:144 82:146 83:127 84:147 85:238 86:142 87:255 88:131 89:272 90:132 91:284 92:144 93:270 94:148 95:254 96:147 97:129 98:294 99:153 100:296 101:176 102:296 103:192 104:300 105:208 106:296 107:226 108:297 109:244 110:301 111:223 112:308 113:204 114:315 115:187 116:317 117:170 118:316 119:149 120:312 121:135 122:297 123:175 124:307 125:191 126:309 127:207 128:307 129:239 130:302 131:205 132:296 133:188 134:299 135:172 136:297 
2.009759638720147e-10 0 0 0 1:51 2:126 3:55 4:167 5:62 6:205 7:72 8:241 9:89 10:274 11:115 12:303 13:139 14:331 15:168 16:354 17:198 18:363 19:227 20:357 21:250 22:334 23:272 24:306 25:292 26:278 27:304 28:243 29:312 30:207 31:321 32:168 33:326 34:129 35:82 36:107 37:104 38:94 39:132 40:95 41:157 42:101 43:182 44:112 45:227 46:111 47:251 48:102 49:273 50:97 51:295 52:98 53:311 54:112 55:206 56:141 57:205 58:168 59:204 60:195 61:203 62:221 63:177 64:233 65:188 66:237 67:200 68:242 69:213 70:239 71:225 72:236 73:114 74:136 75:132 76:129 77:151 78:133 79:165 80:147 81:148 82:149 83:128 84:147 85:237 86:147 87:250 88:133 89:269 90:131 91:284 92:139 93:272 94:149 95:253 96:150 97:158 98:272 99:169 100:262 101:187 102:259 103:202 104:263 105:217 106:260 107:240 108:267 109:262 110:285 111:243 112:310 113:221 114:319 115:205 116:319 117:188 118:314 119:170 120:297 121:163 122:275 123:188 124:271 125:202 126:273 127:218 128:273 129:255 130:287 131:219 132:300 133:204 134:300 135:189 136:295 
3.425189447410147e-10 4.774324329028718e-10 7.532192107204067e-10 4.309653106593594e-11 1:101 2:152 3:93 4:183 5:91 6:217 7:99 8:251 9:113 10:284 11:132 12:312 13:154 14:338 15:177 16:363 17:203 18:372 19:238 20:372 21:279 22:357 23:322 24:337 25:360 26:311 27:385 28:275 29:396 30:232 31:401 32:187 33:403 34:142 35:108 36:99 37:117 38:87 39:131 40:87 41:146 42:91 43:161 44:99 45:202 46:95 47:233 48:85 49:263 50:83 51:292 52:90 53:319 54:105 55:177 56:137 57:172 58:155 59:166 60:173 61:160 62:193 63:151 64:218 65:160 66:224 67:172 68:227 69:187 70:223 71:202 72:220 73:125 74:139 75:134 76:130 77:148 78:131 79:160 80:143 81:147 82:146 83:134 84:145 85:230 86:141 87:243 88:129 89:260 90:130 91:280 92:139 93:262 94:143 95:244 96:144 97:146 98:266 99:153 100:255 101:166 102:251 103:177 104:255 105:192 106:252 107:219 108:258 109:251 110:270 111:224 112:291 113:198 114:297 115:181 116:297 117:169 118:295 119:155 120:286 121:153 122:267 123:167 124:262 125:178 126:264 127:193 128:263 129:242 130:269 131:195 132:280 133:180 134:280 135:168 136:277 
3.283818632429832e-11 6.926852368460965e-11 8.551631825732447e-10 0 1:39 2:129 3:40 4:169 5:46 6:209 7:56 8:249 9:70 10:285 11:94 12:317 13:125 14:344 15:159 16:365 17:194 18:372 19:228 20:367 21:254 22:347 23:276 24:319 25:295 26:284 27:307 28:247 29:316 30:209 31:322 32:172 33:323 34:137 35:81 36:105 37:107 38:92 39:136 40:90 41:165 42:95 43:194 44:100 45:223 46:108 47:247 48:104 49:272 50:100 51:296 52:104 53:311 54:119 55:204 56:134 57:204 58:160 59:205 60:186 61:205 62:213 63:177 64:233 65:190 66:237 67:204 68:239 69:216 70:237 71:227 72:231 73:116 74:128 75:132 76:115 77:154 78:116 79:165 80:134 81:150 82:141 83:128 84:139 85:238 86:140 87:251 88:124 89:272 90:125 91:283 92:139 93:271 94:148 95:251 96:147 97:158 98:288 99:176 100:277 101:192 102:269 103:204 104:273 105:214 106:267 107:228 108:274 109:242 110:285 111:228 112:298 113:215 114:305 115:204 116:307 117:191 118:306 119:175 120:301 121:168 122:287 123:191 124:283 125:203 126:284 127:213 128:281 129:233 130:285 131:214 132:284 133:205 134:286 135:192 136:285 
1.753727080327514e-10 2.412591445319905e-11 2.842682988094838e-10 0 1:-6 2:121 3:-5 4:170 5:-4 6:221 7:3 8:268 9:27 10:305 11:65 12:336 13:105 14:362 15:148 16:379 17:190 18:378 19:220 20:370 21:240 22:344 23:260 24:313 25:280 26:281 27:296 28:246 29:306 30:208 31:311 32:168 33:312 34:133 35:81 36:100 37:110 38:89 39:143 40:85 41:174 42:93 43:202 44:108 45:242 46:111 47:259 48:101 49:277 50:94 51:295 52:92 53:306 54:101 55:220 56:141 57:224 58:172 59:230 60:202 61:235 62:232 63:188 64:252 65:205 66:256 67:223 68:259 69:236 70:254 71:247 72:246 73:112 74:140 75:132 76:132 77:152 78:133 79:169 80:146 81:150 82:149 83:130 84:148 85:235 86:145 87:249 88:132 89:266 90:130 91:278 92:138 93:268 94:146 95:251 96:147 97:154 98:299 99:180 100:292 101:205 102:285 103:220 104:289 105:233 106:283 107:243 108:285 109:247 110:293 111:241 112:308 113:231 114:320 115:217 116:325 117:201 118:325 119:178 120:318 121:163 122:300 123:203 124:300 125:218 126:300 127:231 128:297 129:241 130:294 131:232 132:297 133:218 134:302 135:203 136:301 
5.296894365965872e-10 6.451388707162227e-10 3.623704533632536e-10 3.36625570158807e-11 1:7 2:115 3:9 4:162 5:14 6:207 7:26 8:250 9:50 10:288 11:85 12:320 13:121 14:349 15:159 16:367 17:191 18:369 19:216 20:356 21:234 22:328 23:253 24:299 25:273 26:270 27:289 28:239 29:300 30:207 31:302 32:175 33:299 34:144 35:89 36:107 37:115 38:101 39:142 40:99 41:168 42:103 43:193 44:113 45:233 46:113 47:249 48:105 49:265 50:100 51:281 52:96 53:296 54:101 55:213 56:146 57:217 58:171 59:221 60:198 61:226 62:224 63:185 64:238 65:200 66:242 67:214 68:247 69:226 70:244 71:236 72:238 73:114 74:139 75:132 76:130 77:151 78:132 79:165 80:147 81:148 82:150 83:130 84:148 85:236 86:148 87:250 88:131 89:269 90:129 91:282 92:137 93:271 94:148 95:253 96:150 97:124 98:261 99:158 100:260 101:192 102:258 103:207 104:261 105:218 106:258 107:234 108:258 109:246 110:261 111:229 112:292 113:214 114:307 115:201 116:311 117:184 118:310 119:153 120:296 121:132 122:265 123:191 124:270 125:206 126:271 127:217 128:269 129:239 130:265 131:214 132:288 133:202 134:292 135:187 136:292 
2.404759796182141e-10 0 3.98581964980276e-10 0 1:72 2:142 3:73 4:175 5:78 6:209 7:83 8:243 9:92 10:277 11:110 12:309 13:136 14:334 15:166 16:356 17:204 18:364 19:244 20:359 21:279 22:339 23:309 24:314 25:331 26:284 27:340 28:249 29:343 30:213 31:348 32:177 33:351 34:140 35:97 36:98 37:113 38:85 39:136 40:90 41:156 42:98 43:177 44:108 45:220 46:108 47:242 48:97 49:266 50:89 51:290 52:89 53:311 54:103 55:196 56:136 57:195 58:159 59:194 60:183 61:193 62:209 63:174 64:226 65:184 66:230 67:196 68:233 69:207 70:229 71:220 72:225 73:120 74:140 75:134 76:133 77:150 78:133 79:162 80:142 81:148 82:146 83:132 84:145 85:238 86:142 87:251 88:133 89:268 90:132 91:283 92:141 93:269 94:145 95:253 96:145 97:152 98:279 99:169 100:265 101:185 102:255 103:198 104:258 105:212 106:253 107:233 108:263 109:254 110:278 111:237 112:293 113:217 114:298 115:202 116:299 117:187 118:297 119:171 120:292 121:161 122:279 123:186 124:273 125:199 126:273 127:213 128:271 129:246 130:278 131:215 132:275 133:201 134:276 135:187 136:275 
1.186661328718345e-09 1.393702111890491e-09 5.173036992116096e-10 0 1:54 2:119 3:59 4:156 5:68 6:194 7:80 8:231 9:97 10:263 11:120 12:291 13:147 14:317 15:177 16:338 17:206 18:344 19:236 20:337 21:263 22:314 23:284 24:286 25:303 26:255 27:317 28:221 29:328 30:186 31:335 32:150 33:338 34:115 35:83 36:103 37:104 38:91 39:128 40:91 41:154 42:96 43:178 44:108 45:223 46:109 47:247 48:98 49:272 50:94 51:296 52:96 53:316 54:107 55:202 56:137 57:203 58:163 59:204 60:190 61:205 62:216 63:182 64:226 65:193 66:231 67:206 68:236 69:217 70:231 71:227 72:224 73:116 74:138 75:133 76:130 77:152 78:132 79:166 80:146 81:149 82:148 83:130 84:147 85:236 86:146 87:250 88:133 89:268 90:130 91:283 92:138 93:270 94:146 95:252 96:148 97:156 98:260 99:176 100:258 101:193 102:255 103:206 104:259 105:218 106:255 107:234 108:257 109:251 110:256 111:235 112:278 113:219 114:288 115:205 116:290 117:192 118:288 119:175 120:279 121:163 122:263 123:193 124:269 125:206 126:270 127:219 128:268 129:244 130:261 131:218 132:267 133:205 134:270 135:192 136:268 
0 6.47368420149919e-10 1.225071657959187e-10 2.327974319043507e-11 1:61 2:163 3:63 4:196 5:64 6:227 7:68 8:260 9:79 10:291 11:101 12:317 13:130 14:339 15:166 16:357 17:205 18:361 19:244 20:358 21:278 22:340 23:305 24:316 25:324 26:289 27:332 28:257 29:336 30:225 31:338 32:194 33:339 34:162 35:93 36:110 37:108 38:92 39:132 40:85 41:159 42:86 43:183 44:97 45:218 46:99 47:243 48:89 49:268 50:86 51:293 52:91 53:309 54:108 55:204 56:134 57:205 58:154 59:206 60:174 61:207 62:194 63:183 64:221 65:194 66:224 67:206 68:227 69:218 70:223 71:230 72:220 73:119 74:141 75:133 76:134 77:150 78:135 79:165 80:143 81:150 82:146 83:134 84:146 85:239 86:143 87:253 88:135 89:269 90:134 91:283 92:141 93:270 94:145 95:255 96:145 97:160 98:275 99:178 100:262 101:198 102:255 103:209 104:259 105:221 106:255 107:239 108:261 109:253 110:275 111:239 112:290 113:221 114:298 115:208 116:299 117:195 118:297 119:176 120:289 121:170 122:275 123:197 124:274 125:209 126:275 127:221 128:274 129:244 130:276 131:220 132:280 133:208 134:281 135:196 136:279 
0 0 4.989647844639711e-11 6.811455854945069e-11 1:69 2:150 3:68 4:186 5:71 6:221 7:81 8:255 9:99 10:286 11:121 12:316 13:146 14:342 15:171 16:363 17:197 18:374 19:223 20:369 21:250 22:351 23:273 24:325 25:296 26:295 27:315 28:263 29:326 30:225 31:331 32:184 33:330 34:145 35:93 36:108 37:109 38:95 39:131 40:90 41:153 42:98 43:172 44:109 45:222 46:110 47:243 48:96 49:266 50:91 51:288 52:96 53:303 54:111 55:203 56:141 57:204 58:166 59:204 60:190 61:205 62:215 63:183 64:236 65:194 66:241 67:205 68:245 69:217 70:243 71:227 72:239 73:118 74:137 75:135 76:129 77:153 78:130 79:166 80:146 81:150 82:148 83:133 84:146 85:234 86:147 87:250 88:131 89:268 90:129 91:283 92:139 93:271 94:148 95:252 96:150 97:168 98:289 99:183 100:276 101:197 102:271 103:207 104:276 105:217 106:275 107:234 108:284 109:249 110:299 111:231 112:316 113:215 114:324 115:204 116:324 117:192 118:320 119:180 120:308 121:176 122:289 123:197 124:284 125:207 126:288 127:217 128:288 129:241 130:298 131:214 132:303 133:204 134:304 135:194 136:300 
1.453942271333507e-10 7.186397128801349e-11 2.566978512073841e-10 0 1:64 2:135 3:70 4:170 5:76 6:204 7:82 8:239 9:95 10:271 11:114 12:300 13:135 14:324 15:164 16:340 17:195 18:344 19:227 20:340 21:258 22:324 23:287 24:303 25:312 26:276 27:329 28:245 29:336 30:208 31:340 32:171 33:342 34:136 35:87 36:107 37:103 38:92 39:126 40:91 41:150 42:99 43:174 44:110 45:218 46:110 47:242 48:99 49:267 50:93 51:292 52:94 53:311 54:111 55:197 56:136 57:199 58:158 59:200 60:180 61:201 62:203 63:178 64:222 65:189 66:225 67:202 68:227 69:215 70:225 71:227 72:221 73:114 74:138 75:128 76:131 77:146 78:132 79:164 80:142 81:146 82:145 83:127 84:144 85:234 86:142 87:247 88:134 89:266 90:134 91:283 92:140 93:266 94:145 95:248 96:145 97:154 98:267 99:173 100:257 101:192 102:251 103:204 104:254 105:215 106:251 107:231 108:256 109:251 110:264 111:230 112:274 113:213 114:278 115:201 116:279 117:188 118:278 119:171 120:273 121:159 122:266 123:191 124:264 125:204 126:265 127:215 128:265 129:244 130:265 131:213 132:264 133:202 134:265 135:190 136:263 
4.870007862600777e-10 5.984657968484425e-10 1.554306161863505e-09 1.709299565598715e-10 1:66 2:125 3:68 4:160 5:74 6:195 7:81 8:229 9:94 10:261 11:115 12:288 13:138 14:313 15:165 16:334 17:199 18:340 19:233 20:336 21:263 22:317 23:287 24:293 25:310 26:263 27:323 28:229 29:331 30:194 31:338 32:159 33:339 34:123 35:86 36:99 37:106 38:87 39:131 40:88 41:154 42:94 43:177 44:104 45:223 46:103 47:245 48:94 49:268 50:89 51:293 52:89 53:314 54:101 55:201 56:139 57:201 58:165 59:201 60:191 61:201 62:217 63:178 64:228 65:190 66:233 67:202 68:236 69:214 70:232 71:226 72:227 73:117 74:137 75:132 76:130 77:152 78:132 79:165 80:147 81:148 82:151 83:130 84:148 85:238 86:147 87:251 88:132 89:271 90:130 91:285 92:138 93:274 94:148 95:255 96:150 97:154 98:260 99:173 100:260 101:189 102:259 103:203 104:263 105:216 106:259 107:232 108:260 109:252 110:260 111:233 112:276 113:216 114:284 115:202 116:286 117:188 118:284 119:171 120:276 121:161 122:263 123:189 124:269 125:203 126:271 127:216 128:270 129:243 130:263 131:215 132:267 133:202 134:269 135:188 136:267 
0 0 1.505778219458348e-10 0 1:70 2:146 3:73 4:181 5:79 6:216 7:84 8:250 9:93 10:283 11:111 12:310 13:134 14:335 15:165 16:353 17:202 18:360 19:236 20:352 21:268 22:330 23:294 24:304 25:314 26:277 27:326 28:247 29:331 30:214 31:332 32:182 33:332 34:149 35:87 36:119 37:107 38:107 39:132 40:105 41:157 42:111 43:180 44:123 45:226 46:121 47:246 48:106 49:267 50:98 51:290 52:96 53:311 54:106 55:202 56:142 57:202 58:162 59:202 60:184 61:203 62:206 63:177 64:223 65:189 66:228 67:201 68:231 69:213 70:228 71:225 72:223 73:119 74:139 75:135 76:133 77:153 78:134 79:168 80:145 81:153 82:146 83:134 84:146 85:235 86:144 87:252 88:133 89:270 90:133 91:284 92:140 93:271 94:147 95:254 96:147 97:151 98:270 99:171 100:261 101:189 102:254 103:201 104:259 105:214 106:254 107:233 108:262 109:250 110:268 111:231 112:279 113:214 114:286 115:200 116:288 117:187 118:287 119:170 120:280 121:159 122:271 123:188 124:268 125:201 126:268 127:213 128:268 129:241 130:269 131:213 132:267 133:201 134:270 135:189 136:268 
0 3.557387325104285e-10 3.42599829000126e-10 0 1:60 2:148 3:61 4:186 5:64 6:222 7:69 8:259 9:79 10:294 11:101 12:322 13:130 14:343 15:166 16:359 17:205 18:363 19:242 20:359 21:269 22:342 23:291 24:318 25:307 26:287 27:315 28:253 29:319 30:219 31:321 32:184 33:320 34:152 35:87 36:132 37:105 38:113 39:131 40:106 41:160 42:107 43:185 44:116 45:229 46:116 47:251 48:106 49:274 50:104 51:296 52:110 53:310 54:127 55:207 56:140 57:207 58:162 59:208 60:185 61:208 62:208 63:179 64:221 65:192 66:227 67:207 68:231 69:220 70:227 71:231 72:221 73:117 74:142 75:133 76:133 77:150 78:133 79:164 80:143 81:148 82:146 83:131 84:147 85:237 86:143 87:252 88:134 89:268 90:134 91:281 92:143 93:269 94:147 95:253 96:146 97:146 98:265 99:169 100:257 101:190 102:252 103:205 104:256 105:220 106:252 107:239 108:257 109:258 110:264 111:239 112:272 113:220 114:272 115:205 116:272 117:189 118:272 119:169 120:272 121:153 122:265 123:189 124:262 125:205 126:263 127:219 128:261 129:252 130:264 131:220 132:262 133:205 134:263 135:190 136:261 
1.203356247942552e-10 1.691104458133068e-10 2.921295662347567e-10 0 1:41 2:134 3:45 4:173 5:48 6:213 7:56 8:251 9:79 10:283 11:109 12:303 13:142 14:318 15:174 16:328 17:205 18:333 19:233 20:325 21:257 22:309 23:279 24:290 25:299 26:266 27:312 28:237 29:316 30:204 31:318 32:171 33:320 34:137 35:88 36:112 37:109 38:103 39:132 40:103 41:155 42:108 43:176 44:118 45:226 46:118 47:247 48:108 49:268 50:102 51:290 52:101 53:309 54:111 55:201 56:136 57:202 58:157 59:203 60:179 61:205 62:200 63:180 64:217 65:191 66:221 67:204 68:225 69:214 70:221 71:224 72:216 73:120 74:139 75:134 76:133 77:150 78:133 79:163 80:142 81:148 82:147 83:132 84:147 85:237 86:143 87:250 88:133 89:267 90:133 91:281 92:140 93:268 94:147 95:252 96:147 97:153 98:262 99:176 100:252 101:194 102:248 103:207 104:250 105:217 106:246 107:232 108:250 109:246 110:258 111:233 112:269 113:219 114:275 115:208 116:276 117:195 118:276 119:176 120:272 121:160 122:261 123:195 124:257 125:206 126:257 127:217 128:256 129:238 130:258 131:218 132:261 133:207 134:263 135:195 136:262 
7.222403516372888e-10 1.028024129740393e-09 1.320885491633627e-09 9.756883506086117e-11 1:81 2:146 3:79 4:177 5:81 6:211 7:85 8:241 9:97 10:270 11:114 12:295 13:136 14:315 15:162 16:332 17:190 18:338 19:217 20:335 21:241 22:321 23:262 24:303 25:282 26:279 27:297 28:251 29:306 30:220 31:312 32:189 33:314 34:156 35:103 36:106 37:118 38:94 39:137 40:92 41:157 42:95 43:174 44:104 45:226 46:103 47:245 48:93 49:265 50:91 51:285 52:95 53:302 54:107 55:200 56:138 57:200 58:162 59:200 60:185 61:199 62:209 63:178 64:226 65:189 66:231 67:199 68:235 69:210 70:231 71:220 72:227 73:118 74:140 75:132 76:130 77:150 78:131 79:164 80:145 81:148 82:148 83:130 84:148 85:237 86:146 87:253 88:132 89:269 90:130 91:282 92:141 93:271 94:148 95:253 96:148 97:159 98:270 99:172 100:258 101:187 102:252 103:198 104:255 105:209 106:252 107:225 108:259 109:237 110:273 111:224 112:286 113:209 114:292 115:197 116:294 117:185 118:291 119:171 120:283 121:166 122:269 123:187 124:268 125:198 126:269 127:208 128:269 129:231 130:272 131:208 132:272 133:198 134:273 135:187 136:271 
2.408748850537753e-10 2.911420366524509e-10 3.809022335034748e-10 0 1:69 2:134 3:72 4:174 5:81 6:212 7:90 8:248 9:106 10:281 11:128 12:312 13:155 14:340 15:185 16:363 17:218 18:370 19:252 20:359 21:277 22:335 23:299 24:305 25:320 26:274 27:335 28:240 29:343 30:203 31:346 32:166 33:346 34:129 35:86 36:117 37:106 38:100 39:131 40:99 41:156 42:105 43:181 44:117 45:226 46:117 47:250 48:108 49:272 50:104 51:296 52:103 53:316 54:112 55:203 56:142 57:205 58:168 59:205 60:194 61:207 62:222 63:176 64:234 65:191 66:238 67:207 68:243 69:222 70:237 71:235 72:230 73:119 74:140 75:134 76:132 77:152 78:134 79:167 80:147 81:150 82:149 83:133 84:148 85:242 86:143 87:257 88:131 89:275 90:130 91:293 92:135 93:277 94:142 95:259 96:144 97:152 98:281 99:172 100:270 101:192 102:264 103:205 104:266 105:219 106:263 107:243 108:266 109:266 110:272 111:248 112:300 113:227 114:316 115:212 116:320 117:197 118:318 119:176 120:305 121:161 122:281 123:194 124:278 125:206 126:279 127:220 128:276 129:257 130:275 131:224 132:296 133:209 134:299 135:196 136:298 
3.835711342946054e-10 5.674428421246009e-10 1.938251690849322e-10 5.771809565221751e-12 1:71 2:133 3:74 4:168 5:80 6:204 7:87 8:238 9:97 10:270 11:114 12:298 13:135 14:321 15:161 16:336 17:193 18:334 19:223 20:325 21:252 22:305 23:279 24:285 25:304 26:261 27:320 28:234 29:328 30:201 31:332 32:166 33:333 34:133 35:91 36:115 37:111 38:101 39:135 40:100 41:159 42:104 43:181 44:115 45:221 46:114 47:243 48:104 49:265 50:100 51:287 52:103 53:303 54:116 55:202 56:141 57:201 58:167 59:200 60:193 61:199 62:219 63:175 64:227 65:187 66:232 67:199 68:237 69:210 70:233 71:222 72:229 73:117 74:138 75:132 76:129 77:151 78:132 79:165 80:148 81:149 82:148 83:130 84:147 85:237 86:148 87:251 88:132 89:269 90:130 91:282 92:139 93:271 94:146 95:254 96:149 97:147 98:249 99:167 100:249 101:185 102:248 103:199 104:252 105:214 106:249 107:231 108:250 109:247 110:250 111:230 112:269 113:212 114:279 115:196 116:280 117:181 118:277 119:163 120:267 121:153 122:251 123:185 124:260 125:199 126:262 127:214 128:261 129:242 130:253 131:212 132:261 133:197 134:263 135:183 136:260 
7.557959731127875e-11 2.630403609107315e-10 6.183402754167294e-11 1.054287232701137e-11 1:-34 2:155 3:-30 4:204 5:-25 6:254 7:-11 8:300 9:18 10:337 11:63 12:363 13:115 14:382 15:164 16:391 17:210 18:392 19:242 20:382 21:263 22:353 23:284 24:321 25:300 26:287 27:310 28:251 29:315 30:215 31:312 32:180 33:305 34:148 35:69 36:110 37:100 38:95 39:134 40:88 41:170 42:88 43:201 44:99 45:241 46:103 47:259 48:95 49:277 50:89 51:294 52:89 53:306 54:99 55:223 56:147 57:231 58:170 59:239 60:194 61:248 62:218 63:203 64:244 65:220 66:247 67:236 68:249 69:247 70:246 71:256 72:241 73:110 74:147 75:132 76:139 77:153 78:137 79:168 80:149 81:152 82:154 83:132 84:154 85:242 86:150 87:259 88:141 89:276 90:139 91:286 92:147 93:277 94:153 95:260 96:153 97:153 98:299 99:188 100:287 101:219 102:278 103:234 104:281 105:245 106:276 107:255 108:281 109:256 110:295 111:251 112:317 113:243 114:328 115:229 116:332 117:213 118:332 119:184 120:325 121:163 122:300 123:217 124:293 125:232 126:293 127:244 128:291 129:250 130:295 131:243 132:307 133:230 134:310 135:215 136:310 
1.943211697543376e-10 0 0 0 1:48 2:114 3:50 4:155 5:57 6:195 7:67 8:235 9:84 10:272 11:107 12:304 13:135 14:330 15:167 16:349 17:199 18:355 19:228 20:347 21:251 22:319 23:273 24:288 25:295 26:254 27:313 28:221 29:323 30:184 31:328 32:149 33:327 34:116 35:87 36:101 37:114 38:98 39:139 40:103 41:163 42:111 43:187 44:119 45:225 46:117 47:242 48:108 49:261 50:102 51:282 52:96 53:305 54:96 55:207 56:143 57:210 58:169 59:214 60:196 61:217 62:222 63:187 64:235 65:199 66:240 67:210 68:244 69:220 70:240 71:229 72:235 73:118 74:138 75:134 76:134 77:152 78:136 79:165 80:145 81:149 82:149 83:132 84:148 85:239 86:144 87:251 88:136 89:268 90:134 91:281 92:139 93:270 94:148 95:254 96:149 97:164 98:275 99:180 100:268 101:196 102:263 103:208 104:267 105:221 106:263 107:232 108:268 109:241 110:274 111:231 112:288 113:220 114:297 115:206 116:299 117:194 118:296 119:179 120:289 121:171 122:275 123:195 124:275 125:207 126:278 127:219 128:275 129:236 130:276 131:220 132:278 133:207 134:281 135:195 136:278 
0 1.156908315679591e-10 0 2.953836781843192e-11 1:79 2:143 3:82 4:179 5:89 6:214 7:99 8:250 9:114 10:285 11:135 12:315 13:156 14:340 15:184 16:360 17:219 18:368 19:258 20:364 21:298 22:344 23:328 24:316 25:351 26:283 27:366 28:247 29:373 30:208 31:372 32:168 33:369 34:130 35:96 36:108 37:111 38:95 39:133 40:94 41:155 42:98 43:175 44:107 45:226 46:109 47:248 48:100 49:270 50:96 51:292 52:100 53:309 54:112 55:202 56:137 57:201 58:159 59:200 60:181 61:198 62:202 63:177 64:221 65:188 66:226 67:201 68:230 69:213 70:227 71:226 72:224 73:123 74:139 75:134 76:131 77:151 78:133 79:165 80:144 81:150 82:147 83:133 84:147 85:239 86:146 87:250 88:135 89:267 90:134 91:283 92:142 93:269 94:149 95:253 96:151 97:165 98:271 99:177 100:261 101:192 102:258 103:205 104:261 105:220 106:258 107:242 108:265 109:265 110:277 111:243 112:285 113:223 114:288 115:206 116:289 117:193 118:287 119:178 120:283 121:171 122:271 123:193 124:274 125:206 126:275 127:221 128:275 129:255 130:275 131:221 132:270 133:206 134:269 135:193 136:268 
0 3.143853153061128e-11 7.603921766502487e-11 0 1:51 2:88 3:48 4:129 5:52 6:175 7:67 8:218 9:89 10:255 11:115 12:290 13:141 14:322 15:170 16:353 17:204 18:362 19:243 20:358 21:276 22:334 23:305 24:301 25:334 26:266 27:353 28:228 29:366 30:187 31:372 32:139 33:370 34:95 35:85 36:89 37:106 38:85 39:127 40:91 41:149 42:99 43:170 44:108 45:229 46:111 47:253 48:99 49:280 50:90 51:307 52:87 53:333 54:93 55:198 56:140 57:195 58:170 59:191 60:200 61:188 62:229 63:166 64:240 65:180 66:246 67:194 68:251 69:209 70:245 71:224 72:239 73:112 74:130 75:127 76:122 77:150 78:123 79:167 80:139 81:148 82:144 83:126 84:143 85:241 86:138 87:257 88:120 89:281 90:118 91:302 92:125 93:284 94:140 95:260 96:142 97:155 98:284 99:169 100:279 101:184 102:275 103:198 104:280 105:211 106:274 107:230 108:276 109:251 110:277 111:232 112:295 113:214 114:306 115:199 116:309 117:185 118:308 119:172 120:299 121:162 122:287 123:185 124:287 125:199 126:289 127:212 128:286 129:243 130:280 131:213 132:286 133:199 134:289 135:186 136:288 
0 5.953493860722257e-11 1.522356662087486e-11 0 1:45 2:149 3:44 4:185 5:46 6:223 7:53 8:260 9:68 10:293 11:93 12:323 13:124 14:348 15:156 16:368 17:190 18:375 19:223 20:370 21:249 22:348 23:272 24:321 25:292 26:289 27:306 28:255 29:315 30:219 31:323 32:182 33:324 34:147 35:97 36:118 37:116 38:108 39:137 40:105 41:161 42:106 43:185 44:111 45:223 46:114 47:246 48:108 49:269 50:107 51:290 52:112 53:306 54:126 55:207 56:136 57:209 58:157 59:210 60:178 61:212 62:200 63:176 64:224 65:192 66:228 67:207 68:231 69:222 70:229 71:236 72:226 73:119 74:141 75:134 76:137 77:149 78:136 79:163 80:141 81:149 82:143 83:134 84:144 85:239 86:141 87:252 88:135 89:267 90:137 91:281 92:142 93:267 94:144 95:252 96:144 97:153 98:286 99:174 100:277 101:194 102:270 103:206 104:276 105:217 106:272 107:234 108:281 109:246 110:292 111:232 112:304 113:215 114:310 115:203 116:309 117:191 118:306 119:173 120:299 121:162 122:286 123:194 124:285 125:206 126:288 127:216 128:287 129:240 130:291 131:215 132:289 133:205 134:290 135:193 136:287 
4.776704821991105e-10 1.262111011259354e-09 2.67884342308926e-10 0 1:50 2:119 3:50 4:159 5:55 6:201 7:65 8:236 9:83 10:269 11:106 12:301 13:133 14:329 15:162 16:354 17:195 18:361 19:227 20:353 21:257 22:328 23:286 24:302 25:314 26:274 27:333 28:240 29:345 30:204 31:350 32:165 33:349 34:128 35:89 36:96 37:112 38:84 39:136 40:85 41:162 42:91 43:187 44:102 45:234 46:105 47:254 48:96 49:275 50:91 51:297 52:90 53:316 54:97 55:207 56:134 57:207 58:163 59:207 60:191 61:208 62:220 63:181 64:238 65:193 66:243 67:206 68:246 69:219 70:242 71:231 72:236 73:116 74:138 75:129 76:131 77:149 78:131 79:167 80:140 81:148 82:145 83:129 84:145 85:244 86:139 87:259 88:128 89:279 90:128 91:294 92:136 93:279 94:143 95:260 96:143 97:159 98:283 99:175 100:275 101:191 102:270 103:205 104:275 105:217 106:270 107:231 108:273 109:245 110:281 111:230 112:297 113:217 114:308 115:203 116:310 117:188 118:307 119:173 120:300 121:166 122:283 123:191 124:282 125:205 126:284 127:217 128:281 129:237 130:281 131:216 132:284 133:203 134:287 135:189 136:284 
0 1.555598612828862e-12 0 1.160626874385758e-11 1:55 2:151 3:51 4:186 5:54 6:224 7:64 8:258 9:83 10:290 11:107 12:315 13:131 14:331 15:158 16:344 17:187 18:347 19:216 20:343 21:245 22:328 23:276 24:314 25:302 26:294 27:324 28:265 29:335 30:233 31:338 32:199 33:337 34:166 35:87 36:106 37:109 38:95 39:134 40:96 41:159 42:101 43:182 44:113 45:228 46:112 47:251 48:102 49:273 50:98 51:294 52:98 53:311 54:107 55:205 56:140 57:205 58:165 59:206 60:188 61:206 62:212 63:176 64:247 65:190 66:251 67:203 68:254 69:216 70:253 71:227 72:251 73:119 74:143 75:133 76:132 77:152 78:132 79:164 80:145 81:150 82:151 83:133 84:150 85:241 86:145 87:254 88:133 89:271 90:133 91:283 92:143 93:273 94:151 95:257 96:151 97:142 98:300 99:170 100:300 101:188 102:296 103:197 104:301 105:208 106:298 107:221 108:304 109:241 110:301 111:216 112:287 113:203 114:280 115:192 116:281 117:183 118:280 119:167 120:286 121:149 122:299 123:187 124:311 125:196 126:312 127:207 128:312 129:233 130:302 131:203 132:265 133:193 134:265 135:185 136:266 
5.323228452024401e-10 6.679280600517204e-10 1.445355862191792e-10 0 1:60 2:153 3:63 4:189 5:72 6:224 7:79 8:258 9:90 10:292 11:109 12:322 13:135 14:344 15:166 16:358 17:203 18:362 19:238 20:357 21:266 22:341 23:286 24:314 25:301 26:282 27:310 28:248 29:318 30:214 31:326 32:179 33:330 34:145 35:90 36:112 37:108 38:97 39:131 40:93 41:156 42:97 43:180 44:105 45:220 46:103 47:244 48:94 49:269 50:90 51:293 52:94 53:309 54:110 55:203 56:136 57:204 58:160 59:205 60:183 61:206 62:206 63:179 64:231 65:192 66:234 67:204 68:237 69:216 70:235 71:228 72:232 73:116 74:141 75:131 76:131 77:149 78:132 79:164 80:143 81:148 82:147 83:130 84:147 85:236 86:145 87:251 88:133 89:269 90:133 91:283 92:142 93:271 94:149 95:253 96:149 97:154 98:280 99:176 100:270 101:193 102:263 103:204 104:267 105:215 106:263 107:228 108:271 109:244 110:279 111:228 112:290 113:215 114:294 115:203 116:295 117:191 118:295 119:174 120:291 121:162 122:280 123:192 124:279 125:203 126:280 127:214 128:279 129:237 130:279 131:214 132:280 133:203 134:282 135:192 136:281 
1.85931615345864e-10 0 0 0 1:69 2:138 3:69 4:173 5:74 6:209 7:78 8:243 9:86 10:277 11:101 12:310 13:123 14:335 15:152 16:355 17:189 18:362 19:227 20:359 21:264 22:342 23:295 24:320 25:319 26:290 27:332 28:254 29:338 30:218 31:345 32:180 33:349 34:142 35:96 36:99 37:115 38:87 39:138 40:92 41:159 42:101 43:180 44:111 45:221 46:110 47:244 48:100 49:267 50:93 51:292 52:91 53:311 54:106 55:197 56:136 57:195 58:160 59:193 60:184 61:191 62:209 63:169 64:226 65:180 66:231 67:192 68:235 69:206 70:230 71:220 72:225 73:120 74:141 75:134 76:134 77:151 78:135 79:163 80:143 81:149 82:147 83:133 84:147 85:238 86:144 87:252 88:135 89:269 90:135 91:283 92:143 93:269 94:148 95:253 96:147 97:147 98:278 99:164 100:264 101:180 102:256 103:194 104:260 105:208 106:255 107:227 108:264 109:247 110:277 111:229 112:290 113:210 114:295 115:194 116:297 117:180 118:295 119:164 120:290 121:155 122:277 123:180 124:273 125:194 126:274 127:208 128:272 129:239 130:276 131:209 132:275 133:194 134:276 135:181 136:274 
0.999999999338686 0 0 0 1:66 2:149 3:67 4:184 5:69 6:220 7:74 8:256 9:84 10:289 11:101 12:319 13:124 14:344 15:153 16:361 17:190 18:367 19:228 20:361 21:263 22:342 23:293 24:318 25:317 26:289 27:331 28:255 29:338 30:218 31:342 32:183 33:344 34:149 35:90 36:106 37:108 38:93 39:132 40:95 41:155 42:99 43:179 44:107 45:221 46:107 47:246 48:99 49:270 50:96 51:294 52:98 53:313 54:111 55:198 56:136 57:198 58:157 59:197 60:178 61:196 62:200 63:170 64:219 65:183 66:222 67:197 68:225 69:211 70:222 71:225 72:218 73:117 74:141 75:132 76:133 77:150 78:134 79:164 80:144 81:148 82:146 83:131 84:145 85:237 86:143 87:252 88:134 89:269 90:133 91:284 92:142 93:270 94:146 95:253 96:146 97:144 98:262 99:160 100:247 101:181 102:243 103:197 104:245 105:214 106:243 107:235 108:249 109:253 110:265 111:234 112:288 113:212 114:298 115:193 116:300 117:175 118:297 119:156 120:284 121:149 122:262 123:180 124:254 125:197 126:256 127:213 128:255 129:248 130:265 131:212 132:279 133:195 134:281 135:177 136:278 
1.909255989345435e-10 0 1.968147806297466e-10 0 1:95 2:140 3:95 4:171 5:99 6:201 7:107 8:232 9:119 10:264 11:135 12:295 13:151 14:324 15:172 16:348 17:197 18:356 19:226 20:353 21:256 22:332 23:281 24:307 25:302 26:279 27:321 28:250 29:331 30:217 31:338 32:182 33:340 34:146 35:97 36:109 37:110 38:97 39:130 40:96 41:151 42:101 43:172 44:111 45:214 46:109 47:239 48:98 49:266 50:93 51:292 52:97 53:312 54:112 55:192 56:140 57:190 58:165 59:187 60:189 61:185 62:212 63:169 64:230 65:178 66:233 67:189 68:236 69:201 70:233 71:213 72:230 73:120 74:140 75:132 76:133 77:149 78:133 79:163 80:144 81:147 82:147 83:131 84:146 85:235 86:145 87:251 88:134 89:270 90:133 91:284 92:141 93:270 94:147 95:252 96:147 97:153 98:275 99:163 100:263 101:178 102:258 103:191 104:262 105:203 106:258 107:224 108:264 109:241 110:278 111:225 112:299 113:207 114:307 115:193 116:308 117:179 118:305 119:164 120:296 121:162 122:276 123:179 124:274 125:192 126:275 127:205 128:274 129:232 130:278 131:205 132:283 133:192 134:283 135:179 136:280 
2.622854918153732e-11 1.028734922955568e-10 0 0 1:24 2:120 3:28 4:166 5:33 6:212 7:42 8:256 9:59 10:295 11:86 12:329 13:120 14:357 15:158 16:376 17:198 18:377 19:235 20:369 21:258 22:341 23:279 24:312 25:296 26:280 27:307 28:246 29:312 30:212 31:317 32:178 33:318 34:144 35:83 36:116 37:104 38:96 39:133 40:91 41:163 42:96 43:189 44:109 45:228 46:110 47:252 48:99 49:277 50:94 51:300 52:99 53:310 54:120 55:209 56:137 57:211 58:169 59:212 60:201 61:214 62:233 63:172 64:236 65:192 66:244 67:211 68:251 69:226 70:243 71:239 72:234 73:119 74:140 75:135 76:134 77:152 78:136 79:165 80:144 81:150 82:146 83:133 84:145 85:239 86:143 87:254 88:133 89:270 90:133 91:283 92:140 93:271 94:144 95:255 96:145 97:129 98:271 99:159 100:266 101:187 102:266 103:206 104:270 105:223 106:266 107:240 108:265 109:253 110:268 111:239 112:297 113:223 114:312 115:203 116:316 117:182 118:314 119:156 120:299 121:137 122:273 123:186 124:273 125:206 126:276 127:223 128:273 129:246 130:271 131:222 132:291 133:203 134:296 135:183 136:294 
0 0 8.661322926177907e-11 0 1:78 2:143 3:80 4:175 5:86 6:208 7:95 8:242 9:107 10:272 11:124 12:300 13:144 14:325 15:169 16:345 17:201 18:351 19:234 20:348 21:265 22:331 23:291 24:309 25:314 26:283 27:331 28:252 29:340 30:215 31:347 32:180 33:351 34:144 35:92 36:112 37:111 38:102 39:131 40:103 41:151 42:106 43:171 44:114 45:216 46:116 47:242 48:108 49:269 50:106 51:293 52:108 53:316 54:116 55:194 56:139 57:192 58:160 59:191 60:182 61:189 62:203 63:171 64:221 65:181 66:226 67:192 68:229 69:205 70:225 71:217 72:221 73:117 74:141 75:131 76:132 77:150 78:132 79:164 80:145 81:148 82:147 83:131 84:147 85:235 86:144 87:250 88:132 89:269 90:132 91:285 92:141 93:270 94:147 95:252 96:147 97:154 98:265 99:169 100:257 101:185 102:250 103:196 104:253 105:207 106:250 107:228 108:256 109:250 110:262 111:228 112:275 113:208 114:281 115:196 116:282 117:184 118:281 119:170 120:277 121:161 122:266 123:185 124:263 125:197 126:265 127:208 128:264 129:242 130:264 131:207 132:264 133:196 134:266 135:185 136:265 
0 6.216029459240726e-10 3.617621565762454e-10 0 1:67 2:117 3:67 4:149 5:72 6:183 7:77 8:217 9:86 10:251 11:104 12:278 13:130 14:297 15:163 16:307 17:195 18:310 19:226 20:308 21:258 22:297 23:284 24:280 25:301 26:253 27:311 28:221 29:316 30:186 31:321 32:152 33:321 34:117 35:91 36:114 37:108 38:102 39:130 40:99 41:152 42:104 43:172 44:114 45:225 46:104 47:244 48:94 49:265 50:89 51:285 52:90 53:301 54:100 55:199 56:138 57:200 58:162 59:201 60:185 61:201 62:209 63:179 64:224 65:189 66:229 67:199 68:232 69:209 70:230 71:218 72:227 73:116 74:140 75:131 76:131 77:151 78:131 79:165 80:146 81:149 82:151 83:129 84:151 85:234 86:146 87:249 88:130 89:269 90:127 91:283 92:136 93:272 94:150 95:252 96:151 97:158 98:270 99:174 100:263 101:187 102:258 103:197 104:262 105:207 106:259 107:219 108:266 109:234 110:273 111:216 112:270 113:204 114:269 115:193 116:270 117:183 118:267 119:172 120:266 121:165 122:269 123:186 124:271 125:196 126:274 127:206 128:273 129:226 130:272 131:204 132:251 133:194 134:252 135:184 136:250 
4.006441238379056e-10 0 1.617373304978303e-10 0 1:79 2:130 3:79 4:165 5:83 6:203 7:90 8:239 9:101 10:274 11:120 12:305 13:143 14:332 15:167 16:355 17:201 18:361 19:235 20:354 21:263 22:334 23:287 24:308 25:307 26:279 27:320 28:246 29:326 30:210 31:330 32:170 33:330 34:132 35:95 36:115 37:114 38:104 39:137 40:106 41:158 42:112 43:180 44:122 45:222 46:122 47:243 48:110 49:266 50:103 51:289 52:100 53:308 54:111 55:199 56:146 57:199 58:173 59:198 60:200 61:197 62:227 63:172 64:235 65:185 66:241 67:199 68:247 69:212 70:242 71:225 72:236 73:119 74:139 75:133 76:131 77:151 78:133 79:165 80:144 81:149 82:147 83:131 84:146 85:237 86:144 87:251 88:133 89:269 90:131 91:283 92:138 93:271 94:146 95:254 96:147 97:148 98:268 99:165 100:265 101:183 102:263 103:197 104:267 105:212 106:264 107:233 108:268 109:257 110:270 111:234 112:288 113:213 114:296 115:197 116:297 117:181 118:295 119:164 120:286 121:154 122:272 123:183 124:273 125:198 126:276 127:212 128:275 129:250 130:274 131:212 132:276 133:197 134:278 135:182 136:275 
1.755016766193049e-10 4.22447466455276e-10 4.68180365954389e-11 3.693901559790939e-11 1:114 2:141 3:112 4:177 5:119 6:215 7:131 8:253 9:142 10:288 11:152 12:324 13:159 14:357 15:172 16:385 17:202 18:399 19:243 20:395 21:291 22:373 23:333 24:345 25:367 26:309 27:393 28:269 29:402 30:219 31:406 32:166 33:408 34:114 35:103 36:92 37:115 38:90 39:128 40:96 41:143 42:103 43:157 44:112 45:197 46:112 47:225 48:98 49:258 50:87 51:292 52:85 53:326 54:94 55:171 56:147 57:163 58:172 59:153 60:197 61:144 62:224 63:135 64:245 65:145 66:253 67:160 68:256 69:180 70:251 71:204 72:245 73:118 74:137 75:131 76:128 77:148 78:130 79:160 80:146 81:145 82:147 83:128 84:146 85:229 86:146 87:248 88:130 89:270 90:127 91:292 92:137 93:273 94:147 95:250 96:149 97:150 98:295 99:154 100:288 101:164 102:285 103:176 104:289 105:192 106:283 107:225 108:285 109:260 110:289 111:233 112:315 113:203 114:327 115:186 116:329 117:173 118:327 119:161 120:317 121:158 122:296 123:167 124:298 125:179 126:299 127:195 128:296 129:249 130:289 131:199 132:304 133:183 134:306 135:170 136:302 
0 1.059950412447162e-13 1.051783005754786e-10 1.414276541860296e-10 1:27 2:166 3:23 4:210 5:26 6:256 7:39 8:299 9:59 10:340 11:86 12:374 13:117 14:399 15:158 16:408 17:203 18:406 19:246 20:403 21:277 22:386 23:299 24:358 25:317 26:322 27:331 28:283 29:338 30:244 31:340 32:205 33:334 34:166 35:83 36:108 37:105 38:93 39:131 40:84 41:159 42:82 43:183 44:93 45:219 46:92 47:243 48:82 49:269 50:84 51:291 52:92 53:305 54:111 55:201 56:138 57:202 58:167 59:204 60:195 61:205 62:223 63:175 64:261 65:189 66:265 67:203 68:267 69:216 70:264 71:228 72:259 73:111 74:145 75:126 76:130 77:147 78:128 79:162 80:144 81:145 82:152 83:125 84:152 85:234 86:143 87:250 88:127 89:272 90:128 91:284 92:144 93:272 94:152 95:252 96:151 97:147 98:333 99:170 100:321 101:189 102:312 103:202 104:317 105:214 106:311 107:227 108:320 109:243 110:330 111:226 112:317 113:214 114:315 115:202 116:316 117:188 118:316 119:170 120:320 121:155 122:331 123:188 124:331 125:201 126:332 127:213 128:330 129:234 130:328 131:213 132:298 133:202 134:299 135:189 136:299 
7.250364512552236e-10 7.693719224720035e-10 3.688193724092855e-10 0 1:62 2:159 3:64 4:192 5:72 6:224 7:86 8:256 9:103 10:283 11:123 12:307 13:146 14:326 15:176 16:340 17:205 18:344 19:233 20:339 21:260 22:323 23:282 24:302 25:299 26:276 27:311 28:247 29:318 30:215 31:321 32:184 33:321 34:153 35:85 36:119 37:102 38:100 39:128 40:93 41:156 42:97 43:182 44:108 45:218 46:99 47:243 48:90 49:269 50:91 51:292 52:99 53:308 54:118 55:203 56:130 57:204 58:152 59:206 60:174 61:207 62:196 63:183 64:218 65:194 66:221 67:206 68:222 69:216 70:221 71:226 72:219 73:116 74:141 75:131 76:133 77:150 78:133 79:165 80:144 81:149 82:144 83:132 84:145 85:237 86:144 87:252 88:133 89:269 90:133 91:283 92:143 93:269 94:146 95:253 96:145 97:165 98:271 99:178 100:251 101:194 102:241 103:205 104:245 105:217 106:242 107:232 108:253 109:242 110:273 111:230 112:285 113:216 114:291 115:202 116:292 117:190 118:291 119:177 120:284 121:173 122:268 123:193 124:258 125:204 126:259 127:217 128:260 129:235 130:269 131:216 132:267 133:203 134:269 135:192 136:267 
0 2.855680698476755e-16 4.403069437644839e-11 1.025745349168021e-11 1:68 2:157 3:72 4:190 5:78 6:223 7:91 8:256 9:110 10:287 11:131 12:313 13:154 14:336 15:180 16:355 17:210 18:365 19:236 20:366 21:265 22:355 23:287 24:333 25:310 26:305 27:330 28:274 29:340 30:237 31:335 32:194 33:325 34:155 35:93 36:112 37:110 38:97 39:132 40:95 41:155 42:101 43:178 44:110 45:222 46:109 47:243 48:99 49:265 50:94 51:285 52:97 53:300 54:110 55:201 56:145 57:203 58:171 59:204 60:196 61:206 62:220 63:176 64:227 65:193 66:237 67:212 68:243 69:231 70:239 71:245 72:234 73:120 74:137 75:134 76:129 77:151 78:130 79:165 80:146 81:150 82:148 83:132 84:147 85:239 86:148 87:254 88:133 89:272 90:132 91:284 92:144 93:274 94:150 95:256 96:151 97:166 98:278 99:184 100:270 101:202 102:270 103:215 104:276 105:230 106:274 107:250 108:281 109:267 110:292 111:248 112:307 113:227 114:312 115:211 116:311 117:198 118:308 119:181 120:301 121:172 122:279 123:202 124:280 125:215 126:283 127:230 128:284 129:260 130:291 131:226 132:296 133:210 134:296 135:197 136:293 
-1.470861202619188e-10 1.77330518203925e-10 1.109417046887931e-10 6.655833306583549e-12 1:27 2:130 3:19 4:173 5:20 6:220 7:33 8:262 9:57 10:298 11:84 12:328 13:111 14:353 15:139 16:376 17:175 18:382 19:211 20:383 21:240 22:363 23:267 24:336 25:298 26:303 27:326 28:266 29:343 30:223 31:351 32:176 33:352 34:133 35:92 36:103 37:113 38:99 39:135 40:103 41:158 42:109 43:181 44:116 45:219 46:121 47:239 48:111 49:259 50:103 51:280 52:95 53:305 54:93 55:198 56:146 57:199 58:177 59:200 60:209 61:200 62:242 63:170 64:265 65:183 66:268 67:195 68:269 69:210 70:267 71:224 72:263 73:113 74:140 75:129 76:136 77:147 78:135 79:161 80:145 81:144 82:150 83:127 84:150 85:236 86:143 87:250 88:133 89:268 90:133 91:282 92:138 93:267 94:148 95:251 96:148 97:147 98:318 99:166 100:320 101:182 102:314 103:191 104:318 105:199 106:314 107:210 108:319 109:226 110:324 111:207 112:317 113:195 114:314 115:186 116:315 117:177 118:316 119:162 120:317 121:157 122:322 123:181 124:329 125:190 126:329 127:197 128:330 129:219 130:324 131:196 132:293 133:189 134:293 135:180 136:294 
-0 9.611620477357629e-10 7.872113626209474e-10 0 1:68 2:121 3:73 4:158 5:80 6:193 7:87 8:228 9:98 10:262 11:119 12:290 13:144 14:315 15:172 16:337 17:203 18:345 19:236 20:339 21:267 22:318 23:295 24:294 25:320 26:266 27:334 28:233 29:342 30:196 31:349 32:157 33:352 34:118 35:87 36:105 37:106 38:93 39:129 40:94 41:151 42:98 43:173 44:107 45:217 46:106 47:242 48:97 49:266 50:92 51:291 52:91 53:314 54:101 55:197 56:137 57:196 58:163 59:196 60:190 61:195 62:216 63:173 64:229 65:185 66:234 67:197 68:237 69:209 70:233 71:221 72:229 73:117 74:138 75:133 76:132 77:150 78:133 79:164 80:146 81:148 82:148 83:130 84:146 85:236 86:146 87:251 88:133 89:268 90:131 91:284 92:138 93:271 94:145 95:253 96:147 97:157 98:262 99:174 100:259 101:188 102:255 103:199 104:258 105:210 106:255 107:227 108:259 109:247 110:263 111:228 112:280 113:211 114:287 115:199 116:289 117:187 118:287 119:173 120:280 121:165 122:265 123:188 124:268 125:199 126:269 127:210 128:268 129:240 130:264 131:210 132:268 133:198 134:269 135:187 136:268 
-3.297649496966445e-10 9.414274251124265e-11 1.735374042494403e-10 0 1:24 2:122 3:21 4:160 5:24 6:197 7:31 8:234 9:50 10:265 11:74 12:290 13:103 14:312 15:136 16:330 17:167 18:337 19:194 20:332 21:218 22:312 23:238 24:288 25:259 26:262 27:276 28:235 29:292 30:204 31:299 32:174 33:302 34:145 35:90 36:105 37:114 38:96 39:139 40:96 41:164 42:101 43:189 44:111 45:240 46:111 47:257 48:104 49:274 50:99 51:290 52:95 53:304 54:105 55:211 56:143 57:211 58:166 59:211 60:190 61:211 62:214 63:177 64:224 65:190 66:229 67:203 68:235 69:216 70:232 71:225 72:226 73:114 74:139 75:133 76:132 77:151 78:133 79:164 80:146 81:148 82:148 83:130 84:146 85:237 86:146 87:253 88:134 89:269 90:131 91:278 92:138 93:269 94:147 95:253 96:147 97:129 98:253 99:154 100:251 101:179 102:251 103:192 104:254 105:204 106:253 107:215 108:253 109:222 110:258 111:210 112:278 113:197 114:287 115:183 116:290 117:169 118:288 119:147 120:277 121:136 122:255 123:177 124:259 125:190 126:260 127:201 128:260 129:215 130:260 131:200 132:271 133:187 134:273 135:173 136:272 
-1.919563814851843e-10 0 2.874782469204322e-12 0 1:87 2:150 3:84 4:183 5:88 6:217 7:95 8:251 9:104 10:283 11:116 12:315 13:133 14:339 15:157 16:352 17:193 18:355 19:231 20:353 21:269 22:348 23:302 24:335 25:329 26:314 27:346 28:283 29:356 30:248 31:361 32:212 33:365 34:177 35:104 36:116 37:115 38:99 39:135 40:92 41:157 42:93 43:179 44:101 45:215 46:103 47:240 48:93 49:269 50:93 51:296 52:99 53:318 54:116 55:191 56:133 57:189 58:154 59:185 60:175 61:182 62:196 63:167 64:223 65:175 66:227 67:186 68:229 69:198 70:226 71:210 72:223 73:120 74:143 75:131 76:130 77:147 78:131 79:162 80:144 81:146 82:147 83:130 84:147 85:237 86:144 87:249 88:129 89:268 90:130 91:285 92:143 93:268 94:146 95:250 96:146 97:153 98:281 99:161 100:258 101:175 102:247 103:187 104:250 105:200 106:246 107:220 108:257 109:236 110:281 111:220 112:297 113:202 114:303 115:188 116:303 117:175 118:302 119:162 120:296 121:160 122:280 123:176 124:266 125:187 126:265 127:200 128:265 129:229 130:279 131:201 132:283 133:188 134:284 135:176 136:283 
-0 0 2.429226783624507e-10 9.538001189075912e-12 1:74 2:148 3:69 4:186 5:69 6:228 7:77 8:269 9:87 10:307 11:100 12:345 13:118 14:376 15:141 16:401 17:174 18:409 19:220 20:409 21:273 22:400 23:326 24:386 25:370 26:356 27:397 28:314 29:405 30:262 31:409 32:210 33:413 34:159 35:76 36:86 37:91 38:75 39:110 40:71 41:130 42:74 43:152 44:81 45:210 46:83 47:241 48:74 49:275 50:74 51:307 52:82 53:335 54:101 55:172 56:135 57:163 58:164 59:152 60:191 61:141 62:218 63:128 64:245 65:138 66:250 67:151 68:253 69:167 70:252 71:187 72:251 73:99 74:135 75:112 76:124 77:130 78:126 79:146 80:141 81:127 82:144 83:109 84:142 85:232 86:144 87:249 88:128 89:271 90:129 91:293 92:142 93:272 94:149 95:249 96:148 97:123 98:310 99:128 100:291 101:140 102:281 103:153 104:286 105:166 106:283 107:193 108:295 109:220 110:316 111:195 112:333 113:171 114:339 115:155 116:340 117:142 118:336 119:130 120:326 121:130 122:310 123:142 124:302 125:154 126:304 127:167 128:304 129:209 130:313 131:169 132:310 133:155 134:310 135:143 136:307 
-0 7.207115933227141e-11 0 1.394139187766862e-12 1:88 2:139 3:88 4:173 5:91 6:207 7:97 8:238 9:109 10:271 11:127 12:301 13:145 14:326 15:168 16:347 17:199 18:353 19:231 20:348 21:261 22:330 23:289 24:307 25:313 26:280 27:332 28:251 29:343 30:217 31:348 32:179 33:348 34:140 35:98 36:101 37:116 38:92 39:136 40:95 41:156 42:101 43:174 44:110 45:221 46:109 47:242 48:102 49:261 50:96 51:283 52:93 53:304 54:101 55:199 56:142 57:198 58:168 59:197 60:193 61:196 62:217 63:175 64:230 65:187 66:233 67:199 68:237 69:211 70:233 71:223 72:230 73:120 74:139 75:134 76:132 77:151 78:135 79:164 80:148 81:148 82:150 83:132 84:148 85:236 86:149 87:249 88:135 89:267 90:133 91:281 92:140 93:269 94:149 95:253 96:150 97:153 98:258 99:169 100:255 101:187 102:253 103:199 104:256 105:212 106:253 107:232 108:255 109:251 110:262 111:232 112:284 113:212 114:292 115:197 116:294 117:183 118:292 119:167 120:284 121:158 122:261 123:187 124:268 125:198 126:269 127:212 128:267 129:245 130:264 131:212 132:275 133:197 134:276 135:184 136:274 
-2.30335160858172e-10 1.719211642733133e-10 7.037197934406506e-11 0 1:7 2:133 3:10 4:176 5:18 6:220 7:36 8:261 9:61 10:297 11:92 12:326 13:127 14:346 15:166 16:356 17:199 18:352 19:227 20:339 21:248 22:319 23:272 24:297 25:290 26:268 27:301 28:238 29:308 30:207 31:306 32:178 33:301 34:149 35:87 36:103 37:115 38:96 39:141 40:94 41:167 42:97 43:190 44:107 45:240 46:106 47:254 48:98 49:268 50:95 51:282 52:93 53:294 54:98 55:219 56:136 57:224 58:159 59:228 60:183 61:234 62:206 63:193 64:225 65:209 66:230 67:224 68:234 69:236 70:229 71:246 72:223 73:113 74:140 75:132 76:131 77:152 78:131 79:168 80:143 81:151 82:146 83:132 84:146 85:237 86:142 87:250 88:130 89:268 90:129 91:280 92:138 93:269 94:144 95:253 96:144 97:134 98:262 99:168 100:252 101:200 102:248 103:218 104:251 105:234 106:247 107:250 108:249 109:260 110:256 111:247 112:279 113:232 114:294 115:214 116:299 117:196 118:298 119:165 120:287 121:141 122:263 123:200 124:260 125:217 126:261 127:233 128:258 129:254 130:259 131:232 132:277 133:216 134:282 135:198 136:283 
-0 0 0 9.441580482143063e-13 1:-49 2:149 3:-48 4:205 5:-42 6:267 7:-23 8:323 9:10 10:366 11:59 12:394 13:115 14:408 15:171 16:412 17:211 18:410 19:237 20:402 21:252 22:379 23:264 24:346 25:276 26:312 27:289 28:275 29:299 30:237 31:301 32:198 33:293 34:161 35:62 36:96 37:97 38:78 39:134 40:71 41:172 42:77 43:206 44:93 45:244 46:97 47:258 48:84 49:272 50:77 51:287 52:75 53:298 54:81 55:231 56:148 57:241 58:180 59:252 60:211 61:264 62:243 63:210 64:272 65:228 66:277 67:244 68:280 69:256 70:276 71:266 72:268 73:103 74:140 75:129 76:125 77:156 78:124 79:172 80:149 81:152 82:155 83:126 84:154 85:239 86:150 87:253 88:126 89:274 90:123 91:284 92:139 93:277 94:152 95:257 96:154 97:168 98:340 99:198 100:321 101:227 102:310 103:239 104:315 105:249 106:309 107:257 108:320 109:252 110:336 111:250 112:354 113:243 114:365 115:232 116:368 117:218 118:368 119:194 120:358 121:179 122:338 123:225 124:333 125:237 126:333 127:246 128:333 129:246 130:336 131:243 132:334 133:235 134:337 135:223 136:338 
-3.570369178874974e-10 5.416657627824506e-10 7.515172094481743e-10 0 1:71 2:121 3:73 4:158 5:79 6:196 7:86 8:233 9:97 10:266 11:116 12:297 13:139 14:323 15:168 16:342 17:201 18:347 19:234 20:340 21:264 22:321 23:288 24:294 25:309 26:263 27:322 28:228 29:331 30:192 31:338 32:154 33:341 34:118 35:90 36:109 37:109 38:95 39:132 40:95 41:154 42:101 43:177 44:110 45:218 46:110 47:241 48:101 49:264 50:96 51:288 52:96 53:309 54:108 55:198 56:138 57:197 58:166 59:196 60:192 61:195 62:219 63:172 64:230 65:184 66:236 67:196 68:240 69:209 70:235 71:222 72:229 73:117 74:139 75:131 76:132 77:149 78:134 79:162 80:145 81:146 82:147 83:129 84:145 85:237 86:146 87:250 88:135 89:267 90:133 91:283 92:141 93:269 94:146 95:252 96:148 97:149 98:262 99:167 100:257 101:185 102:253 103:198 104:256 105:210 106:252 107:229 108:256 109:249 110:261 111:229 112:279 113:211 114:288 115:198 116:290 117:183 118:288 119:166 120:280 121:156 122:265 123:184 124:268 125:198 126:269 127:211 128:268 129:243 130:264 131:211 132:268 133:197 134:271 135:184 136:269 
-6.510573170543061e-10 6.384541035705642e-10 0 0 1:53 2:129 3:56 4:169 5:65 6:208 7:73 8:245 9:88 10:280 11:112 12:309 13:142 14:332 15:173 16:351 17:205 18:356 19:233 20:347 21:254 22:323 23:273 24:296 25:290 26:268 27:302 28:236 29:309 30:202 31:312 32:169 33:310 34:136 35:87 36:112 37:108 38:97 39:136 40:95 41:162 42:103 43:186 44:116 45:226 46:115 47:246 48:104 49:266 50:96 51:288 52:95 53:304 54:108 55:206 56:140 57:207 58:162 59:209 60:186 61:210 62:210 63:179 64:224 65:193 66:228 67:207 68:232 69:219 70:228 71:231 72:224 73:119 74:138 75:133 76:132 77:150 78:135 79:164 80:144 81:148 82:146 83:131 84:145 85:238 86:145 87:251 88:135 89:268 90:133 91:281 92:140 93:270 94:147 95:254 96:148 97:144 98:263 99:168 100:259 101:187 102:256 103:203 104:260 105:217 106:256 107:234 108:258 109:249 110:262 111:235 112:281 113:218 114:290 115:203 116:293 117:187 118:291 119:166 120:283 121:151 122:264 123:187 124:265 125:203 126:268 127:217 128:265 129:243 130:264 131:217 132:268 133:203 134:272 135:188 136:269 
-0 0 3.415620504723695e-10 0 1:87 2:128 3:88 4:162 5:93 6:199 7:102 8:233 9:114 10:268 11:129 12:297 13:150 14:324 15:173 16:351 17:203 18:363 19:236 20:360 21:271 22:343 23:303 24:320 25:331 26:290 27:347 28:254 29:356 30:213 31:362 32:170 33:363 34:127 35:93 36:105 37:110 38:92 39:132 40:92 41:154 42:98 43:176 44:109 45:208 46:110 47:232 48:98 49:259 50:93 51:287 52:91 53:312 54:102 55:192 56:137 57:191 58:165 59:190 60:193 61:188 62:221 63:171 64:235 65:182 66:240 67:194 68:243 69:208 70:239 71:222 72:236 73:118 74:138 75:131 76:131 77:149 78:132 79:164 80:146 81:147 82:149 83:130 84:148 85:236 86:147 87:250 88:133 89:269 90:132 91:287 92:140 93:271 94:148 95:252 96:149 97:157 98:274 99:171 100:268 101:185 102:263 103:196 104:266 105:209 106:263 107:229 108:268 109:254 110:273 111:232 112:291 113:213 114:299 115:199 116:301 117:186 118:299 119:173 120:288 121:164 122:275 123:185 124:278 125:196 126:280 127:210 128:278 129:246 130:275 131:212 132:279 133:198 134:281 135:187 136:279 
-1.037364142189533e-10 0 5.034054821836326e-11 0 1:105 2:154 3:99 4:182 5:100 6:211 7:103 8:245 9:105 10:282 11:107 12:318 13:116 14:352 15:132 16:377 17:160 18:388 19:204 20:388 21:257 22:381 23:307 24:366 25:347 26:338 27:371 28:302 29:383 30:257 31:393 32:213 33:401 34:169 35:101 36:103 37:111 38:93 39:128 40:91 41:147 42:93 43:164 44:99 45:206 46:93 47:237 48:82 49:272 50:81 51:304 52:90 53:329 54:111 55:176 56:130 57:167 58:149 59:157 60:167 61:146 62:188 63:140 64:222 65:148 66:228 67:156 68:231 69:170 70:231 71:187 72:229 73:107 74:142 75:119 76:128 77:139 78:127 79:156 80:140 81:138 82:146 83:119 84:148 85:233 86:141 87:252 88:127 89:275 90:129 91:294 92:142 93:274 94:149 95:252 96:148 97:136 98:289 99:139 100:270 101:146 102:262 103:154 104:268 105:162 106:267 107:185 108:281 109:216 110:304 111:182 112:309 113:159 114:306 115:150 116:304 117:142 118:302 119:135 120:295 121:143 122:286 123:146 124:281 125:153 126:283 127:162 128:285 129:205 130:300 131:161 132:289 133:152 134:287 135:145 136:283 
-8.375063167389176e-10 8.128615366566575e-10 6.520085322157562e-10 0 1:65 2:128 3:70 4:165 5:78 6:200 7:88 8:234 9:101 10:266 11:122 12:295 13:147 14:321 15:177 16:341 17:207 18:346 19:235 20:339 21:260 22:318 23:281 24:295 25:298 26:269 27:310 28:238 29:318 30:205 31:326 32:171 33:330 34:136 35:88 36:102 37:106 38:89 39:129 40:87 41:153 42:92 43:175 44:104 45:223 46:106 47:246 48:97 49:270 50:93 51:293 52:96 53:310 54:109 55:202 56:135 57:203 58:159 59:204 60:185 61:205 62:210 63:184 64:225 65:195 66:230 67:206 68:233 69:216 70:229 71:225 72:223 73:116 74:138 75:131 76:129 77:151 78:131 79:166 80:146 81:149 82:150 83:129 84:148 85:237 86:146 87:251 88:132 89:270 90:130 91:285 92:138 93:273 94:148 95:254 96:149 97:165 98:270 99:180 100:259 101:196 102:253 103:208 104:256 105:219 106:252 107:233 108:257 109:246 110:266 111:235 112:285 113:222 114:294 115:210 116:296 117:197 118:295 119:180 120:288 121:173 122:270 123:196 124:269 125:208 126:269 127:220 128:268 129:238 130:268 131:221 132:272 133:209 134:274 135:197 136:273 
-0 2.353610281530349e-10 3.962763203671218e-10 0 1:61 2:109 3:67 4:146 5:76 6:184 7:85 8:219 9:98 10:255 11:118 12:286 13:143 14:311 15:172 16:330 17:202 18:336 19:233 20:332 21:264 22:314 23:292 24:290 25:314 26:258 27:327 28:221 29:335 30:181 31:342 32:140 33:345 34:101 35:88 36:103 37:108 38:93 39:132 40:96 41:155 42:101 43:179 44:108 45:215 46:108 47:239 48:99 49:263 50:93 51:288 52:91 53:312 54:99 55:197 56:138 57:198 58:165 59:199 60:192 61:199 62:219 63:176 64:229 65:188 66:233 67:200 68:236 69:211 70:232 71:223 72:229 73:117 74:137 75:133 76:132 77:151 78:133 79:163 80:146 81:148 82:148 83:130 84:146 85:236 86:145 87:249 88:134 89:268 90:131 91:284 92:136 93:271 94:146 95:253 96:148 97:159 98:270 99:173 100:260 101:189 102:254 103:200 104:257 105:213 106:253 107:229 108:258 109:244 110:267 111:230 112:282 113:214 114:290 115:201 116:292 117:188 118:291 119:173 120:283 121:166 122:270 123:189 124:269 125:200 126:270 127:213 128:269 129:238 130:268 131:213 132:270 133:201 134:271 135:189 136:270 
-1.000739728788117e-10 2.416325898692863e-10 6.030960374416607e-10 2.157955378577998e-11 1:12 2:139 3:16 4:186 5:21 6:230 7:32 8:271 9:53 10:303 11:84 12:328 13:120 14:348 15:156 16:363 17:189 18:368 19:220 20:363 21:244 22:346 23:265 24:323 25:286 26:293 27:302 28:259 29:315 30:224 31:322 32:185 33:325 34:146 35:74 36:111 37:97 38:93 39:126 40:85 41:158 42:89 43:187 44:100 45:232 46:97 47:257 48:85 49:283 50:83 51:306 52:90 53:318 54:110 55:210 56:140 57:213 58:167 59:217 60:194 61:222 62:221 63:183 64:236 65:198 66:242 67:213 68:246 69:226 70:242 71:238 72:236 73:114 74:140 75:133 76:132 77:152 78:132 79:165 80:146 81:149 82:148 83:131 84:146 85:237 86:146 87:254 88:131 89:271 90:130 91:283 92:139 93:272 94:145 95:255 96:147 97:149 98:277 99:175 100:272 101:197 102:269 103:210 104:272 105:223 106:268 107:237 108:270 109:248 110:276 111:235 112:291 113:222 114:297 115:208 116:299 117:194 118:297 119:174 120:292 121:160 122:277 123:196 124:278 125:209 126:280 127:222 128:278 129:240 130:276 131:222 132:279 133:209 134:281 135:196 136:280 
-1 2.121502878147599e-10 5.245504350647038e-10 0 1:66 2:149 3:67 4:184 5:69 6:220 7:74 8:256 9:84 10:289 11:101 12:319 13:124 14:344 15:153 16:361 17:190 18:367 19:228 20:361 21:263 22:342 23:293 24:318 25:317 26:289 27:331 28:255 29:338 30:218 31:342 32:183 33:344 34:149 35:90 36:106 37:108 38:93 39:132 40:95 41:155 42:99 43:179 44:107 45:221 46:107 47:246 48:99 49:270 50:96 51:294 52:98 53:313 54:111 55:198 56:136 57:198 58:157 59:197 60:178 61:196 62:200 63:170 64:219 65:183 66:222 67:197 68:225 69:211 70:222 71:225 72:218 73:117 74:141 75:132 76:133 77:150 78:134 79:164 80:144 81:148 82:146 83:131 84:145 85:237 86:143 87:252 88:134 89:269 90:133 91:284 92:142 93:270 94:146 95:253 96:146 97:144 98:262 99:160 100:247 101:181 102:243 103:197 104:245 105:214 106:243 107:235 108:249 109:253 110:265 111:234 112:288 113:212 114:298 115:193 116:300 117:175 118:297 119:156 120:284 121:149 122:262 123:180 124:254 125:197 126:256 127:213 128:255 129:248 130:265 131:212 132:279 133:195 134:281 135:177 136:278 
-0 0 4.925312387244468e-10 0 1:80 2:143 3:81 4:175 5:84 6:207 7:92 8:238 9:106 10:267 11:123 12:294 13:145 14:315 15:169 16:329 17:194 18:338 19:224 20:337 21:257 22:323 23:284 24:304 25:305 26:279 27:320 28:248 29:331 30:213 31:338 32:176 33:341 34:139 35:90 36:102 37:106 38:91 39:127 40:91 41:148 42:97 43:169 44:108 45:217 46:107 47:241 48:96 49:266 50:90 51:293 52:93 53:315 54:107 55:191 56:134 57:188 58:158 59:186 60:182 61:184 62:206 63:168 64:220 65:178 66:224 67:189 68:227 69:200 70:224 71:212 72:220 73:118 74:136 75:131 76:133 77:145 78:134 79:157 80:142 81:143 82:144 83:129 84:143 85:237 86:143 87:252 88:135 89:268 90:134 91:283 92:138 93:269 94:146 95:252 96:147 97:156 98:266 99:167 100:257 101:181 102:252 103:191 104:256 105:201 106:253 107:219 108:259 109:239 110:270 111:220 112:283 113:202 114:287 115:191 116:287 117:180 118:285 119:167 120:278 121:163 122:266 123:181 124:264 125:192 126:266 127:202 128:266 129:231 130:270 131:201 132:270 133:191 134:270 135:181 136:268 
-4.657850856064677e-10 2.850958949989479e-10 0 6.092159842259273e-12 1:18 2:131 3:20 4:172 5:26 6:214 7:37 8:253 9:58 10:288 11:87 12:316 13:123 14:342 15:161 16:361 17:195 18:365 19:223 20:356 21:245 22:334 23:262 24:307 25:278 26:276 27:291 28:245 29:302 30:212 31:306 32:178 33:303 34:147 35:77 36:107 37:101 38:92 39:132 40:88 41:163 42:92 43:192 44:104 45:228 46:104 47:248 48:95 49:268 50:90 51:287 52:94 53:298 54:108 55:213 56:140 57:217 58:167 59:221 60:194 61:225 62:220 63:187 64:238 65:202 66:242 67:216 68:246 69:229 70:242 71:239 72:236 73:112 74:138 75:132 76:131 77:153 78:133 79:167 80:147 81:150 82:150 83:129 84:149 85:239 86:147 87:252 88:132 89:269 90:131 91:280 92:140 93:271 94:148 95:255 96:149 97:160 98:290 99:181 100:273 101:204 102:264 103:215 104:267 105:226 106:264 107:239 108:272 109:245 110:285 111:236 112:303 113:224 114:312 115:211 116:314 117:198 118:313 119:179 120:305 121:169 122:287 123:203 124:283 125:214 126:283 127:225 128:282 129:238 130:286 131:225 132:287 133:213 134:288 135:201 136:288 
-0 3.196821188996629e-11 0 0 1:30 2:126 3:34 4:168 5:42 6:210 7:53 8:248 9:72 10:283 11:97 12:312 13:129 14:337 15:165 16:355 17:200 18:359 19:228 20:350 21:253 22:330 23:270 24:304 25:283 26:272 27:294 28:239 29:302 30:206 31:308 32:172 33:310 34:140 35:83 36:106 37:108 38:91 39:137 40:88 41:166 42:92 43:192 44:104 45:229 46:101 47:250 48:91 49:271 50:88 51:291 52:91 53:300 54:108 55:212 56:139 57:214 58:164 59:218 60:190 61:221 62:215 63:187 64:233 65:200 66:237 67:213 68:242 69:225 70:238 71:235 72:232 73:117 74:139 75:134 76:133 77:152 78:134 79:166 80:145 81:151 82:151 83:132 84:150 85:240 86:145 87:253 88:133 89:269 90:131 91:279 92:139 93:271 94:148 95:255 96:149 97:161 98:280 99:180 100:267 101:199 102:258 103:210 104:261 105:221 106:258 107:234 108:266 109:244 110:278 111:234 112:294 113:222 114:300 115:210 116:302 117:197 118:301 119:179 120:293 121:170 122:279 123:198 124:277 125:209 126:277 127:220 128:276 129:239 130:279 131:221 132:278 133:210 134:279 135:198 136:278 
-3.954345084097822e-10 3.81437011750234e-10 1.972465764699777e-10 4.316389251253375e-11 1:57 2:137 3:61 4:174 5:69 6:212 7:79 8:247 9:90 10:282 11:109 12:311 13:136 14:335 15:165 16:355 17:197 18:363 19:231 20:357 21:265 22:339 23:295 24:315 25:317 26:284 27:330 28:247 29:339 30:208 31:346 32:168 33:350 34:127 35:89 36:100 37:107 38:86 39:131 40:83 41:155 42:87 43:177 44:99 45:222 46:99 47:244 48:88 49:268 50:83 51:293 52:85 53:314 54:99 55:197 56:136 57:196 58:159 59:195 60:182 61:195 62:205 63:174 64:226 65:184 66:231 67:195 68:233 69:207 70:231 71:219 72:227 73:115 74:140 75:131 76:129 77:151 78:129 79:166 80:146 81:149 82:150 83:129 84:149 85:234 86:146 87:251 88:130 89:270 90:128 91:286 92:138 93:272 94:148 95:252 96:149 97:156 98:273 99:173 100:263 101:187 102:257 103:198 104:260 105:209 106:257 107:227 108:264 109:248 110:272 111:229 112:291 113:211 114:300 115:198 116:301 117:186 118:299 119:173 120:292 121:166 122:274 123:187 124:269 125:198 126:270 127:209 128:270 129:239 130:272 131:209 132:280 133:198 134:281 135:187 136:279 
-0 2.299691608016819e-09 4.436352185563112e-10 0 1:61 2:114 3:65 4:153 5:72 6:191 7:80 8:228 9:93 10:263 11:113 12:293 13:137 14:319 15:165 16:341 17:195 18:349 19:227 20:345 21:258 22:325 23:287 24:299 25:312 26:267 27:326 28:229 29:334 30:188 31:342 32:146 33:346 34:105 35:87 36:99 37:107 38:89 39:131 40:92 41:154 42:99 43:178 44:109 45:217 46:110 47:240 48:98 49:264 50:90 51:290 52:88 53:313 54:98 55:198 56:138 57:199 58:165 59:199 60:192 61:200 62:219 63:174 64:233 65:186 66:237 67:199 68:241 69:211 70:237 71:223 72:233 73:118 74:137 75:134 76:132 77:152 78:133 79:163 80:146 81:149 82:149 83:131 84:147 85:237 86:146 87:252 88:134 89:270 90:131 91:284 92:136 93:273 94:147 95:255 96:150 97:158 98:273 99:172 100:262 101:187 102:257 103:198 104:261 105:211 106:257 107:226 108:262 109:241 110:273 111:225 112:288 113:209 114:295 115:197 116:296 117:184 118:294 119:170 120:287 121:165 122:273 123:186 124:274 125:198 126:275 127:211 128:274 129:234 130:273 131:210 132:273 133:197 134:274 135:185 136:273 
-2.249946592902023e-10 1 0 4.390591427095542e-13 1:63 2:132 3:65 4:172 5:72 6:217 7:87 8:260 9:112 10:296 11:142 12:329 13:170 14:362 15:197 16:387 17:229 18:388 19:261 20:372 21:284 22:339 23:307 24:302 25:335 26:265 27:359 28:224 29:372 30:181 31:375 32:133 33:375 34:86 35:87 36:111 37:107 38:107 39:127 40:106 41:151 42:111 43:175 44:122 45:225 46:122 47:247 48:109 49:271 50:102 51:291 52:97 53:312 54:100 55:199 56:154 57:200 58:190 59:201 60:225 61:202 62:258 63:176 64:269 65:189 66:273 67:204 68:275 69:217 70:270 71:231 72:264 73:120 74:144 75:133 76:134 77:151 78:135 79:166 80:148 81:151 82:152 83:134 84:152 85:236 86:147 87:250 88:131 89:269 90:129 91:283 92:136 93:271 94:147 95:253 96:149 97:144 98:294 99:168 100:308 101:193 102:313 103:206 104:316 105:219 106:310 107:242 108:301 109:270 110:283 111:245 112:310 113:225 114:329 115:211 116:333 117:197 118:333 119:170 120:321 121:149 122:299 123:194 124:319 125:208 126:319 127:219 128:315 129:263 130:290 131:221 132:313 133:209 134:319 135:196 136:318 
-1.277204316316566e-10 1.367682490883521e-10 3.395204601752201e-11 0 1:87 2:118 3:82 4:161 5:83 6:206 7:92 8:251 9:103 10:293 11:120 12:330 13:139 14:367 15:166 16:398 17:206 18:406 19:247 20:401 21:289 22:385 23:322 24:357 25:348 26:325 27:371 28:286 29:390 30:244 31:400 32:197 33:402 34:148 35:113 36:56 37:129 38:47 39:148 40:47 41:170 42:54 43:192 44:68 45:255 46:79 47:281 48:64 49:310 50:64 51:334 52:70 53:353 54:83 55:212 56:120 57:209 58:151 59:205 60:180 61:201 62:210 63:179 64:240 65:189 66:248 67:201 68:254 69:215 70:253 71:231 72:253 73:125 74:112 75:139 76:100 77:165 78:102 79:179 80:123 81:162 82:128 83:137 84:126 85:257 86:133 87:276 88:115 89:301 90:118 91:318 92:136 93:300 94:142 95:277 96:140 97:159 98:318 99:173 100:304 101:190 102:295 103:204 104:303 105:221 106:301 107:247 108:316 109:269 110:335 111:243 112:351 113:217 114:355 115:199 116:355 117:183 118:350 119:169 120:337 121:168 122:321 123:188 124:322 125:203 126:325 127:220 128:327 129:260 130:335 131:217 132:321 133:201 134:318 135:187 136:314 
-3.188068098265554e-10 3.502439387770351e-10 0 0 1:97 2:145 3:100 4:177 5:106 6:209 7:118 8:242 9:133 10:275 11:152 12:309 13:170 14:340 15:193 16:369 17:228 18:381 19:268 20:376 21:306 22:355 23:341 24:329 25:371 26:297 27:391 28:259 29:399 30:217 31:400 32:172 33:398 34:124 35:99 36:124 37:108 38:111 39:127 40:111 41:147 42:114 43:167 44:122 45:207 46:120 47:235 48:109 49:265 50:105 51:294 52:108 53:323 54:120 55:184 56:143 57:181 58:172 59:177 60:200 61:174 62:228 63:159 64:232 65:170 66:242 67:187 68:247 69:206 70:239 71:225 72:231 73:122 74:141 75:133 76:136 77:148 78:135 79:166 80:141 81:150 82:147 83:134 84:147 85:239 86:141 87:251 88:134 89:268 90:135 91:289 92:139 93:270 94:146 95:252 96:147 97:163 98:266 99:172 100:264 101:185 102:264 103:200 104:268 105:218 106:264 107:248 108:265 109:280 110:263 111:254 112:287 113:228 114:296 115:209 116:297 117:192 118:294 119:178 120:285 121:170 122:267 123:186 124:271 125:202 126:274 127:219 128:271 129:270 130:264 131:224 132:280 133:207 134:281 135:190 136:277 
-0 4.699501614672081e-10 2.534539854541754e-11 8.102739232809613e-12 1:93 2:146 3:91 4:176 5:97 6:213 7:109 8:245 9:125 10:277 11:140 12:309 13:161 14:337 15:183 16:357 17:212 18:362 19:247 20:355 21:282 22:338 23:308 24:314 25:331 26:279 27:346 28:244 29:353 30:207 31:359 32:164 33:356 34:128 35:81 36:105 37:95 38:94 39:116 40:95 41:138 42:101 43:161 44:110 45:199 46:108 47:225 48:97 49:255 50:93 51:285 52:93 53:310 54:107 55:182 56:140 57:181 58:165 59:179 60:192 61:176 62:219 63:157 64:231 65:170 66:238 67:184 68:243 69:198 70:238 71:213 72:230 73:107 74:138 75:118 76:128 77:137 78:128 79:153 80:141 81:136 82:148 83:117 84:149 85:225 86:142 87:243 88:128 89:266 90:129 91:285 92:138 93:266 94:149 95:242 96:149 97:152 98:294 99:160 100:285 101:171 102:281 103:181 104:285 105:193 106:278 107:212 108:282 109:236 110:288 111:219 112:304 113:201 114:310 115:188 116:312 117:177 118:311 119:164 120:305 121:158 122:295 123:174 124:295 125:184 126:296 127:197 128:293 129:227 130:289 131:197 132:288 133:185 134:290 135:175 136:289 
-1.9495187098049e-11 2.660093879697006e-10 0 5.845519523630079e-12 1:-3 2:118 3:-5 4:163 5:-4 6:209 7:1 8:254 9:18 10:293 11:47 12:327 13:82 14:352 15:122 16:373 17:161 18:378 19:190 20:369 21:210 22:344 23:227 24:317 25:246 26:286 27:262 28:254 29:278 30:224 31:286 32:192 33:287 34:160 35:86 36:98 37:111 38:89 39:143 40:84 41:173 42:90 43:200 44:101 45:243 46:105 47:258 48:93 49:275 50:86 51:289 52:85 53:296 54:98 55:218 56:145 57:220 58:173 59:223 60:200 61:226 62:228 63:181 64:246 65:196 66:252 67:209 68:257 69:224 70:253 71:234 72:245 73:105 74:137 75:129 76:125 77:153 78:127 79:167 80:146 81:148 82:151 83:124 84:149 85:234 86:147 87:252 88:126 89:272 90:125 91:280 92:139 93:271 94:150 95:252 96:151 97:139 98:293 99:169 100:285 101:195 102:279 103:207 104:283 105:218 106:278 107:228 108:283 109:227 110:291 111:219 112:306 113:209 114:317 115:196 116:320 117:183 118:319 119:162 120:312 121:149 122:293 123:191 124:293 125:203 126:294 127:213 128:292 129:222 130:292 131:212 132:293 133:202 134:296 135:190 136:296 
-0 2.066303029189101e-10 4.103025329066853e-11 2.328188499106861e-11 1:95 2:148 3:87 4:181 5:86 6:216 7:89 8:249 9:94 10:284 11:105 12:314 13:123 14:340 15:145 16:363 17:175 18:373 19:213 20:372 21:260 22:363 23:303 24:344 25:336 26:315 27:363 28:281 29:380 30:241 31:391 32:198 33:398 34:155 35:105 36:99 37:119 38:86 39:135 40:84 41:153 42:88 43:169 44:98 45:220 46:94 47:247 48:85 49:275 50:84 51:302 52:93 53:323 54:110 55:192 56:135 57:186 58:158 59:179 60:180 61:172 62:202 63:160 64:226 65:168 66:231 67:178 68:233 69:191 70:232 71:205 72:229 73:122 74:142 75:134 76:132 77:149 78:134 79:165 80:146 81:148 82:147 83:132 84:146 85:235 86:145 87:249 88:134 89:267 90:135 91:284 92:144 93:267 94:147 95:249 96:147 97:142 98:274 99:150 100:261 101:164 102:256 103:175 104:260 105:189 106:259 107:211 108:265 109:239 110:277 111:210 112:293 113:187 114:298 115:173 116:298 117:161 118:296 119:149 120:289 121:149 122:275 123:164 124:276 125:175 126:277 127:188 128:277 129:230 130:277 131:187 132:275 133:174 134:275 135:163 136:274 
-0 6.264182284941819e-10 6.352077010884149e-10 1.837840863142304e-11 1:64 2:124 3:65 4:159 5:71 6:195 7:80 8:229 9:93 10:261 11:115 12:290 13:142 14:315 15:172 16:333 17:199 18:338 19:226 20:330 21:252 22:307 23:276 24:283 25:296 26:257 27:308 28:226 29:315 30:194 31:321 32:161 33:325 34:129 35:94 36:105 37:115 38:95 39:139 40:94 41:163 42:98 43:186 44:108 45:223 46:108 47:245 48:100 49:268 50:95 51:291 52:95 53:308 54:108 55:205 56:138 57:206 58:165 59:207 60:191 61:208 62:217 63:182 64:228 65:193 66:233 67:205 68:238 69:216 70:234 71:226 72:229 73:117 74:139 75:132 76:130 77:151 78:132 79:168 80:145 81:149 82:149 83:129 84:148 85:235 86:147 87:248 88:131 89:268 90:132 91:285 92:139 93:271 94:148 95:251 96:150 97:148 98:254 99:173 100:256 101:191 102:255 103:202 104:257 105:212 106:255 107:228 108:255 109:250 110:252 111:229 112:272 113:213 114:280 115:202 116:282 117:190 118:281 119:172 120:273 121:155 122:257 123:191 124:264 125:202 126:265 127:213 128:264 129:242 130:256 131:213 132:262 133:202 134:264 135:191 136:263 
-2.559949057180743e-10 1.553468954402508e-09 4.461159035140525e-10 1.290433192389099e-11 1:69 2:143 3:72 4:180 5:75 6:216 7:83 8:247 9:101 10:275 11:126 12:294 13:151 14:311 15:178 16:324 17:206 18:328 19:235 20:323 21:261 22:307 23:285 24:288 25:305 26:264 27:320 28:237 29:325 30:205 31:329 32:172 33:330 34:140 35:91 36:105 37:112 38:94 39:134 40:94 41:156 42:99 43:177 44:108 45:221 46:106 47:244 48:97 49:267 50:91 51:292 52:92 53:310 54:105 55:201 56:135 57:201 58:161 59:201 60:186 61:202 62:211 63:179 64:222 65:191 66:228 67:204 68:232 69:216 70:227 71:226 72:221 73:119 74:139 75:133 76:130 77:152 78:130 79:167 80:144 81:150 82:148 83:132 84:147 85:236 86:145 87:251 88:131 89:270 90:130 91:285 92:140 93:272 94:148 95:252 96:149 97:159 98:263 99:177 100:259 101:193 102:254 103:204 104:258 105:215 106:255 107:230 108:258 109:246 110:261 111:232 112:280 113:216 114:289 115:204 116:291 117:192 118:289 119:176 120:281 121:168 122:265 123:193 124:268 125:204 126:269 127:215 128:267 129:239 130:263 131:215 132:271 133:204 134:272 135:193 136:271 
-1.163890887475245e-10 0 4.271625456607182e-10 0 1:86 2:126 3:84 4:161 5:88 6:196 7:95 8:230 9:108 10:263 11:126 12:295 13:147 14:323 15:168 16:343 17:199 18:348 19:231 20:342 21:259 22:325 23:283 24:300 25:304 26:267 27:320 28:233 29:332 30:197 31:339 32:158 33:340 34:119 35:101 36:99 37:117 38:92 39:136 40:95 41:153 42:101 43:170 44:110 45:226 46:110 47:245 48:99 49:266 50:92 51:288 52:90 53:309 54:98 55:196 56:139 57:195 58:165 59:194 60:189 61:194 62:215 63:171 64:229 65:183 66:235 67:195 68:239 69:208 70:235 71:219 72:230 73:118 74:139 75:130 76:129 77:150 78:130 79:166 80:143 81:148 82:148 83:129 84:148 85:234 86:143 87:251 88:130 89:271 90:129 91:285 92:139 93:273 94:148 95:253 96:148 97:151 98:274 99:164 100:264 101:182 102:259 103:194 104:262 105:207 106:259 107:226 108:265 109:244 110:274 111:228 112:294 113:209 114:302 115:195 116:303 117:181 118:301 119:164 120:291 121:161 122:275 123:181 124:275 125:194 126:275 127:207 128:275 129:235 130:275 131:208 132:280 133:195 134:281 135:181 136:280 
-1.137661099403105e-10 3.746055338507171e-10 2.654075443896243e-11 0 1:68 2:138 3:68 4:170 5:73 6:204 7:82 8:239 9:99 10:271 11:121 12:300 13:145 14:323 15:173 16:346 17:205 18:352 19:235 20:345 21:262 22:322 23:285 24:295 25:304 26:266 27:316 28:232 29:321 30:199 31:326 32:163 33:324 34:128 35:90 36:109 37:107 38:97 39:132 40:93 41:155 42:97 43:176 44:109 45:223 46:104 47:245 48:90 49:270 50:85 51:294 52:92 53:310 54:109 55:198 56:135 57:197 58:159 59:196 60:184 61:195 62:208 63:170 64:221 65:183 66:226 67:197 68:230 69:210 70:226 71:224 72:221 73:117 74:141 75:133 76:138 77:150 78:138 79:163 80:144 81:149 82:147 83:132 84:147 85:236 86:144 87:252 88:138 89:269 90:137 91:283 92:141 93:270 94:148 95:253 96:148 97:150 98:254 99:166 100:249 101:183 102:247 103:198 104:251 105:214 106:247 107:233 108:250 109:254 110:253 111:236 112:281 113:217 114:292 115:201 116:295 117:185 118:292 119:167 120:279 121:158 122:257 123:183 124:260 125:198 126:262 127:215 128:261 129:248 130:256 131:216 132:272 133:200 134:275 135:184 136:273 
-3.12547116564003e-10 1.981470642812732e-09 4.933231419193565e-10 0 1:38 2:122 3:41 4:159 5:48 6:196 7:58 8:233 9:75 10:266 11:102 12:295 13:131 14:319 15:166 16:337 17:196 18:341 19:223 20:336 21:247 22:315 23:267 24:290 25:283 26:261 27:296 28:231 29:306 30:200 31:313 32:169 33:314 34:138 35:87 36:105 37:109 38:95 39:135 40:94 41:161 42:97 43:186 44:105 45:233 46:104 47:252 48:96 49:273 50:94 51:292 52:97 53:305 54:110 55:209 56:139 57:209 58:165 59:210 60:190 61:210 62:215 63:182 64:228 65:194 66:233 67:206 68:238 69:217 70:234 71:227 72:229 73:117 74:139 75:133 76:131 77:152 78:132 79:165 80:146 81:149 82:147 83:131 84:146 85:239 86:147 87:253 88:133 89:270 90:132 91:281 92:140 93:271 94:147 95:254 96:148 97:158 98:271 99:178 100:262 101:193 102:257 103:205 104:260 105:216 106:256 107:228 108:261 109:237 110:271 111:228 112:286 113:217 114:293 115:205 116:294 117:192 118:294 119:177 120:287 121:165 122:272 123:193 124:271 125:204 126:272 127:215 128:271 129:231 130:271 131:217 132:272 133:206 134:273 135:194 136:272 
-9.231965591694449e-11 2.962386365977423e-10 0 6.730363948571637e-12 1:66 2:159 3:67 4:197 5:76 6:234 7:89 8:271 9:111 10:302 11:134 12:330 13:159 14:355 15:188 16:367 17:216 18:369 19:240 20:360 21:261 22:341 23:281 24:312 25:294 26:279 27:305 28:243 29:312 30:209 31:319 32:173 33:321 34:137 35:92 36:115 37:110 38:96 39:138 40:92 41:164 42:102 43:188 44:117 45:222 46:110 47:243 48:93 49:269 50:85 51:292 52:91 53:307 54:111 55:206 56:145 57:206 58:173 59:206 60:201 61:208 62:229 63:179 64:240 65:191 66:245 67:204 68:249 69:217 70:245 71:229 72:241 73:118 74:140 75:132 76:132 77:151 78:134 79:164 80:147 81:149 82:150 83:130 84:149 85:239 86:146 87:252 88:132 89:269 90:131 91:281 92:139 93:270 94:147 95:254 96:149 97:174 98:304 99:182 100:281 101:194 102:272 103:205 104:276 105:217 106:273 107:232 108:282 109:244 110:302 111:233 112:308 113:220 114:312 115:207 116:313 117:195 118:312 119:185 120:308 121:179 122:301 123:194 124:284 125:205 126:285 127:217 128:285 129:237 130:300 131:219 132:297 133:206 134:298 135:196 136:296 
-1.692132390493692e-10 0 0 0 1:65 2:124 3:70 4:161 5:77 6:195 7:88 8:229 9:105 10:262 11:128 12:291 13:150 14:316 15:179 16:337 17:210 18:341 19:240 20:335 21:267 22:311 23:288 24:286 25:309 26:257 27:325 28:225 29:335 30:188 31:340 32:151 33:342 34:112 35:86 36:105 37:108 38:95 39:131 40:97 41:154 42:102 43:176 44:111 45:228 46:112 47:252 48:103 49:274 50:99 51:297 52:98 53:316 54:107 55:201 56:139 57:203 58:166 59:204 60:193 61:206 62:218 63:183 64:228 65:193 66:232 67:205 68:235 69:215 70:232 71:226 72:227 73:118 74:138 75:134 76:135 77:152 78:136 79:165 80:144 81:149 82:149 83:131 84:147 85:238 86:145 87:251 88:136 89:270 90:136 91:286 92:140 93:272 94:149 95:253 96:150 97:168 98:268 99:179 100:260 101:194 102:255 103:204 104:260 105:215 106:256 107:230 108:261 109:244 110:269 111:231 112:281 113:217 114:288 115:206 116:289 117:195 118:287 119:181 120:280 121:174 122:267 123:195 124:271 125:205 126:273 127:216 128:271 129:237 130:269 131:215 132:267 133:205 134:269 135:195 136:266 
-0 0 6.189452730352191e-11 3.530531269187658e-11 1:94 2:145 3:89 4:179 5:90 6:213 7:97 8:245 9:111 10:277 11:130 12:303 13:152 14:324 15:177 16:336 17:207 18:340 19:239 20:338 21:274 22:328 23:305 24:310 25:332 26:288 27:351 28:260 29:359 30:226 31:360 32:189 33:360 34:151 35:104 36:98 37:122 38:88 39:142 40:91 41:162 42:97 43:178 44:107 45:216 46:104 47:239 48:93 49:264 50:87 51:288 52:88 53:310 54:101 55:196 56:142 57:194 58:163 59:191 60:184 61:189 62:205 63:173 64:226 65:183 66:230 67:193 68:233 69:206 70:230 71:219 72:227 73:120 74:138 75:134 76:130 77:152 78:133 79:165 80:146 81:150 82:148 83:133 84:147 85:237 86:145 87:251 88:132 89:270 90:131 91:284 92:139 93:271 94:147 95:253 96:148 97:165 98:269 99:176 100:257 101:189 102:250 103:198 104:253 105:209 106:250 107:227 108:258 109:246 110:271 111:228 112:281 113:212 114:289 115:199 116:291 117:188 118:289 119:176 120:282 121:170 122:268 123:189 124:266 125:198 126:267 127:209 128:266 129:240 130:269 131:210 132:274 133:199 134:275 135:189 136:274 
-4.655893899624886e-10 0 2.151120931925745e-10 0 1:92 2:140 3:91 4:171 5:95 6:202 7:103 8:232 9:113 10:261 11:128 12:288 13:146 14:313 15:168 16:335 17:195 18:342 19:224 20:338 21:253 22:319 23:278 24:296 25:301 26:269 27:314 28:235 29:324 30:199 31:333 32:164 33:338 34:130 35:100 36:103 37:116 38:92 39:138 40:94 41:157 42:100 43:177 44:109 45:218 46:107 47:243 48:98 49:269 50:92 51:295 52:94 53:314 54:109 55:197 56:139 57:195 58:162 59:193 60:185 61:191 62:208 63:171 64:224 65:182 66:228 67:193 68:231 69:204 70:229 71:216 72:226 73:120 74:139 75:134 76:133 77:150 78:134 79:164 80:146 81:149 82:148 83:132 84:146 85:236 86:145 87:251 88:133 89:270 90:132 91:285 92:139 93:271 94:146 95:252 96:147 97:156 98:263 99:168 100:254 101:181 102:248 103:191 104:251 105:200 106:250 107:219 108:258 109:241 110:267 111:219 112:284 113:201 114:292 115:191 116:292 117:180 118:290 119:167 120:281 121:162 122:264 123:182 124:266 125:191 126:267 127:200 128:267 129:232 130:268 131:200 132:269 133:190 134:270 135:181 136:268 
-0 0 0 8.748302684372104e-12 1:94 2:146 3:93 4:180 5:99 6:214 7:112 8:249 9:128 10:281 11:150 12:311 13:173 14:337 15:196 16:361 17:223 18:371 19:256 20:367 21:293 22:348 23:329 24:323 25:361 26:292 27:384 28:257 29:392 30:214 31:394 32:169 33:391 34:123 35:95 36:110 37:107 38:97 39:125 40:97 41:144 42:101 43:161 44:111 45:209 46:107 47:236 48:95 49:265 50:89 51:294 52:93 53:320 54:106 55:184 56:144 57:182 58:173 59:180 60:201 61:177 62:230 63:161 64:239 65:173 66:246 67:187 68:250 69:204 70:244 71:221 72:239 73:118 74:139 75:132 76:129 77:151 78:131 79:165 80:148 81:148 82:150 83:130 84:147 85:234 86:147 87:250 88:131 89:270 90:129 91:287 92:139 93:272 94:147 95:252 96:149 97:159 98:269 99:171 100:266 101:186 102:265 103:197 104:268 105:212 106:264 107:243 108:265 109:275 110:267 111:248 112:299 113:220 114:314 115:203 116:316 117:190 118:312 119:176 120:296 121:168 122:273 123:187 124:273 125:198 126:276 127:213 128:273 129:269 130:269 131:217 132:297 133:201 134:298 135:188 136:294 
-0 6.24743123385816e-10 0 0 1:33 2:105 3:34 4:149 5:40 6:192 7:48 8:231 9:64 10:266 11:91 12:298 13:121 14:323 15:155 16:341 17:190 18:344 19:217 20:335 21:237 22:311 23:256 24:287 25:276 26:261 27:293 28:231 29:306 30:200 31:312 32:167 33:315 34:132 35:82 36:104 37:106 38:91 39:136 40:91 41:164 42:99 43:190 44:112 45:231 46:111 47:252 48:100 49:274 50:92 51:294 52:89 53:310 54:102 55:211 56:145 57:211 58:173 59:212 60:201 61:212 62:229 63:176 64:237 65:191 66:243 67:206 68:248 69:220 70:243 71:232 72:236 73:114 74:137 75:133 76:130 77:153 78:133 79:166 80:148 81:149 82:150 83:130 84:147 85:238 86:148 87:252 88:132 89:270 90:130 91:281 92:138 93:272 94:147 95:255 96:149 97:140 98:260 99:167 100:261 101:190 102:261 103:202 104:264 105:213 106:261 107:226 108:260 109:240 110:259 111:224 112:279 113:212 114:289 115:200 116:292 117:187 118:291 119:165 120:283 121:148 122:263 123:188 124:272 125:201 126:273 127:212 128:271 129:234 130:262 131:212 132:271 133:201 134:273 135:188 136:273 
-0 0 0 2.381870771836368e-12 1:4 2:147 3:6 4:192 5:14 6:240 7:24 8:284 9:50 10:320 11:89 12:348 13:133 14:368 15:176 16:386 17:215 18:389 19:244 20:378 21:259 22:345 23:274 24:315 25:291 26:282 27:303 28:246 29:308 30:211 31:304 32:175 33:294 34:144 35:81 36:112 37:107 38:96 39:138 40:89 41:170 42:91 43:199 44:101 45:235 46:100 47:252 48:89 49:270 50:86 51:285 52:90 53:292 54:102 55:220 56:137 57:226 58:162 59:234 60:187 61:242 62:214 63:194 64:233 65:213 66:239 67:229 68:244 69:242 70:239 71:252 72:232 73:113 74:143 75:132 76:136 77:151 78:136 79:169 80:144 81:152 82:148 83:133 84:149 85:240 86:143 87:255 88:134 89:270 90:133 91:281 92:140 93:271 94:145 95:256 96:145 97:147 98:273 99:180 100:266 101:207 102:262 103:223 104:265 105:236 106:263 107:248 108:267 109:256 110:273 111:248 112:302 113:236 114:316 115:221 116:319 117:204 118:317 119:178 120:303 121:155 122:275 123:207 124:273 125:222 126:275 127:235 128:274 129:249 130:277 131:235 132:294 133:221 134:296 135:205 136:296 
-2.504525742266228e-10 0 0 0 1:45 2:123 3:49 4:160 5:56 6:198 7:66 8:233 9:81 10:266 11:105 12:296 13:132 14:318 15:164 16:332 17:199 18:334 19:231 20:330 21:257 22:310 23:280 24:283 25:299 26:249 27:309 28:216 29:311 30:181 31:314 32:149 33:315 34:120 35:84 36:105 37:111 38:96 39:139 40:98 41:166 42:104 43:192 44:114 45:227 46:116 47:245 48:108 49:264 50:102 51:283 52:98 53:300 54:104 55:209 56:138 57:211 58:161 59:214 60:183 61:216 62:208 63:184 64:227 65:199 66:229 67:212 68:231 69:224 70:227 71:234 72:224 73:113 74:138 75:130 76:134 77:148 78:134 79:162 80:143 81:146 82:147 83:128 84:147 85:238 86:141 87:251 88:133 89:268 90:133 91:280 92:137 93:268 94:146 95:252 96:147 97:157 98:268 99:179 100:260 101:198 102:252 103:211 104:256 105:226 106:251 107:240 108:257 109:250 110:262 111:241 112:276 113:227 114:284 115:211 116:286 117:195 118:286 119:178 120:282 121:165 122:269 123:197 124:268 125:211 126:269 127:225 128:267 129:244 130:263 131:226 132:267 133:211 134:270 135:197 136:269 
-1.265524167936256e-10 3.620692914828882e-10 1.961545025191155e-10 0 1:78 2:133 3:76 4:168 5:80 6:205 7:86 8:242 9:99 10:281 11:123 12:314 13:150 14:339 15:180 16:362 17:219 18:367 19:262 20:363 21:303 22:343 23:342 24:319 25:374 26:289 27:392 28:250 29:396 30:205 31:396 32:157 33:393 34:109 35:93 36:107 37:109 38:91 39:133 40:94 41:156 42:102 43:177 44:115 45:215 46:114 47:241 48:100 49:268 50:94 51:295 52:94 53:321 54:105 55:199 56:141 57:199 58:166 59:199 60:191 61:200 62:216 63:175 64:233 65:188 66:239 67:203 68:244 69:217 70:238 71:233 72:234 73:119 74:137 75:133 76:133 77:149 78:135 79:161 80:143 81:146 82:146 83:131 84:143 85:244 86:144 87:256 88:137 89:271 90:136 91:288 92:139 93:274 94:145 95:258 96:147 97:159 98:273 99:177 100:270 101:190 102:270 103:203 104:273 105:219 106:271 107:238 108:274 109:263 110:276 111:237 112:279 113:217 114:279 115:202 116:279 117:188 118:277 119:176 120:275 121:166 122:272 123:191 124:281 125:203 126:282 127:219 128:282 129:254 130:276 131:216 132:266 133:201 134:266 135:188 136:264 
-2.21088114509027e-10 0 0 0 1:67 2:128 3:71 4:163 5:77 6:199 7:85 8:232 9:96 10:264 11:117 12:293 13:140 14:321 15:168 16:347 17:201 18:355 19:235 20:349 21:264 22:328 23:291 24:303 25:313 26:273 27:326 28:240 29:333 30:203 31:339 32:168 33:342 34:131 35:90 36:106 37:110 38:95 39:134 40:96 41:156 42:101 43:179 44:110 45:219 46:110 47:243 48:99 49:268 50:95 51:294 52:96 53:315 54:107 55:198 56:139 57:197 58:167 59:196 60:194 61:195 62:220 63:173 64:228 65:185 66:233 67:198 68:237 69:210 70:233 71:222 72:228 73:116 74:139 75:132 76:132 77:150 78:134 79:164 80:146 81:147 82:148 83:130 84:146 85:236 86:147 87:251 88:134 89:269 90:132 91:285 92:140 93:271 94:146 95:253 96:148 97:148 98:258 99:167 100:252 101:186 102:250 103:201 104:253 105:217 106:250 107:236 108:252 109:255 110:258 111:238 112:284 113:219 114:296 115:201 116:298 117:184 118:296 119:166 120:284 121:154 122:261 123:186 124:263 125:201 126:265 127:218 128:263 129:249 130:260 131:218 132:278 133:201 134:281 135:185 136:278 
-0 6.070786380489532e-11 6.645882258642192e-11 0 1:93 2:119 3:95 4:156 5:99 6:194 7:113 8:229 9:133 10:259 11:153 12:287 13:170 14:314 15:186 16:338 17:209 18:348 19:235 20:343 21:261 22:322 23:290 24:301 25:321 26:275 27:346 28:239 29:353 30:195 31:356 32:145 33:356 34:96 35:96 36:98 37:109 38:87 39:129 40:89 41:150 42:96 43:171 44:107 45:213 46:107 47:239 48:97 49:264 50:91 51:290 52:91 53:312 54:99 55:193 56:139 57:191 58:166 59:189 60:193 61:187 62:221 63:169 64:232 65:182 66:238 67:196 68:241 69:210 70:237 71:225 72:234 73:122 74:136 75:133 76:132 77:150 78:134 79:163 80:144 81:148 82:149 83:132 84:147 85:238 86:145 87:250 88:134 89:269 90:132 91:287 92:136 93:272 94:148 95:253 96:150 97:163 98:272 99:174 100:270 101:186 102:270 103:198 104:274 105:210 106:271 107:227 108:271 109:247 110:271 111:230 112:288 113:214 114:294 115:201 116:296 117:189 118:293 119:177 120:284 121:168 122:272 123:187 124:276 125:198 126:279 127:210 128:276 129:241 130:271 131:212 132:277 133:200 134:279 135:189 136:275 
-0 1.041780939733449e-10 0 0 1:106 2:140 3:105 4:172 5:111 6:203 7:121 8:236 9:131 10:268 11:141 12:299 13:153 14:326 15:170 16:347 17:197 18:356 19:230 20:353 21:266 22:337 23:298 24:316 25:327 26:290 27:347 28:261 29:358 30:224 31:363 32:186 33:366 34:143 35:107 36:93 37:119 38:87 39:133 40:91 41:147 42:93 43:163 44:100 45:218 46:98 47:242 48:87 49:267 50:84 51:293 52:88 53:311 54:103 55:187 56:139 57:183 58:163 59:177 60:187 61:172 62:211 63:158 64:225 65:167 66:231 67:180 68:235 69:193 70:231 71:208 72:228 73:119 74:138 75:130 76:133 77:147 78:134 79:161 80:144 81:144 82:146 83:128 84:145 85:235 86:145 87:249 88:133 89:268 90:133 91:284 92:140 93:270 94:148 95:250 96:148 97:154 98:273 99:162 100:262 101:175 102:256 103:184 104:258 105:194 106:256 107:218 108:264 109:242 110:274 111:220 112:294 113:199 114:302 115:188 116:302 117:178 118:301 119:163 120:293 121:161 122:273 123:176 124:267 125:185 126:268 127:195 128:268 129:231 130:275 131:197 132:281 133:187 134:281 135:178 136:280 
-4.912932829109322e-11 0 1.694536898761326e-11 4.602537830520633e-12 1:51 2:124 3:51 4:167 5:55 6:213 7:64 8:257 9:78 10:298 11:104 12:335 13:130 14:369 15:158 16:396 17:192 18:403 19:230 20:397 21:268 22:372 23:311 24:344 25:352 26:313 27:381 28:272 29:397 30:224 31:404 32:174 33:409 34:125 35:93 36:94 37:107 38:84 39:128 40:84 41:148 42:92 43:166 44:104 45:198 46:100 47:229 48:87 49:262 50:81 51:295 52:87 53:324 54:102 55:184 56:141 57:180 58:168 59:175 60:195 61:171 62:221 63:158 64:244 65:167 66:249 67:177 68:252 69:188 70:248 71:200 72:245 73:116 74:137 75:131 76:128 77:150 78:130 79:163 80:145 81:147 82:148 83:128 84:146 85:231 86:145 87:249 88:131 89:270 90:130 91:289 92:140 93:271 94:148 95:250 96:149 97:146 98:304 99:156 100:286 101:170 102:274 103:180 104:277 105:191 106:274 107:211 108:282 109:232 110:296 111:212 112:309 113:195 114:318 115:184 116:321 117:172 118:320 119:159 120:317 121:153 122:303 123:171 124:292 125:181 126:292 127:192 128:291 129:221 130:295 131:193 132:294 133:182 134:296 135:172 136:295 
-2.400145960658006e-10 1.41664025757029e-09 3.910069357989197e-10 0 1:57 2:137 3:57 4:174 5:64 6:210 7:71 8:243 9:87 10:274 11:110 12:301 13:138 14:320 15:168 16:337 17:199 18:340 19:228 20:335 21:256 22:317 23:284 24:297 25:308 26:269 27:322 28:241 29:331 30:211 31:335 32:182 33:333 34:154 35:87 36:114 37:109 38:101 39:136 40:97 41:164 42:98 43:189 44:107 45:224 46:110 47:244 48:99 49:269 50:96 51:293 52:98 53:313 54:111 55:204 56:138 57:204 58:163 59:205 60:188 61:205 62:214 63:179 64:230 65:192 66:235 67:203 68:239 69:215 70:235 71:227 72:229 73:116 74:142 75:130 76:134 77:149 78:134 79:164 80:145 81:148 82:148 83:130 84:148 85:239 86:145 87:255 88:133 89:273 90:132 91:287 92:140 93:274 94:148 95:256 96:148 97:153 98:268 99:174 100:265 101:192 102:260 103:202 104:264 105:214 106:261 107:229 108:266 109:245 110:269 111:228 112:282 113:214 114:290 115:202 116:292 117:189 118:290 119:173 120:282 121:158 122:268 123:191 124:271 125:202 126:273 127:214 128:271 129:239 130:271 131:214 132:273 133:202 134:274 135:190 136:272 
-0 2.602848226981633e-10 0 0 1:92 2:142 3:93 4:175 5:98 6:208 7:107 8:241 9:118 10:273 11:133 12:303 13:152 14:330 15:176 16:352 17:204 18:360 19:236 20:355 21:271 22:338 23:303 24:317 25:329 26:290 27:349 28:258 29:361 30:221 31:370 32:181 33:375 34:140 35:99 36:100 37:112 38:88 39:132 40:85 41:152 42:87 43:173 44:96 45:217 46:92 47:245 48:83 49:273 50:82 51:300 52:86 53:323 54:99 55:192 56:137 57:189 58:160 59:185 60:183 61:181 62:206 63:169 64:226 65:178 66:231 67:188 68:235 69:200 70:232 71:212 72:228 73:118 74:139 75:130 76:130 77:148 78:130 79:164 80:144 81:147 82:149 83:129 84:148 85:234 86:145 87:250 88:130 89:271 90:130 91:288 92:140 93:273 94:149 95:252 96:149 97:156 98:275 99:162 100:258 101:176 102:252 103:188 104:256 105:201 106:253 107:219 108:261 109:238 110:279 111:219 112:295 113:201 114:302 115:187 116:303 117:174 118:301 119:162 120:293 121:163 122:273 123:177 124:268 125:189 126:269 127:201 128:269 129:229 130:277 131:201 132:282 133:188 134:283 135:175 136:281 
-1.557614573203016e-10 0 3.110850265312508e-10 1.287895994489752e-11 1:95 2:140 3:93 4:174 5:95 6:210 7:105 8:247 9:119 10:282 11:137 12:317 13:158 14:347 15:183 16:372 17:208 18:381 19:239 20:379 21:278 22:363 23:316 24:341 25:349 26:310 27:376 28:274 29:392 30:230 31:399 32:181 33:401 34:134 35:100 36:93 37:112 38:83 39:126 40:85 41:142 42:92 43:156 44:101 45:204 46:92 47:232 48:80 49:261 50:75 51:291 52:82 53:319 54:95 55:185 56:142 57:181 58:167 59:177 60:194 61:172 62:220 63:167 64:239 65:175 66:244 67:184 68:247 69:195 70:244 71:208 72:242 73:121 74:140 75:132 76:131 77:150 78:131 79:165 80:147 81:148 82:152 83:130 84:150 85:232 86:146 87:247 88:130 89:269 90:129 91:289 92:139 93:273 94:148 95:251 96:150 97:160 98:293 99:164 100:278 101:175 102:271 103:186 104:278 105:200 106:274 107:225 108:286 109:251 110:301 111:228 112:318 113:205 114:324 115:191 116:324 117:178 118:319 119:167 120:308 121:167 122:293 123:177 124:290 125:188 126:293 127:202 128:292 129:241 130:298 131:202 132:295 133:189 134:295 135:178 136:291 
-0 0 4.339552303666985e-11 3.594147711154686e-11 1:52 2:149 3:58 4:186 5:66 6:225 7:75 8:263 9:90 10:297 11:115 12:325 13:145 14:348 15:178 16:365 17:210 18:370 19:240 20:363 21:269 22:344 23:292 24:318 25:311 26:287 27:323 28:251 29:329 30:212 31:334 32:175 33:336 34:139 35:84 36:113 37:102 38:96 39:127 40:90 41:153 42:91 43:179 44:99 45:223 46:99 47:247 48:91 49:272 50:90 51:296 52:93 53:313 54:110 55:203 56:133 57:204 58:158 59:205 60:184 61:206 62:208 63:178 64:227 65:192 66:232 67:206 68:236 69:220 70:233 71:231 72:229 73:115 74:142 75:131 76:133 77:149 78:134 79:165 80:144 81:148 82:147 83:130 84:147 85:237 86:144 87:252 88:133 89:271 90:132 91:286 92:141 93:271 94:146 95:254 96:147 97:146 98:267 99:167 100:256 101:189 102:253 103:206 104:257 105:223 106:254 107:243 108:258 109:262 110:267 111:245 112:292 113:225 114:305 115:205 116:307 117:187 118:305 119:165 120:292 121:152 122:269 123:189 124:265 125:206 126:267 127:224 128:266 129:255 130:269 131:223 132:285 133:205 134:288 135:188 136:285 
-3.839211357725572e-10 1 3.815506889581274e-10 1.923318195866986e-11 1:87 2:142 3:87 4:174 5:93 6:208 7:102 8:240 9:115 10:272 11:131 12:300 13:150 14:323 15:174 16:342 17:202 18:347 19:233 20:342 21:263 22:323 23:291 24:301 25:313 26:272 27:328 28:242 29:334 30:208 31:338 32:173 33:337 34:137 35:96 36:110 37:114 38:100 39:137 40:99 41:159 42:105 43:179 44:114 45:201 46:110 47:225 48:98 49:254 50:92 51:282 52:94 53:307 54:106 55:197 56:140 57:197 58:165 59:196 60:189 61:195 62:215 63:175 64:231 65:186 66:237 67:196 68:241 69:208 70:237 71:220 72:232 73:120 74:139 75:134 76:134 77:150 78:135 79:164 80:144 81:149 82:146 83:133 84:145 85:237 86:144 87:251 88:134 89:268 90:134 91:283 92:138 93:270 94:146 95:253 96:146 97:162 98:273 99:176 100:266 101:188 102:262 103:197 104:267 105:208 106:262 107:224 108:267 109:241 110:274 111:224 112:287 113:209 114:293 115:197 116:295 117:188 118:293 119:176 120:288 121:168 122:274 123:188 124:273 125:198 126:275 127:209 128:274 129:234 130:274 131:208 132:276 133:197 134:278 135:188 136:277 
-4.019383160647909e-10 0 0 0 1:58 2:150 3:60 4:188 5:63 6:225 7:72 8:262 9:88 10:293 11:113 12:317 13:142 14:340 15:174 16:356 17:206 18:361 19:237 20:354 21:262 22:333 23:282 24:308 25:297 26:280 27:308 28:248 29:317 30:214 31:325 32:180 33:328 34:144 35:84 36:107 37:106 38:94 39:131 40:92 41:157 42:96 43:182 44:104 45:223 46:105 47:248 48:96 49:273 50:93 51:297 52:97 53:314 54:114 55:206 56:136 57:208 58:157 59:212 60:177 61:215 62:198 63:184 64:223 65:197 66:226 67:210 68:229 69:221 70:227 71:231 72:223 73:116 74:139 75:133 76:131 77:152 78:132 79:165 80:144 81:150 82:148 83:131 84:147 85:236 86:146 87:251 88:132 89:269 90:132 91:284 92:141 93:272 94:148 95:253 96:149 97:164 98:280 99:181 100:263 101:199 102:254 103:211 104:257 105:223 106:252 107:237 108:262 109:249 110:278 111:238 112:296 113:224 114:301 115:211 116:302 117:198 118:301 119:181 120:294 121:174 122:279 123:198 124:272 125:210 126:272 127:222 128:271 129:241 130:278 131:223 132:280 133:211 134:281 135:199 136:280 
-0 -0 0 1.157707297619685e-10 1:60 2:163 3:61 4:198 5:64 6:231 7:72 8:264 9:89 10:294 11:116 12:319 13:144 14:342 15:177 16:361 17:214 18:365 19:250 20:359 21:278 22:338 23:301 24:311 25:321 26:282 27:331 28:248 29:333 30:216 31:334 32:182 33:333 34:148 35:90 36:113 37:106 38:96 39:129 40:90 41:153 42:91 43:176 44:99 45:224 46:99 47:247 48:91 49:271 50:89 51:295 52:95 53:312 54:112 55:201 56:139 57:203 58:169 59:205 60:198 61:207 62:227 63:181 64:239 65:194 66:245 67:207 68:248 69:220 70:244 71:232 72:238 73:119 74:141 75:132 76:132 77:150 78:133 79:163 80:146 81:148 82:148 83:131 84:147 85:239 86:146 87:251 88:134 89:268 90:132 91:282 92:141 93:271 94:148 95:254 96:149 97:159 98:278 99:178 100:273 101:195 102:270 103:210 104:274 105:223 106:269 107:238 108:272 109:253 110:276 111:239 112:289 113:224 114:297 115:209 116:298 117:194 118:297 119:176 120:290 121:165 122:279 123:195 124:281 125:210 126:283 127:224 128:281 129:247 130:277 131:223 132:281 133:209 134:283 135:194 136:281 
-0 -0 2.085819661225407e-10 1.297903122323678e-10 1:96 2:148 3:93 4:180 5:95 6:213 7:102 8:245 9:113 10:276 11:132 12:304 13:152 14:329 15:173 16:354 17:200 18:365 19:234 20:363 21:271 22:347 23:308 24:325 25:341 26:297 27:363 28:262 29:375 30:219 31:380 32:176 33:382 34:131 35:101 36:105 37:114 38:93 39:133 40:93 41:152 42:98 43:171 44:107 45:205 46:105 47:232 48:92 49:262 50:87 51:291 52:93 53:316 54:107 55:188 56:140 57:186 58:161 59:183 60:181 61:179 62:202 63:161 64:229 65:172 66:234 67:185 68:238 69:199 70:235 71:214 72:231 73:119 74:139 75:131 76:129 77:149 78:131 79:164 80:148 81:147 82:149 83:130 84:147 85:232 86:147 87:250 88:131 89:270 90:129 91:288 92:139 93:272 94:147 95:252 96:148 97:150 98:270 99:161 100:263 101:174 102:260 103:186 104:263 105:200 106:261 107:225 108:265 109:254 110:271 111:227 112:292 113:203 114:299 115:188 116:300 117:175 118:297 119:164 120:288 121:158 122:271 123:175 124:270 125:187 126:271 127:201 128:271 129:246 130:271 131:202 132:284 133:187 134:283 135:175 136:281 
-8.208138047204656e-10 -0 3.359986800487563e-10 0 1:88 2:137 3:90 4:171 5:95 6:204 7:103 8:239 9:113 10:272 11:129 12:304 13:146 14:332 15:169 16:360 17:201 18:368 19:237 20:362 21:271 22:337 23:301 24:306 25:326 26:275 27:342 28:240 29:347 30:200 31:348 32:161 33:347 34:121 35:95 36:114 37:111 38:100 39:133 40:102 41:154 42:107 43:175 44:118 45:214 46:119 47:239 48:108 49:265 50:103 51:291 52:104 53:314 54:116 55:194 56:144 57:192 58:173 59:190 60:202 61:188 62:230 63:168 64:242 65:179 66:247 67:193 68:252 69:207 70:248 71:222 72:243 73:118 74:138 75:132 76:130 77:151 78:132 79:165 80:147 81:147 82:149 83:130 84:148 85:236 86:146 87:249 88:133 89:269 90:131 91:284 92:139 93:272 94:149 95:252 96:149 97:153 98:281 99:166 100:277 101:181 102:273 103:196 104:279 105:211 106:274 107:230 108:277 109:252 110:280 111:231 112:298 113:212 114:309 115:196 116:312 117:180 118:309 119:165 120:300 121:159 122:283 123:182 124:286 125:197 126:289 127:212 128:286 129:242 130:281 131:211 132:288 133:195 134:290 135:180 136:287 
-0 -6.137124411751136e-10 9.794998971657853e-10 1.305959232838099e-10 1:78 2:138 3:81 4:173 5:87 6:207 7:95 8:240 9:109 10:270 11:129 12:296 13:150 14:320 15:178 16:337 17:205 18:341 19:232 20:335 21:258 22:316 23:278 24:291 25:296 26:263 27:309 28:230 29:317 30:196 31:322 32:162 33:323 34:129 35:91 36:105 37:106 38:89 39:129 40:86 41:152 42:89 43:174 44:100 45:224 46:100 47:246 48:92 49:269 50:90 51:291 52:93 53:309 54:105 55:201 56:137 57:202 58:162 59:202 60:186 61:203 62:210 63:181 64:226 65:192 66:230 67:203 68:233 69:213 70:229 71:223 72:224 73:116 74:141 75:131 76:131 77:151 78:132 79:167 80:147 81:149 82:149 83:129 84:149 85:235 86:146 87:249 88:132 89:269 90:130 91:284 92:139 93:271 94:146 95:252 96:148 97:159 98:267 99:176 100:259 101:192 102:254 103:203 104:258 105:214 106:254 107:230 108:259 109:245 110:263 111:230 112:280 113:215 114:288 115:203 116:290 117:190 118:289 119:175 120:283 121:166 122:268 123:192 124:269 125:203 126:270 127:215 128:269 129:239 130:264 131:214 132:267 133:203 134:269 135:191 136:269 
