svm_type c_svc
kernel_type polynomial
degree 3
gamma 0.00735294
coef0 0
nr_class 5
total_sv 322
rho -0.0322293 -12.892 1.83108 6.76166 33.2227 15.0972 24.6915 5.57427 3.87067 3.43628
label 0 1 2 3 4
probA -0.0208877 -0.135348 0.097909 0.101389 0.0787077 -0.0109872 0.00626863 0.215891 0.097434 -0.0214463
probB 0.029433 -0.0928694 -0.0412196 -0.110789 -0.161502 -0.0707575 -0.087994 0.082788 0.0655903 -0.0157282
nr_sv 67 67 58 66 64
SV
1.439335841749131e-11 0 0 0 1:-22 2:160 3:-17 4:205 5:-9 6:254 7:4 8:301 9:31 10:339 11:73 12:368 13:122 14:389 15:175 16:400 17:220 18:401 19:251 20:388 21:270 22:357 23:283 24:320 25:290 26:284 27:298 28:250 29:303 30:216 31:300 32:184 33:292 34:154 35:65 36:102 37:91 38:79 39:124 40:65 41:159 42:66 43:191 44:78 45:243 46:80 47:257 48:71 49:273 50:67 51:288 52:73 53:293 54:89 55:226 56:137 57:236 58:163 59:247 60:187 61:258 62:211 63:213 64:242 65:228 66:243 67:241 68:246 69:250 70:243 71:257 72:238 73:109 74:142 75:131 76:125 77:157 78:125 79:170 80:148 81:154 82:154 83:129 84:153 85:238 86:147 87:252 88:124 89:271 90:122 91:280 92:138 93:274 94:150 95:255 96:152 97:176 98:308 99:205 100:289 101:232 102:277 103:243 104:280 105:254 106:276 107:262 108:285 109:260 110:303 111:258 112:315 113:249 114:323 115:238 116:326 117:226 118:326 119:203 120:321 121:188 122:306 123:229 124:298 125:240 126:298 127:250 128:297 129:255 130:302 131:250 132:301 133:240 134:303 135:229 136:302 
0 5.503138330535148e-10 2.950870098344537e-11 1.59268662364879e-09 1:40 2:149 3:43 4:186 5:50 6:225 7:60 8:262 9:82 10:295 11:113 12:322 13:147 14:343 15:183 16:356 17:215 18:357 19:240 20:345 21:258 22:321 23:275 24:295 25:289 26:266 27:299 28:236 29:305 30:206 31:304 32:175 33:298 34:146 35:83 36:115 37:103 38:97 39:132 40:91 41:162 42:95 43:190 44:106 45:226 46:107 47:246 48:98 49:266 50:94 51:285 52:95 53:299 54:107 55:211 56:137 57:214 58:162 59:218 60:187 61:223 62:213 63:184 64:227 65:200 66:230 67:217 68:235 69:231 70:230 71:241 72:225 73:116 74:141 75:131 76:131 77:150 78:132 79:165 80:145 81:149 82:147 83:130 84:147 85:240 86:146 87:253 88:132 89:269 90:132 91:282 92:141 93:271 94:147 95:255 96:148 97:142 98:263 99:170 100:254 101:197 102:250 103:214 104:251 105:228 106:248 107:243 108:252 109:256 110:259 111:243 112:281 113:229 114:292 115:213 116:296 117:195 118:295 119:168 120:286 121:149 122:263 123:197 124:259 125:214 126:259 127:228 128:257 129:248 130:261 131:228 132:277 133:213 134:280 135:196 136:280 
0 5.203937512281424e-10 0 8.68946884253175e-10 1:57 2:148 3:59 4:183 5:65 6:217 7:74 8:251 9:89 10:283 11:109 12:311 13:134 14:332 15:163 16:346 17:196 18:350 19:227 20:346 21:252 22:328 23:272 24:305 25:289 26:276 27:301 28:244 29:309 30:211 31:314 32:176 33:312 34:143 35:85 36:106 37:104 38:92 39:129 40:88 41:154 42:89 43:179 44:96 45:229 46:97 47:250 48:89 49:272 50:88 51:293 52:92 53:306 54:108 55:207 56:134 57:209 58:158 59:211 60:181 61:213 62:203 63:186 64:223 65:198 66:227 67:210 68:229 69:221 70:227 71:230 72:224 73:115 74:142 75:132 76:132 77:153 78:132 79:168 80:144 81:151 82:149 83:131 84:149 85:236 86:145 87:251 88:132 89:270 90:132 91:283 92:141 93:271 94:149 95:252 96:150 97:159 98:269 99:176 100:258 101:194 102:253 103:208 104:257 105:220 106:253 107:234 108:259 109:244 110:271 111:232 112:284 113:218 114:288 115:205 116:289 117:192 118:289 119:175 120:283 121:167 122:268 123:193 124:267 125:207 126:269 127:219 128:269 129:237 130:271 131:219 132:269 133:206 134:270 135:193 136:269 
1.45443556612984e-11 1.041094658201378e-09 1.257052592182378e-10 2.275741917117247e-09 1:69 2:109 3:68 4:148 5:71 6:187 7:79 8:224 9:92 10:257 11:113 12:285 13:138 14:308 15:169 16:325 17:202 18:329 19:233 20:324 21:258 22:307 23:277 24:281 25:295 26:253 27:307 28:223 29:316 30:191 31:322 32:158 33:326 34:121 35:96 36:105 37:117 38:95 39:140 40:98 41:161 42:106 43:181 44:117 45:224 46:117 47:244 48:105 49:267 50:98 51:292 52:96 53:312 54:105 55:201 56:146 57:201 58:170 59:201 60:195 61:201 62:219 63:178 64:233 65:189 66:237 67:201 68:241 69:212 70:237 71:224 72:233 73:120 74:139 75:135 76:131 77:153 78:133 79:166 80:148 81:150 82:151 83:132 84:149 85:237 86:149 87:251 88:134 89:269 90:130 91:284 92:138 93:273 94:148 95:254 96:150 97:147 98:266 99:168 100:262 101:187 102:260 103:201 104:264 105:214 106:260 107:231 108:263 109:250 110:265 111:232 112:277 113:214 114:285 115:201 116:287 117:186 118:286 119:166 120:279 121:156 122:269 123:187 124:275 125:201 126:276 127:215 128:274 129:242 130:267 131:214 132:266 133:200 134:268 135:187 136:268 
4.262938795232279e-12 1.503071534834572e-10 2.019245949812341e-11 4.530618161820765e-11 1:-8 2:147 3:-3 4:192 5:5 6:236 7:21 8:278 9:51 10:313 11:89 12:339 13:130 14:360 15:172 16:373 17:206 18:376 19:232 20:364 21:249 22:335 23:266 24:307 25:281 26:277 27:292 28:245 29:300 30:212 31:299 32:179 33:292 34:149 35:74 36:104 37:100 38:92 39:130 40:87 41:161 42:88 43:190 44:97 45:233 46:98 47:248 48:89 49:263 50:86 51:279 52:86 53:291 54:94 55:216 56:136 57:222 58:159 59:229 60:182 61:236 62:206 63:193 64:227 65:210 66:232 67:225 68:235 69:236 70:232 71:245 72:226 73:114 74:141 75:133 76:132 77:152 78:131 79:164 80:144 81:150 82:146 83:133 84:145 85:239 86:145 87:253 88:134 89:269 90:132 91:278 92:141 93:270 94:147 95:254 96:147 97:142 98:269 99:172 100:259 101:201 102:256 103:217 104:258 105:230 106:255 107:243 108:259 109:250 110:268 111:242 112:293 113:230 114:307 115:216 116:310 117:199 118:308 119:170 120:294 121:150 122:269 123:200 124:269 125:216 126:270 127:229 128:268 129:243 130:270 131:230 132:286 133:216 134:289 135:200 136:288 
0 5.861257244692445e-10 4.282944348426339e-11 3.070917186307427e-09 1:72 2:142 3:74 4:177 5:80 6:212 7:84 8:247 9:94 10:280 11:112 12:308 13:134 14:333 15:163 16:354 17:196 18:362 19:230 20:357 21:261 22:337 23:287 24:312 25:308 26:283 27:319 28:249 29:325 30:213 31:332 32:177 33:335 34:142 35:93 36:112 37:109 38:100 39:130 40:96 41:152 42:99 43:175 44:107 45:224 46:106 47:247 48:96 49:272 50:93 51:295 52:99 53:312 54:114 55:199 56:135 57:199 58:156 59:199 60:178 61:199 62:200 63:175 64:218 65:187 66:222 67:199 68:227 69:212 70:222 71:224 72:217 73:118 74:140 75:133 76:133 77:150 78:134 79:166 80:144 81:149 82:146 83:132 84:146 85:235 86:144 87:251 88:133 89:269 90:132 91:283 92:141 93:270 94:146 95:252 96:146 97:138 98:253 99:159 100:244 101:181 102:242 103:199 104:244 105:217 106:241 107:241 108:244 109:264 110:252 111:242 112:287 113:217 114:300 115:197 116:303 117:179 118:300 119:157 120:285 121:145 122:255 123:181 124:251 125:199 126:253 127:216 128:252 129:257 130:255 131:216 132:279 133:198 134:281 135:180 136:278 
0 2.780012501506258e-10 3.143261003133211e-12 8.129763092653037e-10 1:6 2:155 3:13 4:200 5:21 6:244 7:36 8:286 9:63 10:318 11:100 12:342 13:141 14:361 15:183 16:372 17:221 18:372 19:247 20:362 21:265 22:337 23:281 24:305 25:292 26:273 27:303 28:239 29:307 30:206 31:303 32:174 33:295 34:144 35:77 36:106 37:100 38:85 39:130 40:76 41:163 42:77 43:195 44:86 45:233 46:93 47:251 48:84 49:269 50:80 51:286 52:82 53:296 54:96 55:215 56:133 57:223 58:154 59:232 60:175 61:242 62:197 63:203 64:229 65:216 66:231 67:230 68:232 69:240 70:230 71:249 72:226 73:111 74:140 75:129 76:129 77:151 78:129 79:168 80:145 81:150 82:151 83:128 84:151 85:232 86:146 87:248 88:131 89:268 90:130 91:281 92:141 93:270 94:150 95:251 96:152 97:171 98:289 99:196 100:269 101:219 102:257 103:231 104:260 105:242 106:256 107:253 108:265 109:256 110:286 111:252 112:302 113:241 114:309 115:229 116:311 117:215 118:310 119:194 120:304 121:183 122:287 123:218 124:275 125:230 126:275 127:241 128:275 129:247 130:285 131:240 132:286 133:229 134:287 135:216 136:288 
0.4951334391136044 0 0.9999999999984489 0 1:67 2:158 3:62 4:194 5:60 6:231 7:65 8:268 9:80 10:304 11:102 12:338 13:129 14:366 15:159 16:382 17:201 18:385 19:241 20:380 21:271 22:361 23:297 24:334 25:320 26:303 27:339 28:269 29:349 30:234 31:350 32:200 33:348 34:164 35:94 36:112 37:115 38:100 39:140 40:98 41:166 42:103 43:189 44:115 45:225 46:116 47:246 48:103 49:270 50:97 51:294 52:98 53:313 54:109 55:204 56:138 57:204 58:164 59:203 60:188 61:202 62:212 63:175 64:239 65:189 66:243 67:203 68:247 69:217 70:243 71:230 72:239 73:118 74:140 75:134 76:129 77:156 78:129 79:173 80:143 81:154 82:151 83:132 84:150 85:234 86:144 87:254 88:129 89:275 90:129 91:289 92:140 93:275 94:151 95:256 96:151 97:137 98:302 99:160 100:297 101:187 102:289 103:202 104:294 105:218 106:289 107:244 108:298 109:265 110:305 111:245 112:324 113:220 114:335 115:201 116:336 117:184 118:335 119:157 120:325 121:145 122:305 123:186 124:308 125:201 126:308 127:218 128:307 129:257 130:307 131:218 132:307 133:201 134:309 135:185 136:308 
0 6.897748229041995e-10 3.651465265212441e-11 8.687656366439416e-11 1:61 2:142 3:61 4:177 5:65 6:212 7:72 8:247 9:89 10:279 11:112 12:305 13:134 14:329 15:162 16:352 17:199 18:356 19:235 20:350 21:267 22:332 23:297 24:311 25:327 26:288 27:348 28:258 29:357 30:222 31:359 32:184 33:358 34:146 35:85 36:116 37:106 38:100 39:131 40:97 41:157 42:105 43:181 44:117 45:225 46:112 47:247 48:100 49:270 50:95 51:292 52:99 53:310 54:113 55:203 56:144 57:202 58:168 59:201 60:193 61:200 62:217 63:170 64:234 65:185 66:239 67:201 68:243 69:216 70:239 71:230 72:235 73:118 74:139 75:133 76:131 77:151 78:133 79:165 80:147 81:150 82:148 83:132 84:146 85:237 86:146 87:252 88:131 89:269 90:130 91:284 92:138 93:271 94:145 95:254 96:147 97:156 98:277 99:174 100:269 101:190 102:265 103:202 104:268 105:216 106:264 107:230 108:267 109:247 110:277 111:229 112:280 113:215 114:285 115:201 116:288 117:189 118:287 119:175 120:283 121:164 122:276 123:190 124:281 125:202 126:281 127:216 128:280 129:240 130:275 131:214 132:266 133:201 134:268 135:190 136:267 
1.073459783883163e-11 2.901743372476667e-10 5.692414866181462e-12 6.264412526004566e-10 1:41 2:157 3:42 4:195 5:48 6:233 7:57 8:267 9:76 10:296 11:103 12:319 13:135 14:337 15:170 16:347 17:204 18:349 19:235 20:342 21:262 22:328 23:284 24:309 25:301 26:286 27:313 28:257 29:319 30:226 31:321 32:197 33:319 34:166 35:85 36:109 37:111 38:98 39:138 40:94 41:166 42:98 43:193 44:106 45:227 46:108 47:246 48:98 49:266 50:95 51:288 52:96 53:302 54:109 55:212 56:138 57:215 58:158 59:218 60:177 61:222 62:196 63:187 64:219 65:201 66:223 67:215 68:227 69:225 70:224 71:236 72:219 73:116 74:140 75:132 76:129 77:152 78:130 79:165 80:144 81:150 82:148 83:132 84:148 85:238 86:145 87:251 88:129 89:268 90:129 91:281 92:141 93:270 94:149 95:253 96:150 97:162 98:271 99:183 100:260 101:203 102:251 103:213 104:253 105:222 106:250 107:238 108:257 109:252 110:266 111:238 112:278 113:224 114:281 115:214 116:282 117:203 118:282 119:185 120:280 121:171 122:270 123:203 124:264 125:213 126:263 127:222 128:262 129:244 130:266 131:224 132:265 133:215 134:265 135:205 136:265 
1.671054049551882e-11 5.324662478083476e-10 5.71011281834302e-11 0 1:89 2:136 3:84 4:173 5:85 6:210 7:91 8:248 9:100 10:286 11:115 12:325 13:134 14:360 15:154 16:385 17:186 18:392 19:225 20:393 21:265 22:384 23:301 24:360 25:333 26:327 27:357 28:287 29:369 30:243 31:374 32:195 33:377 34:146 35:97 36:97 37:111 38:86 39:129 40:87 41:147 42:95 43:163 44:103 45:216 46:101 47:243 48:88 49:271 50:82 51:298 52:90 53:320 54:107 55:188 56:133 57:185 58:166 59:182 60:198 61:179 62:231 63:162 64:251 65:172 66:255 67:183 68:258 69:197 70:257 71:212 72:257 73:119 74:135 75:130 76:125 77:146 78:126 79:160 80:137 81:145 82:142 83:130 84:142 85:238 86:139 87:254 88:128 89:272 90:129 91:287 92:139 93:272 94:146 95:254 96:145 97:142 98:309 99:157 100:311 101:170 102:309 103:182 104:316 105:197 106:312 107:219 108:321 109:241 110:326 111:218 112:329 113:196 114:328 115:181 116:325 117:167 118:321 119:155 120:317 121:150 122:314 123:170 124:326 125:182 126:329 127:197 128:330 129:232 130:328 131:196 132:306 133:181 134:304 135:169 136:301 
2.035212907699175e-11 0 4.581539928554275e-11 1.621176284279492e-10 1:-11 2:129 3:-11 4:181 5:-8 6:236 7:2 8:286 9:32 10:327 11:77 12:356 13:125 14:381 15:172 16:402 17:211 18:403 19:236 20:388 21:247 22:354 23:257 24:322 25:275 26:292 27:287 28:257 29:296 30:222 31:297 32:185 33:294 34:151 35:79 36:120 37:108 38:106 39:142 40:102 41:173 42:107 43:204 44:118 45:247 46:120 47:264 48:109 49:280 50:103 51:295 52:105 53:300 54:118 55:227 56:149 57:234 58:175 59:242 60:201 61:250 62:228 63:197 64:240 65:216 66:247 67:233 68:255 69:249 70:249 71:259 72:239 73:116 74:142 75:136 76:133 77:157 78:133 79:168 80:147 81:154 82:151 83:134 84:150 85:238 86:147 87:253 88:134 89:271 90:133 91:280 92:146 93:272 94:151 95:255 96:150 97:126 98:275 99:164 100:268 101:200 102:269 103:220 104:273 105:235 106:270 107:251 108:269 109:255 110:275 111:246 112:302 113:231 114:317 115:214 116:319 117:193 118:316 119:160 120:303 121:136 122:276 123:199 124:280 125:220 126:282 127:234 128:280 129:249 130:278 131:232 132:297 133:217 134:301 135:196 136:299 
5.959481289705864e-12 7.696506023608898e-10 6.685284698560868e-12 1.288739475173525e-09 1:77 2:154 3:75 4:191 5:80 6:228 7:89 8:265 9:108 10:296 11:128 12:327 13:147 14:357 15:173 16:381 17:206 18:387 19:238 20:384 21:263 22:360 23:279 24:325 25:295 26:290 27:311 28:254 29:322 30:217 31:328 32:179 33:329 34:141 35:101 36:101 37:117 38:92 39:136 40:93 41:154 42:96 43:173 44:102 45:225 46:102 47:246 48:94 49:268 50:91 51:289 52:93 53:305 54:103 55:201 56:135 57:202 58:162 59:202 60:190 61:203 62:217 63:180 64:242 65:192 66:245 67:203 68:248 69:214 70:245 71:226 72:242 73:116 74:137 75:131 76:129 77:150 78:130 79:163 80:144 81:147 82:147 83:129 84:147 85:239 86:143 87:253 88:130 89:271 90:128 91:283 92:138 93:272 94:147 95:255 96:147 97:171 98:312 99:179 100:293 101:192 102:282 103:205 104:286 105:218 106:283 107:235 108:296 109:249 110:317 111:234 112:318 113:219 114:322 115:205 116:323 117:192 118:320 119:179 120:315 121:177 122:311 123:192 124:305 125:205 126:306 127:219 128:306 129:240 130:315 131:218 132:296 133:204 134:296 135:192 136:294 
1.671223849621595e-11 5.121118099252468e-10 3.464804173704436e-11 1.960644152069751e-10 1:29 2:116 3:25 4:160 5:28 6:204 7:42 8:243 9:69 10:275 11:99 12:300 13:129 14:320 15:159 16:337 17:188 18:339 19:212 20:333 21:231 22:311 23:250 24:288 25:274 26:262 27:294 28:233 29:306 30:200 31:311 32:165 33:310 34:132 35:84 36:100 37:115 38:94 39:146 40:94 41:178 42:98 43:209 44:107 45:224 46:110 47:247 48:106 49:269 50:103 51:290 52:99 53:307 54:106 55:216 56:144 57:219 58:170 59:222 60:197 61:225 62:224 63:187 64:242 65:202 66:248 67:217 68:254 69:231 70:250 71:242 72:242 73:114 74:136 75:132 76:130 77:152 78:131 79:166 80:145 81:149 82:147 83:130 84:145 85:241 86:146 87:252 88:133 89:269 90:133 91:281 92:139 93:271 94:148 95:254 96:149 97:155 98:284 99:182 100:286 101:201 102:285 103:210 104:289 105:219 106:286 107:225 108:290 109:235 110:287 111:220 112:290 113:213 114:293 115:204 116:295 117:194 118:292 119:179 120:288 121:163 122:285 123:199 124:295 125:208 126:297 127:217 128:297 129:229 130:289 131:215 132:275 133:207 134:276 135:198 136:274 
8.453311704704567e-12 4.676862506160069e-10 0.9106308184261742 1.743934660653482e-10 1:71 2:137 3:69 4:171 5:75 6:206 7:82 8:238 9:93 10:270 11:113 12:299 13:140 14:321 15:170 16:341 17:201 18:347 19:231 20:342 21:259 22:325 23:284 24:302 25:303 26:272 27:314 28:238 29:322 30:206 31:326 32:172 33:325 34:137 35:94 36:105 37:115 38:93 39:139 40:90 41:165 42:94 43:186 44:108 45:223 46:108 47:244 48:96 49:268 50:92 51:292 52:97 53:310 54:111 55:205 56:135 57:205 58:161 59:204 60:186 61:204 62:212 63:181 64:232 65:192 66:237 67:204 68:241 69:214 70:238 71:224 72:234 73:118 74:138 75:132 76:129 77:151 78:130 79:166 80:144 81:149 82:148 83:130 84:147 85:235 86:145 87:251 88:129 89:269 90:130 91:283 92:138 93:271 94:146 95:252 96:148 97:162 98:279 99:177 100:275 101:191 102:269 103:201 104:273 105:210 106:269 107:221 108:274 109:235 110:274 111:222 112:286 113:211 114:290 115:202 116:292 117:192 118:291 119:179 120:288 121:167 122:279 123:191 124:283 125:201 126:284 127:210 128:282 129:229 130:275 131:210 132:274 133:202 134:276 135:192 136:275 
1.683854501767498e-11 1.648978167479333e-10 6.548717344103535e-11 3.378931661960004e-10 1:59 2:157 3:62 4:198 5:67 6:239 7:74 8:281 9:89 10:320 11:113 12:353 13:143 14:382 15:179 16:399 17:222 18:402 19:268 20:398 21:309 22:381 23:339 24:352 25:361 26:313 27:374 28:270 29:381 30:224 31:383 32:178 33:381 34:135 35:76 36:113 37:95 38:94 39:122 40:85 41:153 42:84 43:182 44:94 45:222 46:96 47:245 48:81 49:274 50:79 51:300 52:85 53:321 54:98 55:202 56:131 57:202 58:159 59:203 60:186 61:203 62:214 63:183 64:249 65:195 66:253 67:207 68:254 69:219 70:252 71:230 72:248 73:111 74:142 75:124 76:127 77:147 78:124 79:168 80:139 81:148 82:149 83:125 84:150 85:238 86:139 87:256 88:123 89:280 90:123 91:296 92:138 93:281 94:148 95:258 96:148 97:175 98:337 99:190 100:323 101:201 102:311 103:210 104:316 105:221 106:311 107:238 108:322 109:260 110:337 111:242 112:327 113:226 114:322 115:214 116:322 117:204 118:321 119:192 120:325 121:184 122:335 123:201 124:330 125:211 126:331 127:222 128:331 129:249 130:335 131:223 132:300 133:212 134:300 135:204 136:300 
1.920989340818224e-12 0 9.490718234371838e-12 4.699705696530456e-11 1:38 2:176 3:34 4:215 5:33 6:254 7:42 8:294 9:55 10:332 11:76 12:366 13:102 14:392 15:139 16:404 17:183 18:408 19:226 20:403 21:257 22:384 23:280 24:356 25:301 26:325 27:318 28:289 29:329 30:250 31:334 32:211 33:334 34:175 35:79 36:116 37:103 38:105 39:128 40:99 41:154 42:99 43:178 44:110 45:221 46:114 47:242 48:104 49:267 50:101 51:289 52:105 53:307 54:118 55:200 56:137 57:200 58:168 59:200 60:198 61:199 62:228 63:164 64:259 65:180 66:260 67:196 68:263 69:212 70:260 71:228 72:257 73:105 74:143 75:121 76:132 77:140 78:130 79:154 80:142 81:139 82:147 83:121 84:149 85:236 86:141 87:252 88:129 89:270 90:130 91:281 92:142 93:269 94:147 95:252 96:146 97:116 98:327 99:141 100:316 101:171 102:311 103:190 104:316 105:208 106:311 107:234 108:316 109:256 110:324 111:232 112:347 113:206 114:357 115:188 116:359 117:167 118:359 119:139 120:351 121:123 122:328 123:171 124:325 125:190 126:327 127:207 128:326 129:248 130:326 131:206 132:335 133:188 134:338 135:169 136:336 
2.646718648568989e-11 9.556775590622217e-10 1.421210436371669e-10 0 1:62 2:140 3:66 4:176 5:70 6:211 7:75 8:247 9:90 10:279 11:115 12:306 13:143 14:327 15:173 16:344 17:201 18:350 19:230 20:345 21:259 22:327 23:283 24:304 25:304 26:276 27:316 28:241 29:320 30:206 31:323 32:171 33:324 34:138 35:92 36:109 37:111 38:102 39:133 40:103 41:153 42:109 43:173 44:119 45:221 46:119 47:239 48:108 49:261 50:102 51:283 52:102 53:303 54:112 55:197 56:143 57:198 58:166 59:199 60:190 61:200 62:213 63:173 64:222 65:186 66:226 67:199 68:231 69:212 70:227 71:225 72:223 73:117 74:139 75:133 76:132 77:150 78:133 79:165 80:146 81:149 82:145 83:132 84:144 85:235 86:145 87:252 88:133 89:269 90:131 91:284 92:139 93:270 94:144 95:253 96:145 97:134 98:250 99:160 100:246 101:185 102:243 103:200 104:246 105:214 106:243 107:236 108:246 109:257 110:251 111:236 112:277 113:215 114:289 115:200 116:291 117:183 118:289 119:159 120:277 121:141 122:253 123:185 124:252 125:199 126:254 127:215 128:251 129:250 130:253 131:214 132:273 133:199 134:275 135:184 136:273 
8.843746865305538e-12 0 2.349904634251343e-11 5.802773132368723e-10 1:62 2:132 3:64 4:166 5:70 6:199 7:81 8:231 9:102 10:259 11:127 12:282 13:155 14:300 15:179 16:314 17:206 18:319 19:234 20:314 21:261 22:298 23:286 24:277 25:306 26:251 27:321 28:221 29:331 30:189 31:338 32:154 33:341 34:119 35:92 36:110 37:114 38:100 39:137 40:100 41:158 42:102 43:180 44:108 45:222 46:111 47:244 48:102 49:267 50:101 51:290 52:102 53:311 54:111 55:200 56:141 57:201 58:162 59:201 60:181 61:202 62:202 63:184 64:220 65:193 66:223 67:203 68:226 69:213 70:222 71:222 72:218 73:115 74:140 75:130 76:131 77:149 78:130 79:163 80:143 81:147 82:151 83:129 84:150 85:236 86:144 87:252 88:132 89:271 90:133 91:285 92:141 93:272 94:152 95:253 96:153 97:169 98:266 99:182 100:258 101:194 102:254 103:206 104:257 105:216 106:254 107:234 108:260 109:256 110:266 111:235 112:274 113:218 114:279 115:206 116:279 117:194 118:278 119:181 120:273 121:175 122:265 123:195 124:264 125:205 126:265 127:216 128:264 129:250 130:266 131:216 132:265 133:205 134:266 135:194 136:265 
2.514024150589048e-11 8.137031264025696e-10 3.708982765824754e-11 1.600207343377993e-09 1:80 2:144 3:76 4:178 5:76 6:211 7:83 8:248 9:95 10:281 11:115 12:309 13:138 14:336 15:162 16:362 17:196 18:375 19:232 20:372 21:265 22:358 23:298 24:340 25:331 26:315 27:352 28:283 29:363 30:243 31:366 32:203 33:364 34:165 35:109 36:90 37:123 38:77 39:142 40:75 41:161 42:79 43:180 44:90 45:226 46:91 47:249 48:81 49:273 50:81 51:296 52:90 53:313 54:106 55:202 56:135 57:201 58:157 59:199 60:176 61:198 62:197 63:176 64:233 65:188 66:237 67:199 68:239 69:211 70:238 71:223 72:237 73:126 74:138 75:139 76:128 77:159 78:127 79:171 80:143 81:157 82:149 83:138 84:149 85:238 86:147 87:252 88:133 89:272 90:133 91:288 92:144 93:273 94:154 95:253 96:154 97:157 98:279 99:172 100:275 101:187 102:273 103:196 104:277 105:204 106:274 107:224 108:279 109:250 110:285 111:223 112:292 113:205 114:292 115:197 116:292 117:187 118:291 119:174 120:287 121:164 122:280 123:188 124:288 125:196 126:289 127:205 128:289 129:243 130:283 131:205 132:277 133:197 134:279 135:188 136:276 
1.857327384249115e-11 0 4.622937956714263e-12 0 1:110 2:157 3:109 4:188 5:112 6:218 7:121 8:247 9:134 10:276 11:152 12:306 13:170 14:332 15:189 16:357 17:214 18:367 19:249 20:368 21:292 22:354 23:334 24:332 25:370 26:306 27:394 28:269 29:403 30:224 31:406 32:177 33:406 34:134 35:103 36:104 37:114 38:94 39:129 40:94 41:145 42:99 43:160 44:108 45:196 46:100 47:230 48:88 49:264 50:83 51:298 52:93 53:323 54:110 55:183 56:141 57:179 58:168 59:174 60:194 61:168 62:221 63:159 64:238 65:170 66:244 67:183 68:248 69:196 70:244 71:210 72:241 73:121 74:141 75:131 76:130 77:149 78:131 79:166 80:147 81:148 82:148 83:131 84:148 85:231 86:147 87:248 88:130 89:271 90:129 91:293 92:142 93:274 94:149 95:252 96:150 97:161 98:282 99:162 100:273 101:176 102:268 103:186 104:273 105:199 106:269 107:227 108:277 109:257 110:284 111:231 112:300 113:208 114:309 115:193 116:310 117:181 118:307 119:168 120:297 121:166 122:283 123:178 124:286 125:189 126:287 127:202 128:287 129:246 130:286 131:202 132:289 133:189 134:289 135:179 136:287 
1 0 4.684366996451423e-11 0.9999999998111021 1:76 2:148 3:77 4:185 5:85 6:221 7:94 8:256 9:107 10:287 11:124 12:315 13:146 14:340 15:173 16:356 17:202 18:362 19:232 20:355 21:257 22:335 23:276 24:307 25:292 26:274 27:302 28:241 29:309 30:209 31:316 32:175 33:318 34:141 35:94 36:109 37:113 38:95 39:135 40:93 41:157 42:99 43:178 44:109 45:227 46:109 47:247 48:100 49:267 50:94 51:288 52:95 53:304 54:107 55:202 56:138 57:203 58:159 59:205 60:180 61:206 62:201 63:183 64:219 65:193 66:224 67:204 68:228 69:215 70:224 71:225 72:219 73:118 74:142 75:132 76:130 77:150 78:131 79:165 80:143 81:148 82:149 83:131 84:149 85:236 86:143 87:250 88:131 89:269 90:131 91:283 92:142 93:271 94:149 95:253 96:150 97:156 98:275 99:172 100:255 101:192 102:246 103:204 104:249 105:216 106:247 107:233 108:256 109:249 110:276 111:232 112:299 113:214 114:309 115:201 116:311 117:187 118:310 119:168 120:299 121:165 122:274 123:192 124:262 125:204 126:262 127:216 128:262 129:239 130:276 131:214 132:285 133:202 134:287 135:188 136:285 
1.259641387210913e-12 0 2.198986215069928e-11 0 1:59 2:126 3:61 4:167 5:68 6:210 7:80 8:251 9:98 10:289 11:124 12:322 13:151 14:349 15:182 16:368 17:214 18:372 19:245 20:367 21:268 22:346 23:287 24:318 25:304 26:283 27:318 28:244 29:328 30:205 31:336 32:164 33:338 34:123 35:85 36:94 37:105 38:78 39:131 40:77 41:155 42:84 43:179 44:94 45:227 46:96 47:248 48:85 49:272 50:80 51:296 52:79 53:314 54:92 55:203 56:140 57:204 58:173 59:204 60:205 61:204 62:235 63:175 64:260 65:191 66:262 67:206 68:264 69:219 70:261 71:233 72:258 73:113 74:135 75:128 76:122 77:152 78:124 79:168 80:146 81:149 82:155 83:125 84:153 85:235 86:146 87:251 88:125 89:275 90:123 91:290 92:135 93:278 94:153 95:254 96:155 97:148 98:306 99:172 100:300 101:195 102:294 103:210 104:298 105:224 106:293 107:250 108:299 109:275 110:299 111:255 112:310 113:231 114:316 115:214 116:319 117:198 118:317 119:175 120:312 121:158 122:307 123:196 124:313 125:211 126:314 127:225 128:312 129:267 130:301 131:228 132:296 133:213 134:297 135:198 136:295 
1.507213566050698e-11 0 0 1.376507523701808e-09 1:100 2:145 3:102 4:173 5:106 6:199 7:115 8:228 9:127 10:255 11:145 12:282 13:163 14:306 15:184 16:330 17:209 18:341 19:238 20:336 21:272 22:317 23:302 24:294 25:327 26:267 27:344 28:235 29:351 30:197 31:355 32:159 33:354 34:121 35:101 36:103 37:116 38:97 39:132 40:99 41:148 42:105 43:165 44:114 45:215 46:114 47:238 48:102 49:261 50:96 51:286 52:96 53:310 54:102 55:190 56:143 57:189 58:169 59:188 60:195 61:187 62:221 63:174 64:232 65:183 66:238 67:193 68:241 69:203 70:237 71:215 72:233 73:119 74:138 75:131 76:129 77:150 78:130 79:165 80:147 81:147 82:149 83:129 84:147 85:234 86:148 87:249 88:131 89:270 90:128 91:288 92:138 93:272 94:149 95:252 96:150 97:168 98:264 99:177 100:257 101:188 102:255 103:198 104:259 105:209 106:256 107:230 108:260 109:253 110:266 111:233 112:284 113:214 114:293 115:202 116:293 117:191 118:290 119:179 120:281 121:174 122:265 123:190 124:266 125:199 126:268 127:210 128:267 129:245 130:267 131:211 132:276 133:201 134:276 135:190 136:272 
0 0 3.929381711980193e-11 1.868499289535506e-09 1:51 2:139 3:53 4:175 5:59 6:211 7:69 8:245 9:85 10:276 11:111 12:301 13:141 14:320 15:174 16:336 17:209 18:340 19:243 20:333 21:273 22:314 23:297 24:293 25:313 26:266 27:324 28:235 29:331 30:204 31:334 32:173 33:335 34:142 35:90 36:115 37:108 38:99 39:133 40:93 41:157 42:99 43:180 44:109 45:227 46:106 47:250 48:95 49:273 50:91 51:296 52:96 53:312 54:114 55:205 56:134 57:206 58:157 59:206 60:179 61:207 62:202 63:178 64:218 65:192 66:220 67:206 68:223 69:218 70:221 71:231 72:219 73:120 74:139 75:134 76:131 77:152 78:132 79:165 80:144 81:151 82:147 83:133 84:146 85:242 86:144 87:254 88:133 89:270 90:132 91:282 92:140 93:272 94:147 95:256 96:148 97:152 98:255 99:174 100:252 101:191 102:246 103:204 104:249 105:217 106:247 107:234 108:252 109:254 110:255 111:235 112:269 113:219 114:275 115:205 116:277 117:192 118:275 119:175 120:270 121:159 122:257 123:191 124:261 125:204 126:262 127:217 128:261 129:247 130:256 131:218 132:257 133:205 134:258 135:193 136:257 
2.635612839472069e-12 0 1.985390052431931e-11 0 1:38 2:138 3:39 4:178 5:49 6:217 7:65 8:253 9:89 10:282 11:116 12:305 13:143 14:325 15:170 16:344 17:202 18:347 19:232 20:341 21:258 22:323 23:281 24:301 25:303 26:276 27:317 28:242 29:327 30:205 31:333 32:164 33:330 34:123 35:70 36:87 37:96 38:88 39:120 40:94 41:142 42:102 43:162 44:113 45:222 46:110 47:243 48:100 49:264 50:94 51:286 52:89 53:307 54:91 55:197 56:148 57:200 58:184 59:203 60:222 61:207 62:258 63:172 64:276 65:188 66:279 67:203 68:281 69:215 70:278 71:227 72:275 73:95 74:133 75:110 76:120 77:133 78:122 79:148 80:147 81:130 82:150 83:107 84:147 85:237 86:146 87:249 88:121 89:273 90:118 91:292 92:131 93:278 94:149 95:255 96:151 97:152 98:319 99:172 100:330 101:186 102:329 103:195 104:334 105:202 106:328 107:211 108:329 109:226 110:317 111:212 112:303 113:204 114:299 115:196 116:300 117:188 118:300 119:174 120:306 121:158 122:322 123:186 124:346 125:195 126:346 127:203 128:345 129:218 130:319 131:203 132:278 133:196 134:278 135:189 136:280 
1 6.311307045940318e-10 5.729357349076616e-11 6.305568448931199e-10 1:14 2:155 3:15 4:197 5:17 6:240 7:23 8:284 9:40 10:324 11:69 12:358 13:106 14:386 15:148 16:401 17:191 18:403 19:229 20:393 21:256 22:373 23:277 24:343 25:292 26:309 27:300 28:271 29:303 30:235 31:310 32:201 33:311 34:168 35:85 36:111 37:107 38:94 39:135 40:89 41:162 42:93 43:182 44:106 45:229 46:104 47:247 48:92 49:269 50:89 51:290 52:92 53:305 54:109 55:209 56:139 57:211 58:164 59:214 60:189 61:218 62:214 63:182 64:244 65:196 66:247 67:210 68:250 69:221 70:248 71:232 72:245 73:112 74:142 75:130 76:129 77:152 78:129 79:166 80:149 81:150 82:153 83:128 84:151 85:235 86:147 87:252 88:129 89:272 90:127 91:283 92:141 93:273 94:150 95:254 96:152 97:135 98:279 99:167 100:283 101:195 102:283 103:210 104:288 105:224 106:286 107:246 108:288 109:268 110:288 111:243 112:304 113:220 114:309 115:205 116:310 117:188 118:307 119:162 120:299 121:142 122:283 123:193 124:297 125:209 126:301 127:223 128:300 129:261 130:292 131:221 132:296 133:206 134:297 135:190 136:294 
1.624145282426587e-11 0 1.705195015873691e-11 0 1:-33 2:173 3:-28 4:228 5:-19 6:284 8:334 9:36 10:371 11:87 12:392 13:141 14:402 15:194 16:402 17:234 18:401 19:259 20:384 21:273 22:354 23:284 24:321 25:292 26:286 27:302 28:251 29:307 30:215 31:300 32:178 33:285 34:147 35:67 36:101 37:95 38:86 39:127 40:79 41:160 42:82 43:189 44:95 45:240 46:99 47:250 48:88 49:263 50:81 51:276 52:77 53:287 54:83 55:224 56:139 57:233 58:160 59:244 60:180 61:256 62:200 63:210 64:238 65:228 66:239 67:243 68:239 69:253 70:237 71:263 72:232 73:107 74:143 75:132 76:130 77:155 78:128 79:170 80:145 81:153 82:149 83:131 84:148 85:239 86:146 87:253 88:131 89:269 90:128 91:277 92:140 93:271 94:148 95:255 96:149 97:170 98:299 99:205 100:279 101:234 102:266 103:245 104:271 105:254 106:268 107:264 108:280 109:266 110:296 111:261 112:308 113:251 114:315 115:241 116:316 117:229 118:315 119:202 120:311 121:181 122:297 123:232 124:290 125:244 126:290 127:252 128:291 129:260 130:295 131:251 132:293 133:242 134:293 135:231 136:293 
0 0 1.204301118544253e-11 2.406341448728038e-11 1:65 2:146 3:68 4:183 5:74 6:218 7:84 8:250 9:101 10:280 11:122 12:307 13:149 14:328 15:180 16:341 17:211 18:345 19:241 20:336 21:267 22:316 23:290 24:292 25:308 26:264 27:321 28:232 29:325 30:200 31:327 32:167 33:325 34:135 35:84 36:112 37:108 38:93 39:135 40:94 41:160 42:102 43:183 44:112 45:227 46:111 47:248 48:101 49:270 50:95 51:292 52:94 53:308 54:108 55:206 56:134 57:208 58:157 59:211 60:180 61:214 62:203 63:183 64:221 65:196 66:226 67:209 68:228 69:221 70:225 71:232 72:221 73:114 74:139 75:130 76:130 77:150 78:131 79:168 80:143 81:149 82:146 83:129 84:147 85:234 86:143 87:250 88:131 89:269 90:131 91:284 92:139 93:271 94:147 95:252 96:148 97:154 98:261 99:177 100:255 101:195 102:249 103:206 104:253 105:220 106:250 107:236 108:256 109:253 110:259 111:237 112:272 113:220 114:280 115:206 116:282 117:193 118:280 119:176 120:275 121:160 122:262 123:194 124:263 125:206 126:264 127:219 128:262 129:246 130:260 131:219 132:264 133:206 134:266 135:194 136:265 
4.14149490190836e-11 6.523064768163036e-10 1.061348091518284e-10 2.361583163841651e-09 1:67 2:138 3:69 4:176 5:73 6:213 7:78 8:251 9:88 10:288 11:109 12:322 13:135 14:348 15:167 16:368 17:202 18:374 19:235 20:368 21:267 22:347 23:294 24:322 25:317 26:290 27:330 28:256 29:336 30:217 31:340 32:179 33:342 34:142 35:93 36:105 37:110 38:89 39:132 40:86 41:156 42:89 43:178 44:97 45:219 46:94 47:243 48:85 49:267 50:82 51:292 52:84 53:313 54:97 55:201 56:133 57:201 58:156 59:201 60:177 61:201 62:199 63:175 64:215 65:188 66:218 67:200 68:222 69:213 70:218 71:225 72:215 73:118 74:138 75:134 76:131 77:154 78:132 79:168 80:144 81:152 82:148 83:133 84:147 85:233 86:145 87:250 88:132 89:270 90:131 91:286 92:140 93:271 94:147 95:252 96:149 97:148 98:261 99:168 100:246 101:191 102:239 103:201 104:243 105:213 106:239 107:234 108:246 109:251 110:261 111:233 112:288 113:213 114:302 115:199 116:305 117:186 118:303 119:166 120:290 121:156 122:261 123:190 124:261 125:200 126:263 127:213 128:261 129:244 130:261 131:213 132:275 133:199 134:279 135:188 136:277 
1.063469624832608e-11 0 0 5.467471068930395e-10 1:85 2:133 3:84 4:165 5:86 6:197 7:91 8:229 9:106 10:258 11:128 12:283 13:147 14:309 15:171 16:334 17:198 18:343 19:229 20:336 21:256 22:313 23:280 24:288 25:303 26:260 27:320 28:229 29:328 30:196 31:334 32:162 33:334 34:128 35:100 36:104 37:114 38:92 39:134 40:89 41:154 42:91 43:175 44:99 45:225 46:102 47:243 48:93 49:264 50:91 51:285 52:94 53:302 54:107 55:196 56:137 57:195 58:158 59:194 60:180 61:193 62:202 63:166 64:219 65:180 66:223 67:194 68:227 69:210 70:222 71:225 72:219 73:120 74:138 75:134 76:133 77:150 78:133 79:166 80:144 81:148 82:147 83:132 84:146 85:236 86:145 87:250 88:135 89:268 90:133 91:283 92:137 93:269 94:146 95:251 96:147 97:139 98:245 99:158 100:245 101:181 102:241 103:197 104:244 105:212 106:241 107:238 108:244 109:263 110:246 111:240 112:278 113:215 114:290 115:198 116:291 117:182 118:288 119:160 120:273 121:148 122:249 123:181 124:253 125:197 126:255 127:213 128:254 129:255 130:250 131:214 132:269 133:198 134:269 135:182 136:267 
0 0 0 3.379161043825178e-10 1:72 2:149 3:73 4:182 5:77 6:219 7:84 8:252 9:100 10:284 11:122 12:307 13:145 14:328 15:173 16:345 17:203 18:346 19:231 20:339 21:257 22:318 23:281 24:295 25:302 26:269 27:318 28:239 29:327 30:206 31:328 32:174 33:328 34:145 35:92 36:116 37:110 38:102 39:135 40:98 41:160 42:102 43:184 44:113 45:226 46:112 47:249 48:101 49:270 50:96 51:292 52:99 53:309 54:113 55:205 56:138 57:207 58:164 59:208 60:190 61:210 62:215 63:176 64:223 65:191 66:229 67:206 68:235 69:222 70:229 71:235 72:224 73:118 74:141 75:133 76:131 77:151 78:133 79:163 80:146 81:148 82:148 83:131 84:147 85:240 86:145 87:251 88:132 89:268 90:131 91:280 92:139 93:269 94:145 95:254 96:147 97:143 98:253 99:168 100:247 101:190 102:245 103:205 104:248 105:221 106:245 107:237 108:247 109:252 110:252 111:235 112:275 113:218 114:285 115:201 116:287 117:186 118:285 119:164 120:275 121:151 122:256 123:189 124:258 125:205 126:260 127:220 128:259 129:243 130:255 131:218 132:261 133:203 134:263 135:188 136:262 
0 1.438813100386272e-09 1.854670677773079e-10 9.568703202340683e-10 1:73 2:142 3:76 4:178 5:83 6:213 7:90 8:246 9:103 10:277 11:123 12:304 13:147 14:329 15:173 16:348 17:203 18:352 19:233 20:349 21:260 22:331 23:283 24:307 25:302 26:277 27:317 28:247 29:324 30:214 31:329 32:179 33:329 34:142 35:96 36:114 37:112 38:100 39:135 40:97 41:157 42:103 43:178 44:113 45:224 46:114 47:244 48:103 49:266 50:95 51:289 52:98 53:307 54:111 55:202 56:140 57:202 58:165 59:202 60:189 61:202 62:214 63:181 64:229 65:192 66:233 67:202 68:236 69:213 70:233 71:224 72:231 73:119 74:139 75:133 76:130 77:151 78:131 79:166 80:145 81:150 82:149 83:131 84:149 85:238 86:146 87:253 88:133 89:271 90:131 91:284 92:140 93:273 94:150 95:255 96:150 97:158 98:275 99:175 100:266 101:192 102:262 103:205 104:266 105:218 106:262 107:234 108:269 109:247 110:277 111:233 112:291 113:217 114:296 115:203 116:297 117:190 118:295 119:174 120:288 121:165 122:276 123:191 124:274 125:204 126:276 127:217 128:275 129:242 130:277 131:217 132:277 133:204 134:278 135:191 136:276 
5.525329618455579e-12 1.360338150294645e-10 5.289479239682086e-11 1.089000999898819e-09 1:56 2:161 3:58 4:197 5:64 6:233 7:73 8:269 9:87 10:303 11:108 12:332 13:136 14:354 15:170 16:369 17:209 18:372 19:246 20:363 21:276 22:343 23:301 24:319 25:322 26:292 27:335 28:260 29:339 30:227 31:338 32:193 33:337 34:159 35:84 36:126 37:97 38:99 39:123 40:84 41:152 42:83 43:179 44:94 45:221 46:90 47:248 48:80 49:276 50:81 51:302 52:94 53:315 54:118 55:201 56:130 57:201 58:151 59:202 60:172 61:203 62:193 63:174 64:218 65:188 66:222 67:203 68:226 69:217 70:221 71:232 72:217 73:120 74:144 75:135 76:135 77:151 78:135 79:166 80:144 81:151 82:146 83:134 84:146 85:237 86:141 87:252 88:132 89:268 90:132 91:281 92:142 93:268 94:144 95:252 96:144 97:140 98:271 99:167 100:262 101:187 102:257 103:203 104:260 105:218 106:257 107:238 108:259 109:261 110:266 111:239 112:272 113:221 114:275 115:205 116:277 117:189 118:277 119:168 120:277 121:148 122:270 123:188 124:267 125:203 126:267 127:219 128:266 129:252 130:265 131:219 132:264 133:204 134:266 135:189 136:266 
0 0 0 1.891505605788877e-10 1:98 2:152 3:96 4:182 5:100 6:212 7:108 8:243 9:121 10:271 11:139 12:296 13:156 14:318 15:175 16:342 17:201 18:354 19:234 20:355 21:272 22:340 23:308 24:319 25:339 26:292 27:360 28:258 29:370 30:219 31:376 32:174 33:377 34:129 35:104 36:107 37:113 38:93 39:131 40:92 41:150 42:96 43:169 44:105 45:204 46:104 47:233 48:89 49:263 50:83 51:293 52:86 53:320 54:101 55:190 56:139 57:188 58:166 59:185 60:194 61:182 62:221 63:167 64:235 65:178 66:242 67:190 68:247 69:204 70:242 71:219 72:236 73:119 74:141 75:131 76:132 77:150 78:132 79:167 80:148 81:150 82:152 83:131 84:151 85:235 86:148 87:250 88:132 89:270 90:130 91:287 92:139 93:272 94:150 95:252 96:151 97:162 98:270 99:169 100:265 101:182 102:263 103:193 104:266 105:205 106:264 107:227 108:268 109:253 110:273 111:229 112:288 113:208 114:295 115:195 116:296 117:184 118:293 119:170 120:286 121:168 122:271 123:183 124:274 125:193 126:276 127:206 128:275 129:243 130:274 131:207 132:278 133:194 134:278 135:184 136:275 
1.701076008443001e-11 0 7.038014446853493e-12 0 1:108 2:151 3:101 4:176 5:99 6:203 7:104 8:234 9:113 10:262 11:124 12:295 13:136 14:328 15:147 16:358 17:175 18:367 19:214 20:369 21:256 22:360 23:296 24:343 25:332 26:318 27:357 28:283 29:372 30:243 31:381 32:201 33:386 34:159 35:102 36:102 37:113 38:92 39:128 40:91 41:145 42:95 43:161 44:104 45:211 46:101 47:240 48:92 49:270 50:91 51:300 52:100 53:324 54:117 55:184 56:139 57:178 58:163 59:171 60:186 61:164 62:210 63:155 64:227 65:165 66:232 67:175 68:236 69:190 70:233 71:204 72:229 73:119 74:141 75:129 76:126 77:149 78:129 79:164 80:146 81:146 82:152 83:127 84:151 85:233 86:147 87:249 88:129 89:272 90:128 91:289 92:143 93:273 94:152 95:251 96:151 97:146 98:271 99:149 100:260 101:164 102:254 103:175 104:258 105:187 106:255 107:215 108:261 109:241 110:270 111:216 112:293 113:188 114:302 115:176 116:303 117:163 118:300 119:150 120:289 121:152 122:273 123:165 124:274 125:176 126:276 127:187 128:275 129:233 130:273 131:187 132:278 133:176 134:279 135:164 136:277 
0 0 3.527367373644437e-11 1.241655623158108e-09 1:70 2:146 3:70 4:180 5:74 6:213 7:82 8:246 9:97 10:275 11:119 12:300 13:143 14:322 15:173 16:339 17:207 18:342 19:238 20:336 21:264 22:315 23:285 24:290 25:302 26:263 27:312 28:233 29:318 30:199 31:320 32:165 33:317 34:131 35:92 36:111 37:111 38:99 39:135 40:99 41:159 42:103 43:179 44:114 45:223 46:106 47:240 48:93 49:258 50:86 51:278 52:84 53:296 54:92 55:204 56:133 57:205 58:160 59:207 60:187 61:209 62:214 63:177 64:227 65:192 66:232 67:206 68:238 69:220 70:231 71:232 72:225 73:118 74:142 75:131 76:132 77:149 78:132 79:163 80:144 81:149 82:147 83:131 84:148 85:237 86:140 87:250 88:124 89:267 90:120 91:280 92:127 93:271 94:138 95:253 96:141 97:144 98:251 99:168 100:253 101:190 102:254 103:204 104:257 105:220 106:253 107:239 108:251 109:259 110:246 111:240 112:274 113:222 114:284 115:205 116:287 117:190 118:286 119:168 120:276 121:150 122:255 123:190 124:265 125:205 126:267 127:221 128:265 129:252 130:251 131:220 132:264 133:204 134:267 135:190 136:265 
0 0 0 5.758590177713608e-11 1:87 2:144 3:83 4:177 5:85 6:209 7:91 8:241 9:103 10:273 11:121 12:302 13:143 14:326 15:166 16:349 17:193 18:359 19:226 20:355 21:261 22:340 23:295 24:320 25:325 26:292 27:347 28:261 29:359 30:225 31:362 32:187 33:363 34:150 35:106 36:112 37:119 38:98 39:140 40:96 41:159 42:101 43:179 44:108 45:216 46:108 47:240 48:96 49:267 50:90 51:294 52:96 53:315 54:109 55:195 56:140 57:192 58:166 59:189 60:192 61:186 62:218 63:162 64:232 65:175 66:238 67:189 68:243 69:205 70:238 71:222 72:233 73:117 74:142 75:130 76:130 77:148 78:132 79:165 80:148 81:147 82:148 83:129 84:148 85:235 86:148 87:250 88:131 89:270 90:130 91:287 92:142 93:271 94:147 95:251 96:148 97:142 98:259 99:159 100:256 101:176 102:255 103:191 104:259 105:208 106:255 107:235 108:257 109:263 110:263 111:236 112:288 113:210 114:300 115:192 116:301 117:175 118:297 119:158 120:286 121:149 122:261 123:176 124:266 125:191 126:269 127:208 128:267 129:256 130:264 131:209 132:280 133:192 134:281 135:176 136:278 
1.986253402842054e-11 1.51340453222729e-10 6.723922642842987e-11 5.15750215051891e-10 1:48 2:135 3:51 4:172 5:57 6:211 7:70 8:247 9:93 10:282 11:117 12:311 13:144 14:334 15:172 16:352 17:203 18:355 19:237 20:352 21:265 22:334 23:290 24:310 25:315 26:279 27:338 28:244 29:347 30:202 31:350 32:161 33:350 34:122 35:80 36:94 37:100 38:80 39:123 40:75 41:151 42:75 43:173 44:86 45:218 46:87 47:239 48:77 49:267 50:77 51:289 52:84 53:307 54:98 55:196 56:116 57:196 58:134 59:196 60:153 61:196 62:172 63:162 64:191 65:178 66:196 67:197 68:201 69:215 70:197 71:232 72:194 73:109 74:112 75:124 76:104 77:141 78:107 79:155 80:118 81:139 82:118 83:123 84:116 85:237 86:121 87:250 88:110 89:269 90:109 91:286 92:117 93:270 94:120 95:253 96:122 97:130 98:242 99:157 100:231 101:181 102:226 103:200 104:229 105:220 106:227 107:243 108:232 109:268 110:243 111:245 112:263 113:220 114:272 115:199 116:272 117:178 118:271 119:154 120:261 121:138 122:242 123:181 124:234 125:200 126:237 127:221 128:235 129:260 130:243 131:219 132:263 133:198 134:265 135:178 136:262 
1.816439814585644e-11 0 1.17750043369348e-11 6.610599688046151e-10 1:80 2:134 3:80 4:170 5:85 6:210 7:98 8:252 9:115 10:292 11:136 12:331 13:158 14:371 15:184 16:400 17:222 18:404 19:259 20:395 21:285 22:369 23:301 24:328 25:317 26:289 27:330 28:247 29:339 30:206 31:339 32:168 33:333 34:132 35:98 36:100 37:114 38:89 39:134 40:88 41:155 42:95 43:177 44:104 45:220 46:106 47:241 48:95 49:263 50:91 51:285 52:92 53:304 54:99 55:199 56:142 57:199 58:173 59:198 60:205 61:199 62:236 63:175 64:262 65:189 66:265 67:205 68:270 69:218 70:265 71:232 72:258 73:122 74:135 75:133 76:128 77:150 78:131 79:165 80:143 81:148 82:147 83:131 84:146 85:238 86:145 87:249 88:132 89:267 90:130 91:283 92:137 93:269 94:147 95:253 96:148 97:159 98:323 99:179 100:323 101:199 102:320 103:211 104:323 105:224 106:318 107:246 108:317 109:271 110:310 111:250 112:332 113:229 114:342 115:215 116:345 117:201 118:344 119:182 120:340 121:165 122:326 123:200 124:332 125:212 126:332 127:226 128:330 129:264 130:315 131:227 132:329 133:214 134:332 135:201 136:331 
0 0 6.101780385716383e-11 5.54794282067065e-10 1:55 2:139 3:58 4:177 5:63 6:215 7:71 8:254 9:85 10:291 11:108 12:321 13:137 14:346 15:168 16:366 17:200 18:373 19:234 20:368 21:267 22:346 23:295 24:320 25:319 26:289 27:334 28:255 29:344 30:218 31:351 32:180 33:352 34:141 35:89 36:119 37:104 38:102 39:127 40:95 41:150 42:97 43:174 44:105 45:226 46:106 47:248 48:95 49:273 50:92 51:298 52:98 53:319 54:115 55:198 56:140 57:197 58:170 59:196 60:199 61:194 62:228 63:169 64:239 65:182 66:245 67:197 68:249 69:212 70:243 71:226 72:237 73:118 74:140 75:133 76:131 77:151 78:132 79:164 80:144 81:148 82:148 83:130 84:146 85:237 86:145 87:252 88:132 89:270 90:130 91:285 92:139 93:272 94:146 95:253 96:147 97:148 98:276 99:167 100:273 101:184 102:270 103:198 104:273 105:213 106:268 107:230 108:271 109:249 110:275 111:231 112:289 113:214 114:297 115:199 116:299 117:184 118:297 119:166 120:289 121:154 122:279 123:184 124:281 125:198 126:283 127:213 128:280 129:242 130:277 131:214 132:280 133:199 134:284 135:184 136:282 
3.04916725703541e-11 6.19016824246976e-10 9.588983726054112e-12 1.79086997308566e-09 1:67 2:138 3:69 4:173 5:75 6:205 7:82 8:240 9:94 10:271 11:115 12:297 13:140 14:319 15:169 16:339 17:199 18:345 19:228 20:339 21:255 22:319 23:279 24:297 25:300 26:273 27:312 28:242 29:319 30:207 31:324 32:173 33:326 34:137 35:89 36:124 37:106 38:109 39:129 40:102 41:153 42:104 43:175 44:113 45:224 46:112 47:248 48:104 49:271 50:102 51:293 52:108 53:309 54:123 55:202 56:138 57:203 58:164 59:204 60:189 61:205 62:214 63:176 64:224 65:189 66:228 67:203 68:232 69:216 70:228 71:229 72:223 73:118 74:141 75:133 76:132 77:150 78:133 79:162 80:146 81:148 82:146 83:131 84:145 85:238 86:146 87:251 88:133 89:268 90:133 91:280 92:142 93:269 94:146 95:253 96:146 97:150 98:263 99:168 100:255 101:190 102:251 103:202 104:253 105:214 106:251 107:231 108:254 109:246 110:259 111:230 112:280 113:213 114:293 115:200 116:295 117:186 118:294 119:166 120:286 121:157 122:264 123:189 124:263 125:201 126:264 127:214 128:263 129:238 130:260 131:213 132:270 133:200 134:272 135:188 136:272 
3.719858968804404e-12 0 9.210215860043229e-12 0 1:65 2:158 3:64 4:192 5:72 6:230 7:85 8:265 9:103 10:298 11:126 12:327 13:148 14:353 15:174 16:373 17:203 18:376 19:229 20:371 21:254 22:349 23:272 24:320 25:292 26:287 27:310 28:253 29:323 30:215 31:328 32:177 33:325 34:139 35:92 36:104 37:114 38:98 39:134 40:98 41:155 42:99 43:174 44:108 45:220 46:113 47:239 48:104 49:259 50:98 51:280 52:93 53:302 54:97 55:198 56:141 57:198 58:171 59:199 60:200 61:200 62:229 63:177 64:246 65:189 66:250 67:200 68:253 69:213 70:250 71:225 72:246 73:110 74:140 75:125 76:133 77:144 78:132 79:158 80:144 81:142 82:151 83:123 84:151 85:235 86:143 87:251 88:130 89:271 90:130 91:285 92:137 93:272 94:148 95:253 96:149 97:146 98:296 99:166 100:296 101:186 102:292 103:200 104:296 105:213 106:292 107:233 108:297 109:257 110:300 111:234 112:318 113:214 114:326 115:199 116:327 117:184 118:324 119:164 120:314 121:154 122:300 123:186 124:305 125:199 126:308 127:212 128:307 129:249 130:303 131:213 132:303 133:199 134:305 135:186 136:303 
5.97112147159425e-12 0 2.523486937137261e-11 2.787545404413126e-10 1:48 2:158 3:48 4:202 5:53 6:246 7:62 8:287 9:81 10:322 11:111 12:353 13:145 14:381 15:183 16:398 17:223 18:400 19:260 20:390 21:291 22:364 23:316 24:331 25:337 26:294 27:352 28:254 29:358 30:213 31:361 32:171 33:359 34:131 35:88 36:109 37:107 38:89 39:134 40:80 41:163 42:81 43:187 44:91 45:224 46:89 47:245 48:81 49:268 50:81 51:290 52:87 53:305 54:101 55:210 56:132 57:213 58:157 59:216 60:181 61:219 62:205 63:187 64:230 65:200 66:234 67:212 68:237 69:224 70:235 71:236 72:231 73:116 74:141 75:132 76:127 77:151 78:128 79:169 80:144 81:152 82:146 83:132 84:147 85:237 86:143 87:250 88:127 89:267 90:127 91:282 92:138 93:269 94:146 95:252 96:147 97:159 98:276 99:182 100:269 101:203 102:263 103:213 104:266 105:224 106:264 107:245 108:274 109:266 110:284 111:247 112:311 113:226 114:317 115:214 116:317 117:203 118:315 119:182 120:302 121:169 122:278 123:203 124:278 125:213 126:278 127:224 128:279 129:259 130:286 131:225 132:297 133:214 134:295 135:203 136:293 
6.995596568683231e-12 0 9.064855784764875e-12 1.987912654066639e-10 1:42 2:148 3:45 4:186 5:52 6:225 7:63 8:264 9:88 10:296 11:119 12:321 13:151 14:341 15:184 16:351 17:215 18:352 19:239 20:341 21:257 22:319 23:273 24:295 25:287 26:268 27:297 28:237 29:302 30:206 31:302 32:175 33:296 34:144 35:82 36:114 37:102 38:97 39:132 40:91 41:161 42:95 43:189 44:105 45:225 46:107 47:244 48:98 49:264 50:95 51:283 52:95 53:296 54:108 55:210 56:137 57:214 58:161 59:219 60:185 61:223 62:210 63:184 64:224 65:201 66:228 67:218 68:232 69:231 70:228 71:242 72:222 73:116 74:139 75:131 76:131 77:149 78:132 79:164 80:144 81:148 82:145 83:130 84:144 85:241 86:145 87:254 88:132 89:270 90:131 91:281 92:141 93:271 94:145 95:255 96:146 97:143 98:260 99:171 100:252 101:198 102:248 103:214 104:248 105:228 106:246 107:243 108:249 109:256 110:256 111:242 112:277 113:228 114:289 115:213 116:292 117:196 118:292 119:169 120:284 121:149 122:261 123:197 124:257 125:214 126:256 127:228 128:254 129:249 130:257 131:228 132:273 133:214 134:276 135:197 136:276 
3.783864080119003e-11 0 1.456941475486503e-11 3.463734809859784e-10 1:88 2:161 3:89 4:191 5:95 6:221 7:104 8:249 9:118 10:273 11:135 12:293 13:154 14:308 15:177 16:319 17:203 18:324 19:235 20:322 21:269 22:318 23:299 24:305 25:326 26:285 27:341 28:257 29:347 30:222 31:353 32:187 33:356 34:152 35:94 36:122 37:109 38:106 39:129 40:100 41:151 42:103 43:171 44:111 45:213 46:111 47:237 48:101 49:261 50:98 51:285 52:103 53:307 54:115 55:193 56:135 57:190 58:159 59:185 60:182 61:182 62:205 63:165 64:226 65:177 66:230 67:189 68:233 69:202 70:228 71:216 72:225 73:119 74:142 75:131 76:131 77:149 78:131 79:162 80:147 81:148 82:146 83:131 84:146 85:236 86:146 87:251 88:130 89:269 90:129 91:284 92:140 93:270 94:145 95:252 96:145 97:147 98:260 99:163 100:260 101:178 102:258 103:190 104:260 105:202 106:258 107:224 108:259 109:256 110:257 111:228 112:264 113:208 114:266 115:195 116:267 117:182 118:267 119:166 120:267 121:153 122:262 123:180 124:267 125:191 126:268 127:204 128:266 129:248 130:258 131:206 132:254 133:193 134:255 135:181 136:254 
0 4.133586140761831e-10 2.915882947591286e-11 3.909845314659056e-10 1:79 2:157 3:79 4:191 5:85 6:225 7:93 8:262 9:104 10:302 11:119 12:339 13:141 14:373 15:165 16:399 17:205 18:405 19:254 20:404 21:295 22:386 23:328 24:357 25:355 26:323 27:370 28:281 29:375 30:238 31:374 32:195 33:368 34:153 35:106 36:110 37:119 38:96 39:137 40:90 41:157 42:94 43:174 44:108 45:211 46:109 47:230 48:93 49:255 50:88 51:280 52:92 53:301 54:107 55:188 56:144 57:185 58:171 59:181 60:197 61:178 62:224 63:161 64:250 65:176 66:255 67:191 68:259 69:205 70:253 71:219 72:250 73:128 74:146 75:136 76:134 77:153 78:134 79:167 80:149 81:152 82:155 83:136 84:155 85:233 86:146 87:246 88:131 89:264 90:129 91:278 92:138 93:266 94:149 95:249 96:151 97:150 98:296 99:165 100:299 101:181 102:299 103:195 104:303 105:209 106:299 107:234 108:300 109:265 110:294 111:237 112:310 113:213 114:315 115:198 116:316 117:184 118:314 119:168 120:310 121:158 122:299 123:182 124:310 125:196 126:313 127:210 128:311 129:255 130:297 131:211 132:302 133:197 134:303 135:184 136:301 
6.431452851804591e-12 5.942838337811831e-10 0 8.149508527601573e-10 1:78 2:147 3:75 4:180 5:77 6:213 7:83 8:246 9:93 10:277 11:112 12:306 13:134 14:328 15:163 16:345 17:198 18:350 19:233 20:342 21:264 22:323 23:289 24:301 25:310 26:276 27:327 28:247 29:337 30:216 31:340 32:183 33:341 34:151 35:98 36:119 37:114 38:104 39:136 40:97 41:161 42:99 43:181 44:108 45:213 46:106 47:239 48:99 49:266 50:99 51:290 52:105 53:309 54:118 55:200 56:134 57:199 58:157 59:198 60:180 61:197 62:203 63:172 64:222 65:185 66:227 67:199 68:231 69:213 70:226 71:226 72:220 73:116 74:143 75:131 76:131 77:150 78:132 79:164 80:146 81:148 82:148 83:131 84:148 85:238 86:146 87:252 88:132 89:270 90:133 91:285 92:143 93:272 94:148 95:254 96:148 97:146 98:258 99:166 100:250 101:186 102:245 103:199 104:249 105:215 106:245 107:235 108:249 109:257 110:255 111:234 112:276 113:215 114:284 115:199 116:286 117:184 118:285 119:164 120:278 121:153 122:259 123:186 124:259 125:200 126:259 127:216 128:257 129:248 130:256 131:214 132:262 133:198 134:264 135:184 136:263 
5.584225753362164e-12 1.124863570166659e-10 1.048993935606928e-11 4.078719794949733e-10 1:63 2:161 3:63 4:201 5:67 6:240 7:74 8:281 9:86 10:321 11:105 12:357 13:132 14:388 15:168 16:403 17:211 18:405 19:254 20:400 21:290 22:382 23:312 24:348 25:327 26:311 27:334 28:271 29:337 30:234 31:338 32:197 33:336 34:160 35:93 36:104 37:110 38:89 39:132 40:81 41:154 42:83 43:177 44:92 45:228 46:89 47:248 48:79 49:269 50:78 51:290 52:85 53:306 54:99 55:202 56:130 57:202 58:155 59:201 60:178 61:201 62:202 63:175 64:236 65:188 66:241 67:203 68:245 69:217 70:240 71:230 72:235 73:119 74:144 75:133 76:139 77:147 78:137 79:161 80:139 81:147 82:144 83:133 84:145 85:245 86:139 87:259 88:137 89:272 90:138 91:284 92:143 93:272 94:145 95:259 96:144 97:140 98:321 99:162 100:305 101:187 102:300 103:203 104:304 105:219 106:299 107:246 108:304 109:267 110:317 111:249 112:348 113:223 114:359 115:205 116:361 117:188 118:361 119:161 120:351 121:147 122:323 123:187 124:315 125:204 126:315 127:219 128:315 129:259 130:320 131:221 132:340 133:204 134:342 135:188 136:341 
2.965526913904634e-11 0 3.161087282246831e-11 2.782256235083057e-10 2:118 3:-3 4:164 5:-3 6:208 7:1 8:252 9:18 10:290 11:47 12:324 13:81 14:350 15:121 16:371 17:159 18:378 19:187 20:370 21:209 22:346 23:226 24:320 25:245 26:289 27:262 28:258 29:278 30:228 31:288 32:194 33:290 34:160 35:89 36:103 37:113 38:91 39:144 40:85 41:174 42:92 43:201 44:103 45:243 46:106 47:258 48:94 49:275 50:87 51:290 52:86 53:298 54:98 55:218 56:146 57:220 58:174 59:223 60:202 61:226 62:229 63:183 64:247 65:198 66:253 67:211 68:257 69:225 70:253 71:235 72:245 73:109 74:138 75:132 76:126 77:156 78:128 79:170 80:147 81:151 82:152 83:127 84:150 85:237 86:147 87:253 88:127 89:272 90:126 91:281 92:139 93:272 94:151 95:253 96:151 97:141 98:293 99:171 100:285 101:196 102:278 103:207 104:283 105:218 106:278 107:226 108:282 109:227 110:291 111:219 112:306 113:210 114:318 115:197 116:321 117:184 118:320 119:164 120:312 121:152 122:292 123:192 124:293 125:203 126:294 127:214 128:292 129:222 130:292 131:213 132:296 133:202 134:298 135:191 136:298 
0 1.141964905660831e-10 4.142456440875544e-11 1.726005788132862e-10 1:61 2:142 3:60 4:180 5:60 6:220 7:65 8:259 9:81 10:295 11:104 12:325 13:134 14:347 15:166 16:364 17:199 18:369 19:233 20:362 21:264 22:341 23:291 24:317 25:312 26:288 27:326 28:254 29:332 30:218 31:332 32:183 33:330 34:148 35:95 36:112 37:105 38:91 39:128 40:80 41:153 42:84 43:178 44:94 45:222 46:100 47:244 48:86 49:271 50:82 51:296 52:89 53:311 54:110 55:199 56:133 57:199 58:158 59:200 60:182 61:201 62:208 63:171 64:226 65:185 66:229 67:199 68:233 69:215 70:228 71:229 72:222 73:122 74:139 75:135 76:134 77:150 78:133 79:162 80:139 81:149 82:144 83:134 84:144 85:240 86:141 87:253 88:135 89:268 90:135 91:280 92:141 93:267 94:146 95:253 96:146 97:156 98:287 99:170 100:270 101:188 102:263 103:203 104:264 105:217 106:260 107:232 108:262 109:244 110:277 111:234 112:292 113:220 114:300 115:205 116:304 117:190 118:303 119:172 120:299 121:163 122:283 123:189 124:272 125:203 126:272 127:216 128:268 129:238 130:274 131:219 132:286 133:205 134:290 135:190 136:290 
0 4.163910535466555e-10 1.573776476623827e-10 2.04187835984287e-09 1:58 2:142 3:61 4:178 5:65 6:215 7:73 8:250 9:91 10:281 11:115 12:308 13:143 14:330 15:174 16:347 17:206 18:351 19:237 20:344 21:266 22:325 23:292 24:302 25:311 26:273 27:323 28:241 29:327 30:207 31:329 32:171 33:332 34:136 35:90 36:102 37:108 38:91 39:131 40:91 41:154 42:97 43:177 44:108 45:226 46:111 47:246 48:101 49:267 50:96 51:290 52:94 53:309 54:105 55:199 56:141 57:200 58:167 59:201 60:192 61:201 62:217 63:178 64:232 65:190 66:236 67:202 68:239 69:212 70:235 71:224 72:232 73:118 74:138 75:131 76:131 77:149 78:132 79:161 80:144 81:146 82:147 83:129 84:146 85:237 86:145 87:250 88:132 89:268 90:131 91:280 92:140 93:269 94:148 95:252 96:148 97:158 98:276 99:174 100:266 101:190 102:259 103:203 104:263 105:215 106:259 107:232 108:265 109:246 110:272 111:234 112:294 113:217 114:304 115:202 116:306 117:189 118:304 119:173 120:296 121:166 122:276 123:190 124:269 125:203 126:270 127:215 128:269 129:238 130:273 131:216 132:283 133:203 134:285 135:190 136:284 
0 4.2020721428481e-10 4.063999300543512e-11 1.897509080161654e-09 1:92 2:134 3:91 4:165 5:94 6:198 7:102 8:231 9:115 10:264 11:138 12:293 13:160 14:317 15:181 16:341 17:210 18:353 19:246 20:351 21:282 22:333 23:317 24:311 25:347 26:282 27:368 28:248 29:376 30:208 31:379 32:166 33:379 34:125 35:100 36:111 37:113 38:98 39:131 40:98 41:150 42:102 43:169 44:111 45:211 46:112 47:239 48:104 49:267 50:98 51:295 52:100 53:320 54:113 55:188 56:144 57:186 58:173 59:183 60:202 61:180 62:231 63:160 64:233 65:172 66:241 67:188 68:246 69:207 70:240 71:226 72:233 73:121 74:138 75:131 76:131 77:147 78:134 79:162 80:146 81:146 82:147 83:130 84:145 85:239 86:147 87:250 88:134 89:267 90:134 91:286 92:141 93:269 94:146 95:252 96:148 97:156 98:254 99:169 100:254 101:184 102:252 103:199 104:256 105:215 106:253 107:244 108:253 109:275 110:254 111:248 112:282 113:221 114:294 115:203 116:296 117:188 118:292 119:172 120:278 121:164 122:258 123:185 124:262 125:200 126:264 127:216 128:262 129:267 130:256 131:219 132:278 133:202 134:279 135:187 136:274 
2.603404369147699e-11 2.027410666135771e-11 6.068352184279556e-11 5.143431307251489e-12 1:21 2:154 3:27 4:208 5:34 6:260 7:48 8:306 9:74 10:342 11:113 12:373 13:154 14:395 15:194 16:409 17:236 18:412 19:279 20:401 21:307 22:377 23:337 24:345 25:361 26:309 27:375 28:270 29:378 30:227 31:375 32:187 33:374 34:143 35:70 36:142 37:92 38:122 39:125 40:120 41:158 42:125 43:188 44:141 45:232 46:145 47:257 48:128 49:284 50:119 51:312 52:116 53:335 54:128 55:217 56:176 57:222 58:205 59:227 60:233 61:231 62:261 63:182 64:276 65:204 66:285 67:227 68:292 69:248 70:284 71:269 72:274 73:108 74:176 75:127 76:162 77:151 78:164 79:174 80:183 81:150 82:188 83:125 84:187 85:248 86:180 87:268 88:160 89:291 90:158 91:308 92:170 93:294 94:182 95:271 96:185 97:143 98:314 99:175 100:313 101:205 102:312 103:226 104:316 105:248 106:310 107:277 108:308 109:305 110:310 111:284 112:346 113:256 114:362 115:232 116:366 117:207 118:364 119:176 120:352 121:154 122:318 123:204 124:320 125:227 126:323 127:250 128:319 129:297 130:314 131:254 132:342 133:230 134:346 135:207 136:344 
9.773920850567715e-12 5.214465724796928e-10 1.658813657596081e-11 0 1:76 2:124 3:77 4:159 5:82 6:196 7:90 8:231 9:107 10:262 11:130 12:286 13:153 14:309 15:176 16:331 17:205 18:337 19:236 20:331 21:263 22:312 23:286 24:290 25:308 26:265 27:325 28:236 29:334 30:202 31:339 32:167 33:339 34:130 35:100 36:102 37:120 38:94 39:143 40:94 41:167 42:97 43:191 44:105 45:234 46:108 47:252 48:97 49:274 50:88 51:297 52:86 53:318 54:93 55:203 56:137 57:202 58:165 59:200 60:193 61:199 62:221 63:169 64:222 65:184 66:229 67:200 68:236 69:218 70:226 71:234 72:218 73:124 74:137 75:139 76:136 77:155 78:136 79:170 80:139 81:155 82:143 83:138 84:144 85:243 86:140 87:258 88:133 89:274 90:133 91:290 92:133 93:275 94:141 95:258 96:142 97:146 98:242 99:169 100:249 101:189 102:252 103:205 104:254 105:222 106:250 107:244 108:245 109:269 110:237 111:248 112:262 113:226 114:276 115:208 116:279 117:190 118:276 119:170 120:265 121:154 122:246 123:188 124:261 125:205 126:263 127:223 128:260 129:261 130:241 131:225 132:255 133:208 134:258 135:191 136:256 
0 5.736764286365891e-10 5.983406839713227e-11 0 1:47 2:111 3:48 4:152 5:52 6:194 7:59 8:233 9:72 10:272 11:97 12:307 13:126 14:335 15:159 16:357 17:196 18:364 19:232 20:358 21:264 22:338 23:293 24:310 25:318 26:274 27:334 28:235 29:340 30:194 31:346 32:153 33:348 34:113 35:94 36:100 37:115 38:92 39:137 40:93 41:158 42:100 43:177 44:111 45:229 46:112 47:248 48:102 49:268 50:97 51:289 52:96 53:308 54:102 55:201 56:141 57:200 58:167 59:200 60:193 61:200 62:220 63:178 64:235 65:188 66:240 67:199 68:243 69:211 70:239 71:222 72:235 73:121 74:133 75:135 76:122 77:155 78:123 79:168 80:141 81:152 82:148 83:133 84:146 85:232 86:142 87:245 88:125 89:265 90:125 91:278 92:136 93:267 94:147 95:248 96:149 97:156 98:287 99:172 100:284 101:188 102:281 103:199 104:284 105:212 106:280 107:227 108:283 109:242 110:285 111:229 112:295 113:214 114:302 115:200 116:303 117:188 118:303 119:172 120:298 121:163 122:288 123:188 124:288 125:199 126:289 127:212 128:288 129:235 130:286 131:213 132:290 133:200 134:292 135:189 136:290 
0 6.760910346871671e-10 1.137958942484563e-10 2.484220002253951e-10 1:32 2:143 3:32 4:180 5:36 6:218 7:45 8:253 9:65 10:286 11:91 12:309 13:123 14:323 15:159 16:328 17:194 18:328 19:230 20:328 21:260 22:320 23:285 24:305 25:306 26:278 27:319 28:245 29:325 30:209 31:329 32:172 33:329 34:137 35:76 36:103 37:97 38:90 39:122 40:87 41:147 42:89 43:173 44:97 45:219 46:99 47:243 48:91 49:269 50:90 51:291 52:94 53:311 54:108 55:198 56:137 57:199 58:163 59:199 60:187 61:200 62:213 63:172 64:238 65:186 66:240 67:201 68:242 69:213 70:240 71:225 72:238 73:104 74:139 75:120 76:129 77:142 78:128 79:156 80:143 81:138 82:151 83:118 84:149 85:231 86:146 87:248 88:132 89:271 90:131 91:286 92:142 93:272 94:153 95:250 96:154 97:150 98:277 99:171 100:276 101:187 102:271 103:200 104:273 105:209 106:272 107:224 108:279 109:242 110:283 111:224 112:277 113:207 114:274 115:198 116:274 117:185 118:271 119:169 120:273 121:158 122:277 123:186 124:283 125:199 126:285 127:208 128:285 129:235 130:282 131:207 132:262 133:199 134:261 135:186 136:260 
9.585472021245655e-12 0 3.828230898202001e-11 0 1:100 2:143 3:97 4:176 5:100 6:210 7:110 8:243 9:123 10:273 11:138 12:302 13:155 14:324 15:176 16:343 17:204 18:349 19:236 20:346 21:270 22:332 23:303 24:314 25:332 26:292 27:354 28:262 29:363 30:224 31:368 32:182 33:369 34:138 35:102 36:101 37:116 38:97 39:132 40:100 41:149 42:107 43:165 44:117 45:215 46:118 47:239 48:107 49:265 50:101 51:291 52:102 53:318 54:110 55:188 56:142 57:184 58:165 59:180 60:189 61:176 62:212 63:166 64:229 65:174 66:234 67:184 68:236 69:196 70:233 71:209 72:229 73:121 74:139 75:132 76:127 77:152 78:129 79:165 80:144 81:149 82:151 83:131 84:150 85:235 86:145 87:249 88:131 89:270 90:130 91:286 92:141 93:271 94:150 95:251 96:151 97:163 98:288 99:167 100:272 101:180 102:263 103:190 104:266 105:199 106:262 107:218 108:269 109:234 110:282 111:220 112:291 113:204 114:298 115:194 116:299 117:183 118:299 119:171 120:295 121:169 122:287 123:180 124:282 125:191 126:281 127:200 128:281 129:224 130:281 131:201 132:275 133:192 134:277 135:182 136:276 
6.565170179843279e-12 9.203121167099631e-11 2.053095230263086e-11 1.335595277760017e-09 1:52 2:112 3:55 4:154 5:63 6:195 7:76 8:230 9:96 10:258 11:121 12:283 13:147 14:304 15:173 16:323 17:201 18:329 19:225 20:318 21:249 22:293 23:272 24:267 25:296 26:240 27:316 28:210 29:329 30:175 31:332 32:139 33:329 34:103 35:82 36:110 37:104 38:99 39:131 40:93 41:160 42:97 43:186 44:109 45:229 46:113 47:248 48:103 49:266 50:98 51:285 52:97 53:302 54:103 55:205 56:143 57:206 58:169 59:206 60:196 61:207 62:222 63:173 64:231 65:189 66:235 67:205 68:239 69:220 70:234 71:232 72:228 73:115 74:136 75:132 76:134 77:149 78:135 79:163 80:144 81:148 82:147 83:130 84:146 85:239 86:143 87:253 88:135 89:269 90:135 91:283 92:136 93:270 94:145 95:254 96:146 97:149 98:255 99:173 100:259 101:193 102:257 103:204 104:260 105:216 106:255 107:231 108:255 109:249 110:253 111:230 112:276 113:216 114:285 115:204 116:288 117:191 118:287 119:172 120:277 121:157 122:258 123:192 124:264 125:204 126:265 127:216 128:262 129:242 130:257 131:215 132:266 133:203 134:269 135:192 136:269 
0 1.101812795649691e-09 0 1.452123784877376e-09 1:65 2:141 3:67 4:177 5:72 6:213 7:82 8:245 9:100 10:273 11:120 12:298 13:144 14:319 15:169 16:336 17:196 18:342 19:225 20:335 21:254 22:317 23:282 24:296 25:306 26:267 27:323 28:234 29:336 30:197 31:345 32:158 33:349 34:120 35:83 36:94 37:104 38:80 39:129 40:81 41:152 42:87 43:171 44:100 45:215 46:105 47:239 48:93 49:264 50:86 51:290 52:88 53:312 54:100 55:195 56:138 57:195 58:165 59:194 60:193 61:194 62:219 63:172 64:231 65:184 66:235 67:196 68:239 69:209 70:235 71:220 72:229 73:111 74:136 75:129 76:129 77:147 78:131 79:161 80:146 81:144 82:149 83:125 84:146 85:235 86:146 87:252 88:132 89:271 90:130 91:286 92:138 93:273 94:147 95:254 96:148 97:154 98:268 99:169 100:260 101:182 102:255 103:194 104:258 105:205 106:255 107:219 108:262 109:234 110:268 111:219 112:280 113:207 114:288 115:195 116:290 117:182 118:288 119:169 120:282 121:159 122:269 123:183 124:269 125:194 126:271 127:205 128:270 129:226 130:268 131:205 132:270 133:194 134:272 135:183 136:270 
7.265836958264897e-11 0 1.322387761791754e-10 3.945942375572156e-10 1:75 2:130 3:76 4:161 5:79 6:191 7:86 8:221 9:100 10:246 11:121 12:268 13:143 14:286 15:169 16:302 17:199 18:307 19:229 20:303 21:255 22:289 23:279 24:271 25:299 26:249 27:313 28:224 29:322 30:194 31:327 32:163 33:330 34:133 35:94 36:109 37:113 38:101 39:133 40:100 41:154 42:104 43:174 44:112 45:224 46:112 47:247 48:105 49:269 50:101 51:292 52:102 53:310 54:114 55:199 56:138 57:199 58:159 59:198 60:181 61:198 62:202 63:173 64:213 65:186 66:217 67:199 68:220 69:211 70:217 71:224 72:215 73:119 74:138 75:133 76:132 77:150 78:133 79:163 80:145 81:148 82:146 83:131 84:144 85:237 86:144 87:251 88:133 89:268 90:132 91:283 92:138 93:270 94:144 95:253 96:146 97:152 98:242 99:169 100:237 101:187 102:234 103:200 104:238 105:213 106:235 107:231 108:239 109:249 110:243 111:231 112:256 113:214 114:263 115:200 116:265 117:186 118:264 119:169 120:256 121:158 122:243 123:187 124:247 125:200 126:249 127:213 128:247 129:244 130:244 131:213 132:247 133:200 134:249 135:187 136:247 
0 6.129400797595959e-11 1.494266992901896e-11 2.154039783709506e-09 1:70 2:128 3:70 4:164 5:74 6:203 7:81 8:239 9:96 10:274 11:118 12:306 13:143 14:333 15:174 16:352 17:208 18:355 19:242 20:351 21:276 22:331 23:305 24:305 25:331 26:273 27:348 28:237 29:356 30:201 31:359 32:162 33:360 34:125 35:103 36:96 37:121 38:92 39:141 40:93 41:162 42:97 43:182 44:105 45:221 46:101 47:244 48:92 49:270 50:89 51:294 52:91 53:316 54:101 55:198 56:141 57:197 58:167 59:195 60:192 61:194 62:218 63:170 64:233 65:182 66:239 67:195 68:242 69:209 70:239 71:224 72:234 73:119 74:138 75:132 76:131 77:149 78:133 79:165 80:145 81:148 82:148 83:130 84:147 85:235 86:145 87:250 88:132 89:269 90:132 91:286 92:139 93:271 94:148 95:252 96:149 97:156 98:283 99:169 100:271 101:184 102:264 103:196 104:268 105:209 106:263 107:227 108:270 109:243 110:283 111:230 112:300 113:212 114:310 115:198 116:311 117:184 118:310 119:168 120:299 121:165 122:282 123:185 124:280 125:196 126:281 127:209 128:279 129:234 130:282 131:210 132:288 133:198 134:290 135:185 136:288 
2.014469297500647e-11 9.942442361209509e-10 1.248536008975387e-10 1.499335766206592e-09 1:76 2:163 3:76 4:196 5:75 6:230 7:79 8:262 9:88 10:291 11:104 12:315 13:127 14:333 15:157 16:346 17:191 18:348 19:227 20:347 21:265 22:338 23:296 24:325 25:320 26:304 27:335 28:276 29:342 30:243 31:345 32:211 33:348 34:177 35:96 36:117 37:111 38:101 39:132 40:94 41:155 42:96 43:175 44:106 45:227 46:105 47:249 48:94 49:274 50:94 51:297 52:100 53:314 54:115 55:198 56:133 57:196 58:153 59:194 60:174 61:192 62:195 63:168 64:214 65:180 66:219 67:193 68:222 69:206 70:219 71:219 72:216 73:120 74:143 75:133 76:134 77:149 78:135 79:164 80:145 81:149 82:144 83:133 84:145 85:236 86:144 87:251 88:134 89:267 90:134 91:281 92:143 93:267 94:144 95:251 96:144 97:150 98:264 99:165 100:250 101:179 102:243 103:193 104:246 105:208 106:244 107:225 108:251 109:242 110:267 111:225 112:273 113:207 114:276 115:191 116:277 117:177 118:275 119:163 120:270 121:157 122:262 123:178 124:259 125:193 126:260 127:208 128:261 129:236 130:265 131:208 132:257 133:193 134:258 135:178 136:256 
2.78875614363595e-11 0 7.000033240289926e-11 0 1:58 2:118 3:57 4:155 5:61 6:191 7:72 8:225 9:91 10:253 11:111 12:277 13:131 14:300 15:156 16:316 17:184 18:319 19:211 20:314 21:236 22:296 23:256 24:277 25:276 26:254 27:292 28:228 29:304 30:199 31:312 32:167 33:316 34:135 35:96 36:89 37:119 38:80 39:143 40:79 41:168 42:83 43:188 44:97 45:234 46:100 47:252 48:88 49:272 50:81 51:292 52:80 53:310 54:88 55:204 56:139 57:202 58:168 59:200 60:198 61:198 62:227 63:173 64:235 65:185 66:239 67:197 68:242 69:210 70:237 71:223 72:231 73:119 74:133 75:138 76:126 77:160 78:128 79:175 80:143 81:156 82:148 83:134 84:146 85:236 86:139 87:252 88:123 89:272 90:121 91:288 92:129 93:274 94:142 95:253 96:143 97:145 98:257 99:167 100:261 101:185 102:259 103:197 104:261 105:207 106:257 107:222 108:256 109:239 110:252 111:224 112:265 113:211 114:272 115:199 116:276 117:187 118:275 119:169 120:271 121:155 122:260 123:185 124:268 125:197 126:269 127:207 128:266 129:232 130:255 131:210 132:252 133:199 134:255 135:188 136:254 
7.851233481987092e-12 0 0 0 1:9 2:130 3:12 4:175 5:19 6:221 7:33 8:263 9:62 10:295 11:97 12:323 13:132 14:349 15:169 16:367 17:202 18:366 19:227 20:354 21:245 22:326 23:265 24:300 25:283 26:273 27:298 28:243 29:308 30:212 31:309 32:181 33:304 34:149 35:77 36:99 37:101 38:85 39:130 40:79 41:161 42:83 43:190 44:95 45:241 46:99 47:259 48:89 49:278 50:84 51:294 52:87 53:302 54:102 55:215 56:141 57:219 58:169 59:224 60:197 61:230 62:224 63:189 64:241 65:204 66:245 67:220 68:249 69:232 70:245 71:243 72:239 73:112 74:139 75:131 76:128 77:151 78:130 79:168 80:147 81:150 82:149 83:129 84:147 85:236 86:148 87:250 88:130 89:269 90:128 91:282 92:138 93:271 94:148 95:252 96:149 97:140 98:274 99:172 100:269 101:199 102:267 103:215 104:269 105:228 106:265 107:241 108:265 109:250 110:267 111:241 112:280 113:229 114:288 115:215 116:291 117:198 118:291 119:172 120:286 121:149 122:274 123:199 124:277 125:215 126:278 127:228 128:275 129:243 130:270 131:229 132:271 133:215 134:275 135:199 136:275 
1.025147915182461e-11 0 3.062937560548352e-11 0.9999999993934531 1:33 2:158 3:36 4:196 5:43 6:236 7:52 8:274 9:72 10:308 11:102 12:334 13:140 14:352 15:179 16:366 17:215 18:371 19:246 20:362 21:270 22:337 23:287 24:307 25:299 26:276 27:307 28:242 29:314 30:210 31:314 32:176 33:306 34:146 35:85 36:113 37:103 38:98 39:127 40:89 41:153 42:89 43:178 44:96 45:227 46:98 47:244 48:90 49:264 50:88 51:283 52:92 53:297 54:106 55:205 56:132 57:209 58:151 59:213 60:171 61:218 62:190 63:186 64:216 65:202 66:218 67:217 68:220 69:229 70:217 71:239 72:214 73:115 74:142 75:133 76:134 77:150 78:132 79:165 80:142 81:150 82:146 83:132 84:146 85:238 86:143 87:254 88:132 89:269 90:131 91:281 92:140 93:271 94:145 95:254 96:146 97:149 98:268 99:174 100:246 101:200 102:236 103:216 104:237 105:230 106:234 107:249 108:242 109:261 110:263 111:250 112:293 113:233 114:306 115:217 116:309 117:199 118:308 119:173 120:297 121:155 122:267 123:201 124:250 125:217 126:250 127:230 128:249 129:255 130:263 131:230 132:285 133:216 134:287 135:199 136:286 
1.385715478322678e-11 1.160479391919548e-09 7.261481601134443e-11 2.885089619681118e-10 1:100 2:143 3:94 4:174 5:95 6:208 7:104 8:241 9:112 10:273 11:120 12:304 13:132 14:332 15:150 16:356 17:178 18:364 19:215 20:362 21:254 22:351 23:289 24:333 25:317 26:309 27:337 28:277 29:346 30:238 31:353 32:199 33:358 34:161 35:106 36:96 37:119 38:84 39:136 40:84 41:153 42:89 43:170 44:100 45:220 46:99 47:245 48:88 49:272 50:83 51:298 52:89 53:317 54:106 55:189 56:134 57:184 58:153 59:178 60:171 61:171 62:190 63:161 64:217 65:168 66:223 67:178 68:226 69:190 70:222 71:204 72:218 73:120 74:142 75:130 76:130 77:147 78:132 79:165 80:144 81:146 82:149 83:129 84:149 85:234 86:144 87:250 88:131 89:270 90:133 91:287 92:144 93:270 94:151 95:250 96:150 97:148 98:274 99:156 100:251 101:170 102:241 103:181 104:244 105:193 106:241 107:214 108:251 109:236 110:275 111:215 112:294 113:194 114:301 115:181 116:302 117:169 118:300 119:156 120:291 121:157 122:273 123:171 124:260 125:181 126:259 127:193 128:259 129:227 130:274 131:193 132:278 133:181 134:278 135:170 136:277 
-2.376032298778379e-12 0 0 0 1:13 2:121 3:17 4:164 5:23 6:207 7:34 8:249 9:55 10:285 11:85 12:317 13:121 14:343 15:159 16:362 17:190 18:366 19:216 20:357 21:235 22:331 23:251 24:302 25:268 26:272 27:282 28:241 29:295 30:209 31:302 32:177 33:304 34:144 35:80 36:99 37:104 38:86 39:134 40:84 41:163 42:90 43:191 44:103 45:234 46:106 47:254 48:96 49:274 50:93 51:291 52:92 53:302 54:105 55:214 56:139 57:216 58:166 59:220 60:192 61:223 62:219 63:189 64:234 65:201 66:238 67:213 68:243 69:223 70:239 71:232 72:232 73:112 74:138 75:131 76:128 77:152 78:130 79:169 80:146 81:149 82:151 83:128 84:149 85:234 86:147 87:251 88:130 89:270 90:129 91:282 92:139 93:272 94:150 95:253 96:151 97:143 98:272 99:173 100:269 101:196 102:265 103:209 104:269 105:220 106:265 107:231 108:266 109:238 110:270 111:228 112:291 113:217 114:303 115:205 116:307 117:191 118:305 119:169 120:296 121:152 122:274 123:195 124:273 125:208 126:274 127:219 128:272 129:231 130:273 131:218 132:282 133:206 134:286 135:193 136:285 
-3.361679663145016e-12 4.083261477247766e-10 1.435337537498442e-09 1.891908684322656e-10 1:55 2:150 3:52 4:187 5:54 6:223 7:65 8:261 9:80 10:294 11:105 12:322 13:131 14:345 15:157 16:368 17:190 18:378 19:223 20:372 21:250 22:355 23:279 24:335 25:306 26:307 27:323 28:273 29:333 30:237 31:335 32:199 33:331 34:164 35:98 36:95 37:115 38:82 39:138 40:78 41:158 42:84 43:177 44:98 45:229 46:107 47:246 48:97 49:266 50:94 51:285 52:97 53:304 54:106 55:205 56:133 57:203 58:153 59:203 60:173 61:202 62:195 63:175 64:233 65:187 66:235 67:198 68:237 69:212 70:236 71:225 72:232 73:117 74:136 75:131 76:126 77:151 78:125 79:167 80:139 81:150 82:146 83:130 84:146 85:233 86:142 87:248 88:131 89:267 90:133 91:282 92:141 93:267 94:150 95:248 96:149 97:147 98:274 99:170 100:277 101:188 102:272 103:197 104:276 105:207 106:273 107:227 108:278 109:252 110:276 111:227 112:290 113:210 114:293 115:199 116:295 117:189 118:293 119:171 120:289 121:155 122:277 123:188 124:287 125:197 126:288 127:207 128:288 129:242 130:279 131:209 132:273 133:199 134:275 135:190 136:273 
-0 0 1.519736445565881e-09 0 1:72 2:125 3:78 4:160 5:88 6:193 7:98 8:227 9:112 10:260 11:132 12:290 13:154 14:317 15:178 16:336 17:204 18:340 19:229 20:334 21:257 22:313 23:281 24:289 25:303 26:261 27:318 28:229 29:327 30:192 31:334 32:156 33:337 34:118 35:86 36:112 37:106 38:104 39:130 40:109 41:153 42:116 43:176 44:125 45:219 46:119 47:243 48:108 49:265 50:100 51:289 52:97 53:311 54:104 55:197 56:146 57:198 58:172 59:199 60:200 61:199 62:226 63:179 64:232 65:189 66:238 67:200 68:242 69:211 70:237 71:222 72:232 73:117 74:139 75:130 76:133 77:150 78:133 79:165 80:144 81:149 82:148 83:130 84:149 85:236 86:144 87:249 88:133 89:269 90:132 91:284 92:139 93:271 94:148 95:252 96:148 97:160 98:270 99:173 100:265 101:189 102:261 103:201 104:265 105:211 106:260 107:225 108:263 109:240 110:268 111:226 112:281 113:213 114:291 115:202 116:294 117:190 118:293 119:173 120:285 121:167 122:270 123:190 124:275 125:201 126:275 127:212 128:273 129:232 130:269 131:212 132:272 133:201 134:274 135:190 136:273 
-0 0 0 3.678323969642711e-10 1:62 2:139 3:66 4:175 5:76 6:208 7:88 8:239 9:106 10:266 11:128 12:292 13:150 14:315 15:178 16:336 17:208 18:340 19:236 20:332 21:257 22:309 23:274 24:284 25:290 26:257 27:303 28:229 29:311 30:199 31:316 32:167 33:317 34:135 35:90 36:112 37:107 38:95 39:131 40:89 41:156 42:91 43:181 44:100 45:227 46:102 47:249 48:93 49:271 50:89 51:292 52:94 53:306 54:108 55:206 56:136 57:209 58:164 59:212 60:192 61:215 62:220 63:185 64:235 65:198 66:238 67:212 68:241 69:224 70:237 71:235 72:231 73:118 74:139 75:133 76:130 77:151 78:131 79:165 80:145 81:150 82:150 83:131 84:148 85:238 86:145 87:251 88:131 89:269 90:129 91:282 92:138 93:271 94:148 95:253 96:149 97:159 98:267 99:179 100:266 101:199 102:263 103:212 104:265 105:224 106:261 107:239 108:262 109:252 110:263 111:239 112:280 113:225 114:290 115:212 116:293 117:199 118:292 119:180 120:286 121:166 122:270 123:199 124:274 125:211 126:274 127:224 128:271 129:245 130:265 131:224 132:272 133:212 134:275 135:200 136:274 
-1.142812958163937e-11 0 1.923219330534353e-11 0 1:80 2:141 3:82 4:180 5:88 6:217 7:98 8:258 9:116 10:295 11:137 12:329 13:159 14:362 15:182 16:388 17:214 18:395 19:242 20:384 21:267 22:358 23:293 24:330 25:315 26:300 27:330 28:267 29:343 30:229 31:351 32:190 33:357 34:152 35:93 36:99 37:112 38:82 39:139 40:80 41:162 42:90 43:182 44:106 45:223 46:108 47:245 48:93 49:270 50:84 51:296 52:89 53:315 54:106 55:202 56:144 57:199 58:175 59:198 60:204 61:196 62:232 63:172 64:253 65:185 66:255 67:197 68:259 69:208 70:258 71:221 72:257 73:116 74:138 75:130 76:124 77:153 78:126 79:169 80:149 81:150 82:154 83:128 84:152 85:236 86:152 87:253 88:129 89:276 90:129 91:291 92:146 93:277 94:157 95:255 96:158 97:137 98:302 99:161 100:300 101:185 102:294 103:198 104:298 105:211 106:295 107:236 108:301 109:263 110:303 111:238 112:329 113:217 114:339 115:203 116:342 117:189 118:339 119:164 120:328 121:144 122:306 123:186 124:314 125:199 126:316 127:212 128:316 129:255 130:308 131:215 132:318 133:202 134:319 135:189 136:318 
-4.262368305053796e-13 7.967492948387304e-11 1.822703086459888e-10 7.64655423959987e-10 1:83 2:130 3:86 4:166 5:96 6:202 7:108 8:236 9:125 10:266 11:143 12:294 13:158 14:320 15:179 16:343 17:204 18:350 19:231 20:345 21:257 22:325 23:279 24:299 25:305 26:273 27:328 28:243 29:342 30:208 31:347 32:169 33:345 34:131 35:95 36:99 37:108 38:89 39:127 40:84 41:147 42:85 43:168 44:97 45:230 46:97 47:248 48:87 49:268 50:84 51:288 52:84 53:309 54:90 55:197 56:146 57:196 58:180 59:196 60:215 61:195 62:249 63:168 64:255 65:181 66:263 67:196 68:268 69:210 70:263 71:223 72:255 73:120 74:138 75:133 76:132 77:152 78:133 79:166 80:147 81:149 82:153 83:131 84:151 85:237 86:147 87:250 88:133 89:270 90:132 91:287 92:138 93:272 94:151 95:252 96:152 97:151 98:291 99:167 100:294 101:183 102:293 103:195 104:295 105:207 106:291 107:222 108:289 109:241 110:286 111:223 112:295 113:208 114:302 115:196 116:305 117:184 118:305 119:168 120:301 121:155 122:292 123:183 124:303 125:196 126:305 127:208 128:302 129:234 130:288 131:207 132:284 133:195 134:288 135:184 136:288 
-2.330355518144452e-12 0 3.842960732180749e-10 4.724858746113003e-11 1:44 2:117 3:40 4:161 5:39 6:207 7:45 8:251 9:62 10:290 11:89 12:323 13:115 14:351 15:142 16:373 17:178 18:377 19:214 20:369 21:242 22:345 23:266 24:319 25:292 26:289 27:310 28:254 29:322 30:216 31:331 32:176 33:337 34:136 35:94 36:107 37:114 38:96 39:138 40:97 41:160 42:102 43:181 44:111 45:231 46:108 47:252 48:100 49:275 50:95 51:298 52:95 53:316 54:107 55:201 56:141 57:200 58:167 59:199 60:194 61:198 62:220 63:167 64:247 65:182 66:250 67:196 68:253 69:210 70:250 71:224 72:245 73:116 74:139 75:132 76:131 77:151 78:131 79:164 80:145 81:148 82:149 83:130 84:147 85:238 86:145 87:253 88:131 89:272 90:129 91:286 92:138 93:274 94:146 95:255 96:148 97:124 98:296 99:149 100:290 101:174 102:282 103:190 104:285 105:206 106:280 107:221 108:287 109:237 110:297 111:218 112:316 113:201 114:329 115:184 116:332 117:166 118:331 119:143 120:321 121:135 122:298 123:172 124:301 125:189 126:302 127:205 128:301 129:229 130:299 131:203 132:295 133:186 134:299 135:169 136:299 
-4.631501084187675e-12 1.087913791383797e-09 1.294975863578755e-09 1.230127658616362e-09 1:30 2:119 3:32 4:160 5:38 6:202 7:51 8:243 9:75 10:277 11:109 12:303 13:140 14:325 15:173 16:346 17:209 18:349 19:246 20:346 21:277 22:325 23:305 24:299 25:329 26:269 27:344 28:234 29:349 30:195 31:351 32:154 33:349 34:113 35:87 36:99 37:110 38:91 39:136 40:94 41:159 42:102 43:182 44:114 45:214 46:115 47:237 48:101 49:261 50:90 51:287 52:88 53:312 54:96 55:198 56:144 57:199 58:171 59:200 60:198 61:201 62:226 63:175 64:236 65:189 66:242 67:203 68:246 69:218 70:240 71:231 72:233 73:114 74:138 75:131 76:135 77:149 78:135 79:162 80:144 81:146 82:147 83:129 84:146 85:235 86:145 87:250 88:136 89:267 90:135 91:283 92:140 93:269 94:146 95:252 96:147 97:156 98:273 99:178 100:270 101:195 102:267 103:210 104:269 105:224 106:264 107:243 108:263 109:264 110:262 111:246 112:279 113:228 114:289 115:213 116:292 117:198 118:292 119:179 120:287 121:164 122:276 123:196 124:275 125:210 126:275 127:224 128:272 129:258 130:265 131:226 132:272 133:212 134:275 135:198 136:274 
-7.898527907004407e-12 2.909827473532555e-10 2.715707799293941e-11 2.533468447748704e-10 1:52 2:170 3:45 4:208 5:44 6:250 7:51 8:290 9:72 10:324 11:100 12:352 13:131 14:372 15:161 16:387 17:198 18:388 19:238 20:383 21:275 22:370 23:311 24:352 25:343 26:325 27:366 28:292 29:377 30:252 31:379 32:210 33:379 34:170 35:101 36:92 37:121 38:84 39:141 40:86 41:162 42:90 43:182 44:100 45:223 46:103 47:245 48:93 49:269 50:89 51:294 52:88 53:317 54:97 55:201 56:141 57:200 58:171 59:199 60:200 61:198 62:229 63:173 64:260 65:186 66:264 67:198 68:266 69:212 70:264 71:227 72:261 73:119 74:142 75:133 76:128 77:153 78:130 79:171 80:146 81:152 82:151 83:132 84:150 85:236 86:148 87:254 88:131 89:274 90:132 91:290 92:146 93:275 94:153 95:254 96:153 97:136 98:298 99:161 100:306 101:184 102:305 103:198 104:309 105:212 106:305 107:235 108:308 109:264 110:300 111:235 112:303 113:210 114:303 115:195 116:304 117:181 118:303 119:159 120:302 121:143 122:300 123:184 124:320 125:198 126:321 127:211 128:320 129:255 130:303 131:210 132:285 133:196 134:286 135:182 136:285 
-0 1 0.999999999997741 0 1:63 2:153 3:66 4:190 5:71 6:226 7:78 8:261 9:92 10:292 11:112 12:319 13:136 14:339 15:166 16:352 17:200 18:355 19:234 20:355 21:264 22:345 23:288 24:324 25:307 26:298 27:322 28:269 29:330 30:234 31:335 32:197 33:337 34:160 35:91 36:110 37:110 38:98 39:132 40:98 41:154 42:101 43:178 44:106 45:219 46:109 47:239 48:101 49:262 50:98 51:286 52:97 53:307 54:108 55:199 56:132 57:199 58:153 59:198 60:174 61:199 62:194 63:180 64:222 65:190 66:224 67:200 68:225 69:209 70:224 71:219 72:223 73:119 74:141 75:132 76:129 77:151 78:128 79:166 80:143 81:150 82:149 83:131 84:149 85:235 86:144 87:250 88:130 89:269 90:130 91:283 92:143 93:270 94:151 95:252 96:151 97:160 98:288 99:173 100:269 101:190 102:260 103:202 104:263 105:213 106:259 107:228 108:268 109:239 110:290 111:227 112:290 113:213 114:292 115:201 116:293 117:190 118:292 119:173 120:292 121:168 122:286 123:190 124:276 125:202 126:276 127:213 128:275 129:231 130:287 131:212 132:274 133:201 134:275 135:190 136:274 
-0 0 1.563546926611624e-10 6.512524315065905e-10 1:50 2:143 3:54 4:181 5:61 6:219 7:70 8:255 9:86 10:288 11:109 12:315 13:139 14:335 15:170 16:350 17:204 18:353 19:238 20:353 21:272 22:342 23:305 24:323 25:330 26:294 27:347 28:258 29:353 30:217 31:355 32:177 33:355 34:137 35:90 36:118 37:110 38:102 39:136 40:97 41:163 42:101 43:189 44:110 45:223 46:109 47:244 48:100 49:266 50:97 51:289 52:100 53:305 54:111 55:208 56:135 57:210 58:156 59:212 60:175 61:214 62:197 63:189 64:228 65:202 66:231 67:215 68:231 69:226 70:229 71:237 72:226 73:123 74:140 75:137 76:134 77:152 78:134 79:167 80:140 81:153 82:143 83:138 84:143 85:241 86:142 87:254 88:135 89:268 90:136 91:280 92:141 93:268 94:144 95:255 96:144 97:171 98:279 99:190 100:268 101:205 102:263 103:216 104:267 105:227 106:263 107:238 108:268 109:249 110:279 111:236 112:278 113:223 114:279 115:212 116:280 117:202 118:280 119:187 120:280 121:178 122:276 123:204 124:273 125:215 126:274 127:226 128:273 129:243 130:276 131:224 132:264 133:212 134:265 135:202 136:264 
-1.163507107832404e-11 0 0 0 1:107 2:142 3:103 4:174 5:108 6:206 7:118 8:238 9:131 10:273 11:146 12:305 13:162 14:336 15:183 16:362 17:214 18:370 19:252 20:365 21:292 22:342 23:329 24:317 25:363 26:288 27:387 28:251 29:397 30:210 31:397 32:166 33:394 34:126 35:106 36:89 37:119 38:85 39:134 40:90 41:150 42:97 43:166 44:106 45:199 46:103 47:227 48:91 49:256 50:84 51:285 52:83 53:315 54:89 55:184 56:138 57:179 58:164 59:172 60:189 61:166 62:213 63:159 64:235 65:169 66:241 67:180 68:243 69:194 70:239 71:209 72:236 73:120 74:138 75:132 76:136 77:147 78:137 79:164 80:140 81:147 82:146 83:132 84:146 85:233 86:140 87:248 88:134 89:268 90:135 91:287 92:138 93:269 94:147 95:249 96:147 97:158 98:287 99:162 100:274 101:173 102:268 103:182 104:272 105:192 106:269 107:215 108:276 109:241 110:291 111:219 112:307 113:202 114:314 115:190 116:314 117:179 118:311 119:168 120:301 121:165 122:287 123:175 124:287 125:185 126:288 127:195 128:287 129:231 130:289 131:198 132:288 133:187 134:289 135:178 136:287 
-5.181696205508163e-12 0 0 0 1:103 2:152 3:101 4:184 5:102 6:219 7:111 8:254 9:124 10:286 11:139 12:317 13:154 14:348 15:175 16:374 17:204 18:384 19:241 20:378 21:278 22:360 23:315 24:336 25:347 26:309 27:370 28:274 29:383 30:233 31:388 32:190 33:393 34:148 35:103 36:104 37:113 38:90 39:131 40:88 41:149 42:92 43:166 44:102 45:217 46:98 47:243 48:88 49:272 50:85 51:300 52:92 53:323 54:109 55:187 56:133 57:183 58:159 59:178 60:185 61:173 62:210 63:163 64:229 65:172 66:233 67:183 68:236 69:197 70:232 71:211 72:229 73:121 74:141 75:133 76:130 77:150 78:131 79:165 80:143 81:149 82:146 83:133 84:147 85:234 86:143 87:249 88:131 89:268 90:132 91:287 92:142 93:269 94:148 95:250 96:148 97:150 98:283 99:160 100:266 101:176 102:257 103:189 104:261 105:205 106:257 107:232 108:267 109:254 110:282 111:236 112:308 113:211 114:322 115:193 116:323 117:178 118:320 119:162 120:306 121:159 122:283 123:178 124:276 125:191 126:276 127:207 128:275 129:245 130:282 131:208 132:294 133:192 134:294 135:178 136:291 
-3.325488295731201e-12 0 0 4.276090305015936e-10 1:112 2:155 3:104 4:186 5:101 6:218 7:113 8:251 9:129 10:283 11:146 12:315 13:160 14:348 15:174 16:382 17:199 18:397 19:234 20:397 21:276 22:379 23:320 24:354 25:361 26:321 27:389 28:281 29:401 30:235 31:409 32:184 33:413 34:136 35:107 36:99 37:118 38:87 39:133 40:87 41:149 42:94 43:165 44:103 45:201 46:96 47:231 48:84 49:264 50:78 51:297 52:87 53:321 54:103 55:184 56:142 57:178 58:169 59:170 60:196 61:163 62:224 63:157 64:242 65:167 66:249 67:180 68:252 69:196 70:248 71:213 72:245 73:121 74:143 75:131 76:131 77:149 78:132 79:167 80:149 81:148 82:149 83:131 84:148 85:232 86:149 87:250 88:133 89:270 90:131 91:291 92:141 93:272 94:148 95:251 96:149 97:159 98:276 99:161 100:271 101:176 102:269 103:188 104:274 105:206 106:271 107:244 108:275 109:284 110:277 111:248 112:311 113:212 114:324 115:193 116:325 117:179 118:321 119:166 120:304 121:164 122:282 123:177 124:286 125:189 126:289 127:207 128:288 129:277 130:280 131:209 132:306 133:191 134:305 135:178 136:301 
-4.057245459595715e-12 1.760658901177046e-10 0 4.784807266188799e-10 1:58 2:144 3:55 4:181 5:58 6:219 7:71 8:253 9:94 10:278 11:120 12:299 13:143 14:319 15:166 16:336 17:191 18:340 19:215 20:333 21:234 22:312 23:250 24:289 25:271 26:264 27:290 28:237 29:301 30:206 31:302 32:173 33:298 34:142 35:94 36:110 37:114 38:97 39:139 40:93 41:166 42:98 43:190 44:108 45:227 46:111 47:246 48:102 49:264 50:96 51:281 52:97 53:294 54:106 55:208 56:143 57:210 58:169 59:212 60:196 61:214 62:221 63:181 64:232 65:194 66:237 67:208 68:242 69:220 70:237 71:231 72:231 73:115 74:138 75:132 76:129 77:152 78:130 79:167 80:148 81:149 82:150 83:130 84:149 85:239 86:149 87:252 88:131 89:270 90:130 91:282 92:140 93:272 94:149 95:255 96:151 97:152 98:271 99:174 100:266 101:194 102:261 103:206 104:264 105:218 106:261 107:232 108:265 109:243 110:271 111:231 112:285 113:217 114:295 115:204 116:298 117:191 118:296 119:173 120:286 121:162 122:272 123:193 124:272 125:205 126:273 127:217 128:271 129:236 130:272 131:217 132:274 133:205 134:276 135:193 136:275 
-1.215393557957935e-11 5.880456795659922e-10 9.086795405855182e-10 1.777861770070455e-09 1:71 2:147 3:73 4:179 5:77 6:212 7:83 8:244 9:98 10:275 11:116 12:303 13:141 14:327 15:172 16:343 17:203 18:346 19:233 20:341 21:262 22:323 23:285 24:301 25:303 26:276 27:315 28:247 29:321 30:216 31:324 32:188 33:327 34:159 35:90 36:110 37:108 38:93 39:133 40:87 41:159 42:92 43:183 44:103 45:226 46:100 47:248 48:92 49:273 50:89 51:295 52:97 53:311 54:113 55:202 56:125 57:202 58:143 59:202 60:160 61:202 62:179 63:177 64:206 65:189 66:209 67:200 68:210 69:211 70:209 71:223 72:206 73:121 74:139 75:134 76:133 77:149 78:133 79:163 80:139 81:149 82:145 83:134 84:145 85:238 86:139 87:254 88:133 89:269 90:134 91:281 92:140 93:269 94:146 95:253 96:145 97:150 98:265 99:169 100:251 101:185 102:241 103:198 104:243 105:211 106:241 107:226 108:253 109:242 110:268 111:224 112:272 113:209 114:273 115:196 116:274 117:182 118:272 119:168 120:270 121:159 122:264 123:185 124:261 125:198 126:261 127:211 128:262 129:233 130:266 131:210 132:253 133:197 134:254 135:184 136:253 
-7.667865422830411e-12 0 2.310230908177148e-11 0 1:66 2:135 3:67 4:168 5:74 6:203 7:84 8:235 9:99 10:264 11:122 12:290 13:144 14:313 15:171 16:329 17:202 18:335 19:236 20:329 21:268 22:314 23:299 24:297 25:328 26:274 27:349 28:246 29:360 30:212 31:362 32:176 33:355 34:139 35:95 36:108 37:113 38:98 39:135 40:93 41:158 42:98 43:178 44:108 45:230 46:109 47:250 48:98 49:272 50:94 51:294 52:97 53:310 54:109 55:202 56:142 57:202 58:166 59:202 60:191 61:202 62:215 63:177 64:231 65:190 66:237 67:206 68:239 69:217 70:235 71:229 72:228 73:120 74:140 75:134 76:130 77:153 78:131 79:169 80:147 81:153 82:149 83:133 84:148 85:235 86:144 87:250 88:130 89:268 90:129 91:285 92:141 93:270 94:147 95:251 96:147 97:152 98:264 99:173 100:261 101:191 102:255 103:202 104:258 105:213 106:255 107:230 108:258 109:248 110:261 111:229 112:278 113:214 114:287 115:202 116:290 117:190 118:289 119:172 120:282 121:159 122:266 123:191 124:270 125:202 126:272 127:212 128:269 129:240 130:263 131:212 132:267 133:202 134:269 135:191 136:268 
-0 4.907295849600904e-10 0 7.534679197092292e-10 1:81 2:146 3:81 4:177 5:84 6:208 7:93 8:241 9:108 10:269 11:127 12:293 13:147 14:314 15:170 16:333 17:198 18:338 19:227 20:335 21:254 22:317 23:278 24:295 25:298 26:271 27:316 28:242 29:329 30:208 31:332 32:175 33:330 34:143 35:103 36:104 37:125 38:102 39:145 40:103 41:164 42:108 43:183 44:117 45:218 46:116 47:238 48:106 49:258 50:103 51:278 52:101 53:301 54:106 55:200 56:144 57:199 58:168 59:199 60:193 61:198 62:217 63:177 64:228 65:187 66:234 67:199 68:239 69:210 70:234 71:222 72:229 73:121 74:139 75:133 76:131 77:150 78:133 79:164 80:145 81:148 82:148 83:132 84:147 85:238 86:145 87:251 88:133 89:269 90:132 91:284 92:139 93:271 94:148 95:253 96:150 97:155 98:265 99:171 100:260 101:188 102:256 103:198 104:259 105:209 106:257 107:225 108:260 109:243 110:264 111:226 112:279 113:211 114:289 115:199 116:291 117:187 118:289 119:171 120:280 121:160 122:265 123:188 124:268 125:199 126:270 127:210 128:268 129:237 130:264 131:209 132:269 133:198 134:271 135:187 136:270 
-2.20273432359874e-11 0 2.947668843556783e-10 0 1:-12 2:131 3:-11 4:178 5:-10 6:227 8:274 9:23 10:312 11:61 12:344 13:107 14:367 15:153 16:383 17:196 18:383 19:224 20:374 21:239 22:351 23:254 24:321 25:269 26:291 27:282 28:258 29:294 30:221 31:298 32:186 33:292 34:153 35:77 36:103 37:108 38:89 39:140 40:87 41:171 42:95 43:195 44:109 45:254 46:106 47:268 48:98 49:279 50:91 51:289 52:85 53:300 54:88 55:225 56:146 57:232 58:172 59:239 60:198 61:248 62:224 63:197 64:242 65:213 66:247 67:227 68:251 69:242 70:249 71:252 72:241 73:109 74:141 75:133 76:130 77:156 78:130 79:170 80:147 81:153 82:151 83:130 84:150 85:239 86:146 87:258 88:130 89:276 90:128 91:282 92:142 93:276 94:150 95:260 96:150 97:154 98:294 99:183 100:282 101:213 102:274 103:222 104:278 105:233 106:274 107:244 108:281 109:246 110:295 111:238 112:312 113:226 114:321 115:215 116:323 117:203 118:322 119:178 120:313 121:163 122:293 123:210 124:293 125:220 126:293 127:230 128:293 129:240 130:294 131:228 132:296 133:219 134:297 135:208 136:297 
-2.521945583017692e-11 0 0 9.586521527942847e-11 1:91 2:145 3:88 4:176 5:90 6:206 7:98 8:239 9:113 10:269 11:134 12:296 13:154 14:321 15:177 16:342 17:205 18:350 19:239 20:347 21:270 22:330 23:301 24:309 25:330 26:282 27:352 28:249 29:362 30:213 31:367 32:173 33:369 34:133 35:100 36:112 37:111 38:98 39:129 40:95 41:148 42:97 43:166 44:106 45:210 46:109 47:236 48:99 49:266 50:95 51:294 52:99 53:319 54:113 55:191 56:141 57:188 58:168 59:186 60:195 61:184 62:221 63:165 64:232 65:177 66:238 67:190 68:244 69:204 70:237 71:219 72:231 73:120 74:140 75:133 76:130 77:151 78:133 79:166 80:147 81:148 82:148 83:132 84:146 85:234 86:148 87:249 88:133 89:268 90:131 91:286 92:140 93:271 94:146 95:252 96:148 97:142 98:262 99:160 100:261 101:178 102:262 103:194 104:267 105:211 106:261 107:239 108:260 109:271 110:256 111:243 112:283 113:216 114:293 115:198 116:294 117:181 118:292 119:162 120:283 121:149 122:266 123:179 124:272 125:194 126:275 127:211 128:272 129:261 130:261 131:214 132:277 133:196 134:278 135:180 136:275 
-4.97230181879831e-12 2.714906841606468e-10 1.748104447627613e-10 0 1:71 2:143 3:69 4:180 5:71 6:218 7:77 8:259 9:88 10:299 11:103 12:339 13:124 14:375 15:155 16:398 17:200 18:405 19:248 20:401 21:290 22:387 23:325 24:360 25:355 26:325 27:376 28:286 29:388 30:243 31:393 32:198 33:398 34:152 35:85 36:90 37:105 38:73 39:131 40:69 41:160 42:74 43:184 44:89 45:216 46:88 47:244 48:75 49:277 50:73 51:309 52:81 53:333 54:100 55:199 56:130 57:197 58:153 59:194 60:174 61:191 62:195 63:166 64:227 65:180 66:233 67:195 68:236 69:211 70:233 71:226 72:228 73:113 74:140 75:128 76:133 77:148 78:134 79:167 80:144 81:147 82:151 83:127 84:150 85:246 86:145 87:265 88:135 89:286 90:137 91:306 92:145 93:286 94:153 95:265 96:153 97:154 98:310 99:169 100:291 101:183 102:278 103:194 104:283 105:208 106:279 107:229 108:296 109:253 110:316 111:231 112:328 113:210 114:331 115:195 116:330 117:182 118:329 119:168 120:324 121:165 122:310 123:183 124:297 125:195 126:297 127:209 128:299 129:243 130:315 131:208 132:308 133:195 134:307 135:183 136:306 
-3.242476446867748e-12 6.728530854714734e-11 5.353241768557266e-10 5.471976670695298e-10 1:49 2:111 3:48 4:149 5:49 6:189 7:56 8:229 9:74 10:266 11:102 12:297 13:133 14:324 15:165 16:349 17:199 18:356 19:235 20:351 21:267 22:330 23:296 24:305 25:320 26:274 27:335 28:241 29:346 30:204 31:351 32:165 33:352 34:127 35:93 36:111 37:111 38:100 39:133 40:101 41:155 42:105 43:176 44:116 45:218 46:112 47:243 48:100 49:270 50:95 51:297 52:99 53:319 54:116 55:196 56:140 57:195 58:167 59:195 60:193 61:194 62:219 63:167 64:227 65:181 66:233 67:197 68:239 69:212 70:233 71:226 72:226 73:119 74:138 75:132 76:133 77:149 78:134 79:162 80:142 81:147 82:146 83:131 84:145 85:236 86:144 87:251 88:135 89:268 90:134 91:283 92:140 93:269 94:146 95:252 96:147 97:141 98:261 99:163 100:257 101:182 102:255 103:200 104:259 105:217 106:254 107:238 108:254 109:263 110:253 111:240 112:276 113:218 114:287 115:201 116:290 117:183 118:288 119:163 120:278 121:150 122:263 123:183 124:265 125:200 126:266 127:217 128:264 129:255 130:257 131:218 132:266 133:201 134:269 135:183 136:266 
-1.454112124992116e-11 6.190788136764039e-10 6.219945684826059e-10 6.238350680393941e-10 1:52 2:134 3:52 4:170 5:55 6:206 7:64 8:240 9:81 10:272 11:106 12:297 13:135 14:318 15:170 16:331 17:204 18:336 19:237 20:330 21:264 22:309 23:286 24:283 25:306 26:254 27:320 28:221 29:328 30:188 31:334 32:153 33:336 34:118 35:90 36:105 37:109 38:95 39:130 40:96 41:151 42:102 43:172 44:112 45:225 46:110 47:247 48:101 49:269 50:95 51:292 52:95 53:311 54:105 55:200 56:141 57:200 58:167 59:201 60:192 61:201 62:217 63:181 64:229 65:191 66:234 67:202 68:237 69:213 70:233 71:224 72:228 73:117 74:139 75:132 76:130 77:152 78:131 79:165 80:146 81:149 82:150 83:130 84:148 85:238 86:147 87:250 88:131 89:269 90:128 91:284 92:137 93:272 94:147 95:254 96:149 97:153 98:265 99:173 100:259 101:192 102:255 103:205 104:258 105:216 106:254 107:232 108:257 109:249 110:258 111:234 112:279 113:218 114:289 115:206 116:291 117:192 118:289 119:172 120:281 121:160 122:266 123:193 124:269 125:205 126:269 127:216 128:268 129:241 130:261 131:217 132:270 133:205 134:272 135:193 136:271 
-2.098607699065624e-11 1.195909130756658e-10 0 0 1:27 2:155 3:35 4:190 5:42 6:224 7:52 8:259 9:73 10:289 11:103 12:311 13:133 14:331 15:168 16:347 17:203 18:352 19:232 20:349 21:258 22:335 23:277 24:311 25:294 26:284 27:306 28:253 29:312 30:218 31:313 32:184 33:308 34:152 35:79 36:117 37:100 38:97 39:127 40:89 41:155 42:91 43:181 44:106 45:229 46:109 47:248 48:97 49:267 50:94 51:284 52:97 53:296 54:110 55:210 56:136 57:213 58:158 59:217 60:180 61:220 62:202 63:193 64:223 65:204 66:226 67:216 68:229 69:225 70:226 71:233 72:221 73:116 74:143 75:131 76:131 77:150 78:130 79:165 80:144 81:150 82:149 83:131 84:150 85:236 86:144 87:251 88:132 89:267 90:132 91:278 92:144 93:268 94:150 95:252 96:149 97:162 98:274 99:180 100:259 101:201 102:252 103:213 104:254 105:223 106:251 107:238 108:259 109:249 110:276 111:238 112:286 113:226 114:290 115:214 116:291 117:201 118:291 119:180 120:286 121:170 122:273 123:201 124:266 125:213 126:266 127:223 128:266 129:242 130:274 131:225 132:271 133:215 134:272 135:202 136:270 
-4.758529821098402e-11 8.142668986183575e-10 1.640527017455656e-09 1.903748129299976e-09 1:67 2:124 3:70 4:161 5:75 6:198 7:81 8:234 9:95 10:265 11:116 12:293 13:141 14:317 15:168 16:339 17:196 18:346 19:226 20:340 21:253 22:317 23:279 24:294 25:303 26:268 27:317 28:237 29:324 30:201 31:329 32:163 33:332 34:126 35:92 36:107 37:114 38:100 39:137 40:103 41:158 42:109 43:179 44:119 45:222 46:118 47:245 48:109 49:268 50:104 51:291 52:103 53:312 54:113 55:203 56:143 57:204 58:165 59:205 60:188 61:206 62:209 63:176 64:222 65:190 66:227 67:204 68:232 69:217 70:227 71:229 72:222 73:117 74:139 75:133 76:131 77:152 78:133 79:167 80:146 81:150 82:147 83:132 84:146 85:235 86:146 87:250 88:132 89:269 90:131 91:284 92:139 93:271 94:146 95:253 96:148 97:133 98:244 99:159 100:243 101:185 102:244 103:202 104:248 105:219 106:245 107:242 108:245 109:263 110:246 111:241 112:278 113:219 114:292 115:200 116:294 117:181 118:291 119:157 120:275 121:140 122:248 123:184 124:256 125:201 126:259 127:219 128:256 129:255 130:250 131:219 132:273 133:201 134:275 135:183 136:272 
-1 0 1.107721778665234e-10 0.9999999999467757 1:76 2:148 3:77 4:185 5:85 6:221 7:94 8:256 9:107 10:287 11:124 12:315 13:146 14:340 15:173 16:356 17:202 18:362 19:232 20:355 21:257 22:335 23:276 24:307 25:292 26:274 27:302 28:241 29:309 30:209 31:316 32:175 33:318 34:141 35:94 36:109 37:113 38:95 39:135 40:93 41:157 42:99 43:178 44:109 45:227 46:109 47:247 48:100 49:267 50:94 51:288 52:95 53:304 54:107 55:202 56:138 57:203 58:159 59:205 60:180 61:206 62:201 63:183 64:219 65:193 66:224 67:204 68:228 69:215 70:224 71:225 72:219 73:118 74:142 75:132 76:130 77:150 78:131 79:165 80:143 81:148 82:149 83:131 84:149 85:236 86:143 87:250 88:131 89:269 90:131 91:283 92:142 93:271 94:149 95:253 96:150 97:156 98:275 99:172 100:255 101:192 102:246 103:204 104:249 105:216 106:247 107:233 108:256 109:249 110:276 111:232 112:299 113:214 114:309 115:201 116:311 117:187 118:310 119:168 120:299 121:165 122:274 123:192 124:262 125:204 126:262 127:216 128:262 129:239 130:276 131:214 132:285 133:202 134:287 135:188 136:285 
-0 0 2.744364176258994e-10 0 1:56 2:124 3:48 4:162 5:44 6:203 7:44 8:244 9:56 10:285 11:77 12:322 13:101 14:356 15:132 16:380 17:169 18:384 19:203 20:368 21:236 22:338 23:268 24:308 25:298 26:275 27:316 28:239 29:327 30:199 31:334 32:162 33:339 34:126 35:87 36:108 37:106 38:93 39:129 40:92 41:155 42:97 43:179 44:110 45:223 46:111 47:248 48:99 49:273 50:95 51:299 52:97 53:315 54:113 55:201 56:140 57:200 58:167 59:199 60:193 61:197 62:220 63:171 64:234 65:181 66:238 67:193 68:242 69:204 70:238 71:216 72:234 73:116 74:138 75:133 76:130 77:153 78:133 79:169 80:148 81:149 82:149 83:130 84:146 85:236 86:146 87:251 88:133 89:269 90:131 91:284 92:138 93:271 94:146 95:253 96:148 97:100 98:251 99:132 100:257 101:166 102:257 103:184 104:260 105:201 106:256 107:226 108:255 109:253 110:256 111:224 112:294 113:198 114:311 115:179 116:316 117:159 118:315 119:127 120:300 121:105 122:258 123:166 124:271 125:184 126:273 127:202 128:270 129:244 130:262 131:199 132:292 133:180 134:296 135:161 136:296 
-6.257492038812777e-12 2.552878312886266e-11 0 0 1:102 2:159 3:98 4:190 5:102 6:221 7:110 8:253 9:125 10:285 11:142 12:313 13:158 14:336 15:172 16:359 17:193 18:367 19:223 20:368 21:258 22:352 23:295 24:332 25:329 26:308 27:353 28:275 29:363 30:235 31:368 32:193 33:371 34:151 35:102 36:112 37:110 38:100 39:127 40:99 41:145 42:102 43:163 44:112 45:214 46:112 47:243 48:101 49:272 50:94 51:300 52:100 53:318 54:118 55:185 56:146 57:179 58:178 59:173 60:208 61:166 62:238 63:153 64:251 65:163 66:257 67:176 68:260 69:191 70:258 71:207 72:255 73:120 74:142 75:131 76:128 77:151 78:129 79:165 80:148 81:148 82:151 83:130 84:151 85:232 86:148 87:247 88:129 89:269 90:126 91:285 92:140 93:271 94:151 95:251 96:153 97:149 98:283 99:158 100:285 101:169 102:286 103:181 104:289 105:191 106:288 107:212 108:289 109:237 110:290 111:213 112:290 113:194 114:293 115:183 116:294 117:172 118:291 119:160 120:287 121:154 122:284 123:171 124:297 125:182 126:298 127:193 128:299 129:228 130:291 131:192 132:275 133:182 134:275 135:171 136:273 
-9.481705656471673e-13 0 0 6.475898104167337e-10 1:73 2:145 3:74 4:182 5:78 6:216 7:85 8:250 9:102 10:279 11:128 12:304 13:159 14:325 15:189 16:346 17:220 18:354 19:252 20:348 21:282 22:333 23:311 24:311 25:338 26:279 27:356 28:243 29:362 30:204 31:361 32:165 33:356 34:127 35:93 36:109 37:108 38:90 39:132 40:84 41:157 42:89 43:179 44:100 45:221 46:103 47:243 48:90 49:269 50:86 51:294 52:92 53:312 54:108 55:199 56:137 57:199 58:155 59:200 60:173 61:201 62:191 63:178 64:221 65:192 66:224 67:205 68:226 69:218 70:223 71:231 72:223 73:118 74:140 75:132 76:132 77:151 78:134 79:166 80:146 81:150 82:150 83:132 84:149 85:236 86:145 87:248 88:133 89:267 90:132 91:283 92:138 93:269 94:146 95:251 96:148 97:166 98:260 99:189 100:257 101:205 102:254 103:216 104:258 105:230 106:254 107:255 108:259 109:284 110:261 111:258 112:279 113:234 114:282 115:219 116:282 117:208 118:280 119:191 120:276 121:176 122:261 123:206 124:265 125:216 126:267 127:230 128:266 129:277 130:263 131:232 132:268 133:218 134:269 135:207 136:266 
