svm_type c_svc
kernel_type polynomial
degree 3
gamma 0.00735294
coef0 0
nr_class 3
total_sv 157
rho 13.6368 -11.9139 -15.4708
label 0 1 2
probA 0.153627 -0.136452 -0.0619781
probB 0.211222 0.041004 -0.118573
nr_sv 50 61 46
SV
3.53262357452933e-10 1.556669990901192e-10 1:43 2:111 3:45 4:151 5:50 6:192 7:61 8:231 9:82 10:265 11:113 12:292 13:143 14:314 15:169 16:334 17:200 18:342 19:229 20:336 21:255 22:315 23:280 24:290 25:308 26:261 27:331 28:226 29:341 30:187 31:344 32:144 33:344 34:104 35:91 36:104 37:114 38:99 39:137 40:100 41:160 42:107 43:181 44:116 45:222 46:115 47:244 48:105 49:264 50:99 51:285 52:98 53:306 54:102 55:203 56:147 57:205 58:171 59:207 60:194 61:208 62:218 63:178 64:233 65:191 66:238 67:204 68:241 69:216 70:238 71:228 72:233 73:116 74:135 75:133 76:131 77:154 78:133 79:167 80:148 81:151 82:150 83:131 84:148 85:234 86:148 87:248 88:132 89:268 90:130 91:284 92:135 93:271 94:147 95:252 96:150 97:164 98:271 99:179 100:262 101:194 102:255 103:205 104:260 105:215 106:256 107:230 108:264 109:243 110:273 111:229 112:292 113:215 114:302 115:203 116:302 117:191 118:299 119:178 120:288 121:174 122:272 123:194 124:269 125:205 126:270 127:215 128:270 129:235 130:273 131:215 132:282 133:204 134:283 135:193 136:280 
1 1.403546644015382e-10 1:74 2:145 3:70 4:180 5:73 6:215 7:78 8:247 9:92 10:278 11:114 12:303 13:140 14:326 15:171 16:343 17:204 18:346 19:235 20:340 21:267 22:323 23:298 24:305 25:326 26:282 27:345 28:252 29:356 30:216 31:361 32:179 33:363 34:143 35:89 36:105 37:113 38:92 39:141 40:90 41:169 42:95 43:194 44:104 45:224 46:110 47:247 48:100 49:274 50:97 51:300 52:99 53:323 54:112 55:204 56:132 57:203 58:153 59:202 60:174 61:201 62:196 63:175 64:221 65:187 66:224 67:199 68:228 69:212 70:225 71:226 72:222 73:116 74:133 75:132 76:125 77:152 78:126 79:168 80:140 81:151 82:143 83:130 84:143 85:238 86:143 87:257 88:132 89:277 90:134 91:292 92:142 93:276 94:150 95:256 96:149 97:156 98:268 99:174 100:263 101:188 102:258 103:198 104:262 105:210 106:260 107:227 108:267 109:247 110:276 111:224 112:279 113:206 114:280 115:195 116:279 117:184 118:276 119:170 120:273 121:165 122:269 123:186 124:273 125:197 126:275 127:208 128:275 129:239 130:275 131:207 132:261 133:196 134:260 135:186 136:258 
0 1.892247780389628e-10 1:81 2:131 3:80 4:168 5:86 6:209 7:99 8:246 9:118 10:281 11:140 12:313 13:163 14:337 15:188 16:357 17:221 18:360 19:257 20:350 21:290 22:329 23:323 24:307 25:351 26:280 27:374 28:248 29:384 30:208 31:382 32:167 33:376 34:126 35:99 36:117 37:113 38:105 39:135 40:103 41:159 42:106 43:182 44:111 45:215 46:107 47:241 48:99 49:269 50:99 51:293 52:104 53:314 54:114 55:196 56:137 57:194 58:161 59:192 60:185 61:190 62:210 63:173 64:232 65:184 66:239 67:196 68:242 69:210 70:238 71:224 72:233 73:123 74:140 75:136 76:134 77:154 78:135 79:169 80:143 81:154 82:148 83:137 84:148 85:238 86:143 87:253 88:134 89:271 90:135 91:287 92:140 93:271 94:148 95:254 96:148 97:173 98:291 99:181 100:283 101:191 102:278 103:200 104:282 105:213 106:278 107:226 108:281 109:241 110:289 111:227 112:290 113:215 114:293 115:203 116:295 117:193 118:294 119:183 120:293 121:178 122:288 123:192 124:289 125:200 126:290 127:213 128:288 129:233 130:286 131:214 132:275 133:202 134:278 135:193 136:277 
5.813150793422779e-11 0 1:104 2:153 3:103 4:184 5:109 6:217 7:119 8:248 9:134 10:280 11:154 12:310 13:173 14:338 15:195 16:363 17:220 18:370 19:253 20:366 21:290 22:345 23:321 24:318 25:351 26:288 27:373 28:256 29:382 30:218 31:384 32:174 33:381 34:134 35:105 36:107 37:115 38:96 39:131 40:96 41:149 42:101 43:165 44:113 45:198 46:107 47:227 48:93 49:260 50:88 51:293 52:92 53:321 54:104 55:186 56:145 57:184 58:173 59:181 60:201 61:178 62:229 63:165 64:243 65:176 66:249 67:189 68:252 69:202 70:248 71:218 72:243 73:122 74:140 75:132 76:131 77:149 78:132 79:164 80:148 81:148 82:149 83:132 84:147 85:234 86:148 87:247 88:134 89:267 90:133 91:287 92:142 93:271 94:149 95:251 96:150 97:163 98:288 99:168 100:279 101:181 102:275 103:194 104:280 105:207 106:275 107:231 108:280 109:254 110:288 111:235 112:309 113:214 114:319 115:199 116:320 117:186 118:318 119:172 120:305 121:169 122:289 123:183 124:291 125:196 126:293 127:210 128:292 129:246 130:289 131:210 132:296 133:196 134:297 135:183 136:295 
4.148794291696307e-10 3.25593305938007e-10 1:53 2:134 3:51 4:173 5:55 6:216 7:69 8:254 9:90 10:288 11:114 12:319 13:140 14:349 15:170 16:368 17:198 18:371 19:228 20:364 21:256 22:340 23:279 24:313 25:301 26:282 27:320 28:247 29:330 30:214 31:333 32:178 33:333 34:148 35:90 36:117 37:106 38:102 39:128 40:94 41:156 42:96 43:181 44:107 45:225 46:106 47:246 48:97 49:270 50:95 51:293 52:102 53:309 54:114 55:205 56:141 57:205 58:166 59:206 60:192 61:207 62:217 63:175 64:228 65:189 66:235 67:205 68:241 69:221 70:235 71:236 72:227 73:118 74:142 75:133 76:134 77:152 78:135 79:167 80:146 81:152 82:148 83:133 84:148 85:237 86:145 87:252 88:134 89:270 90:135 91:285 92:141 93:270 94:145 95:253 96:147 97:153 98:262 99:175 100:255 101:191 102:251 103:204 104:254 105:219 106:251 107:232 108:254 109:247 110:262 111:232 112:285 113:217 114:296 115:202 116:300 117:187 118:297 119:172 120:287 121:161 122:265 123:190 124:263 125:204 126:265 127:219 128:264 129:239 130:265 131:217 132:273 133:203 134:277 135:189 136:275 
1.172438744355125e-10 0 1:53 2:148 3:50 4:185 5:52 6:224 7:65 8:260 9:86 10:291 11:110 12:316 13:139 14:337 15:174 16:350 17:205 18:351 19:231 20:344 21:251 22:323 23:268 24:297 25:281 26:268 27:294 28:235 29:305 30:204 31:309 32:173 33:305 34:146 35:95 36:103 37:118 38:94 39:141 40:91 41:165 42:93 43:187 44:103 45:233 46:103 47:252 48:94 49:269 50:92 51:285 52:94 53:297 54:102 55:213 56:142 57:215 58:166 59:218 60:191 61:222 62:215 63:191 64:234 65:203 66:238 67:215 68:242 69:225 70:237 71:233 72:232 73:118 74:140 75:134 76:132 77:152 78:134 79:166 80:147 81:150 82:150 83:132 84:149 85:242 86:146 87:253 88:133 89:269 90:133 91:280 92:140 93:271 94:147 95:256 96:149 97:165 98:284 99:184 100:271 101:203 102:264 103:215 104:267 105:227 106:263 107:239 108:269 109:244 110:280 111:237 112:290 113:226 114:297 115:214 116:299 117:201 118:299 119:183 120:294 121:172 122:283 123:201 124:278 125:213 126:278 127:225 128:277 129:239 130:279 131:226 132:277 133:215 134:279 135:203 136:278 
3.363874072840337e-10 1.833005962803347e-10 1:113 2:148 3:102 4:181 5:98 6:217 7:102 8:253 9:110 10:289 11:122 12:326 13:135 14:362 15:152 16:392 17:178 18:404 19:220 20:404 21:271 22:393 23:318 24:372 25:362 26:345 27:394 28:306 29:411 30:260 31:421 32:208 33:429 34:160 35:113 36:85 37:124 38:75 39:138 40:75 41:152 42:78 43:165 44:88 45:214 46:84 47:247 48:74 49:283 50:74 51:317 52:85 53:343 54:105 55:182 56:138 57:172 58:167 59:161 60:194 61:150 62:222 63:147 64:243 65:154 66:249 67:163 68:253 69:177 70:252 71:193 72:249 73:124 74:139 75:133 76:129 77:149 78:132 79:166 80:145 81:147 82:147 83:131 84:146 85:234 86:144 87:251 88:131 89:273 90:132 91:297 92:142 93:274 94:148 95:252 96:148 97:140 98:298 99:139 100:286 101:148 102:280 103:160 104:286 105:174 106:283 107:202 108:296 109:234 110:310 111:201 112:321 113:176 114:326 115:161 116:326 117:149 118:322 119:141 120:311 121:144 122:299 123:151 124:297 125:162 126:300 127:176 128:301 129:224 130:309 131:175 132:308 133:161 134:308 135:150 136:304 
3.951939424208727e-10 0 1:54 2:168 3:54 4:199 5:55 6:230 7:64 8:261 9:77 10:288 11:97 12:312 13:125 14:330 15:157 16:342 17:191 18:346 19:226 20:345 21:258 22:332 23:287 24:312 25:307 26:282 27:321 28:250 29:329 30:216 31:334 32:184 33:336 34:150 35:91 36:116 37:109 38:104 39:132 40:100 41:157 42:101 43:181 44:110 45:222 46:108 47:242 48:99 49:268 50:97 51:291 52:102 53:311 54:114 55:198 56:136 57:197 58:157 59:196 60:179 61:195 62:201 63:169 64:222 65:180 66:227 67:192 68:230 69:205 70:227 71:218 72:222 73:116 74:143 75:131 76:133 77:149 78:132 79:165 80:145 81:148 82:146 83:131 84:146 85:236 86:145 87:253 88:133 89:270 90:132 91:285 92:143 93:271 94:147 95:252 96:146 97:151 98:271 99:166 100:259 101:182 102:250 103:194 104:253 105:206 106:250 107:224 108:257 109:242 110:269 111:226 112:281 113:209 114:285 115:196 116:286 117:183 118:285 119:167 120:281 121:157 122:270 123:182 124:264 125:194 126:265 127:206 128:264 129:236 130:268 131:208 132:267 133:195 134:269 135:183 136:267 
1 8.32675836435439e-11 1:91 2:121 3:85 4:154 5:86 6:188 7:94 8:220 9:108 10:255 11:122 12:294 13:138 14:330 15:161 16:363 17:196 18:375 19:234 20:372 21:272 22:351 23:304 24:323 25:334 26:285 27:358 28:246 29:371 30:204 31:376 32:159 33:378 34:114 35:101 36:103 37:118 38:89 39:143 40:90 41:167 42:99 43:187 44:113 45:198 46:109 47:227 48:97 49:257 50:89 51:288 52:91 53:312 54:105 55:193 56:144 57:191 58:169 59:188 60:194 61:185 62:220 63:162 64:238 65:175 66:247 67:190 68:254 69:208 70:248 71:224 72:240 73:116 74:139 75:130 76:128 77:151 78:132 79:169 80:150 81:148 82:153 83:127 84:152 85:232 86:151 87:248 88:131 89:270 90:130 91:289 92:140 93:273 94:152 95:251 96:154 97:157 98:301 99:166 100:286 101:178 102:277 103:189 104:282 105:201 106:278 107:222 108:290 109:244 110:305 111:221 112:324 113:202 114:330 115:188 116:329 117:176 118:327 119:165 120:318 121:165 122:302 123:179 124:299 125:190 126:300 127:201 128:301 129:235 130:305 131:201 132:309 133:188 134:309 135:177 136:306 
8.499084576849739e-11 1.042845624307035e-11 1:70 2:163 3:67 4:200 5:69 6:239 7:77 8:281 9:91 10:318 11:112 12:353 13:135 14:382 15:167 16:399 17:206 18:402 19:242 20:396 21:267 22:379 23:281 24:349 25:294 26:318 27:307 28:286 29:316 30:250 31:318 32:215 33:313 34:182 35:98 36:110 37:114 38:96 39:135 40:95 41:155 42:100 43:176 44:109 45:231 46:106 47:251 48:97 49:270 50:92 51:288 52:93 53:305 54:104 55:203 56:140 57:204 58:169 59:204 60:196 61:205 62:224 63:168 64:248 65:185 66:252 67:203 68:255 69:221 70:251 71:239 72:248 73:120 74:140 75:133 76:132 77:149 78:133 79:163 80:146 81:148 82:147 83:131 84:147 85:240 86:146 87:253 88:134 89:269 90:132 91:281 92:141 93:271 94:147 95:256 96:148 97:142 98:306 99:166 100:307 101:189 102:304 103:202 104:310 105:216 106:305 107:238 108:309 109:258 110:306 111:238 112:316 113:217 114:321 115:202 116:322 117:188 118:321 119:165 120:317 121:151 122:310 123:188 124:326 125:202 126:327 127:217 128:326 129:250 130:310 131:215 132:295 133:202 134:297 135:189 136:296 
2.941462274419823e-10 8.044290047172137e-11 1:62 2:138 3:58 4:174 5:61 6:214 7:69 8:249 9:83 10:282 11:101 12:311 13:125 14:336 15:154 16:353 17:185 18:361 19:214 20:356 21:241 22:338 23:266 24:315 25:289 26:286 27:306 28:254 29:316 30:218 31:319 32:181 33:319 34:145 35:109 36:95 37:125 38:79 39:146 40:68 41:171 42:67 43:191 44:81 45:238 46:88 47:253 48:78 49:272 50:78 51:288 52:87 53:298 54:103 55:208 56:132 57:209 58:157 59:210 60:182 61:211 62:207 63:183 64:225 65:195 66:229 67:208 68:233 69:220 70:230 71:232 72:225 73:127 74:138 75:139 76:124 77:159 78:124 79:174 80:140 81:158 82:145 83:139 84:146 85:235 86:143 87:247 88:126 89:266 90:126 91:279 92:141 93:268 94:148 95:248 96:148 97:152 98:271 99:175 100:261 101:196 102:256 103:207 104:260 105:216 106:256 107:231 108:260 109:241 110:271 111:228 112:290 113:214 114:295 115:203 116:296 117:192 118:296 119:174 120:291 121:160 122:271 123:195 124:272 125:206 126:274 127:216 128:272 129:233 130:272 131:215 132:276 133:204 134:278 135:193 136:278 
1 2.762403494936081e-10 1:68 2:144 3:72 4:178 5:77 6:211 7:86 8:244 9:99 10:273 11:120 12:299 13:144 14:320 15:174 16:338 17:203 18:344 19:230 20:337 21:258 22:317 23:278 24:292 25:294 26:265 27:304 28:235 29:312 30:204 31:316 32:173 33:318 34:143 35:94 36:113 37:110 38:98 39:134 40:94 41:159 42:97 43:182 44:107 45:221 46:107 47:244 48:98 49:267 50:93 51:290 52:97 53:304 54:113 55:203 56:138 57:203 58:160 59:204 60:181 61:205 62:203 63:180 64:223 65:192 66:225 67:204 68:228 69:215 70:225 71:226 72:221 73:117 74:140 75:132 76:130 77:151 78:132 79:165 80:146 81:149 82:149 83:130 84:148 85:237 86:146 87:251 88:131 89:269 90:130 91:282 92:141 93:270 94:147 95:253 96:148 97:156 98:268 99:172 100:253 101:190 102:244 103:202 104:248 105:215 106:243 107:231 108:252 109:245 110:265 111:231 112:281 113:216 114:290 115:203 116:292 117:189 118:291 119:173 120:283 121:163 122:268 123:189 124:262 125:202 126:263 127:214 128:261 129:238 130:265 131:216 132:268 133:203 134:270 135:190 136:268 
1.46812653903298e-10 1.120366704094385e-10 1:18 2:152 3:16 4:197 5:20 6:241 7:34 8:281 9:56 10:314 11:84 12:337 13:116 14:355 15:151 16:366 17:183 18:366 19:209 20:358 21:231 22:339 23:249 24:312 25:266 26:281 27:280 28:249 29:292 30:215 31:297 32:180 33:295 34:147 35:80 36:101 37:107 38:86 39:138 40:82 41:167 42:91 43:195 44:104 45:235 46:106 47:252 48:99 49:267 50:93 51:283 52:91 53:295 54:99 55:215 56:139 57:218 58:164 59:222 60:190 61:226 62:216 63:187 64:236 65:201 66:241 67:215 68:244 69:228 70:240 71:239 72:233 73:110 74:141 75:130 76:129 77:152 78:130 79:168 80:146 81:149 82:150 83:127 84:149 85:237 86:147 87:251 88:132 89:270 90:130 91:281 92:140 93:271 94:150 95:253 96:151 97:155 98:288 99:183 100:275 101:208 102:264 103:218 104:267 105:228 106:262 107:238 108:267 109:244 110:281 111:236 112:296 113:225 114:307 115:214 116:310 117:202 118:311 119:180 120:306 121:165 122:289 123:205 124:283 125:216 126:280 127:225 128:278 129:239 130:281 131:225 132:285 133:216 134:288 135:205 136:289 
0.9999999999141723 0 1:105 2:158 3:100 4:190 5:101 6:221 7:110 8:255 9:119 10:287 11:135 12:319 13:152 14:348 15:168 16:377 17:202 18:394 19:247 20:397 21:298 22:385 23:342 24:362 25:378 26:331 27:405 28:291 29:420 30:244 31:423 32:192 33:422 34:143 35:106 36:107 37:116 38:96 39:132 40:94 41:150 42:97 43:167 44:108 45:206 46:99 47:232 48:80 49:266 50:76 51:301 52:83 53:332 54:97 55:186 56:133 57:181 58:159 59:175 60:187 61:168 62:216 63:156 64:234 65:166 66:243 67:178 68:248 69:195 70:245 71:211 72:242 73:123 74:141 75:131 76:131 77:148 78:132 79:165 80:143 81:148 82:148 83:131 84:148 85:235 86:143 87:252 88:129 89:275 90:130 91:297 92:138 93:276 94:147 95:255 96:148 97:148 98:282 99:157 100:276 101:169 102:272 103:181 104:278 105:196 106:273 107:225 108:284 109:259 110:298 111:226 112:311 113:201 114:313 115:184 116:311 117:170 118:307 119:160 120:295 121:153 122:284 123:170 124:289 125:182 126:294 127:198 128:294 129:250 130:298 131:198 132:287 133:182 134:286 135:170 136:281 
3.76491560875516e-10 2.594866771017776e-10 1:110 2:156 3:106 4:183 5:106 6:211 7:111 8:241 9:119 10:272 11:133 12:302 13:149 14:329 15:169 16:349 17:200 18:356 19:240 20:354 21:283 22:345 23:324 24:330 25:358 26:309 27:379 28:276 29:386 30:238 31:388 32:198 33:391 34:160 35:104 36:103 37:114 38:93 39:129 40:90 41:146 42:90 43:163 44:96 45:208 46:94 47:238 48:88 49:268 50:88 51:298 52:94 53:321 54:110 55:186 56:133 57:182 58:149 59:176 60:164 61:171 62:181 63:156 64:211 65:168 66:215 67:181 68:218 69:196 70:216 71:213 72:214 73:121 74:143 75:130 76:133 77:146 78:134 79:161 80:143 81:146 82:146 83:131 84:146 85:236 86:142 87:249 88:132 89:268 90:133 91:288 92:141 93:269 94:145 95:250 96:145 97:148 98:271 99:156 100:252 101:169 102:242 103:181 104:245 105:194 106:242 107:219 108:253 109:244 110:272 111:220 112:283 113:198 114:289 115:184 116:291 117:171 118:290 119:158 120:284 121:155 122:270 123:171 124:261 125:182 126:261 127:195 128:261 129:235 130:270 131:196 132:269 133:183 134:270 135:171 136:270 
4.88425873838045e-11 0 1:94 2:151 3:96 4:186 5:102 6:220 7:113 8:257 9:128 10:292 11:154 12:322 13:181 14:348 15:203 16:375 17:235 18:387 19:269 20:383 21:303 22:360 23:326 24:328 25:343 26:294 27:358 28:257 29:362 30:219 31:357 32:182 33:349 34:146 35:98 36:110 37:109 38:95 39:129 40:92 41:149 42:96 43:170 44:106 45:214 46:110 47:240 48:97 49:267 50:93 51:293 52:100 53:311 54:119 55:191 56:138 57:191 58:166 59:190 60:196 61:190 62:226 63:171 64:235 65:183 66:244 67:199 68:249 69:214 70:244 71:229 72:239 73:120 74:137 75:133 76:129 77:151 78:129 79:168 80:142 81:151 82:146 83:133 84:146 85:232 86:144 87:250 88:132 89:269 90:132 91:284 92:141 93:270 94:149 95:251 96:149 97:166 98:278 99:180 100:275 101:194 102:275 103:208 104:281 105:226 106:279 107:251 108:285 109:275 110:290 111:256 112:309 113:233 114:314 115:215 116:314 117:199 118:308 119:184 120:296 121:174 122:281 123:195 124:287 125:210 126:292 127:227 128:292 129:269 130:290 131:229 132:291 133:212 134:289 135:196 136:283 
7.363092131550023e-11 3.999285887503541e-11 1:26 2:131 3:27 4:176 5:30 6:223 7:39 8:269 9:61 10:310 11:94 12:342 13:132 14:366 15:169 16:381 17:211 18:384 19:251 20:377 21:283 22:358 23:317 24:333 25:347 26:301 27:365 28:262 29:373 30:219 31:376 32:174 33:376 34:130 35:87 36:113 37:107 38:104 39:129 40:102 41:153 42:104 43:173 44:114 45:225 46:112 47:247 48:103 49:270 50:102 51:291 52:105 53:312 54:113 55:201 56:142 57:202 58:164 59:204 60:185 61:206 62:206 63:179 64:241 65:193 66:242 67:206 68:244 69:218 70:241 71:229 72:240 73:115 74:141 75:132 76:133 77:150 78:133 79:162 80:144 81:148 82:147 83:131 84:147 85:236 86:144 87:250 88:133 89:267 90:134 91:283 92:141 93:268 94:146 95:251 96:147 97:137 98:284 99:167 100:284 101:192 102:282 103:206 104:285 105:220 106:281 107:243 108:284 109:267 110:280 111:244 112:308 113:222 114:320 115:206 116:322 117:190 118:321 119:165 120:311 121:146 122:288 123:192 124:291 125:206 126:292 127:220 128:290 129:258 130:283 131:221 132:305 133:206 134:307 135:191 136:306 
4.094136053829906e-10 4.026814291847294e-10 1:77 2:146 3:79 4:178 5:84 6:211 7:89 8:244 9:99 10:275 11:116 12:300 13:138 14:322 15:166 16:341 17:198 18:347 19:232 20:342 21:266 22:325 23:294 24:305 25:316 26:279 27:328 28:247 29:334 30:212 31:340 32:177 33:344 34:143 35:95 36:110 37:110 38:93 39:133 40:89 41:156 42:93 43:177 44:104 45:218 46:104 47:242 48:93 49:267 50:91 51:292 52:95 53:310 54:112 55:197 56:133 57:197 58:156 59:196 60:178 61:196 62:201 63:174 64:217 65:185 66:222 67:196 68:225 69:208 70:222 71:220 72:218 73:120 74:141 75:133 76:132 77:149 78:133 79:162 80:144 81:147 82:147 83:131 84:147 85:237 86:143 87:251 88:134 89:268 90:133 91:282 92:141 93:269 94:147 95:252 96:147 97:158 98:264 99:170 100:247 101:185 102:241 103:198 104:245 105:212 106:241 107:229 108:247 109:244 110:263 111:230 112:279 113:212 114:288 115:197 116:289 117:184 118:288 119:169 120:281 121:165 122:263 123:185 124:258 125:198 126:258 127:212 128:258 129:236 130:262 131:212 132:266 133:198 134:268 135:185 136:267 
1 2.92529589463619e-10 1:83 2:130 3:86 4:163 5:92 6:195 7:102 8:227 9:115 10:257 11:129 12:283 13:148 14:304 15:174 16:319 17:201 18:323 19:228 20:321 21:254 22:306 23:274 24:283 25:290 26:255 27:302 28:225 29:311 30:191 31:317 32:157 33:320 34:124 35:95 36:114 37:109 38:102 39:128 40:101 41:148 42:105 43:168 44:113 45:230 46:110 47:248 48:102 49:267 50:99 51:286 52:98 53:303 54:107 55:199 56:142 57:199 58:167 59:200 60:191 61:200 62:215 63:178 64:222 65:189 66:225 67:200 68:229 69:212 70:226 71:223 72:222 73:119 74:139 75:132 76:131 77:150 78:132 79:164 80:145 81:147 82:149 83:130 84:147 85:236 86:145 87:250 88:133 89:268 90:132 91:281 92:140 93:268 94:148 95:251 96:148 97:160 98:259 99:174 100:255 101:189 102:251 103:201 104:254 105:211 106:251 107:226 108:255 109:240 110:259 111:225 112:272 113:210 114:277 115:199 116:278 117:188 118:277 119:173 120:271 121:165 122:260 123:189 124:261 125:200 126:263 127:211 128:262 129:235 130:260 131:210 132:262 133:200 134:264 135:189 136:262 
1 1.646450922118284e-11 1:68 2:124 3:68 4:160 5:70 6:197 7:77 8:234 9:89 10:269 11:108 12:302 13:128 14:331 15:157 16:348 17:192 18:354 19:228 20:354 21:255 22:336 23:276 24:307 25:296 26:275 27:310 28:240 29:319 30:202 31:327 32:164 33:331 34:127 35:103 36:100 37:125 38:96 39:147 40:102 41:165 42:112 43:186 44:122 45:215 46:117 47:240 48:105 49:265 50:99 51:290 52:98 53:309 54:110 55:201 56:140 57:200 58:172 59:199 60:203 61:197 62:234 63:168 64:240 65:182 66:248 67:197 68:256 69:212 70:249 71:227 72:242 73:121 74:139 75:134 76:133 77:151 78:134 79:165 80:144 81:150 82:147 83:133 84:146 85:236 86:143 87:250 88:134 89:269 90:134 91:284 92:138 93:270 94:146 95:252 96:146 97:142 98:283 99:159 100:275 101:179 102:271 103:195 104:277 105:211 106:272 107:228 108:278 109:244 110:286 111:228 112:307 113:211 114:316 115:193 116:317 117:176 118:315 119:157 120:304 121:148 122:283 123:179 124:287 125:194 126:289 127:211 128:287 129:236 130:287 131:210 132:288 133:193 134:290 135:178 136:287 
9.397005250364689e-10 3.804822609355276e-10 1:90 2:148 3:88 4:179 5:90 6:211 7:95 8:244 9:104 10:274 11:119 12:299 13:138 14:320 15:164 16:339 17:195 18:346 19:229 20:344 21:262 22:329 23:287 24:307 25:307 26:282 27:317 28:252 29:324 30:217 31:329 32:182 33:331 34:148 35:98 36:106 37:116 38:97 39:136 40:96 41:156 42:101 43:175 44:111 45:223 46:109 47:245 48:97 49:267 50:93 51:290 52:93 53:308 54:105 55:200 56:136 57:199 58:157 59:198 60:178 61:198 62:199 63:174 64:219 65:186 66:223 67:198 68:227 69:212 70:224 71:224 72:222 73:118 74:143 75:132 76:134 77:150 78:134 79:166 80:146 81:149 82:149 83:131 84:151 85:234 86:146 87:251 88:134 89:269 90:133 91:284 92:141 93:271 94:148 95:253 96:148 97:148 98:259 99:164 100:248 101:184 102:242 103:198 104:246 105:215 106:242 107:237 108:250 109:260 110:262 111:237 112:281 113:215 114:289 115:197 116:291 117:181 118:289 119:162 120:280 121:156 122:260 123:183 124:261 125:198 126:262 127:215 128:262 129:251 130:263 131:214 132:263 133:198 134:264 135:183 136:262 
1.990444846333341e-10 1.821833054442102e-10 1:89 2:141 3:87 4:173 5:90 6:208 7:98 8:241 9:111 10:275 11:130 12:305 13:151 14:329 15:176 16:348 17:205 18:355 19:234 20:350 21:267 22:335 23:297 24:313 25:324 26:286 27:349 28:254 29:362 30:215 31:362 32:174 33:360 34:138 35:94 36:110 37:106 38:98 39:125 40:95 41:147 42:98 43:168 44:108 45:219 46:106 47:244 48:96 49:268 50:92 51:291 52:95 53:312 54:105 55:194 56:137 57:193 58:161 59:191 60:186 61:188 62:209 63:170 64:228 65:181 66:232 67:192 68:235 69:205 70:230 71:218 72:227 73:118 74:139 75:131 76:131 77:148 78:133 79:163 80:145 81:146 82:148 83:128 84:147 85:234 86:145 87:250 88:133 89:268 90:132 91:284 92:139 93:270 94:146 95:251 96:148 97:150 98:266 99:164 100:256 101:183 102:253 103:196 104:257 105:211 106:253 107:234 108:256 109:257 110:265 111:234 112:292 113:212 114:304 115:196 116:306 117:182 118:304 119:164 120:293 121:157 122:268 123:183 124:264 125:196 126:265 127:211 128:265 129:252 130:265 131:211 132:285 133:196 134:287 135:182 136:284 
1 7.972858125761066e-11 1:88 2:149 3:87 4:181 5:90 6:214 7:96 8:246 9:107 10:279 11:122 12:308 13:141 14:331 15:166 16:347 17:196 18:353 19:230 20:349 21:262 22:335 23:291 24:316 25:314 26:292 27:328 28:261 29:337 30:227 31:344 32:192 33:348 34:157 35:96 36:111 37:108 38:91 39:131 40:84 41:154 42:86 43:176 44:98 45:212 46:96 47:239 48:87 49:267 50:87 51:292 52:96 53:310 54:117 55:192 56:129 57:189 58:151 59:185 60:172 61:182 62:195 63:168 64:217 65:177 66:220 67:187 68:223 69:199 70:220 71:213 72:218 73:119 74:139 75:131 76:130 77:149 78:130 79:162 80:139 81:147 82:143 83:130 84:144 85:237 86:138 87:252 88:130 89:269 90:131 91:283 92:140 93:269 94:145 95:251 96:143 97:154 98:268 99:163 100:250 101:177 102:241 103:189 104:245 105:200 106:240 107:219 108:251 109:237 110:269 111:220 112:280 113:203 114:287 115:191 116:289 117:178 118:288 119:165 120:282 121:159 122:266 123:179 124:260 125:190 126:260 127:201 128:259 129:229 130:267 131:201 132:263 133:190 134:265 135:179 136:264 
7.932224495536063e-11 2.093563274684075e-10 1:74 2:124 3:77 4:160 5:86 6:195 7:96 8:230 9:110 10:261 11:128 12:290 13:150 14:316 15:174 16:338 17:200 18:344 19:228 20:338 21:254 22:321 23:279 24:298 25:304 26:271 27:322 28:241 29:334 30:206 31:339 32:170 33:341 34:134 35:93 36:114 37:111 38:103 39:136 40:102 41:160 42:108 43:184 44:118 45:214 46:117 47:237 48:108 49:262 50:104 51:287 52:102 53:313 54:111 55:200 56:139 57:200 58:166 59:200 60:193 61:200 62:220 63:176 64:229 65:188 66:234 67:200 68:237 69:213 70:234 71:226 72:229 73:118 74:138 75:133 76:134 77:150 78:133 79:165 80:141 81:150 82:147 83:132 84:148 85:237 86:142 87:249 88:134 89:267 90:135 91:284 92:139 93:268 94:148 95:251 96:148 97:155 98:275 99:171 100:265 101:188 102:259 103:201 104:262 105:213 106:258 107:229 108:262 109:241 110:269 111:228 112:286 113:213 114:294 115:200 116:296 117:187 118:296 119:171 120:289 121:161 122:273 123:188 124:272 125:201 126:273 127:213 128:271 129:234 130:270 131:212 132:272 133:200 134:276 135:187 136:274 
0 8.695287716400198e-11 1:80 2:133 3:83 4:167 5:91 6:201 7:97 8:234 9:107 10:264 11:127 12:292 13:149 14:313 15:175 16:331 17:204 18:336 19:234 20:333 21:263 22:316 23:288 24:295 25:309 26:270 27:322 28:239 29:327 30:204 31:331 32:169 33:334 34:132 35:98 36:110 37:116 38:99 39:137 40:98 41:157 42:106 43:176 44:117 45:222 46:117 47:245 48:106 49:267 50:98 51:291 52:98 53:311 54:109 55:198 56:139 57:198 58:162 59:198 60:185 61:198 62:208 63:177 64:222 65:188 66:225 67:199 68:228 69:211 70:225 71:223 72:223 73:118 74:139 75:133 76:130 77:153 78:131 79:167 80:145 81:150 82:150 83:131 84:149 85:236 86:146 87:251 88:133 89:271 90:132 91:286 92:140 93:274 94:151 95:254 96:151 97:157 98:266 99:172 100:254 101:189 102:247 103:200 104:251 105:213 106:248 107:230 108:257 109:246 110:268 111:230 112:284 113:212 114:290 115:199 116:290 117:186 118:289 119:171 120:285 121:164 122:267 123:188 124:263 125:200 126:264 127:213 128:264 129:239 130:268 131:212 132:266 133:198 134:267 135:187 136:266 
8.149542281996001e-11 2.606302162041604e-10 1:104 2:159 3:101 4:189 5:107 6:222 7:118 8:256 9:129 10:290 11:142 12:322 13:154 14:352 15:170 16:378 17:200 18:387 19:239 20:383 21:280 22:361 23:316 24:334 25:346 26:302 27:368 28:265 29:378 30:223 31:378 32:177 33:376 34:135 35:103 36:111 37:107 38:94 39:121 40:88 41:138 42:86 43:155 44:93 45:204 46:89 47:228 48:74 49:258 50:73 51:286 52:80 53:309 54:99 55:183 56:139 57:181 58:170 59:178 60:200 61:174 62:230 63:160 64:249 65:171 66:256 67:184 68:260 69:199 70:256 71:215 72:252 73:120 74:144 75:131 76:130 77:149 78:130 79:164 80:146 81:148 82:149 83:130 84:150 85:232 86:143 87:247 88:126 89:268 90:124 91:284 92:137 93:270 94:147 95:250 96:147 97:156 98:294 99:163 100:285 101:176 102:281 103:187 104:286 105:201 106:281 107:223 108:286 109:247 110:293 111:224 112:307 113:203 114:315 115:187 116:317 117:175 118:316 119:164 120:310 121:161 122:294 123:176 124:294 125:188 126:295 127:202 128:295 129:238 130:293 131:201 132:295 133:186 134:297 135:175 136:296 
0.9999999999942983 2.965352050925041e-10 1:62 2:130 3:58 4:167 5:58 6:202 7:68 8:239 9:88 10:273 11:112 12:306 13:137 14:336 15:166 16:360 17:198 18:366 19:229 20:358 21:253 22:330 23:270 24:299 25:288 26:270 27:304 28:238 29:313 30:204 31:318 32:170 33:318 34:135 35:94 36:94 37:116 38:85 39:138 40:83 41:160 42:90 43:181 44:105 45:222 46:105 47:243 48:91 49:266 50:87 51:288 52:90 53:304 54:103 55:201 56:145 57:200 58:178 59:199 60:210 61:199 62:241 63:168 64:247 65:182 66:256 67:198 68:263 69:213 70:255 71:227 72:246 73:110 74:136 75:128 76:126 77:151 78:127 79:169 80:146 81:147 82:153 83:125 84:151 85:229 86:147 87:249 88:128 89:272 90:127 91:289 92:138 93:273 94:153 95:250 96:154 97:132 98:285 99:159 100:292 101:183 102:292 103:196 104:295 105:209 106:291 107:228 108:292 109:250 110:285 111:229 112:303 113:211 114:314 115:197 116:316 117:183 118:314 119:159 120:304 121:142 122:290 123:183 124:304 125:196 126:306 127:209 128:304 129:241 130:289 131:210 132:295 133:196 134:298 135:184 136:296 
1 0 1:83 2:134 3:81 4:166 5:85 6:200 7:94 8:233 9:110 10:262 11:132 12:290 13:153 14:315 15:176 16:336 17:208 18:341 19:244 20:339 21:282 22:321 23:317 24:296 25:345 26:267 27:366 28:234 29:375 30:195 31:378 32:154 33:379 34:113 35:92 36:114 37:110 38:104 39:132 40:104 41:155 42:112 43:176 44:123 45:212 46:122 47:239 48:111 49:265 50:104 51:293 52:103 53:316 54:113 55:194 56:144 57:192 58:167 59:189 60:189 61:186 62:212 63:172 64:228 65:182 66:233 67:193 68:236 69:204 70:233 71:216 72:230 73:121 74:136 75:133 76:127 77:152 78:127 79:166 80:142 81:151 82:146 83:132 84:146 85:236 86:143 87:248 88:131 89:268 90:131 91:284 92:138 93:270 94:149 95:252 96:149 97:159 98:276 99:169 100:277 101:183 102:276 103:192 104:279 105:203 106:276 107:222 108:279 109:245 110:277 111:224 112:283 113:208 114:285 115:196 116:286 117:186 118:286 119:171 120:283 121:164 122:276 123:184 124:287 125:193 126:287 127:204 128:286 129:236 130:278 131:205 132:271 133:194 134:272 135:186 136:271 
0.999999999774872 0 1:52 2:153 3:52 4:192 5:55 6:232 7:62 8:271 9:77 10:306 11:98 12:336 13:124 14:362 15:158 16:376 17:193 18:378 19:226 20:374 21:255 22:359 23:276 24:335 25:293 26:306 27:303 28:272 29:308 30:237 31:309 32:200 33:308 34:165 35:96 36:118 37:113 38:100 39:140 40:93 41:169 42:97 43:197 44:106 45:225 46:105 47:248 48:99 49:271 50:97 51:291 52:103 53:301 54:121 55:210 56:137 57:212 58:158 59:214 60:179 61:216 62:203 63:182 64:230 65:197 66:233 67:211 68:235 69:224 70:232 71:237 72:228 73:118 74:139 75:133 76:128 77:151 78:128 79:167 80:140 81:151 82:144 83:132 84:144 85:237 86:142 87:251 88:129 89:269 90:130 91:279 92:141 93:269 94:146 95:252 96:146 97:155 98:295 99:176 100:281 101:197 102:272 103:212 104:276 105:225 106:271 107:241 108:277 109:252 110:289 111:240 112:298 113:225 114:302 115:210 116:304 117:195 118:306 119:174 120:303 121:163 122:294 123:196 124:287 125:211 126:287 127:224 128:285 129:245 130:288 131:225 132:288 133:211 134:289 135:196 136:290 
9.822552314383055e-10 8.405673592803422e-11 1:93 2:141 3:91 4:170 5:92 6:201 7:103 8:233 9:118 10:261 11:135 12:287 13:153 14:311 15:177 16:332 17:201 18:339 19:229 20:335 21:258 22:319 23:283 24:298 25:305 26:275 27:320 28:244 29:327 30:207 31:329 32:171 33:328 34:137 35:97 36:108 37:113 38:101 39:131 40:104 41:150 42:110 43:168 44:121 45:219 46:118 47:241 48:104 49:265 50:94 51:291 52:96 53:311 54:108 55:194 56:144 57:192 58:168 59:190 60:193 61:188 62:217 63:171 64:227 65:181 66:232 67:192 68:235 69:203 70:232 71:216 72:229 73:119 74:138 75:133 76:131 77:150 78:131 79:163 80:144 81:148 82:146 83:132 84:145 85:236 86:144 87:251 88:132 89:269 90:131 91:286 92:139 93:271 94:146 95:253 96:146 97:157 98:270 99:168 100:263 101:183 102:257 103:194 104:261 105:207 106:258 107:225 108:264 109:243 110:271 111:225 112:283 113:209 114:289 115:196 116:289 117:183 118:288 119:169 120:280 121:163 122:270 123:184 124:267 125:195 126:269 127:208 128:268 129:235 130:271 131:208 132:268 133:196 134:269 135:184 136:267 
5.61083239245255e-11 0 1:12 2:174 3:14 4:213 5:18 6:254 7:29 8:292 9:51 10:326 11:88 12:349 13:131 14:365 15:173 16:376 17:215 18:379 19:245 20:370 21:265 22:344 23:282 24:314 25:295 26:282 27:302 28:249 29:304 30:217 31:299 32:187 33:288 34:160 35:84 36:119 37:105 38:103 39:133 40:95 41:160 42:97 43:187 44:106 45:229 46:107 47:244 48:99 49:261 50:99 51:276 52:104 53:285 54:118 55:213 56:149 57:220 58:169 59:228 60:188 61:237 62:207 63:191 64:233 65:208 66:236 67:223 68:240 69:234 70:237 71:244 72:233 73:121 74:148 75:137 76:136 77:155 78:137 79:167 80:153 81:153 82:151 83:136 84:150 85:232 86:158 87:248 88:142 89:263 90:140 91:272 92:154 93:264 94:156 95:249 96:156 97:135 98:269 99:172 100:262 101:203 102:257 103:219 104:259 105:233 106:256 107:247 108:262 109:255 110:273 111:244 112:285 113:231 114:289 115:218 116:290 117:201 118:288 119:171 120:283 121:143 122:270 123:203 124:272 125:218 126:272 127:231 128:272 129:249 130:274 131:231 132:273 133:218 134:274 135:202 136:274 
1.122137171962071e-09 1.525283946502225e-10 1:72 2:155 3:75 4:186 5:80 6:218 7:89 8:252 9:103 10:280 11:121 12:303 13:143 14:322 15:172 16:335 17:203 18:339 19:233 20:334 21:261 22:317 23:285 24:297 25:302 26:275 27:314 28:245 29:320 30:213 31:324 32:181 33:327 34:150 35:93 36:112 37:111 38:95 39:133 40:87 41:157 42:90 43:180 44:100 45:219 46:100 47:242 48:89 49:267 50:86 51:291 52:95 53:307 54:114 55:200 56:126 57:199 58:145 59:199 60:165 61:198 62:184 63:179 64:206 65:189 66:209 67:199 68:211 69:209 70:209 71:220 72:208 73:119 74:142 75:132 76:134 77:149 78:133 79:162 80:141 81:149 82:144 83:133 84:145 85:238 86:141 87:252 88:133 89:269 90:134 91:282 92:143 93:269 94:147 95:253 96:146 97:157 98:257 99:171 100:237 101:188 102:228 103:200 104:230 105:211 106:229 107:229 108:239 109:246 110:259 111:229 112:275 113:212 114:279 115:199 116:280 117:187 118:278 119:171 120:272 121:165 122:257 123:188 124:245 125:200 126:245 127:212 128:246 129:236 130:258 131:212 132:259 133:199 134:260 135:188 136:258 
0.9999999999204198 3.360950880705287e-11 1:75 2:139 3:80 4:174 5:89 6:210 7:100 8:243 9:116 10:277 11:134 12:309 13:153 14:338 15:183 16:358 17:216 18:360 19:248 20:349 21:276 22:325 23:293 24:297 25:308 26:267 27:316 28:236 29:319 30:201 31:322 32:166 33:323 34:130 35:98 36:110 37:115 38:99 39:135 40:102 41:155 42:111 43:174 44:122 45:232 46:119 47:252 48:110 49:270 50:102 51:288 52:99 53:306 54:106 55:200 56:144 57:199 58:167 59:198 60:191 61:197 62:214 63:177 64:224 65:188 66:229 67:199 68:233 69:211 70:229 71:223 72:225 73:121 74:138 75:135 76:130 77:153 78:133 79:166 80:146 81:149 82:150 83:132 84:149 85:240 86:144 87:252 88:132 89:269 90:130 91:281 92:138 93:271 94:148 95:255 96:148 97:163 98:271 99:172 100:262 101:187 102:259 103:200 104:261 105:215 106:259 107:231 108:262 109:245 110:270 111:232 112:284 113:218 114:291 115:203 116:293 117:188 118:292 119:173 120:288 121:170 122:272 123:188 124:270 125:201 126:270 127:215 128:269 129:236 130:271 131:215 132:274 133:201 134:277 135:188 136:276 
6.090756419972453e-10 1.686530699945793e-10 1:51 2:101 3:51 4:138 5:55 6:176 7:62 8:211 9:76 10:244 11:99 12:275 13:126 14:302 15:159 16:324 17:190 18:329 19:219 20:320 21:245 22:299 23:265 24:277 25:285 26:251 27:300 28:221 29:310 30:190 31:317 32:158 33:320 34:128 35:93 36:101 37:120 38:100 39:144 40:107 41:167 42:116 43:189 44:128 45:234 46:130 47:251 48:121 49:269 50:110 51:287 52:100 53:308 54:100 55:211 56:150 57:211 58:175 59:211 60:201 61:212 62:226 63:185 64:233 65:196 66:238 67:206 68:242 69:218 70:239 71:227 72:234 73:121 74:137 75:137 76:135 77:153 78:137 79:166 80:143 81:151 82:145 83:135 84:144 85:238 86:143 87:252 88:136 89:267 90:135 91:280 92:137 93:268 94:143 95:254 96:144 97:147 98:259 99:170 100:259 101:190 102:256 103:202 104:259 105:215 106:255 107:228 108:257 109:240 110:260 111:227 112:276 113:213 114:285 115:200 116:288 117:186 118:287 119:167 120:277 121:155 122:262 123:189 124:267 125:202 126:269 127:213 128:267 129:234 130:262 131:213 132:267 133:201 134:270 135:188 136:269 
1 2.132548975322915e-10 1:108 2:149 3:103 4:177 5:103 6:208 7:110 8:240 9:120 10:272 11:136 12:301 13:152 14:330 15:167 16:356 17:194 18:369 19:232 20:371 21:277 22:359 23:322 24:341 25:365 26:314 27:393 28:276 29:403 30:230 31:406 32:183 33:410 34:138 35:104 36:96 37:118 38:91 39:133 40:95 41:148 42:101 43:163 44:109 45:206 46:108 47:235 48:94 49:265 50:86 51:297 52:90 53:323 54:107 55:182 56:139 57:175 58:161 59:168 60:184 61:161 62:207 63:153 64:225 65:163 66:232 67:175 68:235 69:189 70:231 71:205 72:227 73:120 74:139 75:133 76:131 77:150 78:132 79:164 80:143 81:148 82:146 83:132 84:145 85:234 86:144 87:251 88:133 89:272 90:132 91:289 92:140 93:273 94:147 95:253 96:148 97:143 98:263 99:151 100:251 101:166 102:247 103:180 104:250 105:199 106:247 107:234 108:253 109:270 110:261 111:239 112:292 113:206 114:305 115:186 116:307 117:169 118:304 119:154 120:289 121:150 122:266 123:167 124:264 125:181 126:265 127:200 128:264 129:262 130:264 131:203 132:282 133:184 134:283 135:168 136:281 
1 1.800374455980363e-10 1:73 2:123 3:77 4:162 5:84 6:200 7:97 8:236 9:115 10:269 11:138 12:296 13:159 14:322 15:183 16:344 17:208 18:351 19:235 20:344 21:257 22:321 23:274 24:293 25:290 26:262 27:306 28:227 29:316 30:190 31:322 32:150 33:324 34:111 35:93 36:108 37:110 38:97 39:133 40:97 41:156 42:103 43:179 44:113 45:221 46:114 47:243 48:105 49:266 50:97 51:288 52:96 53:306 54:109 55:200 56:138 57:200 58:162 59:199 60:185 61:199 62:209 63:175 64:221 65:187 66:225 67:200 68:228 69:212 70:224 71:224 72:220 73:118 74:137 75:132 76:133 77:149 78:134 79:163 80:144 81:148 82:146 83:131 84:145 85:238 86:145 87:251 88:135 89:268 90:133 91:283 92:139 93:271 94:147 95:253 96:148 97:163 98:264 99:174 100:252 101:190 102:245 103:203 104:249 105:213 106:245 107:231 108:254 109:246 110:265 111:235 112:295 113:219 114:308 115:207 116:310 117:194 118:307 119:176 120:294 121:169 122:266 123:192 124:258 125:203 126:259 127:214 128:258 129:240 130:266 131:217 132:287 133:206 134:290 135:194 136:288 
9.028856583998093e-11 0 1:69 2:153 3:70 4:190 5:74 6:228 7:82 8:265 9:97 10:299 11:118 12:332 13:141 14:361 15:169 16:382 17:201 18:388 19:234 20:381 21:261 22:359 23:283 24:330 25:300 26:298 27:313 28:263 29:321 30:226 31:328 32:187 33:331 34:150 35:97 36:108 37:116 38:99 39:138 40:97 41:160 42:102 43:180 44:110 45:224 46:107 47:244 48:99 49:265 50:96 51:287 52:99 53:305 54:112 55:200 56:136 57:199 58:156 59:198 60:175 61:198 62:194 63:179 64:218 65:188 66:222 67:198 68:224 69:209 70:222 71:219 72:219 73:116 74:141 75:131 76:126 77:152 78:126 79:167 80:145 81:150 82:150 83:129 84:150 85:235 86:146 87:249 88:126 89:270 90:125 91:285 92:142 93:272 94:152 95:251 96:153 97:158 98:288 99:166 100:260 101:187 102:248 103:199 104:252 105:212 106:248 107:231 108:260 109:240 110:288 111:233 112:321 113:214 114:335 115:200 116:337 117:186 118:335 119:166 120:322 121:166 122:289 123:187 124:270 125:199 126:270 127:212 128:271 129:230 130:289 131:213 132:308 133:199 134:310 135:187 136:308 
3.743743205539625e-10 5.466999008213468e-10 1:-7 2:128 3:-5 4:177 5:-3 6:228 7:3 8:277 9:22 10:319 11:58 12:352 13:102 14:379 15:151 16:398 17:194 18:399 19:226 20:390 21:243 22:362 23:261 24:328 25:275 26:294 27:286 28:260 29:298 30:226 31:302 32:191 33:298 34:158 35:81 36:108 37:108 38:92 39:139 40:88 41:172 42:93 43:200 44:106 45:244 46:109 47:258 48:100 49:271 50:93 51:284 52:89 53:294 54:95 55:219 56:140 57:225 58:171 59:231 60:202 61:237 62:234 63:188 64:251 65:207 66:255 67:223 68:260 69:237 70:256 71:248 72:248 73:112 74:139 75:133 76:131 77:153 78:131 79:168 80:145 81:151 82:148 83:131 84:146 85:237 86:147 87:254 88:134 89:270 90:131 91:280 92:141 93:271 94:147 95:254 96:148 97:134 98:288 99:168 100:283 101:200 102:280 103:216 104:284 105:230 106:279 107:245 108:280 109:251 110:289 111:241 112:309 113:227 114:322 115:212 116:325 117:194 118:323 119:164 120:312 121:142 122:290 123:198 124:296 125:215 126:297 127:228 128:294 129:247 130:293 131:228 132:299 133:215 134:302 135:197 136:301 
2.378531976127955e-10 4.218082355253064e-10 1:87 2:184 3:86 4:216 5:89 6:246 7:96 8:277 9:109 10:307 11:125 12:332 13:146 14:349 15:175 16:356 17:209 18:355 19:240 20:352 21:267 22:342 23:286 24:322 25:300 26:298 27:310 28:271 29:316 30:243 31:320 32:215 33:321 34:185 35:98 36:108 37:114 38:92 39:135 40:86 41:157 42:88 43:176 44:99 45:229 46:93 47:249 48:84 49:270 50:82 51:290 52:90 53:306 54:105 55:204 56:126 57:203 58:143 59:203 60:159 61:202 62:175 63:182 64:215 65:193 66:215 67:203 68:215 69:212 70:214 71:222 72:214 73:122 74:144 75:133 76:134 77:150 78:133 79:163 80:141 81:149 82:146 83:135 84:147 85:242 86:140 87:257 88:132 89:273 90:133 91:283 92:143 93:272 94:145 95:257 96:144 97:162 98:291 99:177 100:269 101:190 102:253 103:203 104:256 105:217 106:252 107:227 108:267 109:237 110:289 111:226 112:281 113:215 114:278 115:202 116:279 117:189 118:280 119:176 120:283 121:169 122:287 123:190 124:272 125:202 126:270 127:216 128:270 129:229 130:286 131:215 132:263 133:201 134:263 135:189 136:264 
1 0 1:78 2:135 3:82 4:167 5:89 6:201 7:100 8:233 9:118 10:265 11:139 12:295 13:160 14:322 15:187 16:347 17:215 18:354 19:243 20:346 21:266 22:324 23:283 24:293 25:295 26:260 27:307 28:224 29:316 30:188 31:322 32:151 33:323 34:116 35:92 36:113 37:106 38:98 39:129 40:96 41:151 42:103 43:174 44:112 45:221 46:112 47:246 48:104 49:270 50:97 51:292 52:102 53:306 54:118 55:198 56:138 57:198 58:159 59:197 60:181 61:197 62:202 63:176 64:222 65:187 66:225 67:200 68:228 69:211 70:224 71:223 72:221 73:118 74:138 75:132 76:134 77:148 78:135 79:161 80:144 81:146 82:147 83:130 84:146 85:237 86:145 87:250 88:135 89:267 90:134 91:281 92:138 93:268 94:146 95:252 96:147 97:168 98:274 99:178 100:265 101:192 102:262 103:207 104:264 105:221 106:259 107:238 108:263 109:257 110:269 111:244 112:293 113:228 114:303 115:214 116:305 117:198 118:305 119:182 120:295 121:175 122:275 123:194 124:273 125:208 126:273 127:222 128:271 129:249 130:269 131:226 132:285 133:211 134:287 135:197 136:285 
1 4.239989397326936e-10 1:86 2:142 3:86 4:175 5:88 6:207 7:90 8:241 9:101 10:273 11:122 12:296 13:146 14:313 15:171 16:323 17:199 18:328 19:230 20:325 21:262 22:316 23:294 24:303 25:320 26:282 27:338 28:251 29:347 30:216 31:351 32:179 33:352 34:142 35:95 36:108 37:108 38:92 39:132 40:88 41:154 42:92 43:176 44:99 45:213 46:94 47:238 48:82 49:267 50:77 51:294 52:82 53:315 54:101 55:195 56:140 57:193 58:160 59:190 60:178 61:188 62:197 63:163 64:222 65:177 66:226 67:191 68:229 69:206 70:226 71:222 72:225 73:116 74:139 75:132 76:133 77:151 78:133 79:165 80:147 81:149 82:151 83:130 84:149 85:234 86:147 87:252 88:135 89:271 90:133 91:285 92:140 93:271 94:150 95:253 96:151 97:151 98:259 99:168 100:254 101:185 102:251 103:195 104:254 105:206 106:252 107:226 108:255 109:253 110:259 111:226 112:267 113:207 114:271 115:196 116:273 117:185 118:271 119:169 120:267 121:158 122:258 123:185 124:259 125:195 126:261 127:206 128:259 129:245 130:258 131:207 132:261 133:196 134:262 135:186 136:261 
0 1.591451756664006e-10 1:100 2:164 3:95 4:195 5:95 6:229 7:100 8:262 9:111 10:298 11:124 12:331 13:139 14:359 15:158 16:387 17:187 18:398 19:228 20:396 21:277 22:379 23:323 24:356 25:365 26:325 27:390 28:287 29:402 30:241 31:407 32:194 33:409 34:149 35:91 36:110 37:99 38:90 39:117 40:80 41:138 42:80 43:158 44:88 45:208 46:87 47:239 48:78 49:274 50:77 51:306 52:87 53:332 54:109 55:180 56:141 57:172 58:165 59:162 60:188 61:154 62:211 63:147 64:243 65:157 66:246 67:169 68:248 69:184 70:245 71:201 72:244 73:115 74:147 75:126 76:133 77:144 78:133 79:159 80:151 81:142 82:154 83:124 84:154 85:236 86:149 87:250 88:130 89:273 90:130 91:293 92:143 93:275 94:152 95:252 96:153 97:140 98:300 99:143 100:288 101:155 102:280 103:165 104:285 105:177 106:282 107:203 108:291 109:236 110:305 111:205 112:319 113:180 114:323 115:168 116:323 117:157 118:321 119:145 120:314 121:146 122:299 123:157 124:298 125:167 126:300 127:178 128:301 129:225 130:304 131:178 132:303 133:167 134:303 135:157 136:301 
8.113652261303578e-10 0 1:61 2:141 3:65 4:174 5:71 6:210 7:77 8:243 9:91 10:274 11:117 12:297 13:144 14:317 15:176 16:332 17:202 18:335 19:226 20:327 21:249 22:306 23:267 24:283 25:283 26:256 27:294 28:227 29:302 30:197 31:308 32:167 33:309 34:138 35:90 36:114 37:106 38:97 39:131 40:93 41:155 42:97 43:181 44:107 45:230 46:109 47:250 48:98 49:272 50:96 51:291 52:100 53:305 54:114 55:203 56:139 57:204 58:161 59:206 60:183 61:208 62:205 63:182 64:222 65:194 66:226 67:205 68:228 69:215 70:225 71:225 72:220 73:116 74:139 75:132 76:130 77:151 78:132 79:165 80:146 81:149 82:149 83:130 84:148 85:237 86:146 87:252 88:132 89:269 90:131 91:280 92:139 93:270 94:148 95:253 96:149 97:161 98:268 99:177 100:256 101:194 102:249 103:205 104:251 105:216 106:248 107:231 108:253 109:242 110:262 111:231 112:277 113:218 114:283 115:206 116:284 117:195 118:285 119:179 120:281 121:169 122:266 123:193 124:262 125:204 126:262 127:215 128:261 129:236 130:261 131:217 132:263 133:206 134:263 135:195 136:263 
4.476931203178829e-10 4.746648163072262e-10 1:38 2:114 3:40 4:156 5:45 6:199 7:56 8:238 9:76 10:273 11:102 12:301 13:133 14:318 15:165 16:334 17:199 18:340 19:232 20:335 21:262 22:320 23:291 24:300 25:316 26:272 27:333 28:240 29:340 30:202 31:340 32:162 33:338 34:123 35:83 36:98 37:102 38:83 39:129 40:79 41:157 42:85 43:178 44:100 45:205 46:95 47:231 48:85 49:260 50:82 51:287 52:85 53:310 54:101 55:198 56:130 57:199 58:156 59:199 60:183 61:200 62:210 63:171 64:230 65:186 66:235 67:199 68:238 69:213 70:236 71:226 72:232 73:114 74:134 75:128 76:130 77:146 78:129 79:163 80:139 81:146 82:146 83:129 84:145 85:232 86:138 87:249 88:130 89:267 90:132 91:281 92:137 93:267 94:147 95:249 96:147 97:160 98:279 99:177 100:275 101:191 102:271 103:201 104:275 105:211 106:272 107:224 108:276 109:240 110:281 111:224 112:283 113:211 114:281 115:201 116:282 117:190 118:281 119:176 120:281 121:168 122:277 123:192 124:282 125:201 126:283 127:211 128:282 129:232 130:280 131:210 132:266 133:200 134:267 135:190 136:266 
1.757312265513438e-10 6.244042283609001e-11 1:107 2:145 3:108 4:180 5:114 6:214 7:123 8:252 9:134 10:285 11:151 12:317 13:169 14:344 15:191 16:362 17:223 18:365 19:261 20:360 21:299 22:345 23:332 24:323 25:358 26:290 27:372 28:250 29:379 30:207 31:379 32:165 33:375 34:120 35:104 36:105 37:111 38:93 39:128 40:92 41:147 42:96 43:166 44:106 45:205 46:105 47:233 48:92 49:264 50:84 51:296 52:87 53:320 54:104 55:188 56:138 57:185 58:167 59:182 60:196 61:179 62:225 63:169 64:239 65:179 66:247 67:192 68:251 69:206 70:246 71:220 72:241 73:128 74:142 75:139 76:136 77:154 78:138 79:171 80:146 81:153 82:150 83:138 84:150 85:231 86:146 87:246 88:135 89:265 90:134 91:286 92:139 93:269 94:148 95:249 96:150 97:160 98:285 99:169 100:276 101:181 102:273 103:196 104:278 105:209 106:274 107:228 108:278 109:247 110:284 111:231 112:298 113:214 114:303 115:199 116:305 117:184 118:303 119:171 120:295 121:164 122:285 123:183 124:286 125:197 126:288 127:211 128:288 129:237 130:285 131:210 132:286 133:196 134:287 135:182 136:285 
1.836884902160824e-10 4.564690979442535e-11 1:71 2:154 3:78 4:195 5:87 6:237 7:106 8:275 9:134 10:310 11:167 12:339 13:197 14:366 15:225 16:389 17:257 18:390 19:286 20:379 21:314 22:351 23:346 24:317 25:369 26:279 27:386 28:236 29:389 30:190 31:385 32:143 33:379 34:97 35:89 36:104 37:102 38:91 39:122 40:88 41:145 42:93 43:166 44:105 45:221 46:106 47:242 48:96 49:264 50:92 51:288 52:96 53:306 54:107 55:196 56:142 57:198 58:171 59:198 60:198 61:200 62:227 63:177 64:252 65:192 66:256 67:209 68:259 69:222 70:255 71:237 72:252 73:116 74:137 75:129 76:129 77:146 78:130 79:164 80:143 81:146 82:146 83:129 84:145 85:235 86:145 87:248 88:131 89:265 90:131 91:282 92:139 93:266 94:145 95:250 96:147 97:180 98:298 99:194 100:297 101:209 102:296 103:222 104:299 105:234 106:294 107:263 108:291 109:296 110:283 111:274 112:317 113:248 114:333 115:235 116:337 117:220 118:335 119:201 120:320 121:185 122:301 123:212 124:303 125:224 126:304 127:237 128:301 129:288 130:286 131:242 132:318 133:230 134:320 135:217 136:316 
0 8.774370679813449e-11 1:-12 2:131 3:-11 4:178 5:-10 6:227 8:274 9:23 10:312 11:61 12:344 13:107 14:367 15:153 16:383 17:196 18:383 19:224 20:374 21:239 22:351 23:254 24:321 25:269 26:291 27:282 28:258 29:294 30:221 31:298 32:186 33:292 34:153 35:77 36:103 37:108 38:89 39:140 40:87 41:171 42:95 43:195 44:109 45:254 46:106 47:268 48:98 49:279 50:91 51:289 52:85 53:300 54:88 55:225 56:146 57:232 58:172 59:239 60:198 61:248 62:224 63:197 64:242 65:213 66:247 67:227 68:251 69:242 70:249 71:252 72:241 73:109 74:141 75:133 76:130 77:156 78:130 79:170 80:147 81:153 82:151 83:130 84:150 85:239 86:146 87:258 88:130 89:276 90:128 91:282 92:142 93:276 94:150 95:260 96:150 97:154 98:294 99:183 100:282 101:213 102:274 103:222 104:278 105:233 106:274 107:244 108:281 109:246 110:295 111:238 112:312 113:226 114:321 115:215 116:323 117:203 118:322 119:178 120:313 121:163 122:293 123:210 124:293 125:220 126:293 127:230 128:293 129:240 130:294 131:228 132:296 133:219 134:297 135:208 136:297 
3.84065694894336e-10 2.377360941488042e-10 1:17 2:116 3:14 4:159 5:13 6:203 7:18 8:244 9:37 10:279 11:70 12:305 13:109 14:330 15:151 16:347 17:186 18:355 19:218 20:349 21:243 22:326 23:265 24:300 25:286 26:272 27:300 28:241 29:311 30:207 31:318 32:173 33:319 34:139 35:83 36:100 37:109 38:89 39:135 40:91 41:160 42:98 43:184 44:110 45:230 46:108 47:252 48:99 49:275 50:94 51:299 52:94 53:316 54:107 55:205 56:141 57:205 58:165 59:206 60:189 61:206 62:213 63:175 64:230 65:189 66:234 67:201 68:238 69:214 70:235 71:226 72:231 73:114 74:139 75:131 76:130 77:151 78:132 79:166 80:148 81:148 82:150 83:128 84:148 85:234 86:148 87:251 88:133 89:271 90:130 91:285 92:138 93:272 94:148 95:253 96:150 97:140 98:259 99:165 100:258 101:188 102:256 103:200 104:258 105:211 106:254 107:228 108:257 109:245 110:259 111:229 112:287 113:211 114:297 115:200 116:299 117:186 118:297 119:164 120:288 121:150 122:263 123:188 124:269 125:200 126:269 127:210 128:268 129:238 130:263 131:211 132:276 133:200 134:278 135:188 136:277 
2.818360361995576e-10 2.058696089510169e-10 1:87 2:147 3:89 4:179 5:91 6:211 7:96 8:244 9:108 10:277 11:129 12:304 13:149 14:337 15:172 16:368 17:204 18:381 19:239 20:378 21:272 22:360 23:301 24:338 25:329 26:313 27:344 28:279 29:346 30:240 31:345 32:200 33:346 34:163 35:95 36:118 37:106 38:97 39:126 40:90 41:150 42:91 43:173 44:98 45:223 46:97 47:248 48:86 49:274 50:85 51:298 52:94 53:317 54:113 55:196 56:129 57:194 58:150 59:192 60:170 61:189 62:190 63:168 64:211 65:180 66:213 67:193 68:217 69:207 70:214 71:221 72:212 73:121 74:141 75:134 76:133 77:150 78:134 79:162 80:142 81:149 82:144 83:134 84:144 85:237 86:143 87:253 88:134 89:269 90:134 91:283 92:142 93:269 94:144 95:253 96:144 97:143 98:246 99:158 100:236 101:181 102:234 103:198 104:237 105:218 106:235 107:251 108:239 109:281 110:247 111:255 112:285 113:224 114:296 115:204 116:296 117:185 118:292 119:162 120:276 121:151 122:250 123:182 124:249 125:198 126:250 127:218 128:249 129:275 130:251 131:223 132:277 133:203 134:277 135:185 136:273 
7.801735078247003e-10 8.623416267626701e-12 1:80 2:130 3:84 4:167 5:91 6:204 7:100 8:239 9:111 10:276 11:128 12:310 13:151 14:336 15:175 16:357 17:207 18:362 19:245 20:356 21:280 22:336 23:315 24:315 25:341 26:284 27:356 28:248 29:366 30:210 31:373 32:169 33:377 34:128 35:96 36:108 37:115 38:99 39:137 40:100 41:161 42:106 43:183 44:115 45:218 46:116 47:242 48:105 49:267 50:97 51:294 52:96 53:318 54:104 55:195 56:139 57:191 58:165 59:188 60:191 61:184 62:217 63:169 64:230 65:179 66:236 67:191 68:240 69:204 70:235 71:217 72:230 73:117 74:140 75:131 76:135 77:148 78:136 79:164 80:144 81:147 82:148 83:130 84:149 85:236 86:142 87:252 88:134 89:271 90:134 91:289 92:137 93:272 94:146 95:254 96:147 97:155 98:277 99:167 100:266 101:180 102:260 103:193 104:265 105:208 106:260 107:228 108:267 109:249 110:278 111:229 112:296 113:210 114:302 115:195 116:303 117:182 118:301 119:169 120:293 121:162 122:277 123:181 124:272 125:193 126:274 127:208 128:273 129:241 130:279 131:209 132:284 133:194 134:284 135:182 136:282 
-3.32119741987167e-11 1.845724004205314e-10 1:-21 2:136 3:-19 4:190 5:-12 6:241 7:5 8:288 9:38 10:325 11:80 12:356 13:122 14:384 15:167 16:405 17:214 18:409 19:259 20:397 21:294 22:368 23:326 24:336 25:358 26:298 27:382 28:260 29:391 30:215 31:385 32:164 33:375 34:114 35:43 36:104 37:67 38:91 39:95 40:85 41:125 42:85 43:153 44:96 45:211 46:92 47:231 48:71 49:260 50:62 51:289 52:63 53:315 54:75 55:190 56:139 57:193 58:172 59:196 60:205 61:200 62:238 63:157 64:258 65:177 66:264 67:199 68:269 69:218 70:262 71:235 72:254 73:77 74:151 75:100 76:140 77:122 78:138 79:144 80:151 81:123 82:157 83:99 84:157 85:227 86:143 87:246 88:127 89:271 90:123 91:290 92:130 93:272 94:141 95:249 96:144 97:119 98:298 99:154 100:294 101:184 102:289 103:203 104:291 105:221 106:287 107:252 108:288 109:285 110:289 111:257 112:329 113:229 114:346 115:210 116:349 117:190 118:348 119:157 120:334 121:130 122:301 123:185 124:303 125:205 126:303 127:223 128:301 129:273 130:295 131:225 132:319 133:208 134:322 135:188 136:321 
-4.473635902058029e-11 0 1:75 2:165 3:81 4:200 5:89 6:235 7:97 8:268 9:109 10:298 11:128 12:328 13:150 14:354 15:181 16:370 17:216 18:375 19:249 20:365 21:278 22:346 23:298 24:319 25:314 26:290 27:326 28:258 29:332 30:224 31:331 32:188 33:329 34:156 35:90 36:117 37:106 38:95 39:132 40:87 41:158 42:90 43:182 44:102 45:219 46:99 47:238 48:85 49:259 50:78 51:279 52:83 53:295 54:98 55:202 56:125 57:204 58:148 59:207 60:170 61:210 62:194 63:184 64:215 65:196 66:219 67:207 68:222 69:219 70:218 71:230 72:214 73:118 74:142 75:131 76:130 77:150 78:129 79:166 80:141 81:150 82:146 83:132 84:147 85:232 86:138 87:245 88:124 89:262 90:122 91:276 92:134 93:264 94:141 95:247 96:142 97:163 98:277 99:180 100:254 101:197 102:244 103:206 104:247 105:217 106:244 107:235 108:254 109:253 110:278 111:234 112:294 113:216 114:299 115:204 116:300 117:194 118:298 119:179 120:293 121:170 122:273 123:197 124:261 125:206 126:261 127:217 128:262 129:246 130:275 131:216 132:282 133:205 134:283 135:195 136:281 
-1 0 1:105 2:158 3:100 4:190 5:101 6:221 7:110 8:255 9:119 10:287 11:135 12:319 13:152 14:348 15:168 16:377 17:202 18:394 19:247 20:397 21:298 22:385 23:342 24:362 25:378 26:331 27:405 28:291 29:420 30:244 31:423 32:192 33:422 34:143 35:106 36:107 37:116 38:96 39:132 40:94 41:150 42:97 43:167 44:108 45:206 46:99 47:232 48:80 49:266 50:76 51:301 52:83 53:332 54:97 55:186 56:133 57:181 58:159 59:175 60:187 61:168 62:216 63:156 64:234 65:166 66:243 67:178 68:248 69:195 70:245 71:211 72:242 73:123 74:141 75:131 76:131 77:148 78:132 79:165 80:143 81:148 82:148 83:131 84:148 85:235 86:143 87:252 88:129 89:275 90:130 91:297 92:138 93:276 94:147 95:255 96:148 97:148 98:282 99:157 100:276 101:169 102:272 103:181 104:278 105:196 106:273 107:225 108:284 109:259 110:298 111:226 112:311 113:201 114:313 115:184 116:311 117:170 118:307 119:160 120:295 121:153 122:284 123:170 124:289 125:182 126:294 127:198 128:294 129:250 130:298 131:198 132:287 133:182 134:286 135:170 136:281 
-0 5.070467905955155e-10 1:80 2:129 3:81 4:165 5:87 6:201 7:97 8:236 9:112 10:267 11:135 12:298 13:158 14:324 15:182 16:350 17:212 18:357 19:243 20:352 21:276 22:334 23:309 24:310 25:341 26:282 27:365 28:249 29:378 30:211 31:383 32:171 33:383 34:128 35:97 36:98 37:114 38:88 39:133 40:88 41:154 42:94 43:173 44:105 45:221 46:101 47:241 48:84 49:266 50:79 51:293 52:81 53:319 54:91 55:194 56:142 57:192 58:170 59:190 60:198 61:188 62:227 63:167 64:235 65:179 66:241 67:192 68:247 69:206 70:241 71:219 72:236 73:120 74:138 75:133 76:130 77:153 78:132 79:167 80:147 81:150 82:150 83:131 84:148 85:235 86:147 87:253 88:131 89:273 90:130 91:292 92:136 93:276 94:146 95:255 96:149 97:147 98:262 99:163 100:260 101:181 102:260 103:193 104:262 105:209 106:259 107:233 108:260 109:259 110:264 111:235 112:289 113:212 114:301 115:195 116:304 117:181 118:300 119:165 120:287 121:153 122:266 123:181 124:269 125:194 126:271 127:210 128:269 129:251 130:267 131:210 132:282 133:195 134:285 135:182 136:283 
-0.9999999996843072 0 1:68 2:144 3:72 4:178 5:77 6:211 7:86 8:244 9:99 10:273 11:120 12:299 13:144 14:320 15:174 16:338 17:203 18:344 19:230 20:337 21:258 22:317 23:278 24:292 25:294 26:265 27:304 28:235 29:312 30:204 31:316 32:173 33:318 34:143 35:94 36:113 37:110 38:98 39:134 40:94 41:159 42:97 43:182 44:107 45:221 46:107 47:244 48:98 49:267 50:93 51:290 52:97 53:304 54:113 55:203 56:138 57:203 58:160 59:204 60:181 61:205 62:203 63:180 64:223 65:192 66:225 67:204 68:228 69:215 70:225 71:226 72:221 73:117 74:140 75:132 76:130 77:151 78:132 79:165 80:146 81:149 82:149 83:130 84:148 85:237 86:146 87:251 88:131 89:269 90:130 91:282 92:141 93:270 94:147 95:253 96:148 97:156 98:268 99:172 100:253 101:190 102:244 103:202 104:248 105:215 106:243 107:231 108:252 109:245 110:265 111:231 112:281 113:216 114:290 115:203 116:292 117:189 118:291 119:173 120:283 121:163 122:268 123:189 124:262 125:202 126:263 127:214 128:261 129:238 130:265 131:216 132:268 133:203 134:270 135:190 136:268 
-0 2.492443399458841e-10 1:67 2:128 3:72 4:165 5:80 6:200 7:91 8:234 9:106 10:263 11:126 12:290 13:152 14:309 15:185 16:323 17:215 18:327 19:242 20:322 21:269 22:307 23:293 24:283 25:311 26:253 27:323 28:218 29:332 30:182 31:341 32:143 33:344 34:104 35:88 36:90 37:107 38:82 39:128 40:84 41:147 42:93 43:164 44:104 45:214 46:103 47:238 48:91 49:265 50:87 51:289 52:89 53:311 54:101 55:196 56:142 57:196 58:169 59:196 60:197 61:196 62:223 63:178 64:238 65:189 66:242 67:200 68:245 69:211 70:241 71:222 72:237 73:114 74:137 75:131 76:127 77:150 78:130 79:164 80:147 81:148 82:150 83:128 84:149 85:235 86:149 87:251 88:131 89:272 90:129 91:288 92:141 93:275 94:152 95:254 96:153 97:173 98:273 99:186 100:269 101:199 102:265 103:207 104:268 105:216 106:265 107:230 108:269 109:248 110:272 111:234 112:280 113:222 114:284 115:212 116:285 117:202 118:284 119:189 120:280 121:178 122:272 123:200 124:278 125:208 126:279 127:218 128:278 129:239 130:271 131:219 132:266 133:210 134:266 135:201 136:265 
-4.863185931143552e-11 8.185083425370001e-11 1:70 2:118 3:69 4:158 5:74 6:201 7:79 8:243 9:82 10:286 11:92 12:325 13:110 14:359 15:139 16:382 17:177 18:387 19:215 20:380 21:248 22:356 23:275 24:326 25:299 26:290 27:315 28:253 29:325 30:211 31:330 32:169 33:333 34:130 35:96 36:108 37:116 38:99 39:137 40:101 41:160 42:108 43:181 44:118 45:228 46:120 47:246 48:109 49:265 50:101 51:284 52:90 53:303 54:95 55:204 56:146 57:204 58:176 59:205 60:207 61:204 62:237 63:168 64:248 65:184 66:253 67:200 68:257 69:215 70:253 71:229 72:248 73:117 74:138 75:131 76:130 77:149 78:132 79:165 80:145 81:147 82:146 83:129 84:145 85:236 86:143 87:251 88:131 89:268 90:129 91:280 92:135 93:269 94:143 95:253 96:144 97:129 98:286 99:153 100:283 101:178 102:281 103:196 104:285 105:212 106:280 107:229 108:279 109:243 110:284 111:225 112:307 113:205 114:317 115:188 116:319 117:169 118:319 119:146 120:310 121:138 122:288 123:177 124:293 125:195 126:295 127:210 128:292 129:238 130:285 131:207 132:298 133:190 134:302 135:172 136:301 
-6.4100866170039e-10 7.060863275359726e-10 1:39 2:154 3:44 4:190 5:49 6:225 7:58 8:261 9:73 10:294 11:100 12:317 13:133 14:333 15:171 16:344 17:206 18:345 19:237 20:339 21:263 22:321 23:284 24:297 25:297 26:269 27:303 28:235 29:309 30:205 31:310 32:174 33:307 34:144 35:89 36:109 37:109 38:95 39:134 40:89 41:161 42:92 43:185 44:100 45:227 46:101 47:246 48:92 49:267 50:90 51:286 52:94 53:299 54:108 55:209 56:134 57:211 58:155 59:214 60:176 61:216 62:197 63:187 64:218 65:200 66:221 67:213 68:223 69:223 70:222 71:233 72:219 73:118 74:140 75:134 76:133 77:150 78:133 79:163 80:142 81:150 82:145 83:133 84:145 85:240 86:143 87:255 88:133 89:269 90:133 91:280 92:140 93:270 94:145 95:256 96:145 97:160 98:267 99:183 100:252 101:202 102:243 103:212 104:246 105:223 106:243 107:235 108:251 109:247 110:265 111:234 112:275 113:223 114:280 115:211 116:281 117:200 118:281 119:182 120:278 121:168 122:266 123:201 124:259 125:211 126:260 127:223 128:259 129:240 130:264 131:222 132:260 133:211 134:261 135:201 136:261 
-1.41005036879414e-10 0 1:78 2:147 3:83 4:179 5:96 6:210 7:116 8:240 9:138 10:264 11:163 12:287 13:182 14:307 15:204 16:323 17:230 18:328 19:255 20:322 21:281 22:307 23:304 24:285 25:324 26:259 27:338 28:230 29:345 30:197 31:347 32:158 33:342 34:121 35:90 36:94 37:107 38:87 39:126 40:92 41:145 42:100 43:162 44:111 45:203 46:112 47:223 48:101 49:244 50:92 51:269 52:88 53:293 54:92 55:184 56:143 57:185 58:170 59:186 60:197 61:187 62:224 63:169 64:238 65:181 66:244 67:195 68:247 69:207 70:241 71:220 72:236 73:111 74:134 75:124 76:131 77:142 78:133 79:157 80:146 81:140 82:148 83:122 84:146 85:225 86:147 87:238 88:134 89:257 90:131 91:276 92:135 93:261 94:148 95:242 96:151 97:172 98:273 99:179 100:273 101:189 102:270 103:199 104:273 105:209 106:270 107:227 108:273 109:248 110:272 111:231 112:280 113:217 114:284 115:207 116:286 117:196 118:285 119:184 120:280 121:177 122:276 123:191 124:281 125:201 126:283 127:211 128:282 129:240 130:273 131:212 132:270 133:203 134:271 135:193 136:270 
-0 2.494574789481717e-11 1:81 2:136 3:82 4:170 5:88 6:203 7:95 8:235 9:107 10:267 11:125 12:296 13:145 14:322 15:167 16:348 17:197 18:356 19:229 20:352 21:262 22:336 23:292 24:312 25:317 26:281 27:334 28:247 29:346 30:210 31:353 32:172 33:359 34:131 35:95 36:112 37:111 38:101 39:131 40:101 41:153 42:106 43:173 44:115 45:217 46:112 47:241 48:104 49:265 50:99 51:288 52:101 53:311 54:110 55:194 56:134 57:192 58:155 59:190 60:178 61:187 62:200 63:167 64:214 65:179 66:219 67:192 68:223 69:207 70:219 71:222 72:215 73:119 74:139 75:133 76:133 77:149 78:133 79:164 80:142 81:147 82:144 83:132 84:144 85:237 86:143 87:252 88:135 89:268 90:134 91:284 92:140 93:269 94:145 95:253 96:145 97:133 98:247 99:152 100:237 101:176 102:235 103:197 104:237 105:218 106:235 107:249 108:236 109:277 110:248 111:253 112:288 113:222 114:306 115:199 116:309 117:177 118:305 119:152 120:287 121:140 122:250 123:176 124:247 125:197 126:249 127:219 128:247 129:270 130:250 131:221 132:286 133:198 134:289 135:177 136:285 
-1 1.646995570611253e-10 1:86 2:142 3:86 4:175 5:88 6:207 7:90 8:241 9:101 10:273 11:122 12:296 13:146 14:313 15:171 16:323 17:199 18:328 19:230 20:325 21:262 22:316 23:294 24:303 25:320 26:282 27:338 28:251 29:347 30:216 31:351 32:179 33:352 34:142 35:95 36:108 37:108 38:92 39:132 40:88 41:154 42:92 43:176 44:99 45:213 46:94 47:238 48:82 49:267 50:77 51:294 52:82 53:315 54:101 55:195 56:140 57:193 58:160 59:190 60:178 61:188 62:197 63:163 64:222 65:177 66:226 67:191 68:229 69:206 70:226 71:222 72:225 73:116 74:139 75:132 76:133 77:151 78:133 79:165 80:147 81:149 82:151 83:130 84:149 85:234 86:147 87:252 88:135 89:271 90:133 91:285 92:140 93:271 94:150 95:253 96:151 97:151 98:259 99:168 100:254 101:185 102:251 103:195 104:254 105:206 106:252 107:226 108:255 109:253 110:259 111:226 112:267 113:207 114:271 115:196 116:273 117:185 118:271 119:169 120:267 121:158 122:258 123:185 124:259 125:195 126:261 127:206 128:259 129:245 130:258 131:207 132:261 133:196 134:262 135:186 136:261 
-1.10222730728472e-10 0 1:69 2:182 3:66 4:217 5:64 6:252 7:71 8:290 9:85 10:326 11:105 12:359 13:130 14:384 15:161 16:398 17:203 18:402 19:246 20:400 21:282 22:388 23:313 24:365 25:338 26:333 27:356 28:298 29:367 30:259 31:369 32:220 33:368 34:180 35:87 36:101 37:107 38:84 39:133 40:82 41:158 42:90 43:181 44:103 45:222 46:103 47:245 48:89 49:272 50:84 51:297 52:89 53:319 54:106 55:199 56:136 57:198 58:157 59:197 60:176 61:195 62:196 63:178 64:232 65:189 66:235 67:200 68:238 69:211 70:235 71:224 72:232 73:117 74:142 75:129 76:129 77:151 78:130 79:167 80:145 81:149 82:152 83:129 84:151 85:236 86:148 87:252 88:131 89:274 90:131 91:288 92:143 93:275 94:153 95:255 96:154 97:158 98:303 99:172 100:278 101:190 102:267 103:201 104:270 105:214 106:268 107:233 108:281 109:250 110:306 111:233 112:307 113:214 114:310 115:200 116:310 117:188 118:309 119:172 120:306 121:168 122:300 123:190 124:286 125:201 126:285 127:214 128:286 129:240 130:303 131:213 132:296 133:200 134:297 135:189 136:295 
-0 3.65528717675809e-10 1:34 2:135 3:36 4:176 5:42 6:215 7:54 8:254 9:71 10:286 11:99 12:314 13:128 14:334 15:162 16:349 17:191 18:352 19:220 20:344 21:244 22:319 23:265 24:295 25:285 26:269 27:296 28:240 29:302 30:209 31:306 32:179 33:306 34:149 35:86 36:105 37:106 38:92 39:131 40:88 41:157 42:89 43:180 44:98 45:232 46:99 47:249 48:92 49:268 50:88 51:287 52:91 53:298 54:108 55:204 56:138 57:205 58:165 59:206 60:193 61:208 62:220 63:171 64:228 65:187 66:232 67:203 68:237 69:217 70:233 71:230 72:227 73:116 74:139 75:133 76:133 77:149 78:133 79:163 80:144 81:149 82:144 83:132 84:143 85:237 86:145 87:251 88:135 89:267 90:132 91:280 92:139 93:268 94:143 95:253 96:144 97:129 98:257 99:156 100:251 101:183 102:250 103:199 104:252 105:212 106:248 107:230 108:249 109:247 110:253 111:228 112:285 113:210 114:298 115:194 116:301 117:177 118:301 119:152 120:290 121:132 122:258 123:183 124:258 125:199 126:260 127:212 128:257 129:242 130:256 131:209 132:280 133:195 134:285 135:179 136:285 
-6.014781137546835e-10 0 1:33 2:142 3:38 4:182 5:44 6:222 7:55 8:258 9:75 10:287 11:103 12:312 13:132 14:334 15:166 16:351 17:197 18:354 19:226 20:346 21:249 22:324 23:265 24:299 25:281 26:271 27:291 28:240 29:299 30:210 31:305 32:179 33:308 34:147 35:79 36:107 37:101 38:92 39:130 40:87 41:160 42:90 43:189 44:100 45:232 46:100 47:254 48:91 49:275 50:90 51:293 52:94 53:305 54:108 55:208 56:137 57:210 58:162 59:213 60:186 61:215 62:210 63:183 64:227 65:197 66:231 67:209 68:235 69:221 70:232 71:231 72:228 73:113 74:141 75:132 76:131 77:152 78:132 79:167 80:146 81:150 82:149 83:129 84:148 85:236 86:145 87:251 88:131 89:270 90:131 91:282 92:141 93:270 94:148 95:252 96:148 97:159 98:279 99:177 100:266 101:196 102:258 103:207 104:261 105:218 106:257 107:231 108:265 109:239 110:279 111:229 112:295 113:216 114:301 115:205 116:303 117:193 118:301 119:176 120:294 121:167 122:277 123:195 124:273 125:206 126:274 127:216 128:273 129:232 130:278 131:217 132:275 133:206 134:277 135:195 136:276 
-1 2.620514366351903e-10 1:74 2:145 3:70 4:180 5:73 6:215 7:78 8:247 9:92 10:278 11:114 12:303 13:140 14:326 15:171 16:343 17:204 18:346 19:235 20:340 21:267 22:323 23:298 24:305 25:326 26:282 27:345 28:252 29:356 30:216 31:361 32:179 33:363 34:143 35:89 36:105 37:113 38:92 39:141 40:90 41:169 42:95 43:194 44:104 45:224 46:110 47:247 48:100 49:274 50:97 51:300 52:99 53:323 54:112 55:204 56:132 57:203 58:153 59:202 60:174 61:201 62:196 63:175 64:221 65:187 66:224 67:199 68:228 69:212 70:225 71:226 72:222 73:116 74:133 75:132 76:125 77:152 78:126 79:168 80:140 81:151 82:143 83:130 84:143 85:238 86:143 87:257 88:132 89:277 90:134 91:292 92:142 93:276 94:150 95:256 96:149 97:156 98:268 99:174 100:263 101:188 102:258 103:198 104:262 105:210 106:260 107:227 108:267 109:247 110:276 111:224 112:279 113:206 114:280 115:195 116:279 117:184 118:276 119:170 120:273 121:165 122:269 123:186 124:273 125:197 126:275 127:208 128:275 129:239 130:275 131:207 132:261 133:196 134:260 135:186 136:258 
-0 1.969481950521742e-10 1:1 2:106 4:156 5:4 6:209 7:14 8:260 9:32 10:309 11:63 12:354 13:100 14:387 15:144 16:406 17:189 18:409 19:228 20:404 21:259 22:380 23:285 24:345 25:310 26:305 27:328 28:263 29:339 30:216 31:345 32:170 33:345 34:126 35:83 36:82 37:110 38:70 39:140 40:73 41:169 42:85 43:193 44:100 45:234 46:91 47:253 48:77 49:272 50:68 51:293 52:63 53:312 54:69 55:214 56:140 57:216 58:172 59:220 60:202 61:223 62:232 63:188 64:260 65:203 66:264 67:217 68:267 69:229 70:263 71:241 72:258 73:115 74:138 75:134 76:132 77:156 78:132 79:170 80:147 81:154 82:153 83:132 84:151 85:243 86:141 87:258 88:128 89:275 90:125 91:287 92:132 93:278 94:144 95:260 96:146 97:154 98:317 99:176 100:304 101:199 102:299 103:212 104:306 105:226 106:300 107:240 108:307 109:248 110:319 111:235 112:339 113:219 114:351 115:204 116:354 117:188 118:353 119:169 120:340 121:163 122:317 123:197 124:316 125:211 126:319 127:224 128:317 129:241 130:319 131:221 132:328 133:206 134:332 135:193 136:329 
-0 1.733665340830258e-10 1:89 2:143 3:87 4:179 5:93 6:216 7:99 8:251 9:108 10:287 11:118 12:319 13:134 14:346 15:158 16:365 17:194 18:370 19:229 20:367 21:261 22:349 23:288 24:326 25:311 26:298 27:328 28:265 29:338 30:226 31:345 32:186 33:347 34:147 35:93 36:109 37:111 38:99 39:132 40:101 41:153 42:108 43:173 44:115 45:216 46:115 47:241 48:104 49:264 50:97 51:288 52:97 53:307 54:108 55:197 56:144 57:196 58:173 59:195 60:203 61:193 62:233 63:169 64:250 65:181 66:256 67:193 68:260 69:207 70:258 71:220 72:255 73:118 74:140 75:132 76:130 77:152 78:130 79:165 80:145 81:149 82:148 83:130 84:149 85:235 86:145 87:251 88:130 89:269 90:129 91:283 92:141 93:270 94:148 95:252 96:149 97:143 98:295 99:162 100:294 101:178 102:293 103:191 104:298 105:205 106:294 107:221 108:298 109:241 110:302 111:218 112:297 113:201 114:294 115:187 116:294 117:174 118:291 119:159 120:290 121:152 122:294 123:177 124:306 125:191 126:310 127:206 128:309 129:233 130:301 131:202 132:278 133:189 134:277 135:176 136:275 
-4.920176058864067e-10 3.272376111897684e-11 1:-4 2:121 3:-4 4:170 6:221 7:14 8:267 9:41 10:306 11:78 12:337 13:118 14:364 15:159 16:384 17:197 18:385 19:226 20:375 21:246 22:347 23:266 24:313 25:284 26:279 27:299 28:244 29:309 30:208 31:310 32:174 33:309 34:142 35:80 36:100 37:106 38:85 39:136 40:81 41:166 42:87 43:194 44:100 45:243 46:103 47:262 48:93 49:280 50:87 51:298 52:84 53:307 54:96 55:217 56:142 57:221 58:173 59:225 60:203 61:230 62:232 63:189 64:249 65:205 66:254 67:220 68:259 69:232 70:256 71:242 72:249 73:113 74:139 75:132 76:129 77:153 78:130 79:170 80:146 81:151 82:151 83:129 84:150 85:235 86:146 87:251 88:129 89:271 90:129 91:284 92:140 93:272 94:150 95:252 96:151 97:142 98:290 99:173 100:287 101:201 102:284 103:214 104:287 105:225 106:282 107:238 108:284 109:245 110:287 111:235 112:305 113:225 114:316 115:212 116:320 117:197 118:320 119:171 120:311 121:150 122:291 123:200 124:296 125:213 126:298 127:225 128:295 129:238 130:290 131:225 132:295 133:213 134:299 135:199 136:299 
-7.94944101400706e-11 0 1:75 2:129 3:72 4:162 5:75 6:194 7:82 8:226 9:95 10:258 11:114 12:287 13:138 14:312 15:166 16:335 17:195 18:342 19:226 20:337 21:254 22:317 23:281 24:292 25:305 26:262 27:319 28:227 29:326 30:193 31:332 32:159 33:332 34:126 35:100 36:105 37:119 38:96 39:140 40:94 41:162 42:94 43:180 44:105 45:222 46:109 47:243 48:99 49:265 50:94 51:289 52:93 53:309 54:104 55:203 56:139 57:203 58:165 59:203 60:191 61:202 62:217 63:181 64:232 65:191 66:236 67:200 68:239 69:210 70:236 71:220 72:232 73:117 74:140 75:131 76:130 77:149 78:132 79:165 80:146 81:147 82:150 83:128 84:149 85:236 86:147 87:250 88:131 89:270 90:130 91:285 92:139 93:273 94:149 95:252 96:151 97:160 98:268 99:175 100:263 101:188 102:258 103:198 104:261 105:208 106:258 107:221 108:262 109:237 110:267 111:222 112:280 113:210 114:286 115:199 116:288 117:188 118:286 119:175 120:280 121:164 122:268 123:188 124:270 125:198 126:271 127:208 128:270 129:232 130:267 131:209 132:269 133:199 134:271 135:188 136:269 
-1.283109440648119e-10 0 1:99 2:138 3:96 4:172 5:100 6:208 7:111 8:245 9:123 10:279 11:138 12:316 13:157 14:348 15:178 16:375 17:204 18:385 19:238 20:383 21:280 22:366 23:321 24:342 25:356 26:312 27:380 28:272 29:395 30:228 31:402 32:179 33:405 34:132 35:100 36:84 37:113 38:78 39:127 40:83 41:142 42:89 43:155 44:99 45:206 46:91 47:232 48:80 49:261 50:75 51:290 52:81 53:319 54:92 55:185 56:141 57:181 58:167 59:177 60:194 61:172 62:220 63:167 64:242 65:175 66:246 67:184 68:249 69:195 70:246 71:208 72:244 73:120 74:139 75:131 76:129 77:149 78:131 79:165 80:146 81:148 82:150 83:130 84:148 85:233 86:146 87:249 88:131 89:270 90:131 91:290 92:140 93:274 94:150 95:252 96:150 97:159 98:295 99:164 100:280 101:175 102:273 103:187 104:280 105:201 106:276 107:227 108:289 109:251 110:304 111:228 112:320 113:204 114:325 115:190 116:325 117:176 118:321 119:165 120:310 121:166 122:296 123:177 124:292 125:189 126:295 127:203 128:295 129:240 130:302 131:201 132:297 133:188 134:297 135:176 136:293 
-1.365365242391678e-10 0 1:122 2:151 3:115 4:182 5:115 6:215 7:124 8:251 9:132 10:290 11:142 12:331 13:152 14:366 15:167 16:394 17:195 18:405 19:239 20:407 21:290 22:399 23:337 24:382 25:377 26:353 27:405 28:315 29:416 30:266 31:421 32:215 33:421 34:164 35:110 36:92 37:113 38:81 39:121 40:77 41:134 42:81 43:145 44:91 45:204 46:90 47:235 48:76 49:271 50:73 51:306 52:85 53:336 54:103 55:168 56:140 57:157 58:169 59:143 60:195 61:131 62:222 63:125 64:249 65:135 66:257 67:152 68:259 69:171 70:255 71:194 72:249 73:121 74:138 75:130 76:127 77:148 78:128 79:163 80:144 81:146 82:145 83:129 84:145 85:226 86:146 87:248 88:127 89:272 90:127 91:297 92:139 93:273 94:148 95:248 96:148 97:144 98:309 99:139 100:295 101:147 102:286 103:158 104:290 105:172 106:285 107:205 108:291 109:245 110:303 111:213 112:324 113:185 114:336 115:170 116:338 117:158 118:336 119:149 120:325 121:152 122:309 123:151 124:305 125:161 126:306 127:175 128:304 129:233 130:303 131:180 132:309 133:166 134:311 135:155 136:309 
-8.382601760982243e-10 7.455090353045663e-10 1:88 2:129 3:88 4:165 5:93 6:199 7:100 8:231 9:110 10:262 11:127 12:290 13:149 14:313 15:174 16:334 17:201 18:342 19:232 20:340 21:265 22:324 23:296 24:303 25:323 26:276 27:340 28:244 29:348 30:207 31:353 32:170 33:354 34:134 35:99 36:123 37:114 38:107 39:136 40:103 41:160 42:109 43:182 44:118 45:220 46:119 47:243 48:109 49:267 50:103 51:292 52:105 53:313 54:117 55:200 56:139 57:200 58:163 59:199 60:187 61:198 62:211 63:176 64:224 65:186 66:229 67:198 68:233 69:211 70:229 71:225 72:225 73:122 74:140 75:135 76:132 77:151 78:133 79:167 80:146 81:150 82:146 83:134 84:146 85:239 86:146 87:252 88:133 89:270 90:133 91:286 92:139 93:271 94:145 95:254 96:147 97:156 98:260 99:171 100:254 101:187 102:250 103:199 104:254 105:211 106:251 107:232 108:256 109:255 110:263 111:233 112:280 113:211 114:287 115:198 116:289 117:185 118:286 119:171 120:275 121:163 122:262 123:187 124:266 125:199 126:268 127:212 128:268 129:247 130:265 131:211 132:267 133:199 134:268 135:186 136:265 
-4.623738521603321e-10 9.379116273785262e-11 1:79 2:142 3:78 4:176 5:80 6:210 7:84 8:243 9:95 10:276 11:116 12:305 13:140 14:329 15:169 16:351 17:201 18:357 19:235 20:355 21:270 22:338 23:300 24:316 25:324 26:289 27:339 28:255 29:347 30:219 31:352 32:180 33:354 34:141 35:95 36:113 37:108 38:97 39:131 40:93 41:155 42:99 43:178 44:109 45:207 46:111 47:236 48:99 49:266 50:94 51:297 52:98 53:320 54:116 55:192 56:139 57:190 58:163 59:188 60:186 61:186 62:210 63:170 64:231 65:180 66:233 67:191 68:235 69:203 70:232 71:216 72:230 73:118 74:140 75:132 76:131 77:149 78:131 79:164 80:145 81:148 82:147 83:131 84:147 85:236 86:144 87:250 88:132 89:268 90:131 91:285 92:139 93:270 94:146 95:252 96:147 97:158 98:279 99:167 100:264 101:180 102:255 103:193 104:260 105:207 106:255 107:227 108:264 109:244 110:279 111:227 112:293 113:209 114:299 115:194 116:300 117:180 118:299 119:168 120:292 121:164 122:277 123:180 124:273 125:194 126:273 127:208 128:272 129:237 130:278 131:208 132:278 133:194 134:279 135:180 136:278 
-1 1.189138230617539e-10 1:91 2:121 3:85 4:154 5:86 6:188 7:94 8:220 9:108 10:255 11:122 12:294 13:138 14:330 15:161 16:363 17:196 18:375 19:234 20:372 21:272 22:351 23:304 24:323 25:334 26:285 27:358 28:246 29:371 30:204 31:376 32:159 33:378 34:114 35:101 36:103 37:118 38:89 39:143 40:90 41:167 42:99 43:187 44:113 45:198 46:109 47:227 48:97 49:257 50:89 51:288 52:91 53:312 54:105 55:193 56:144 57:191 58:169 59:188 60:194 61:185 62:220 63:162 64:238 65:175 66:247 67:190 68:254 69:208 70:248 71:224 72:240 73:116 74:139 75:130 76:128 77:151 78:132 79:169 80:150 81:148 82:153 83:127 84:152 85:232 86:151 87:248 88:131 89:270 90:130 91:289 92:140 93:273 94:152 95:251 96:154 97:157 98:301 99:166 100:286 101:178 102:277 103:189 104:282 105:201 106:278 107:222 108:290 109:244 110:305 111:221 112:324 113:202 114:330 115:188 116:329 117:176 118:327 119:165 120:318 121:165 122:302 123:179 124:299 125:190 126:300 127:201 128:301 129:235 130:305 131:201 132:309 133:188 134:309 135:177 136:306 
-0 6.179078003529569e-10 1:-6 2:142 3:-6 4:187 5:-3 6:234 7:8 8:277 9:33 10:311 11:72 12:336 13:114 14:358 15:158 16:376 17:198 18:380 19:228 20:368 21:244 22:335 23:262 24:307 25:281 26:278 27:296 28:246 29:305 30:215 31:307 32:183 33:303 34:151 35:83 36:96 37:107 38:84 39:135 40:78 41:163 42:82 43:190 44:95 45:241 46:98 47:257 48:90 49:275 50:87 51:291 52:87 53:301 54:96 55:220 56:141 57:225 58:167 59:230 60:193 61:236 62:220 63:193 64:240 65:209 66:245 67:224 68:250 69:236 70:245 71:247 72:237 73:111 74:139 75:132 76:129 77:153 78:131 79:171 80:146 81:150 82:150 83:129 84:148 85:238 86:148 87:254 88:132 89:273 90:131 91:285 92:141 93:274 94:150 95:255 96:151 97:137 98:279 99:174 100:276 101:207 102:273 103:220 104:275 105:230 106:271 107:244 108:271 109:253 110:275 111:240 112:295 113:228 114:307 115:217 116:311 117:201 118:310 119:172 120:302 121:147 122:281 123:205 124:288 125:218 126:288 127:228 128:286 129:245 130:279 131:229 132:288 133:218 134:290 135:205 136:291 
-1.083959491092822e-09 2.211086225624387e-10 1:93 2:136 3:91 4:166 5:92 6:199 7:101 8:232 9:116 10:262 11:134 12:289 13:151 14:313 15:175 16:334 17:200 18:341 19:229 20:338 21:259 22:321 23:284 24:300 25:307 26:277 27:323 28:245 29:331 30:208 31:335 32:173 33:335 34:138 35:99 36:101 37:117 38:100 39:133 40:105 41:151 42:111 43:168 44:121 45:221 46:118 47:242 48:105 49:265 50:95 51:290 52:94 53:311 54:102 55:194 56:145 57:193 58:169 59:191 60:193 61:189 62:218 63:172 64:229 65:182 66:233 67:192 68:236 69:203 70:233 71:216 72:230 73:120 74:139 75:134 76:132 77:151 78:133 79:163 80:145 81:148 82:146 83:132 84:146 85:236 86:145 87:251 88:133 89:269 90:132 91:286 92:140 93:271 94:147 95:253 96:148 97:157 98:271 99:168 100:264 101:182 102:259 103:194 104:263 105:206 106:260 107:224 108:265 109:242 110:272 111:225 112:286 113:209 114:292 115:196 116:292 117:183 118:290 119:169 120:282 121:163 122:271 123:183 124:269 125:195 126:271 127:207 128:269 129:234 130:272 131:207 132:270 133:195 134:271 135:183 136:268 
-0.9999999998980001 0 1:108 2:149 3:103 4:177 5:103 6:208 7:110 8:240 9:120 10:272 11:136 12:301 13:152 14:330 15:167 16:356 17:194 18:369 19:232 20:371 21:277 22:359 23:322 24:341 25:365 26:314 27:393 28:276 29:403 30:230 31:406 32:183 33:410 34:138 35:104 36:96 37:118 38:91 39:133 40:95 41:148 42:101 43:163 44:109 45:206 46:108 47:235 48:94 49:265 50:86 51:297 52:90 53:323 54:107 55:182 56:139 57:175 58:161 59:168 60:184 61:161 62:207 63:153 64:225 65:163 66:232 67:175 68:235 69:189 70:231 71:205 72:227 73:120 74:139 75:133 76:131 77:150 78:132 79:164 80:143 81:148 82:146 83:132 84:145 85:234 86:144 87:251 88:133 89:272 90:132 91:289 92:140 93:273 94:147 95:253 96:148 97:143 98:263 99:151 100:251 101:166 102:247 103:180 104:250 105:199 106:247 107:234 108:253 109:270 110:261 111:239 112:292 113:206 114:305 115:186 116:307 117:169 118:304 119:154 120:289 121:150 122:266 123:167 124:264 125:181 126:265 127:200 128:264 129:262 130:264 131:203 132:282 133:184 134:283 135:168 136:281 
-4.365568929083848e-10 3.876438292696885e-10 1:30 2:135 3:35 4:179 5:43 6:221 7:54 8:260 9:74 10:294 11:103 12:322 13:136 14:342 15:174 16:355 17:208 18:357 19:235 20:347 21:255 22:325 23:271 24:302 25:284 26:274 27:296 28:246 29:304 30:212 31:305 32:179 33:301 34:148 35:83 36:99 37:107 38:82 39:136 40:77 41:165 42:85 43:191 44:99 45:234 46:98 47:251 48:87 49:268 50:82 51:285 52:84 53:298 54:96 55:213 56:140 57:216 58:163 59:221 60:185 61:226 62:207 63:186 64:228 65:202 66:233 67:217 68:236 69:230 70:233 71:241 72:228 73:114 74:139 75:131 76:131 77:151 78:133 79:166 80:147 81:149 82:150 83:130 84:148 85:238 86:147 87:251 88:133 89:268 90:132 91:281 92:141 93:269 94:148 95:253 96:150 97:154 98:272 99:183 100:264 101:205 102:259 103:218 104:262 105:230 106:258 107:245 108:262 109:255 110:271 111:245 112:286 113:232 114:294 115:218 116:296 117:203 118:296 119:181 120:289 121:165 122:273 123:204 124:273 125:217 126:273 127:229 128:272 129:248 130:272 131:231 132:275 133:219 134:278 135:205 136:277 
-1 0 1:83 2:134 3:81 4:166 5:85 6:200 7:94 8:233 9:110 10:262 11:132 12:290 13:153 14:315 15:176 16:336 17:208 18:341 19:244 20:339 21:282 22:321 23:317 24:296 25:345 26:267 27:366 28:234 29:375 30:195 31:378 32:154 33:379 34:113 35:92 36:114 37:110 38:104 39:132 40:104 41:155 42:112 43:176 44:123 45:212 46:122 47:239 48:111 49:265 50:104 51:293 52:103 53:316 54:113 55:194 56:144 57:192 58:167 59:189 60:189 61:186 62:212 63:172 64:228 65:182 66:233 67:193 68:236 69:204 70:233 71:216 72:230 73:121 74:136 75:133 76:127 77:152 78:127 79:166 80:142 81:151 82:146 83:132 84:146 85:236 86:143 87:248 88:131 89:268 90:131 91:284 92:138 93:270 94:149 95:252 96:149 97:159 98:276 99:169 100:277 101:183 102:276 103:192 104:279 105:203 106:276 107:222 108:279 109:245 110:277 111:224 112:283 113:208 114:285 115:196 116:286 117:186 118:286 119:171 120:283 121:164 122:276 123:184 124:287 125:193 126:287 127:204 128:286 129:236 130:278 131:205 132:271 133:194 134:272 135:186 136:271 
-1.290532852815957e-09 9.820107192927838e-10 1:74 2:153 3:76 4:184 5:79 6:217 7:88 8:249 9:101 10:278 11:120 12:301 13:143 14:321 15:170 16:335 17:201 18:339 19:232 20:335 21:260 22:318 23:283 24:297 25:300 26:274 27:313 28:246 29:319 30:214 31:323 32:181 33:326 34:149 35:94 36:112 37:111 38:96 39:134 40:88 41:159 42:90 43:182 44:100 45:219 46:99 47:243 48:88 49:269 50:86 51:292 52:95 53:308 54:115 55:200 56:125 57:199 58:144 59:199 60:164 61:199 62:183 63:179 64:206 65:189 66:209 67:199 68:211 69:210 70:209 71:221 72:207 73:120 74:141 75:133 76:134 77:149 78:133 79:162 80:141 81:148 82:143 83:133 84:144 85:238 86:141 87:252 88:133 89:269 90:133 91:281 92:142 93:268 94:146 95:252 96:144 97:157 98:255 99:173 100:235 101:189 102:226 103:201 104:229 105:213 106:227 107:230 108:238 109:247 110:258 111:229 112:274 113:212 114:278 115:199 116:279 117:186 118:277 119:171 120:271 121:166 122:254 123:189 124:244 125:201 126:244 127:213 128:245 129:236 130:257 131:212 132:257 133:199 134:258 135:187 136:255 
-5.583031338193647e-11 4.056570792575101e-10 1:56 2:122 3:56 4:158 5:62 6:195 7:72 8:231 9:90 10:263 11:112 12:292 13:136 14:317 15:166 16:337 17:197 18:342 19:228 20:339 21:254 22:316 23:275 24:289 25:293 26:259 27:304 28:227 29:314 30:192 31:321 32:157 33:321 34:123 35:82 36:92 37:104 38:85 39:129 40:83 41:153 42:88 43:176 44:100 45:232 46:102 47:251 48:91 49:273 50:88 51:294 52:88 53:312 54:95 55:205 56:138 57:205 58:164 59:206 60:189 61:207 62:214 63:181 64:226 65:192 66:232 67:205 68:235 69:215 70:232 71:226 72:228 73:112 74:133 75:130 76:125 77:152 78:126 79:171 80:141 81:150 82:145 83:128 84:144 85:231 86:143 87:250 88:131 89:272 90:129 91:287 92:137 93:274 94:149 95:252 96:149 97:160 98:272 99:174 100:260 101:192 102:253 103:205 104:258 105:219 106:255 107:234 108:261 109:247 110:272 111:234 112:291 113:219 114:298 115:205 116:300 117:190 118:298 119:174 120:291 121:168 122:272 123:192 124:270 125:205 126:272 127:219 128:271 129:238 130:272 131:218 132:274 133:205 134:276 135:192 136:274 
-1.136408721719279e-10 6.164588558843549e-10 1:80 2:142 3:80 4:175 5:83 6:208 7:90 8:241 9:103 10:271 11:122 12:298 13:145 14:320 15:172 16:341 17:203 18:348 19:235 20:343 21:267 22:322 23:296 24:298 25:317 26:270 27:332 28:239 29:339 30:203 31:342 32:166 33:341 34:129 35:93 36:108 37:108 38:95 39:129 40:95 41:149 42:100 43:170 44:109 45:217 46:109 47:240 48:99 49:265 50:95 51:289 52:97 53:308 54:109 55:196 56:136 57:195 58:158 59:194 60:181 61:193 62:204 63:175 64:222 65:185 66:226 67:197 68:229 69:208 70:226 71:219 72:222 73:116 74:138 75:131 76:131 77:151 78:132 79:165 80:146 81:148 82:151 83:129 84:149 85:234 86:145 87:249 88:132 89:269 90:130 91:283 92:138 93:271 94:148 95:251 96:148 97:159 98:268 99:173 100:260 101:187 102:256 103:198 104:259 105:210 106:255 107:225 108:258 109:243 110:264 111:226 112:277 113:212 114:285 115:198 116:287 117:186 118:286 119:173 120:281 121:167 122:268 123:187 124:267 125:198 126:268 127:211 128:265 129:233 130:264 131:210 132:266 133:198 134:269 135:186 136:268 
-0 1.133127408023893e-10 1:68 2:137 3:69 4:173 5:76 6:212 7:86 8:249 9:96 10:286 11:113 12:322 13:135 14:355 15:166 16:377 17:203 18:381 19:242 20:374 21:278 22:350 23:304 24:320 25:323 26:285 27:335 28:249 29:343 30:211 31:349 32:174 33:350 34:138 35:95 36:109 37:108 38:91 39:130 40:83 41:152 42:87 43:173 44:98 45:230 46:99 47:249 48:87 49:273 50:83 51:295 52:88 53:313 54:104 55:198 56:138 57:198 58:164 59:198 60:189 61:197 62:214 63:174 64:233 65:185 66:239 67:197 68:243 69:211 70:239 71:224 72:234 73:120 74:137 75:133 76:122 77:152 78:124 79:167 80:145 81:150 82:147 83:130 84:145 85:235 86:146 87:250 88:126 89:270 90:124 91:283 92:140 93:272 94:149 95:252 96:149 97:156 98:286 99:170 100:276 101:187 102:269 103:199 104:273 105:212 106:269 107:230 108:276 109:250 110:284 111:230 112:304 113:213 114:312 115:198 116:313 117:185 118:312 119:169 120:305 121:163 122:287 123:187 124:285 125:200 126:285 127:212 128:284 129:241 130:286 131:212 132:291 133:199 134:291 135:186 136:290 
-7.636509350154895e-11 0 1:109 2:156 3:103 4:189 5:100 6:225 7:107 8:263 9:119 10:300 11:132 12:338 13:147 14:371 15:161 16:399 17:189 18:409 19:231 20:409 21:282 22:403 23:332 24:384 25:375 26:352 27:407 28:309 29:426 30:258 31:434 32:202 33:436 34:150 35:114 36:88 37:121 38:80 39:133 40:79 41:148 42:82 43:162 44:89 45:197 46:87 47:230 48:76 49:266 50:74 51:302 52:79 53:337 54:93 55:175 56:141 57:166 58:170 59:157 60:199 61:147 62:227 63:145 64:255 65:154 66:262 67:166 68:266 69:180 70:264 71:195 72:260 73:126 74:143 75:135 76:130 77:152 78:132 79:165 80:149 81:149 82:153 83:133 84:152 85:231 86:149 87:248 88:131 89:272 90:130 91:295 92:142 93:274 94:152 95:250 96:153 97:148 98:327 99:148 100:305 101:156 102:294 103:166 104:297 105:177 106:293 107:203 108:306 109:231 110:328 111:205 112:344 113:182 114:351 115:169 116:352 117:159 118:349 119:152 120:339 121:155 122:326 123:159 124:318 125:168 126:317 127:179 128:318 129:219 130:327 131:178 132:325 133:167 134:325 135:158 136:323 
-1 0 1:78 2:135 3:82 4:167 5:89 6:201 7:100 8:233 9:118 10:265 11:139 12:295 13:160 14:322 15:187 16:347 17:215 18:354 19:243 20:346 21:266 22:324 23:283 24:293 25:295 26:260 27:307 28:224 29:316 30:188 31:322 32:151 33:323 34:116 35:92 36:113 37:106 38:98 39:129 40:96 41:151 42:103 43:174 44:112 45:221 46:112 47:246 48:104 49:270 50:97 51:292 52:102 53:306 54:118 55:198 56:138 57:198 58:159 59:197 60:181 61:197 62:202 63:176 64:222 65:187 66:225 67:200 68:228 69:211 70:224 71:223 72:221 73:118 74:138 75:132 76:134 77:148 78:135 79:161 80:144 81:146 82:147 83:130 84:146 85:237 86:145 87:250 88:135 89:267 90:134 91:281 92:138 93:268 94:146 95:252 96:147 97:168 98:274 99:178 100:265 101:192 102:262 103:207 104:264 105:221 106:259 107:238 108:263 109:257 110:269 111:244 112:293 113:228 114:303 115:214 116:305 117:198 118:305 119:182 120:295 121:175 122:275 123:194 124:273 125:208 126:273 127:222 128:271 129:249 130:269 131:226 132:285 133:211 134:287 135:197 136:285 
-2.110650173900037e-11 0 1:-20 2:120 3:-24 4:174 5:-24 6:230 7:-14 8:282 9:6 10:323 11:39 12:352 13:78 14:374 15:123 16:387 17:162 18:392 19:196 20:383 21:221 22:360 23:239 24:330 25:256 26:297 27:273 28:263 29:288 30:230 31:296 32:196 33:296 34:162 35:80 36:77 37:112 38:65 39:144 40:63 41:175 42:72 43:202 44:91 45:262 46:99 47:273 48:88 49:283 50:80 51:293 52:77 53:304 54:83 55:225 56:141 57:231 58:168 59:237 60:194 61:243 62:220 63:194 64:248 65:210 66:251 67:226 68:253 69:239 70:252 71:249 72:247 73:108 74:135 75:131 76:124 77:155 78:124 79:169 80:142 81:150 82:147 83:129 84:145 85:242 86:142 87:257 88:129 89:274 90:129 91:282 92:141 93:274 94:148 95:258 96:148 97:146 98:308 99:177 100:295 101:205 102:287 103:214 104:289 105:220 106:286 107:227 108:295 109:216 110:314 111:216 112:321 113:207 114:328 115:200 116:330 117:191 118:329 119:168 120:322 121:160 122:308 123:201 124:305 125:209 126:305 127:215 128:305 129:212 130:311 131:211 132:299 133:206 134:300 135:198 136:301 
-1 2.411167699634354e-10 1:83 2:130 3:86 4:163 5:92 6:195 7:102 8:227 9:115 10:257 11:129 12:283 13:148 14:304 15:174 16:319 17:201 18:323 19:228 20:321 21:254 22:306 23:274 24:283 25:290 26:255 27:302 28:225 29:311 30:191 31:317 32:157 33:320 34:124 35:95 36:114 37:109 38:102 39:128 40:101 41:148 42:105 43:168 44:113 45:230 46:110 47:248 48:102 49:267 50:99 51:286 52:98 53:303 54:107 55:199 56:142 57:199 58:167 59:200 60:191 61:200 62:215 63:178 64:222 65:189 66:225 67:200 68:229 69:212 70:226 71:223 72:222 73:119 74:139 75:132 76:131 77:150 78:132 79:164 80:145 81:147 82:149 83:130 84:147 85:236 86:145 87:250 88:133 89:268 90:132 91:281 92:140 93:268 94:148 95:251 96:148 97:160 98:259 99:174 100:255 101:189 102:251 103:201 104:254 105:211 106:251 107:226 108:255 109:240 110:259 111:225 112:272 113:210 114:277 115:199 116:278 117:188 118:277 119:173 120:271 121:165 122:260 123:189 124:261 125:200 126:263 127:211 128:262 129:235 130:260 131:210 132:262 133:200 134:264 135:189 136:262 
-1 5.700850745603153e-10 1:88 2:149 3:87 4:181 5:90 6:214 7:96 8:246 9:107 10:279 11:122 12:308 13:141 14:331 15:166 16:347 17:196 18:353 19:230 20:349 21:262 22:335 23:291 24:316 25:314 26:292 27:328 28:261 29:337 30:227 31:344 32:192 33:348 34:157 35:96 36:111 37:108 38:91 39:131 40:84 41:154 42:86 43:176 44:98 45:212 46:96 47:239 48:87 49:267 50:87 51:292 52:96 53:310 54:117 55:192 56:129 57:189 58:151 59:185 60:172 61:182 62:195 63:168 64:217 65:177 66:220 67:187 68:223 69:199 70:220 71:213 72:218 73:119 74:139 75:131 76:130 77:149 78:130 79:162 80:139 81:147 82:143 83:130 84:144 85:237 86:138 87:252 88:130 89:269 90:131 91:283 92:140 93:269 94:145 95:251 96:143 97:154 98:268 99:163 100:250 101:177 102:241 103:189 104:245 105:200 106:240 107:219 108:251 109:237 110:269 111:220 112:280 113:203 114:287 115:191 116:289 117:178 118:288 119:165 120:282 121:159 122:266 123:179 124:260 125:190 126:260 127:201 128:259 129:229 130:267 131:201 132:263 133:190 134:265 135:179 136:264 
-0 0.9999999997943609 1:35 2:161 3:38 4:203 5:42 6:241 7:52 8:277 9:73 10:308 11:99 12:330 13:133 14:350 15:171 16:366 17:207 18:366 19:236 20:359 21:256 22:338 23:270 24:313 25:281 26:283 27:290 28:253 29:302 30:220 31:305 32:190 33:303 34:160 35:81 36:113 37:104 38:96 39:133 40:87 41:162 42:90 43:190 44:101 45:237 46:101 47:253 48:92 49:270 50:90 51:287 52:92 53:299 54:104 55:214 56:134 57:219 58:155 59:226 60:177 61:232 62:197 63:196 64:231 65:211 66:234 67:225 68:235 69:235 70:231 71:244 72:225 73:114 74:140 75:132 76:128 77:153 78:129 79:169 80:144 81:150 82:148 83:129 84:148 85:236 86:143 87:251 88:129 89:271 90:129 91:283 92:139 93:270 94:148 95:252 96:147 97:163 98:295 99:187 100:277 101:209 102:264 103:223 104:266 105:234 106:260 107:244 108:267 109:250 110:283 111:243 112:285 113:234 114:291 115:223 116:294 117:208 118:295 119:187 120:296 121:172 122:294 123:208 124:284 125:222 126:282 127:234 128:279 129:244 130:281 131:235 132:270 133:223 134:274 135:209 136:275 
-9.406067920145443e-10 1.405261288507723e-09 1:68 2:124 3:67 4:160 5:70 6:195 7:76 8:231 9:90 10:264 11:112 12:293 13:136 14:319 15:163 16:343 17:193 18:350 19:223 20:342 21:250 22:319 23:274 24:294 25:298 26:266 27:314 28:234 29:321 30:199 31:326 32:165 33:329 34:131 35:92 36:111 37:110 38:99 39:131 40:97 41:154 42:99 43:175 44:108 45:229 46:106 47:251 48:99 49:274 50:98 51:295 52:102 53:312 54:112 55:202 56:141 57:201 58:167 59:200 60:193 61:200 62:219 63:170 64:228 65:184 66:234 67:200 68:239 69:215 70:233 71:229 72:227 73:117 74:139 75:133 76:136 77:151 78:137 79:167 80:145 81:150 82:147 83:132 84:146 85:238 86:144 87:253 88:137 89:270 90:136 91:284 92:140 93:270 94:146 95:253 96:146 97:135 98:249 99:156 100:247 101:180 102:248 103:198 104:252 105:217 106:246 107:239 108:244 109:260 110:245 111:239 112:272 113:218 114:287 115:198 116:291 117:179 118:290 119:155 120:277 121:141 122:251 123:180 124:257 125:198 126:259 127:217 128:255 129:254 130:248 131:217 132:270 133:198 134:274 135:179 136:272 
-1 1.226681109621876e-10 1:75 2:139 3:80 4:174 5:89 6:210 7:100 8:243 9:116 10:277 11:134 12:309 13:153 14:338 15:183 16:358 17:216 18:360 19:248 20:349 21:276 22:325 23:293 24:297 25:308 26:267 27:316 28:236 29:319 30:201 31:322 32:166 33:323 34:130 35:98 36:110 37:115 38:99 39:135 40:102 41:155 42:111 43:174 44:122 45:232 46:119 47:252 48:110 49:270 50:102 51:288 52:99 53:306 54:106 55:200 56:144 57:199 58:167 59:198 60:191 61:197 62:214 63:177 64:224 65:188 66:229 67:199 68:233 69:211 70:229 71:223 72:225 73:121 74:138 75:135 76:130 77:153 78:133 79:166 80:146 81:149 82:150 83:132 84:149 85:240 86:144 87:252 88:132 89:269 90:130 91:281 92:138 93:271 94:148 95:255 96:148 97:163 98:271 99:172 100:262 101:187 102:259 103:200 104:261 105:215 106:259 107:231 108:262 109:245 110:270 111:232 112:284 113:218 114:291 115:203 116:293 117:188 118:292 119:173 120:288 121:170 122:272 123:188 124:270 125:201 126:270 127:215 128:269 129:236 130:271 131:215 132:274 133:201 134:277 135:188 136:276 
-5.112473247135488e-10 0 1:80 2:131 3:75 4:166 5:74 6:202 7:79 8:238 9:91 10:270 11:111 12:296 13:134 14:318 15:159 16:334 17:188 18:340 19:220 20:337 21:250 22:325 23:278 24:310 25:302 26:289 27:321 28:261 29:335 30:231 31:342 32:196 33:347 34:162 35:117 36:89 37:133 38:79 39:152 40:76 41:171 42:80 43:188 44:92 45:220 46:98 47:241 48:91 49:264 50:88 51:286 52:94 53:304 54:110 55:197 56:132 57:194 58:152 59:191 60:171 61:187 62:191 63:170 64:215 65:179 66:219 67:188 68:222 69:199 70:219 71:210 72:215 73:127 74:142 75:138 76:133 77:152 78:133 79:165 80:143 81:152 82:146 83:138 84:145 85:233 86:143 87:246 88:134 89:262 90:135 91:276 92:143 93:262 94:147 95:246 96:147 97:157 98:265 99:166 100:246 101:179 102:236 103:188 104:239 105:197 106:237 107:211 108:247 109:224 110:266 111:211 112:274 113:198 114:278 115:188 116:278 117:177 118:276 119:166 120:272 121:164 122:262 123:179 124:255 125:187 126:254 127:197 128:254 129:217 130:264 131:198 132:261 133:189 134:262 135:179 136:260 
-3.449778571684889e-11 9.233077232438764e-11 1:85 2:147 3:85 4:182 5:89 6:216 7:101 8:247 9:118 10:279 11:138 12:308 13:155 14:331 15:174 16:352 17:201 18:356 19:238 20:355 21:277 22:344 23:317 24:325 25:355 26:298 27:383 28:263 29:396 30:219 31:401 32:169 33:402 34:119 35:86 36:90 37:100 38:85 39:118 40:91 41:135 42:98 43:151 44:106 45:198 46:102 47:230 48:92 49:261 50:85 51:293 52:85 53:325 54:94 55:181 56:148 57:177 58:176 59:172 60:204 61:166 62:231 63:153 64:246 65:165 66:253 67:178 68:256 69:196 70:252 71:214 72:249 73:106 74:139 75:121 76:130 77:142 78:131 79:158 80:146 81:140 82:152 83:119 84:150 85:232 86:145 87:249 88:129 89:272 90:129 91:292 92:136 93:276 94:149 95:252 96:151 97:156 98:293 99:162 100:281 101:174 102:272 103:185 104:276 105:199 106:275 107:226 108:283 109:253 110:294 111:227 112:307 113:202 114:314 115:188 116:314 117:175 118:311 119:164 120:304 121:162 122:292 123:176 124:288 125:187 126:290 127:200 128:290 129:243 130:293 131:200 132:289 133:186 134:288 135:175 136:285 
-2.624715953018307e-10 3.254084830358559e-11 1:76 2:160 3:75 4:193 5:75 6:224 7:80 8:257 9:89 10:288 11:106 12:315 13:133 14:335 15:165 16:348 17:198 18:350 19:232 20:345 21:264 22:328 23:292 24:305 25:312 26:275 27:324 28:243 29:331 30:211 31:333 32:180 33:334 34:148 35:92 36:120 37:106 38:102 39:129 40:96 41:155 42:99 43:181 44:108 45:210 46:111 47:237 48:102 49:265 50:98 51:293 52:102 53:310 54:121 55:196 56:135 57:196 58:156 59:195 60:178 61:195 62:200 63:170 64:223 65:181 66:226 67:194 68:229 69:205 70:226 71:217 72:223 73:118 74:141 75:131 76:130 77:148 78:130 79:163 80:143 81:147 82:145 83:131 84:145 85:234 86:144 87:250 88:132 89:268 90:131 91:282 92:141 93:269 94:146 95:251 96:146 97:151 98:271 99:164 100:260 101:181 102:251 103:193 104:254 105:205 106:250 107:224 108:258 109:241 110:269 111:226 112:280 113:209 114:284 115:195 116:285 117:182 118:284 119:166 120:280 121:157 122:270 123:181 124:265 125:193 126:266 127:205 128:264 129:233 130:268 131:207 132:266 133:195 134:267 135:182 136:266 
-1.435461421021183e-10 1.019483505947355e-10 1:90 2:155 3:86 4:190 5:88 6:228 7:97 8:266 9:113 10:304 11:131 12:343 13:152 14:378 15:175 16:402 17:210 18:407 19:247 20:403 21:282 22:388 23:313 24:360 25:338 26:326 27:358 28:289 29:368 30:250 31:375 32:208 33:378 34:166 35:100 36:89 37:113 38:77 39:131 40:73 41:150 42:76 43:169 44:85 45:225 46:82 47:249 48:72 49:275 50:69 51:299 52:77 53:319 54:93 55:194 56:124 57:191 58:140 59:187 60:155 61:182 62:172 63:171 64:206 65:180 66:211 67:189 68:214 69:202 70:211 71:215 72:208 73:118 74:142 75:131 76:137 77:149 78:136 79:168 80:140 81:149 82:149 83:131 84:150 85:236 86:139 87:253 88:135 89:273 90:138 91:290 92:144 93:273 94:150 95:253 96:149 97:155 98:285 99:161 100:253 101:180 102:241 103:193 104:244 105:209 106:242 107:239 108:256 109:263 110:288 111:243 112:330 113:215 114:344 115:197 116:345 117:183 118:343 119:164 120:325 121:162 122:285 123:181 124:256 125:194 126:256 127:209 128:256 129:255 130:288 131:213 132:327 133:197 134:328 135:183 136:325 
-0 3.203019974405652e-10 1:101 2:148 3:101 4:179 5:104 6:210 7:113 8:241 9:124 10:272 11:138 12:303 13:155 14:331 15:176 16:358 17:204 18:369 19:238 20:367 21:277 22:350 23:312 24:327 25:344 26:299 27:368 28:267 29:380 30:229 31:387 32:188 33:389 34:147 35:102 36:101 37:112 38:89 39:126 40:86 41:144 42:87 43:160 44:96 45:212 46:90 47:241 48:83 49:272 50:82 51:300 52:91 53:322 54:107 55:186 56:140 57:182 58:163 59:178 60:186 61:173 62:208 63:164 64:230 65:173 66:235 67:183 68:238 69:195 70:235 71:208 72:230 73:122 74:140 75:130 76:130 77:147 78:131 79:163 80:146 81:147 82:148 83:131 84:148 85:234 86:145 87:246 88:130 89:268 90:130 91:288 92:142 93:270 94:148 95:249 96:149 97:159 98:281 99:161 100:266 101:172 102:259 103:184 104:262 105:196 106:261 107:219 108:269 109:241 110:284 111:223 112:304 113:202 114:311 115:189 116:310 117:176 118:308 119:164 120:298 121:164 122:281 123:175 124:275 125:185 126:276 127:198 128:276 129:231 130:284 131:199 132:291 133:187 134:291 135:175 136:288 
-1 1.373047327233865e-10 1:68 2:124 3:68 4:160 5:70 6:197 7:77 8:234 9:89 10:269 11:108 12:302 13:128 14:331 15:157 16:348 17:192 18:354 19:228 20:354 21:255 22:336 23:276 24:307 25:296 26:275 27:310 28:240 29:319 30:202 31:327 32:164 33:331 34:127 35:103 36:100 37:125 38:96 39:147 40:102 41:165 42:112 43:186 44:122 45:215 46:117 47:240 48:105 49:265 50:99 51:290 52:98 53:309 54:110 55:201 56:140 57:200 58:172 59:199 60:203 61:197 62:234 63:168 64:240 65:182 66:248 67:197 68:256 69:212 70:249 71:227 72:242 73:121 74:139 75:134 76:133 77:151 78:134 79:165 80:144 81:150 82:147 83:133 84:146 85:236 86:143 87:250 88:134 89:269 90:134 91:284 92:138 93:270 94:146 95:252 96:146 97:142 98:283 99:159 100:275 101:179 102:271 103:195 104:277 105:211 106:272 107:228 108:278 109:244 110:286 111:228 112:307 113:211 114:316 115:193 116:317 117:176 118:315 119:157 120:304 121:148 122:283 123:179 124:287 125:194 126:289 127:211 128:287 129:236 130:287 131:210 132:288 133:193 134:290 135:178 136:287 
-1 3.940995471671529e-10 1:52 2:153 3:52 4:192 5:55 6:232 7:62 8:271 9:77 10:306 11:98 12:336 13:124 14:362 15:158 16:376 17:193 18:378 19:226 20:374 21:255 22:359 23:276 24:335 25:293 26:306 27:303 28:272 29:308 30:237 31:309 32:200 33:308 34:165 35:96 36:118 37:113 38:100 39:140 40:93 41:169 42:97 43:197 44:106 45:225 46:105 47:248 48:99 49:271 50:97 51:291 52:103 53:301 54:121 55:210 56:137 57:212 58:158 59:214 60:179 61:216 62:203 63:182 64:230 65:197 66:233 67:211 68:235 69:224 70:232 71:237 72:228 73:118 74:139 75:133 76:128 77:151 78:128 79:167 80:140 81:151 82:144 83:132 84:144 85:237 86:142 87:251 88:129 89:269 90:130 91:279 92:141 93:269 94:146 95:252 96:146 97:155 98:295 99:176 100:281 101:197 102:272 103:212 104:276 105:225 106:271 107:241 108:277 109:252 110:289 111:240 112:298 113:225 114:302 115:210 116:304 117:195 118:306 119:174 120:303 121:163 122:294 123:196 124:287 125:211 126:287 127:224 128:285 129:245 130:288 131:225 132:288 133:211 134:289 135:196 136:290 
-1 1.375784586131266e-12 1:62 2:130 3:58 4:167 5:58 6:202 7:68 8:239 9:88 10:273 11:112 12:306 13:137 14:336 15:166 16:360 17:198 18:366 19:229 20:358 21:253 22:330 23:270 24:299 25:288 26:270 27:304 28:238 29:313 30:204 31:318 32:170 33:318 34:135 35:94 36:94 37:116 38:85 39:138 40:83 41:160 42:90 43:181 44:105 45:222 46:105 47:243 48:91 49:266 50:87 51:288 52:90 53:304 54:103 55:201 56:145 57:200 58:178 59:199 60:210 61:199 62:241 63:168 64:247 65:182 66:256 67:198 68:263 69:213 70:255 71:227 72:246 73:110 74:136 75:128 76:126 77:151 78:127 79:169 80:146 81:147 82:153 83:125 84:151 85:229 86:147 87:249 88:128 89:272 90:127 91:289 92:138 93:273 94:153 95:250 96:154 97:132 98:285 99:159 100:292 101:183 102:292 103:196 104:295 105:209 106:291 107:228 108:292 109:250 110:285 111:229 112:303 113:211 114:314 115:197 116:316 117:183 118:314 119:159 120:304 121:142 122:290 123:183 124:304 125:196 126:306 127:209 128:304 129:241 130:289 131:210 132:295 133:196 134:298 135:184 136:296 
