svm_type c_svc
kernel_type polynomial
degree 3
gamma 0.00735294
coef0 0
nr_class 4
total_sv 202
rho -9.08061 1.44486 -12.9487 13.2089 28.3799 -0.472112
label 0 1 2 3
probA -0.25038 -0.22922 -0.0770217 -0.135492 -0.12885 -0.119065
probB -0.0354365 -0.085579 -0.144275 -0.0697236 -0.133312 -0.00372178
nr_sv 50 53 49 50
SV
1.412509821267123e-11 0 0 1:-53 2:187 3:-39 4:243 5:-22 6:301 7:-1 8:351 9:37 10:387 11:96 12:403 13:158 14:409 15:216 16:412 17:262 18:410 19:294 20:400 21:304 22:371 23:309 24:334 25:315 26:298 27:322 28:261 29:319 30:222 31:303 32:184 33:284 34:149 35:48 36:110 37:80 38:82 39:118 40:71 41:156 42:74 43:190 44:88 45:229 46:90 47:245 48:79 49:260 50:75 51:275 52:77 53:284 54:91 55:226 56:133 57:243 58:156 59:262 60:177 61:283 62:199 63:223 64:242 65:245 66:244 67:264 68:246 69:275 70:240 71:282 72:233 73:106 74:147 75:131 76:128 77:154 78:126 79:169 80:149 81:153 82:150 83:131 84:150 85:236 86:149 87:249 88:131 89:266 90:128 91:273 92:144 93:268 94:149 95:252 96:149 97:156 98:310 99:202 100:285 101:243 102:272 103:263 104:277 105:280 106:270 107:293 108:281 109:287 110:302 111:292 112:326 113:282 114:343 115:264 116:347 117:243 118:347 119:203 120:337 121:166 122:310 123:242 124:297 125:262 126:295 127:278 128:294 129:282 130:302 131:279 132:316 133:263 134:320 135:243 136:321 
4.178445497308348e-10 2.288025975071522e-10 5.226682735286014e-10 1:66 2:121 3:71 4:159 5:80 6:195 7:89 8:232 9:101 10:266 11:122 12:296 13:145 14:323 15:171 16:344 17:202 18:350 19:232 20:343 21:260 22:322 23:285 24:294 25:305 26:263 27:318 28:230 29:325 30:193 31:332 32:157 33:334 34:120 35:90 36:113 37:113 38:105 39:137 40:109 41:161 42:115 43:184 44:124 45:213 46:124 47:236 48:115 49:260 50:110 51:285 52:105 53:309 54:113 55:199 56:144 57:199 58:172 59:200 60:201 61:201 62:230 63:178 64:237 65:189 66:244 67:202 68:249 69:214 70:243 71:225 72:236 73:118 74:136 75:132 76:130 77:151 78:132 79:164 80:144 81:148 82:148 83:130 84:147 85:238 86:145 87:251 88:133 89:269 90:132 91:283 92:137 93:272 94:148 95:254 96:149 97:161 98:274 99:176 100:273 101:191 102:269 103:203 104:274 105:215 106:268 107:230 108:271 109:244 110:272 111:230 112:290 113:217 114:298 115:204 116:301 117:191 118:299 119:177 120:292 121:168 122:276 123:191 124:280 125:203 126:282 127:215 128:279 129:238 130:274 131:215 132:280 133:203 134:283 135:191 136:281 
2.050058225797248e-10 5.691249175688091e-10 5.364651352231222e-10 1:48 2:133 3:49 4:174 5:47 6:216 7:52 8:255 9:75 10:285 11:103 12:306 13:133 14:323 15:161 16:338 17:190 18:343 19:218 20:340 21:240 22:320 23:263 24:297 25:289 26:273 27:310 28:244 29:321 30:210 31:323 32:173 33:323 34:138 35:90 36:120 37:109 38:104 39:134 40:101 41:161 42:104 43:187 44:114 45:227 46:114 47:249 48:105 49:271 50:102 51:293 52:105 53:304 54:120 55:205 56:143 57:205 58:167 59:205 60:192 61:205 62:217 63:165 64:223 65:184 66:230 67:201 68:236 69:219 70:231 71:235 72:224 73:121 74:139 75:136 76:134 77:152 78:134 79:164 80:144 81:151 82:144 83:136 84:143 85:239 86:145 87:253 88:135 89:267 90:135 91:281 92:141 93:268 94:144 95:253 96:145 97:131 98:247 99:155 100:247 101:181 102:248 103:200 104:250 105:218 106:248 107:239 108:247 109:256 110:248 111:239 112:279 113:218 114:293 115:198 116:296 117:177 118:293 119:153 120:280 121:137 122:249 123:182 124:255 125:200 126:257 127:218 128:254 129:251 130:250 131:218 132:276 133:199 134:280 135:179 136:277 
1.354345381585698e-10 0.9999999999778236 0 1:55 2:142 3:54 4:176 5:56 6:209 7:62 8:244 9:78 10:275 11:103 12:298 13:135 14:313 15:167 16:319 17:197 18:320 19:225 20:317 21:252 22:308 23:276 24:291 25:297 26:270 27:310 28:241 29:318 30:211 31:321 32:180 33:318 34:149 35:101 36:100 37:123 38:95 39:144 40:91 41:162 42:95 43:179 44:103 45:227 46:102 47:245 48:92 49:264 50:90 51:282 52:97 53:298 54:106 55:202 56:137 57:202 58:157 59:202 60:177 61:202 62:197 63:177 64:219 65:189 66:224 67:202 68:226 69:213 70:223 71:222 72:218 73:114 74:142 75:129 76:132 77:149 78:131 79:167 80:142 81:149 82:148 83:130 84:149 85:232 86:143 87:251 88:131 89:271 90:131 91:286 92:141 93:272 94:149 95:252 96:149 97:149 98:270 99:170 100:259 101:189 102:250 103:202 104:253 105:214 106:251 107:231 108:259 109:247 110:271 111:231 112:282 113:215 114:288 115:202 116:290 117:188 118:289 119:169 120:283 121:157 122:271 123:189 124:269 125:203 126:270 127:214 128:269 129:239 130:272 131:214 132:268 133:202 134:269 135:188 136:269 
5.885260643202002e-11 1.270186750806962e-10 3.465428594707495e-10 1:-23 2:152 3:-22 4:204 5:-15 6:260 7:-1 8:313 9:25 10:355 11:67 12:385 13:118 14:405 15:172 16:412 17:217 18:409 19:249 20:398 21:264 22:369 23:278 24:330 25:291 26:291 27:304 28:252 29:311 30:216 31:306 32:181 33:295 34:149 35:76 36:96 37:103 38:75 39:136 40:66 41:169 42:72 43:198 44:91 45:243 46:96 47:256 48:86 49:271 50:81 51:283 52:79 53:294 54:85 55:226 56:139 57:235 58:167 59:245 60:195 61:255 62:222 63:202 64:253 65:220 66:255 67:238 68:256 69:251 70:252 71:262 72:245 73:110 74:140 75:131 76:126 77:153 78:127 79:171 80:146 81:152 82:149 83:129 84:148 85:240 86:147 87:253 88:129 89:271 90:127 91:281 92:138 93:273 94:147 95:255 96:149 97:135 98:309 99:178 100:294 101:218 102:286 103:235 104:288 105:248 106:283 107:262 108:287 109:265 110:303 111:260 112:326 113:246 114:342 115:231 116:347 117:212 118:348 119:175 120:339 121:144 122:310 123:216 124:303 125:233 126:303 127:246 128:301 129:259 130:304 131:246 132:319 133:232 134:325 135:214 136:327 
3.326797693755556e-10 5.655224535946061e-10 4.419124980241395e-11 1:74 2:141 3:76 4:177 5:77 6:213 7:78 8:251 9:88 10:287 11:106 12:320 13:131 14:349 15:160 16:374 17:199 18:380 19:240 20:376 21:276 22:355 23:309 24:329 25:335 26:295 27:349 28:256 29:353 30:214 31:352 32:175 33:353 34:136 35:90 36:125 37:101 38:106 39:123 40:103 41:146 42:109 43:169 44:118 45:222 46:117 47:247 48:107 49:271 50:100 51:297 52:105 53:315 54:122 55:197 56:143 57:197 58:164 59:196 60:184 61:196 62:206 63:168 64:224 65:182 66:229 67:197 68:234 69:213 70:228 71:228 72:224 73:118 74:141 75:131 76:131 77:150 78:131 79:165 80:144 81:149 82:148 83:131 84:148 85:235 86:144 87:250 88:131 89:269 90:131 91:283 92:140 93:270 94:150 95:251 96:149 97:138 98:263 99:158 100:262 101:179 102:263 103:197 104:268 105:216 106:264 107:239 108:263 109:264 110:265 111:240 112:286 113:216 114:293 115:196 116:294 117:177 118:293 119:156 120:285 121:145 122:264 123:179 124:272 125:197 126:275 127:216 128:272 129:255 130:266 131:215 132:276 133:196 134:279 135:178 136:276 
1.115048671569889e-10 0 5.333157767471908e-11 1:90 2:175 3:86 4:209 5:89 6:245 7:101 8:278 9:117 10:308 11:136 12:337 13:156 14:362 15:179 16:383 17:209 18:387 19:244 20:385 21:283 22:377 23:319 24:358 25:350 26:333 27:371 28:300 29:380 30:257 31:380 32:210 33:376 34:166 35:99 36:106 37:114 38:97 39:132 40:93 41:151 42:94 43:170 44:103 45:209 46:105 47:235 48:94 49:264 50:90 51:291 52:97 53:315 54:108 55:187 56:136 57:183 58:160 59:179 60:183 61:174 62:206 63:164 64:235 65:174 66:241 67:185 68:244 69:197 70:240 71:212 72:238 73:118 74:146 75:131 76:135 77:150 78:135 79:164 80:146 81:148 82:151 83:130 84:152 85:235 86:145 87:250 88:133 89:270 90:134 91:288 92:144 93:271 94:149 95:252 96:149 97:151 98:302 99:161 100:280 101:177 102:270 103:187 104:274 105:198 106:271 107:225 108:283 109:253 110:303 111:229 112:328 113:205 114:337 115:192 116:339 117:180 118:337 119:163 120:325 121:160 122:303 123:178 124:289 125:188 126:290 127:199 128:290 129:243 130:303 131:201 132:311 133:190 134:312 135:180 136:310 
0 3.240883277231377e-10 6.610772798323633e-10 1:65 2:138 3:66 4:176 5:71 6:213 7:78 8:249 9:91 10:283 11:112 12:313 13:139 14:337 15:168 16:355 17:200 18:359 19:232 20:352 21:258 22:331 23:282 24:306 25:303 26:278 27:315 28:246 29:321 30:210 31:325 32:174 33:326 34:139 35:87 36:119 37:104 38:100 39:132 40:96 41:158 42:103 43:183 44:116 45:216 46:116 47:241 48:103 49:267 50:96 51:294 52:101 53:309 54:121 55:201 56:139 57:201 58:163 59:201 60:187 61:201 62:211 63:175 64:229 65:187 66:233 67:200 68:237 69:212 70:233 71:224 72:229 73:117 74:139 75:132 76:131 77:150 78:131 79:166 80:143 81:149 82:146 83:131 84:146 85:233 86:143 87:249 88:133 89:267 90:132 91:281 92:139 93:269 94:147 95:250 96:148 97:152 98:275 99:171 100:273 101:188 102:267 103:199 104:271 105:209 106:267 107:225 108:273 109:239 110:279 111:225 112:287 113:211 114:293 115:199 116:294 117:188 118:293 119:173 120:288 121:160 122:278 123:188 124:278 125:198 126:279 127:209 128:278 129:234 130:279 131:210 132:275 133:199 134:278 135:189 136:276 
1.336973372640571e-11 9.357231767082328e-12 2.501695257825433e-11 1:118 2:159 3:114 4:185 5:115 6:213 7:124 8:242 9:135 10:270 11:147 12:300 13:161 14:331 15:173 16:359 17:196 18:373 19:232 20:373 21:277 22:364 23:322 24:344 25:361 26:313 27:389 28:273 29:403 30:225 31:407 32:176 33:409 34:127 35:110 36:104 37:117 38:103 39:127 40:107 41:138 42:113 43:151 44:121 45:191 46:122 47:220 48:109 49:252 50:99 51:286 52:100 53:322 54:107 55:169 56:150 57:163 58:174 59:155 60:198 61:148 62:222 63:147 64:240 65:155 66:249 67:164 68:253 69:178 70:250 71:193 72:245 73:124 74:151 75:128 76:139 77:144 78:140 79:161 80:152 81:145 82:161 83:129 84:161 85:222 86:150 87:237 88:131 89:262 90:131 91:289 92:139 93:266 94:153 95:241 96:155 97:150 98:284 99:151 100:275 101:158 102:272 103:165 104:277 105:174 106:274 107:199 108:282 109:227 110:294 111:201 112:318 113:180 114:323 115:170 116:321 117:161 118:317 119:153 120:303 121:155 122:286 123:161 124:287 125:167 126:288 127:176 128:290 129:219 130:295 131:175 132:300 133:166 134:298 135:159 136:294 
8.072850038663213e-11 8.720808265039846e-11 1.424806859362134e-10 1:115 2:147 3:110 4:181 5:109 6:218 7:114 8:257 9:122 10:297 11:134 12:336 13:148 14:371 15:168 16:398 17:203 18:406 19:251 20:407 21:305 22:400 23:353 24:378 25:391 26:344 27:413 28:299 29:424 30:248 31:431 32:195 33:434 34:144 35:107 36:90 37:114 38:78 39:127 40:80 41:142 42:84 43:156 44:93 45:200 46:90 47:233 48:78 49:268 50:76 51:303 52:83 53:334 54:101 55:174 56:141 57:165 58:170 59:155 60:199 61:145 62:228 63:145 64:253 65:154 66:259 67:165 68:262 69:182 70:260 71:200 72:258 73:123 74:140 75:129 76:128 77:146 78:131 79:162 80:148 81:145 82:151 83:128 84:150 85:232 86:148 87:245 88:129 89:269 90:130 91:292 92:142 93:271 94:150 95:248 96:152 97:158 98:318 99:153 100:299 101:163 102:291 103:175 104:295 105:189 106:291 107:225 108:300 109:261 110:316 111:234 112:344 113:203 114:354 115:186 116:354 117:173 118:351 119:161 120:338 121:164 122:318 123:166 124:311 125:177 126:311 127:192 128:310 129:253 130:316 131:197 132:331 133:183 134:331 135:170 136:327 
2.96288818696275e-10 6.083945987930944e-11 3.730952860937981e-10 1:-17 2:163 3:-13 4:212 5:-8 6:261 7:8 8:306 9:41 10:339 11:83 12:363 13:130 14:380 15:177 16:391 17:215 18:392 19:244 20:379 21:260 22:350 23:274 24:316 25:283 26:280 27:291 28:248 29:297 30:215 31:297 32:183 33:291 34:153 35:71 36:103 37:98 38:87 39:130 40:81 41:162 42:83 43:193 44:95 45:245 46:101 47:262 48:89 49:281 50:83 51:297 52:85 53:305 54:102 55:219 56:140 57:226 58:163 59:236 60:185 61:246 62:207 63:201 64:237 65:218 66:240 67:233 68:241 69:244 70:237 71:254 72:230 73:109 74:145 75:129 76:132 77:150 78:131 79:163 80:146 81:148 82:151 83:128 84:152 85:235 86:145 87:253 88:129 89:270 90:128 91:279 92:141 93:271 94:150 95:253 96:150 97:170 98:297 99:200 100:280 101:225 102:269 103:237 104:271 105:247 106:267 107:258 108:274 109:259 110:289 111:255 112:304 113:245 114:314 115:234 116:316 117:221 118:316 119:197 120:312 121:181 122:296 123:223 124:287 125:235 126:287 127:245 128:286 129:252 130:288 131:245 132:292 133:236 134:293 135:224 136:294 
0 0 4.429496072034186e-11 1:62 2:162 3:64 4:192 5:71 6:223 7:86 8:253 9:104 10:280 11:124 12:304 13:145 14:322 15:174 16:337 17:203 18:341 19:231 20:336 21:258 22:321 23:280 24:300 25:298 26:274 27:310 28:245 29:316 30:214 31:319 32:182 33:318 34:151 35:84 36:118 37:102 38:100 39:128 40:92 41:155 42:97 43:181 44:107 45:217 46:98 47:242 48:89 49:269 50:90 51:292 52:98 53:306 54:117 55:202 56:130 57:203 58:153 59:204 60:175 61:206 62:197 63:183 64:216 65:194 66:220 67:205 68:222 69:215 70:221 71:225 72:219 73:116 74:142 75:131 76:133 77:150 78:133 79:164 80:145 81:149 82:145 83:131 84:146 85:237 86:144 87:251 88:133 89:268 90:133 91:282 92:143 93:269 94:146 95:252 96:146 97:166 98:270 99:179 100:249 101:194 102:240 103:205 104:244 105:217 106:241 107:230 108:251 109:241 110:273 111:228 112:285 113:216 114:290 115:203 116:290 117:191 118:289 119:178 120:283 121:173 122:267 123:194 124:258 125:204 126:260 127:217 128:260 129:234 130:269 131:216 132:267 133:203 134:268 135:192 136:267 
1.297827147554866e-10 2.110800823180319e-10 4.218313083625104e-11 1:-2 2:175 3:3 4:218 5:11 6:262 7:24 8:303 9:50 10:337 11:88 12:363 13:129 14:381 15:173 16:391 17:213 18:390 19:242 20:382 21:258 22:360 23:273 24:329 25:284 26:293 27:292 28:258 29:298 30:223 31:297 32:193 33:290 34:164 35:81 36:107 37:106 38:87 39:137 40:81 41:168 42:88 43:196 44:102 45:243 46:102 47:256 48:87 49:273 50:77 51:288 52:78 53:293 54:94 55:222 56:135 57:228 58:155 59:236 60:173 61:243 62:193 63:205 64:235 65:220 66:235 67:234 68:235 69:242 70:232 71:250 72:228 73:116 74:148 75:133 76:133 77:154 78:130 79:170 80:146 81:154 82:153 83:133 84:154 85:237 86:144 87:254 88:128 89:273 90:127 91:281 92:142 93:273 94:150 95:255 96:149 97:170 98:300 99:197 100:283 101:222 102:271 103:233 104:274 105:243 106:269 107:255 108:278 109:258 110:297 111:254 112:307 113:244 114:314 115:233 116:317 117:221 118:318 119:197 120:311 121:180 122:299 123:222 124:292 125:233 126:292 127:242 128:290 129:252 130:296 131:243 132:294 133:234 134:295 135:222 136:296 
0 8.773195133221693e-11 0 1:6 2:150 3:10 4:194 5:17 6:236 7:29 8:277 9:49 10:311 11:79 12:341 13:118 14:360 15:161 16:370 17:202 18:371 19:234 20:365 21:256 22:345 23:272 24:315 25:284 26:281 27:291 28:248 29:294 30:213 31:296 32:181 33:292 34:149 35:78 36:104 37:105 38:85 39:134 40:76 41:165 42:77 43:192 44:87 45:231 46:86 47:247 48:82 49:263 50:82 51:278 52:87 53:286 54:99 55:214 56:121 57:217 58:141 59:222 60:159 61:226 62:179 63:189 64:218 65:204 66:221 67:218 68:224 69:228 70:221 71:238 72:216 73:114 74:142 75:132 76:140 77:149 78:137 79:167 80:137 81:150 82:144 83:134 84:146 85:235 86:137 87:251 88:138 89:264 90:139 91:274 92:143 93:263 94:145 95:250 96:143 97:158 98:274 99:185 100:259 101:206 102:248 103:220 104:252 105:232 106:248 107:244 108:257 109:254 110:271 111:243 112:282 113:230 114:287 115:217 116:289 117:203 118:289 119:184 120:286 121:169 122:273 123:205 124:265 125:219 126:267 127:231 128:265 129:247 130:270 131:230 132:268 133:218 134:269 135:204 136:269 
4.077905781300291e-10 2.938348918156152e-10 0 1:73 2:141 3:73 4:179 5:78 6:216 7:86 8:251 9:102 10:285 11:126 12:316 13:152 14:340 15:182 16:357 17:213 18:360 19:241 20:349 21:266 22:329 23:292 24:307 25:313 26:280 27:330 28:249 29:337 30:214 31:338 32:178 33:335 34:143 35:92 36:117 37:110 38:103 39:133 40:100 41:155 42:102 43:176 44:110 45:225 46:108 47:247 48:101 49:267 50:101 51:286 52:102 53:305 54:112 55:202 56:137 57:202 58:160 59:203 60:184 61:203 62:208 63:173 64:222 65:187 66:226 67:202 68:229 69:217 70:225 71:231 72:220 73:116 74:141 75:132 76:134 77:149 78:135 79:166 80:144 81:149 82:145 83:132 84:145 85:235 86:145 87:251 88:137 89:268 90:137 91:284 92:143 93:269 94:147 95:252 96:147 97:140 98:259 99:163 100:249 101:188 102:244 103:202 104:247 105:219 106:244 107:240 108:249 109:260 110:259 111:240 112:279 113:219 114:286 115:203 116:287 117:187 118:286 119:163 120:280 121:148 122:260 123:187 124:258 125:202 126:258 127:219 128:256 129:252 130:260 131:219 132:268 133:202 134:269 135:187 136:268 
0 0 2.508433357242033e-10 1:69 2:157 3:72 4:189 5:78 6:220 7:89 8:248 9:103 10:273 11:123 12:296 13:146 14:314 15:176 16:326 17:205 18:332 19:233 20:328 21:261 22:318 23:282 24:298 25:297 26:274 27:309 28:246 29:317 30:216 31:321 32:184 33:323 34:152 35:94 36:110 37:110 38:96 39:132 40:91 41:155 42:93 43:176 44:102 45:225 46:100 47:246 48:90 49:269 50:87 51:290 52:93 53:305 54:108 55:202 56:132 57:203 58:159 59:205 60:184 61:206 62:211 63:183 64:225 65:194 66:230 67:205 68:234 69:215 70:231 71:223 72:227 73:120 74:139 75:133 76:133 77:149 78:133 79:163 80:142 81:148 82:144 83:132 84:144 85:238 86:142 87:251 88:133 89:267 90:132 91:280 92:139 93:268 94:143 95:253 96:144 97:161 98:269 99:174 100:252 101:189 102:245 103:201 104:249 105:213 106:245 107:229 108:253 109:242 110:270 111:230 112:279 113:215 114:284 115:202 116:286 117:189 118:284 119:175 120:279 121:168 122:268 123:189 124:263 125:201 126:264 127:213 128:263 129:235 130:268 131:214 132:264 133:201 134:265 135:189 136:264 
3.798452909414762e-10 3.916933138485625e-10 6.992882635341472e-11 1:76 2:154 3:71 4:187 5:73 6:219 7:80 8:250 9:91 10:281 11:107 12:307 13:129 14:330 15:158 16:347 17:192 18:351 19:227 20:348 21:261 22:331 23:284 24:308 25:304 26:280 27:318 28:250 29:325 30:218 31:331 32:187 33:334 34:153 35:99 36:100 37:119 38:93 39:142 40:92 41:165 42:99 43:186 44:106 45:226 46:104 47:247 48:94 49:271 50:91 51:292 52:96 53:308 54:112 55:203 56:132 57:201 58:154 59:199 60:176 61:198 62:199 63:179 64:226 65:189 66:227 67:197 68:228 69:208 70:229 71:218 72:228 73:117 74:139 75:130 76:129 77:149 78:130 79:166 80:141 81:148 82:146 83:130 84:147 85:239 86:142 87:253 88:130 89:271 90:130 91:283 92:140 93:272 94:147 95:255 96:147 97:164 98:297 99:173 100:277 101:186 102:266 103:196 104:270 105:208 106:267 107:220 108:279 109:232 110:300 111:218 112:296 113:205 114:293 115:193 116:292 117:183 118:291 119:173 120:293 121:173 122:295 123:185 124:285 125:195 126:285 127:207 128:286 129:224 130:297 131:206 132:272 133:194 134:271 135:185 136:269 
1.572850220107135e-10 0 1.984756033618373e-10 1:36 2:103 3:37 4:150 5:43 6:195 7:58 8:238 9:82 10:276 11:116 12:311 13:150 14:341 15:186 16:367 17:226 18:373 19:264 20:362 21:296 22:331 23:328 24:295 25:358 26:259 27:379 28:217 29:389 30:172 31:391 32:124 33:390 34:74 35:68 36:100 37:95 38:89 39:126 40:89 41:154 42:95 43:181 44:108 45:219 46:111 47:248 48:99 49:276 50:93 51:306 52:90 53:337 54:94 55:204 56:141 57:205 58:176 59:206 60:212 61:207 62:247 63:177 64:251 65:191 66:260 67:208 68:267 69:226 70:258 71:240 72:249 73:105 74:134 75:125 76:129 77:146 78:131 79:164 80:144 81:144 82:150 83:122 84:147 85:242 86:142 87:259 88:128 89:280 90:127 91:302 92:129 93:284 94:143 95:263 96:147 97:163 98:293 99:186 100:295 101:200 102:294 103:210 104:297 105:222 106:293 107:238 108:292 109:264 110:287 111:241 112:310 113:226 114:320 115:214 116:323 117:203 118:321 119:186 120:314 121:172 122:295 123:201 124:302 125:211 126:304 127:222 128:301 129:254 130:291 131:224 132:302 133:213 134:305 135:202 136:303 
2.446008905860396e-11 0 0 1:85 2:154 3:83 4:186 5:85 6:220 7:92 8:253 9:102 10:284 11:121 12:311 13:145 14:334 15:173 16:351 17:205 18:356 19:238 20:349 21:275 22:335 23:308 24:317 25:333 26:290 27:349 28:259 29:356 30:223 31:356 32:188 33:355 34:155 35:92 36:106 37:107 38:90 39:130 40:87 41:152 42:93 43:172 44:103 45:221 46:102 47:246 48:92 49:271 50:89 51:294 52:93 53:313 54:107 55:198 56:136 57:196 58:158 59:195 60:180 61:194 62:201 63:176 64:222 65:186 66:227 67:197 68:230 69:208 70:227 71:218 72:223 73:116 74:139 75:132 76:130 77:151 78:131 79:166 80:146 81:149 82:149 83:129 84:148 85:235 86:145 87:250 88:132 89:269 90:131 91:284 92:141 93:271 94:147 95:253 96:148 97:149 98:267 99:165 100:256 101:184 102:249 103:195 104:252 105:208 106:250 107:230 108:257 109:251 110:269 111:229 112:278 113:210 114:285 115:195 116:287 117:182 118:286 119:165 120:280 121:156 122:267 123:184 124:267 125:196 126:269 127:209 128:268 129:243 130:268 131:208 132:266 133:195 134:267 135:182 136:266 
0 0 9.204458224065402e-11 1:62 2:168 3:66 4:198 5:72 6:229 7:80 8:259 9:93 10:286 11:112 12:310 13:136 14:328 15:166 16:340 17:201 18:342 19:236 20:340 21:268 22:330 23:291 24:308 25:308 26:281 27:317 28:250 29:323 30:219 31:328 32:189 33:330 34:158 35:88 36:114 37:103 38:94 39:126 40:83 41:153 42:81 43:179 44:90 45:225 46:92 47:250 48:83 49:276 50:87 51:297 52:99 53:310 54:120 55:202 56:126 57:203 58:144 59:204 60:161 61:205 62:178 63:179 64:207 65:191 66:211 67:204 68:213 69:216 70:211 71:226 72:208 73:118 74:144 75:133 76:132 77:152 78:131 79:167 80:142 81:151 82:145 83:133 84:147 85:236 86:142 87:253 88:132 89:270 90:134 91:284 92:145 93:269 94:147 95:252 96:145 97:156 98:259 99:172 100:238 101:191 102:228 103:205 104:231 105:218 106:227 107:237 108:239 109:251 110:261 111:235 112:270 113:217 114:275 115:203 116:276 117:189 118:275 119:171 120:269 121:164 122:257 123:191 124:249 125:204 126:250 127:218 128:250 129:243 130:260 131:217 132:252 133:203 134:253 135:190 136:252 
6.969379239751455e-11 1.550984016467733e-10 3.470914165220316e-10 1:66 2:133 3:70 4:169 5:75 6:206 7:80 8:241 9:92 10:276 11:115 12:305 13:140 14:327 15:171 16:344 17:206 18:350 19:242 20:345 21:280 22:329 23:314 24:308 25:344 26:280 27:363 28:248 29:371 30:210 31:374 32:168 33:375 34:129 35:86 36:96 37:99 38:75 39:122 40:66 41:147 42:68 43:171 44:80 45:227 46:77 47:251 48:68 49:276 50:66 51:299 52:75 53:314 54:92 55:200 56:124 57:199 58:148 59:198 60:171 61:197 62:194 63:177 64:220 65:187 66:224 67:199 68:226 69:211 70:223 71:222 72:220 73:119 74:139 75:134 76:139 77:150 78:138 79:166 80:137 81:150 82:144 83:135 84:145 85:236 86:137 87:253 88:137 89:268 90:138 91:283 92:138 93:268 94:144 95:253 96:144 97:155 98:267 99:171 100:255 101:186 102:249 103:198 104:253 105:211 106:250 107:228 108:256 109:250 110:269 111:230 112:283 113:212 114:286 115:198 116:287 117:185 118:286 119:170 120:281 121:164 122:267 123:186 124:260 125:198 126:261 127:210 128:261 129:240 130:268 131:211 132:268 133:198 134:268 135:186 136:267 
0 0 6.859091737360274e-11 1:38 2:190 3:29 4:234 5:29 6:279 7:36 8:322 9:49 10:360 11:68 12:390 13:96 14:408 15:131 16:417 17:171 18:421 19:216 20:424 21:259 22:417 23:298 24:403 25:332 26:378 27:354 28:342 29:370 30:300 31:378 32:257 33:377 34:214 35:73 36:80 37:94 38:57 39:126 40:51 41:158 42:57 43:187 44:73 45:230 46:88 47:258 48:79 49:287 50:77 51:316 52:84 53:336 54:107 55:202 56:127 57:200 58:152 59:197 60:177 61:194 62:201 63:164 64:261 65:180 66:261 67:195 68:260 69:210 70:261 71:227 72:262 73:94 74:133 75:113 76:121 77:137 78:123 79:156 80:143 81:134 82:144 83:110 84:142 85:251 86:147 87:272 88:133 89:295 90:136 91:313 92:150 93:294 94:156 95:270 96:153 97:135 98:351 99:157 100:327 101:180 102:306 103:195 104:312 105:209 106:308 107:230 108:329 109:251 110:358 111:226 112:359 113:205 114:361 115:190 116:362 117:174 118:360 119:153 120:358 121:146 122:349 123:179 124:339 125:194 126:339 127:207 128:339 129:239 130:356 131:206 132:321 133:192 134:322 135:177 136:322 
1.409254712487193e-10 2.567949280292992e-10 2.06321175313246e-10 1:57 2:113 3:50 4:152 5:45 6:195 7:47 8:236 9:57 10:275 11:77 12:309 13:104 14:335 15:138 16:350 17:172 18:353 19:208 20:349 21:243 22:337 23:275 24:323 25:308 26:302 27:333 28:274 29:348 30:240 31:356 32:207 33:362 34:170 35:103 36:95 37:120 38:80 39:142 40:73 41:166 42:75 43:184 44:89 45:228 46:97 47:253 48:86 49:282 50:85 51:308 52:94 53:323 54:116 55:203 56:133 57:198 58:148 59:194 60:162 61:189 62:176 63:164 64:214 65:176 66:216 67:185 68:219 69:198 70:219 71:211 72:215 73:121 74:140 75:135 76:130 77:152 78:131 79:167 80:144 81:152 82:146 83:134 84:146 85:233 86:145 87:250 88:132 89:270 90:133 91:285 92:144 93:270 94:148 95:250 96:148 97:138 98:269 99:155 100:247 101:171 102:237 103:181 104:241 105:192 106:237 107:207 108:249 109:221 110:268 111:204 112:277 113:189 114:281 115:177 116:282 117:165 118:281 119:151 120:275 121:147 122:265 123:170 124:259 125:180 126:260 127:192 128:259 129:212 130:266 131:191 132:260 133:180 134:263 135:168 136:263 
5.86855309559093e-11 1.854226969354214e-10 3.869077318179136e-11 1:-1 2:131 3:-1 4:182 5:6 6:235 7:18 8:285 9:42 10:328 11:79 12:364 13:117 14:388 15:159 16:401 17:206 18:403 19:246 20:395 21:271 22:368 23:291 24:334 25:308 26:296 27:321 28:254 29:329 30:212 31:332 32:170 33:327 34:129 35:55 36:102 37:86 38:91 39:118 40:99 41:147 42:106 43:177 44:115 45:226 46:113 47:252 48:105 49:275 50:97 51:299 52:90 53:321 54:100 55:203 56:139 57:207 58:173 59:213 60:207 61:218 62:240 63:174 64:267 65:193 66:270 67:212 68:271 69:229 70:267 71:246 72:261 73:91 74:136 75:111 76:132 77:133 78:131 79:151 80:139 81:131 82:146 83:109 84:147 85:238 86:138 87:256 88:129 89:276 90:129 91:290 92:133 93:278 94:144 95:257 96:144 97:150 98:318 99:176 100:317 101:198 102:312 103:210 104:317 105:223 106:311 107:235 108:315 109:248 110:317 111:235 112:313 113:223 114:317 115:210 116:320 117:196 118:320 119:176 120:318 121:161 122:319 123:197 124:330 125:211 126:331 127:223 128:328 129:238 130:318 131:222 132:293 133:211 134:296 135:198 136:295 
4.218049518009881e-10 0 0 1:62 2:136 3:63 4:169 5:70 6:202 7:78 8:235 9:91 10:266 11:110 12:294 13:134 14:318 15:163 16:340 17:192 18:347 19:221 20:342 21:248 22:323 23:271 24:302 25:291 26:274 27:303 28:245 29:313 30:211 31:320 32:176 33:321 34:141 35:88 36:105 37:107 38:93 39:131 40:91 41:154 42:95 43:176 44:106 45:227 46:105 47:249 48:93 49:270 50:88 51:291 52:89 53:309 54:100 55:202 56:135 57:201 58:159 59:202 60:182 61:202 62:205 63:176 64:224 65:188 66:228 67:200 68:231 69:211 70:228 71:221 72:224 73:117 74:140 75:132 76:132 77:151 78:133 79:165 80:144 81:149 82:147 83:131 84:148 85:235 86:144 87:252 88:132 89:270 90:131 91:281 92:139 93:271 94:146 95:253 96:147 97:152 98:267 99:171 100:255 101:189 102:248 103:198 104:252 105:209 106:248 107:225 108:256 109:239 110:268 111:226 112:288 113:209 114:294 115:197 116:294 117:186 118:292 119:170 120:284 121:162 122:267 123:187 124:266 125:198 126:267 127:208 128:267 129:232 130:268 131:208 132:268 133:198 134:268 135:188 136:267 
0 6.501106666367354e-12 0 1:99 2:159 3:91 4:196 5:94 6:237 7:109 8:277 9:127 10:313 11:144 12:348 13:159 14:378 15:175 16:396 17:202 18:402 19:236 20:405 21:274 22:398 23:307 24:372 25:337 26:338 27:362 28:295 29:378 30:245 31:384 32:194 33:384 34:147 35:101 36:76 37:113 38:65 39:130 40:67 41:146 42:75 43:163 44:86 45:211 46:84 47:238 48:73 49:264 50:67 51:293 52:69 53:322 54:76 55:189 56:139 57:184 58:173 59:178 60:204 61:172 62:236 63:161 64:267 65:173 66:271 67:185 68:273 69:200 70:271 71:215 72:271 73:112 74:139 75:123 76:123 77:145 78:124 79:162 80:146 81:143 82:152 83:122 84:152 85:244 86:145 87:260 88:124 89:284 90:124 91:304 92:138 93:287 94:152 95:264 96:153 97:166 98:339 99:167 100:326 101:178 102:317 103:188 104:323 105:200 106:319 107:228 108:331 109:258 110:346 111:231 112:361 113:206 114:366 115:192 116:366 117:182 118:363 119:170 120:352 121:173 122:340 123:180 124:341 125:189 126:342 127:201 128:342 129:248 130:345 131:203 132:340 133:191 134:339 135:182 136:336 
0 9.38935780173571e-11 0 1:91 2:148 3:91 4:184 5:95 6:217 7:104 8:250 9:116 10:280 11:135 12:306 13:155 14:327 15:182 16:344 17:215 18:348 19:248 20:342 21:282 22:328 23:311 24:308 25:334 26:284 27:348 28:254 29:354 30:217 31:356 32:178 33:356 34:137 35:97 36:110 37:111 38:95 39:131 40:93 41:151 42:98 43:169 44:108 45:217 46:104 47:242 48:92 49:268 50:87 51:293 52:91 53:314 54:105 55:195 56:139 57:195 58:162 59:193 60:185 61:192 62:209 63:173 64:227 65:185 66:231 67:197 68:233 69:209 70:230 71:223 72:227 73:119 74:140 75:132 76:129 77:150 78:130 79:164 80:147 81:149 82:150 83:131 84:149 85:238 86:147 87:252 88:129 89:271 90:128 91:287 92:139 93:274 94:148 95:255 96:150 97:157 98:266 99:172 100:261 101:188 102:256 103:198 104:259 105:211 106:257 107:234 108:261 109:260 110:261 111:235 112:275 113:214 114:283 115:200 116:285 117:189 118:285 119:174 120:281 121:163 122:268 123:189 124:268 125:199 126:269 127:212 128:268 129:252 130:262 131:212 132:268 133:199 134:269 135:188 136:269 
8.012462016892131e-11 7.787237732270521e-11 0 1:67 2:110 3:69 4:151 5:74 6:195 7:85 8:236 9:106 10:273 11:133 12:306 13:156 14:341 15:184 16:372 17:221 18:380 19:260 20:372 21:293 22:346 23:326 24:313 25:356 26:276 27:377 28:231 29:383 30:184 31:384 32:135 33:380 34:88 35:89 36:105 37:108 38:95 39:130 40:98 41:153 42:105 43:175 44:115 45:217 46:118 47:238 48:106 49:262 50:100 51:288 52:95 53:315 54:98 55:199 56:147 57:197 58:178 59:196 60:209 61:194 62:240 63:177 64:254 65:189 66:258 67:204 68:261 69:217 70:257 71:231 72:254 73:115 74:136 75:129 76:130 77:148 78:133 79:163 80:144 81:146 82:149 83:127 84:147 85:240 86:144 87:254 88:130 89:274 90:129 91:291 92:132 93:277 94:143 95:257 96:146 97:164 98:290 99:182 100:292 101:198 102:291 103:212 104:295 105:228 106:293 107:255 108:295 109:286 110:288 111:259 112:319 113:232 114:328 115:214 116:330 117:198 118:327 119:181 120:315 121:171 122:294 123:199 124:303 125:212 126:306 127:229 128:304 129:277 130:293 131:229 132:306 133:212 134:306 135:197 136:304 
2.795105499854416e-11 1.077612725773966e-11 5.019439226773201e-11 1:90 2:133 3:90 4:169 5:95 6:204 7:105 8:240 9:119 10:275 11:138 12:304 13:162 14:330 15:186 16:349 17:215 18:353 19:250 20:347 21:286 22:332 23:318 24:310 25:347 26:281 27:367 28:246 29:376 30:203 31:378 32:158 33:375 34:115 35:104 36:72 37:117 38:64 39:133 40:62 41:150 42:65 43:161 44:74 45:200 46:73 47:221 48:62 49:248 50:59 51:276 52:65 53:300 54:79 55:185 56:115 57:185 58:143 59:185 60:171 61:186 62:200 63:170 64:220 65:181 66:226 67:192 68:229 69:205 70:225 71:217 72:220 73:119 74:116 75:129 76:103 77:148 78:105 79:164 80:123 81:146 82:127 83:128 84:125 85:227 86:120 87:242 88:103 89:264 90:102 91:283 92:113 93:266 94:124 95:245 96:126 97:159 98:270 99:167 100:254 101:183 102:245 103:194 104:249 105:206 106:244 107:226 108:253 109:244 110:269 111:227 112:284 113:210 114:292 115:198 116:293 117:186 118:292 119:171 120:286 121:167 122:269 123:185 124:264 125:195 126:264 127:207 128:264 129:234 130:268 131:207 132:268 133:195 134:269 135:185 136:269 
1.664670875097306e-11 0 0 1:-29 2:146 3:-28 4:199 5:-21 6:255 7:-4 8:307 9:26 10:351 11:72 12:383 13:125 14:404 15:180 16:410 17:221 18:406 19:250 20:394 21:262 22:360 23:274 24:320 25:286 26:285 27:296 28:249 29:303 30:214 31:302 32:180 33:295 34:150 35:70 36:97 37:103 38:77 39:141 40:67 41:178 42:70 43:211 44:84 45:261 46:85 47:277 48:74 49:293 50:68 51:305 52:67 53:311 54:77 55:238 56:139 57:249 58:173 59:259 60:206 61:272 62:239 63:207 64:272 65:229 66:275 67:250 68:276 69:264 70:271 71:275 72:262 73:105 74:141 75:130 76:127 77:159 78:127 79:177 80:146 81:157 82:154 83:128 84:153 85:248 86:141 87:266 88:124 89:287 90:121 91:293 92:134 93:287 94:146 95:267 96:148 97:154 98:327 99:195 100:321 101:231 102:314 103:244 104:317 105:256 106:311 107:264 108:313 109:266 110:314 111:261 112:328 113:253 114:341 115:241 116:345 117:226 118:347 119:194 120:344 121:164 122:327 123:229 124:330 125:243 126:329 127:254 128:326 129:259 130:319 131:254 132:315 133:244 134:320 135:230 136:324 
0 0 4.030012335530186e-12 1:34 2:166 3:40 4:205 5:49 6:244 7:59 8:281 9:78 10:312 11:110 12:336 13:146 14:355 15:185 16:367 17:220 18:370 19:251 20:360 21:277 22:340 23:299 24:314 25:312 26:284 27:318 28:250 29:320 30:216 31:322 32:181 33:320 34:148 35:82 36:119 37:102 38:96 39:131 40:86 41:161 42:85 43:190 44:95 45:224 46:95 47:248 48:86 49:275 50:86 51:298 52:95 53:309 54:116 55:208 56:133 57:212 58:156 59:215 60:179 61:220 62:202 63:190 64:231 65:202 66:234 67:215 68:237 69:226 70:233 71:236 72:228 73:115 74:139 75:131 76:129 77:150 78:131 79:167 80:146 81:149 82:147 83:129 84:146 85:236 86:146 87:251 88:130 89:269 90:129 91:284 92:140 93:271 94:146 95:252 96:148 97:163 98:281 99:185 100:270 101:203 102:260 103:216 104:264 105:226 106:259 107:240 108:266 109:256 110:275 111:242 112:286 113:230 114:293 115:219 116:296 117:206 118:296 119:187 120:293 121:170 122:281 123:204 124:277 125:216 126:278 127:227 128:275 129:249 130:275 131:228 132:276 133:217 134:279 135:205 136:278 
3.326015281497993e-12 0 0 1:128 2:151 3:120 4:177 5:117 6:205 7:120 8:235 9:126 10:263 11:133 12:294 13:142 14:324 15:148 16:353 17:166 18:371 19:200 20:376 21:249 22:373 23:298 24:362 25:344 26:338 27:378 28:305 29:397 30:259 31:409 32:210 33:415 34:161 35:116 36:101 37:123 38:100 39:131 40:105 41:141 42:110 43:150 44:118 45:187 46:124 47:220 48:115 49:255 50:112 51:288 52:120 53:321 54:134 55:164 56:153 57:154 58:177 59:144 60:201 61:132 62:224 63:132 64:237 65:139 66:248 67:148 68:254 69:161 70:251 71:175 72:247 73:126 74:145 75:130 76:135 77:145 78:138 79:160 80:152 81:143 82:158 83:128 84:156 85:218 86:154 87:234 88:139 89:257 90:141 91:281 92:151 93:257 94:161 95:234 96:161 97:137 98:280 99:134 100:268 101:139 102:265 103:147 104:270 105:158 106:269 107:185 108:280 109:216 110:298 111:187 112:319 113:162 114:321 115:151 116:318 117:141 118:313 119:137 120:299 121:141 122:282 123:141 124:279 125:149 126:282 127:160 128:284 129:208 130:297 131:160 132:299 133:149 134:297 135:140 136:292 
5.064611650957497e-11 1.548881521866457e-10 2.800132506701515e-11 1:12 2:160 3:10 4:201 5:12 6:249 7:22 8:292 9:43 10:334 11:75 12:366 13:116 14:388 15:164 16:398 17:216 18:400 19:263 20:393 21:305 22:379 23:340 24:352 25:365 26:316 27:381 28:273 29:386 30:230 31:382 32:187 33:373 34:152 35:74 36:114 37:96 38:94 39:127 40:87 41:159 42:90 43:187 44:101 45:214 46:101 47:240 48:88 49:269 50:80 51:299 52:79 53:323 54:93 55:203 56:135 57:205 58:154 59:207 60:171 61:209 62:191 63:180 64:239 65:195 66:240 67:210 68:238 69:223 70:235 71:236 72:232 73:113 74:143 75:130 76:132 77:149 78:129 79:163 80:142 81:148 82:146 83:130 84:146 85:245 86:139 87:259 88:123 89:276 90:122 91:291 92:132 93:277 94:137 95:260 96:139 97:141 98:296 99:174 100:293 101:198 102:285 103:212 104:286 105:226 106:281 107:246 108:284 109:277 110:284 111:250 112:283 113:230 114:286 115:215 116:290 117:201 118:292 119:175 120:294 121:152 122:296 123:198 124:301 125:213 126:300 127:226 128:296 129:265 130:285 131:227 132:273 133:214 134:275 135:200 136:278 
2.970404029093544e-11 2.155044629469142e-11 8.479646160472095e-11 1:-47 2:135 3:-45 4:193 5:-41 6:256 7:-26 8:312 9:2 10:354 11:46 12:381 13:95 14:397 15:147 16:403 17:193 18:405 19:226 20:397 21:238 22:369 23:245 24:337 25:257 26:298 27:268 28:262 29:275 30:226 31:278 32:191 33:273 34:158 35:66 36:82 37:100 38:60 39:140 40:53 41:180 42:59 43:212 44:79 45:264 46:84 47:278 48:71 49:290 50:63 51:302 52:63 53:304 54:75 55:241 56:141 57:251 58:174 59:262 60:204 61:273 62:233 63:209 64:261 65:232 66:265 67:253 68:270 69:267 70:268 71:276 72:260 73:105 74:139 75:131 76:131 77:156 78:129 79:173 80:143 81:155 82:150 83:131 84:150 85:249 86:143 87:265 88:131 89:281 90:129 91:287 92:138 93:282 94:147 95:266 96:148 97:153 98:321 99:194 100:309 101:227 102:303 103:242 104:308 105:254 106:304 107:257 108:312 109:252 110:324 111:249 112:334 113:244 114:342 115:231 116:345 117:216 118:344 119:186 120:336 121:165 122:320 123:223 124:321 125:238 126:323 127:248 128:323 129:247 130:322 131:246 132:315 133:235 134:317 135:221 136:317 
2.222374251172589e-10 5.950254799128534e-11 1.945734208264064e-10 1:97 2:144 3:98 4:174 5:104 6:206 7:118 8:237 9:135 10:265 11:154 12:291 13:172 14:316 15:192 16:342 17:218 18:351 19:248 20:347 21:283 22:327 23:315 24:301 25:343 26:273 27:361 28:238 29:366 30:199 31:367 32:158 33:363 34:120 35:93 36:104 37:105 38:89 39:124 40:89 41:145 42:93 43:165 44:103 45:207 46:106 47:235 48:94 49:265 50:90 51:295 52:92 53:320 54:104 55:192 56:139 57:191 58:165 59:190 60:190 61:189 62:216 63:175 64:228 65:185 66:233 67:198 68:237 69:211 70:232 71:224 72:227 73:119 74:137 75:131 76:128 77:150 78:130 79:167 80:147 81:149 82:149 83:130 84:147 85:234 86:147 87:249 88:131 89:270 90:129 91:288 92:138 93:273 94:147 95:253 96:149 97:166 98:259 99:177 100:257 101:191 102:258 103:203 104:261 105:216 106:259 107:243 108:259 109:271 110:256 111:247 112:284 113:222 114:296 115:208 116:298 117:194 118:295 119:179 120:283 121:171 122:263 123:193 124:267 125:205 126:269 127:218 128:267 129:263 130:260 131:218 132:279 133:205 134:281 135:193 136:277 
7.355341061788101e-11 4.368527289232202e-10 5.160890069199118e-10 1:54 2:158 3:60 4:193 5:66 6:226 7:74 8:260 9:89 10:292 11:112 12:320 13:138 14:345 15:168 16:365 17:202 18:372 19:235 20:364 21:265 22:341 23:289 24:314 25:310 26:285 27:324 28:250 29:330 30:214 31:335 32:178 33:338 34:141 35:81 36:114 37:98 38:101 39:121 40:95 41:146 42:96 43:168 44:105 45:218 46:96 47:241 48:83 49:269 50:82 51:294 52:90 53:311 54:107 55:196 56:135 57:196 58:165 59:196 60:193 61:196 62:222 63:167 64:230 65:182 66:236 67:196 68:242 69:213 70:235 71:228 72:228 73:112 74:143 75:127 76:131 77:146 78:131 79:161 80:147 81:145 82:150 83:126 84:150 85:233 86:144 87:248 88:128 89:268 90:125 91:281 92:137 93:269 94:144 95:249 96:146 97:140 98:262 99:161 100:259 101:182 102:258 103:199 104:263 105:215 106:259 107:239 108:258 109:264 110:257 111:243 112:289 113:218 114:303 115:202 116:306 117:184 118:304 119:161 120:292 121:148 122:266 123:183 124:267 125:199 126:269 127:215 128:266 129:256 130:262 131:218 132:286 133:201 134:289 135:184 136:287 
7.182140438681072e-11 3.79845718277153e-10 1.382354678551592e-10 1:67 2:144 3:68 4:181 5:71 6:218 7:77 8:254 9:90 10:287 11:111 12:315 13:137 14:338 15:170 16:356 17:204 18:363 19:237 20:360 21:268 22:342 23:294 24:319 25:313 26:291 27:325 28:256 29:332 30:221 31:337 32:185 33:337 34:146 35:92 36:113 37:107 38:96 39:131 40:90 41:155 42:95 43:177 44:104 45:225 46:101 47:247 48:92 49:271 50:89 51:294 52:95 53:312 54:110 55:202 56:137 57:202 58:162 59:202 60:186 61:202 62:211 63:177 64:229 65:189 66:233 67:202 68:237 69:214 70:234 71:227 72:231 73:120 74:139 75:134 76:131 77:151 78:133 79:165 80:146 81:150 82:147 83:133 84:145 85:240 86:146 87:253 88:133 89:270 90:131 91:284 92:138 93:272 94:145 95:254 96:146 97:154 98:269 99:170 100:262 101:187 102:258 103:201 104:262 105:213 106:259 107:231 108:265 109:249 110:273 111:231 112:287 113:212 114:291 115:199 116:292 117:185 118:290 119:169 120:284 121:161 122:270 123:187 124:272 125:200 126:274 127:213 128:273 129:243 130:273 131:212 132:271 133:200 134:271 135:186 136:270 
1.111468182493481e-10 2.012313423743503e-10 0 1:70 2:152 3:69 4:189 5:73 6:226 7:79 8:261 9:95 10:293 11:118 12:319 13:146 14:337 15:170 16:351 17:199 18:357 19:229 20:356 21:261 22:348 23:296 24:334 25:330 26:310 27:356 28:277 29:369 30:240 31:373 32:199 33:376 34:159 35:97 36:114 37:113 38:95 39:136 40:86 41:162 42:86 43:187 44:94 45:208 46:93 47:237 48:81 49:270 50:78 51:301 52:88 53:321 54:109 55:199 56:132 57:198 58:155 59:196 60:177 61:194 62:200 63:171 64:228 65:185 66:231 67:198 68:233 69:211 70:232 71:225 72:229 73:118 74:144 75:130 76:138 77:148 78:137 79:164 80:143 81:148 82:150 83:131 84:150 85:237 86:142 87:253 88:133 89:272 90:133 91:291 92:139 93:274 94:146 95:254 96:147 97:159 98:285 99:170 100:268 101:183 102:259 103:195 104:263 105:207 106:259 107:226 108:269 109:245 110:287 111:225 112:291 113:209 114:294 115:196 116:296 117:184 118:296 119:171 120:292 121:167 122:283 123:184 124:276 125:195 126:277 127:208 128:276 129:236 130:284 131:207 132:277 133:195 134:279 135:184 136:279 
2.641083216859662e-10 6.404932151505327e-11 3.340156490234668e-10 1:53 2:160 3:55 4:197 5:60 6:233 7:72 8:266 9:91 10:295 11:115 12:321 13:143 14:342 15:175 16:357 17:211 18:360 19:241 20:354 21:263 22:337 23:279 24:313 25:295 26:288 27:306 28:259 29:314 30:226 31:319 32:191 33:319 34:157 35:90 36:104 37:109 38:91 39:131 40:90 41:154 42:95 43:176 44:105 45:228 46:103 47:249 48:95 49:268 50:92 51:287 52:92 53:301 54:105 55:209 56:136 57:211 58:156 59:213 60:175 61:216 62:195 63:187 64:221 65:200 66:223 67:212 68:226 69:223 70:223 71:234 72:220 73:117 74:140 75:132 76:130 77:152 78:131 79:165 80:145 81:150 82:149 83:130 84:149 85:238 86:145 87:252 88:131 89:270 90:130 91:282 92:140 93:272 94:149 95:255 96:149 97:168 98:283 99:182 100:264 101:200 102:253 103:212 104:257 105:224 106:254 107:240 108:263 109:251 110:279 111:240 112:294 113:227 114:301 115:213 116:303 117:200 118:302 119:183 120:298 121:176 122:282 123:200 124:272 125:212 126:271 127:225 128:272 129:243 130:280 131:225 132:279 133:213 134:281 135:200 136:280 
0 0 3.840917697773575e-10 1:111 2:150 3:109 4:183 5:111 6:216 7:120 8:249 9:129 10:281 11:142 12:314 13:157 14:343 15:179 16:371 17:210 18:382 19:250 20:378 21:295 22:362 23:336 24:336 25:370 26:305 27:391 28:266 29:400 30:224 31:404 32:179 33:405 34:137 35:108 36:104 37:117 38:92 39:131 40:90 41:148 42:92 43:164 44:100 45:204 46:96 47:234 48:86 49:268 50:86 51:300 52:94 53:326 54:111 55:186 56:140 57:180 58:166 59:173 60:191 61:166 62:218 63:161 64:238 65:170 66:244 67:181 68:248 69:194 70:244 71:211 72:241 73:126 74:142 75:133 76:127 77:151 78:129 79:167 80:148 81:149 82:151 83:132 84:151 85:236 86:148 87:247 88:128 89:269 90:127 91:290 92:141 93:272 94:150 95:251 96:151 97:162 98:288 99:165 100:280 101:176 102:275 103:190 104:280 105:204 106:275 107:229 108:280 109:256 110:290 111:232 112:307 113:211 114:314 115:195 116:316 117:181 118:313 119:170 120:303 121:168 122:290 123:179 124:292 125:192 126:293 127:206 128:292 129:246 130:291 131:206 132:296 133:192 134:296 135:179 136:294 
1.063758447421411e-10 1.274343169165066e-10 3.29326901826116e-10 1:42 2:119 3:39 4:155 5:38 6:197 7:44 8:235 9:62 10:272 11:84 12:301 13:112 14:325 15:143 16:348 17:176 18:356 19:204 20:350 21:230 22:328 23:256 24:303 25:278 26:273 27:296 28:241 29:309 30:204 31:316 32:169 33:320 34:139 35:100 36:91 37:128 38:88 39:152 40:91 41:172 42:99 43:193 44:110 45:236 46:118 47:256 48:115 49:273 50:115 51:290 52:116 53:303 54:127 55:210 56:141 57:208 58:162 59:207 60:182 61:205 62:204 63:172 64:217 65:184 66:223 67:197 68:229 69:211 70:228 71:222 72:226 73:119 74:135 75:136 76:128 77:155 78:129 79:169 80:143 81:151 82:149 83:133 84:146 85:238 86:152 87:253 88:142 89:271 90:145 91:283 92:156 93:269 94:164 95:252 96:162 97:133 98:264 99:159 100:257 101:183 102:253 103:195 104:259 105:206 106:260 107:223 108:269 109:240 110:279 111:216 112:291 113:198 114:297 115:184 116:296 117:170 118:291 119:151 120:280 121:142 122:266 123:180 124:269 125:193 126:273 127:204 128:274 129:232 130:280 131:200 132:277 133:189 134:277 135:176 136:274 
3.829484309708387e-11 1.024634643024375e-10 0 1:73 2:166 3:78 4:200 5:88 6:232 7:102 8:262 9:119 10:290 11:138 12:316 13:161 14:339 15:190 16:352 17:219 18:354 19:249 20:346 21:275 22:332 23:295 24:310 25:313 26:283 27:325 28:253 29:329 30:220 31:330 32:187 33:329 34:154 35:87 36:112 37:102 38:96 39:124 40:91 41:147 42:95 43:169 44:103 45:217 46:103 47:239 48:93 49:263 50:89 51:286 52:93 53:303 54:108 55:196 56:132 57:197 58:155 59:197 60:178 61:197 62:202 63:175 64:222 65:188 66:227 67:201 68:231 69:212 70:227 71:224 72:222 73:118 74:139 75:132 76:131 77:150 78:130 79:164 80:143 81:149 82:147 83:132 84:146 85:236 86:142 87:252 88:131 89:270 90:131 91:282 92:140 93:271 94:146 95:253 96:146 97:162 98:274 99:176 100:261 101:192 102:254 103:206 104:257 105:219 106:253 107:238 108:259 109:257 110:277 111:241 112:283 113:224 114:288 115:210 116:289 117:195 118:288 119:178 120:284 121:168 122:273 123:194 124:266 125:207 126:267 127:221 128:266 129:250 130:275 131:222 132:272 133:208 134:274 135:194 136:273 
6.866350113616816e-11 2.535640987802348e-10 0 1:74 2:141 3:77 4:175 5:82 6:208 7:90 8:240 9:102 10:270 11:119 12:297 13:143 14:320 15:171 16:336 17:201 18:343 19:232 20:338 21:260 22:320 23:284 24:296 25:300 26:267 27:313 28:236 29:321 30:203 31:325 32:168 33:326 34:135 35:94 36:114 37:113 38:101 39:136 40:99 41:160 42:102 43:184 44:111 45:216 46:112 47:239 48:103 49:263 50:99 51:287 52:99 53:306 54:111 55:201 56:139 57:201 58:161 59:201 60:184 61:202 62:206 63:177 64:226 65:189 66:230 67:201 68:233 69:214 70:231 71:226 72:226 73:117 74:139 75:132 76:131 77:149 78:132 79:165 80:146 81:148 82:149 83:130 84:147 85:236 86:146 87:250 88:132 89:269 90:130 91:284 92:139 93:270 94:148 95:252 96:149 97:159 98:273 99:174 100:262 101:190 102:255 103:200 104:258 105:210 106:255 107:226 108:261 109:242 110:272 111:226 112:284 113:212 114:291 115:201 116:292 117:189 118:291 119:175 120:285 121:166 122:273 123:190 124:271 125:200 126:272 127:211 128:271 129:236 130:272 131:211 132:271 133:200 134:273 135:190 136:272 
1.001917944238263e-09 5.114100826601848e-10 3.336870110942061e-10 1:23 2:140 3:23 4:181 5:21 6:222 7:29 8:263 9:51 10:297 11:83 12:324 13:118 14:345 15:156 16:363 17:193 18:368 19:227 20:361 21:255 22:341 23:280 24:319 25:300 26:292 27:310 28:257 29:312 30:222 31:314 32:186 33:315 34:151 35:89 36:108 37:107 38:90 39:132 40:82 41:158 42:82 43:183 44:90 45:231 46:90 47:252 48:83 49:273 50:84 51:291 52:93 53:301 54:112 55:208 56:135 57:210 58:159 59:212 60:183 61:214 62:207 63:179 64:228 65:195 66:231 67:210 68:234 69:223 70:232 71:235 72:229 73:118 74:140 75:133 76:131 77:151 78:131 79:164 80:144 81:150 82:149 83:133 84:148 85:237 86:144 87:252 88:133 89:268 90:132 91:279 92:142 93:269 94:149 95:253 96:149 97:152 98:284 99:176 100:275 101:196 102:270 103:208 104:273 105:220 106:269 107:234 108:274 109:247 110:282 111:235 112:294 113:221 114:297 115:209 116:298 117:196 118:297 119:176 120:294 121:161 122:284 123:196 124:281 125:208 126:281 127:220 128:280 129:241 130:282 131:220 132:282 133:209 134:283 135:196 136:283 
0 2.473440580805462e-10 0 1:73 2:181 3:77 4:214 5:84 6:247 7:93 8:277 9:104 10:302 11:121 12:323 13:145 14:332 15:172 16:338 17:202 18:340 19:233 20:338 21:260 22:332 23:283 24:321 25:298 26:299 27:309 28:273 29:316 30:243 31:322 32:212 33:327 34:178 35:96 36:109 37:109 38:92 39:129 40:84 41:152 42:83 43:173 44:92 45:225 46:91 47:247 48:81 49:272 50:85 51:293 52:95 53:307 54:114 55:199 56:122 57:199 58:138 59:200 60:154 61:200 62:170 63:173 64:202 65:186 66:207 67:200 68:210 69:213 70:207 71:225 72:202 73:117 74:145 75:131 76:136 77:148 78:134 79:162 80:139 81:148 82:144 83:132 84:146 85:237 86:139 87:253 88:135 89:269 90:137 91:282 92:145 93:268 94:146 95:252 96:144 97:167 98:283 99:174 100:248 101:188 102:235 103:199 104:238 105:211 106:234 107:226 108:249 109:234 110:283 111:226 112:282 113:213 114:286 115:200 116:287 117:188 118:285 119:175 120:280 121:177 122:276 123:188 124:259 125:199 126:259 127:211 128:259 129:224 130:275 131:212 132:260 133:199 134:261 135:188 136:260 
5.348887854264741e-11 0 1.016330423979079e-10 1:38 2:171 3:37 4:210 5:42 6:248 7:54 8:284 9:78 10:313 11:105 12:337 13:138 14:357 15:172 16:372 17:204 18:377 19:234 20:374 21:262 22:358 23:281 24:333 25:299 26:300 27:312 28:266 29:319 30:231 31:320 32:196 33:317 34:162 35:87 36:113 37:109 38:100 39:134 40:95 41:161 42:97 43:186 44:107 45:233 46:109 47:249 48:99 49:264 50:96 51:280 52:97 53:295 54:104 55:210 56:139 57:213 58:161 59:217 60:182 61:221 62:203 63:187 64:228 65:200 66:233 67:214 68:236 69:225 70:236 71:234 72:233 73:116 74:140 75:132 76:130 77:151 78:130 79:165 80:144 81:150 82:146 83:132 84:146 85:237 86:145 87:251 88:133 89:268 90:133 91:280 92:144 93:268 94:150 95:252 96:149 97:158 98:280 99:178 100:268 101:199 102:262 103:211 104:268 105:221 106:266 107:238 108:277 109:245 110:299 111:234 112:314 113:218 114:316 115:205 116:313 117:192 118:308 119:175 120:297 121:169 122:280 123:198 124:279 125:211 126:282 127:221 128:283 129:239 130:297 131:218 132:291 133:207 134:289 135:194 136:285 
0 1.046691338005073e-11 0 1:48 2:164 3:51 4:202 5:57 6:240 7:67 8:275 9:85 10:304 11:109 12:326 13:138 14:342 15:171 16:353 17:205 18:355 19:233 20:345 21:253 22:325 23:271 24:303 25:290 26:276 27:301 28:249 29:307 30:219 31:308 32:188 33:304 34:156 35:82 36:118 37:103 38:100 39:131 40:91 41:160 42:94 43:187 44:104 45:226 46:105 47:246 48:98 49:265 50:96 51:286 52:99 53:299 54:113 55:212 56:135 57:214 58:158 59:218 60:181 61:222 62:204 63:183 64:219 65:199 66:223 67:216 68:227 69:230 70:223 71:241 72:219 73:115 74:143 75:131 76:134 77:148 78:134 79:165 80:143 81:149 82:144 83:132 84:145 85:240 86:144 87:254 88:134 89:269 90:134 91:281 92:143 93:270 94:145 95:255 96:145 97:141 98:258 99:171 100:251 101:199 102:247 103:215 104:250 105:230 106:246 107:247 108:249 109:262 110:256 111:246 112:275 113:229 114:283 115:213 116:286 117:195 118:284 119:170 120:277 121:150 122:258 123:198 124:256 125:214 126:258 127:229 128:256 129:253 130:256 131:229 132:266 133:214 134:269 135:197 136:268 
3.853372303950935e-11 0 0 1:78 2:130 3:82 4:164 5:90 6:198 7:98 8:231 9:110 10:263 11:127 12:292 13:148 14:316 15:172 16:335 17:201 18:340 19:232 20:332 21:262 22:313 23:291 24:291 25:315 26:264 27:332 28:234 29:337 30:198 31:338 32:164 33:339 34:128 35:92 36:105 37:110 38:93 39:132 40:93 41:152 42:100 43:171 44:111 45:221 46:110 47:240 48:100 49:261 50:94 51:284 52:92 53:304 54:102 55:195 56:141 57:194 58:166 59:193 60:189 61:193 62:213 63:173 64:225 65:184 66:230 67:196 68:234 69:208 70:230 71:220 72:226 73:118 74:140 75:133 76:131 77:151 78:134 79:165 80:146 81:149 82:149 83:131 84:148 85:236 86:145 87:251 88:132 89:269 90:131 91:283 92:139 93:271 94:147 95:253 96:148 97:145 98:252 99:167 100:250 101:184 102:248 103:198 104:252 105:213 106:249 107:232 108:252 109:255 110:253 111:233 112:274 113:213 114:283 115:197 116:285 117:183 118:283 119:165 120:274 121:151 122:255 123:184 124:262 125:198 126:264 127:213 128:263 129:246 130:257 131:212 132:263 133:197 134:265 135:183 136:263 
9.867080081070549e-11 0 1.952371185892651e-10 1:77 2:136 3:75 4:169 5:76 6:204 7:79 8:241 9:87 10:277 11:104 12:309 13:124 14:338 15:151 16:360 17:183 18:365 19:218 20:361 21:254 22:343 23:288 24:319 25:316 26:291 27:331 28:255 29:342 30:218 31:352 32:179 33:358 34:142 35:100 36:95 37:116 38:87 39:134 40:87 41:153 42:91 43:170 44:100 45:216 46:95 47:240 48:85 49:265 50:82 51:289 52:86 53:310 54:98 55:193 56:136 57:189 58:159 59:186 60:180 61:182 62:202 63:164 64:227 65:173 66:231 67:183 68:235 69:194 70:232 71:205 72:228 73:117 74:140 75:132 76:129 77:152 78:129 79:165 80:146 81:149 82:150 83:130 84:149 85:231 86:147 87:250 88:131 89:271 90:129 91:286 92:140 93:273 94:149 95:252 96:150 97:147 98:282 99:161 100:272 101:174 102:264 103:185 104:267 105:196 106:263 107:215 108:272 109:238 110:282 111:214 112:295 113:196 114:300 115:184 116:301 117:172 118:299 119:160 120:295 121:156 122:283 123:174 124:281 125:185 126:281 127:196 128:280 129:229 130:283 131:196 132:282 133:185 134:284 135:174 136:282 
0 4.054832615166593e-11 9.004631047979992e-13 1:72 2:181 3:73 4:213 5:76 6:244 7:82 8:275 9:95 10:299 11:115 12:319 13:139 14:336 15:168 16:354 17:199 18:361 19:231 20:358 21:257 22:343 23:276 24:321 25:291 26:296 27:299 28:264 29:304 30:231 31:310 32:198 33:313 34:166 35:103 36:112 37:118 38:95 39:140 40:90 41:161 42:91 43:182 44:99 45:220 46:101 47:241 48:91 49:264 50:90 51:288 52:94 53:306 54:110 55:200 56:131 57:202 58:154 59:204 60:176 61:206 62:199 63:182 64:221 65:194 66:225 67:206 68:228 69:216 70:224 71:228 72:219 73:122 74:142 75:135 76:133 77:151 78:133 79:164 80:143 81:149 82:145 83:135 84:145 85:239 86:143 87:254 88:134 89:270 90:134 91:283 92:142 93:269 94:146 95:253 96:145 97:162 98:271 99:176 100:255 101:193 102:245 103:207 104:246 105:217 106:243 107:235 108:252 109:249 110:269 111:236 112:282 113:218 114:288 115:206 116:289 117:193 118:288 119:176 120:283 121:170 122:269 123:194 124:263 125:206 126:262 127:217 128:262 129:243 130:268 131:217 132:270 133:206 134:270 135:193 136:269 
-0 0 3.917626573508714e-10 1:80 2:142 3:78 4:177 5:82 6:214 7:92 8:249 9:106 10:283 11:123 12:318 13:143 14:343 15:166 16:367 17:199 18:374 19:238 20:374 21:277 22:357 23:316 24:335 25:347 26:303 27:369 28:268 29:381 30:225 31:388 32:183 33:391 34:142 35:102 36:107 37:116 38:96 39:133 40:94 41:151 42:99 43:167 44:111 45:220 46:105 47:243 48:94 49:268 50:92 51:295 52:97 53:319 54:109 55:190 56:138 57:185 58:168 59:178 60:198 61:172 62:228 63:166 64:241 65:173 66:248 67:182 68:252 69:194 70:247 71:207 72:244 73:124 74:142 75:133 76:136 77:150 78:137 79:165 80:145 81:149 82:150 83:133 84:150 85:240 86:143 87:251 88:135 89:270 90:136 91:288 92:142 93:271 94:150 95:253 96:150 97:153 98:286 99:160 100:277 101:172 102:274 103:186 104:279 105:201 106:274 107:223 108:278 109:249 110:287 111:226 112:298 113:204 114:304 115:189 116:306 117:175 118:303 119:162 120:295 121:158 122:285 123:174 124:285 125:187 126:287 127:202 128:285 129:240 130:286 131:202 132:284 133:187 134:285 135:174 136:283 
-2.784200449079362e-10 2.702180659259959e-10 1.381514048810839e-10 1:-13 2:161 3:-8 4:208 5:-1 6:256 7:10 8:300 9:38 10:337 11:81 12:365 13:131 14:386 15:183 16:400 17:230 18:403 19:264 20:390 21:285 22:358 23:300 24:324 25:309 26:287 27:312 28:250 29:311 30:214 31:306 32:180 33:299 34:150 35:68 36:109 37:98 38:88 39:135 40:81 41:172 42:86 43:204 44:99 45:237 46:102 47:255 48:92 49:275 50:86 51:292 52:89 53:300 54:106 55:228 56:136 57:239 58:160 59:251 60:184 61:263 62:208 63:218 64:240 65:233 66:241 67:247 68:243 69:255 70:240 71:262 72:235 73:112 74:143 75:131 76:131 77:153 78:131 79:170 80:144 81:152 82:149 83:131 84:150 85:240 86:146 87:253 88:133 89:271 90:133 91:282 92:144 93:273 94:150 95:256 96:150 97:181 98:302 99:208 100:284 101:232 102:273 103:245 104:278 105:257 106:274 107:268 108:284 109:271 110:300 111:265 112:313 113:255 114:319 115:243 116:320 117:228 118:318 119:206 120:312 121:193 122:299 123:230 124:291 125:243 126:293 127:254 128:293 129:265 130:298 131:255 132:296 133:244 134:296 135:230 136:295 
-1.023174630211941e-10 1.995325780809683e-10 2.389416074874058e-10 1:39 2:134 3:42 4:170 5:46 6:208 7:56 8:246 9:73 10:282 11:101 12:311 13:132 14:336 15:167 16:358 17:201 18:363 19:231 20:357 21:257 22:332 23:278 24:304 25:298 26:274 27:311 28:239 29:317 30:205 31:320 32:169 33:323 34:134 35:82 36:113 37:101 38:96 39:127 40:90 41:154 42:92 43:178 44:104 45:223 46:105 47:246 48:94 49:269 50:90 51:290 52:93 53:305 54:107 55:205 56:139 57:206 58:164 59:207 60:189 61:208 62:214 63:177 64:231 65:192 66:233 67:206 68:236 69:218 70:233 71:230 72:230 73:116 74:137 75:134 76:132 77:152 78:133 79:164 80:146 81:149 82:148 83:131 84:145 85:238 86:146 87:252 88:134 89:269 90:132 91:281 92:138 93:271 94:146 95:254 96:148 97:136 98:263 99:161 100:258 101:187 102:256 103:203 104:259 105:220 106:255 107:239 108:256 109:256 110:259 111:241 112:286 113:223 114:300 115:205 116:303 117:187 118:301 119:160 120:290 121:141 122:266 123:187 124:265 125:203 126:266 127:220 128:263 129:249 130:263 131:221 132:283 133:204 134:287 135:187 136:285 
-3.497681372071195e-10 8.183348295031936e-10 5.270492468980523e-10 1:76 2:138 3:79 4:172 5:84 6:204 7:90 8:237 9:101 10:269 11:119 12:300 13:138 14:326 15:165 16:347 17:199 18:355 19:232 20:346 21:262 22:325 23:286 24:301 25:307 26:273 27:321 28:241 29:326 30:207 31:328 32:173 33:329 34:138 35:89 36:110 37:107 38:94 39:132 40:92 41:155 42:98 43:178 44:109 45:221 46:109 47:241 48:97 49:265 50:93 51:288 52:95 53:307 54:108 55:196 56:133 57:194 58:158 59:193 60:182 61:191 62:207 63:171 64:225 65:182 66:229 67:193 68:233 69:205 70:229 71:217 72:224 73:117 74:139 75:131 76:132 77:148 78:134 79:162 80:145 81:146 82:146 83:130 84:145 85:233 86:145 87:248 88:133 89:266 90:132 91:281 92:140 93:268 94:146 95:250 96:147 97:158 98:267 99:172 100:258 101:182 102:254 103:195 104:258 105:207 106:254 107:222 108:259 109:238 110:274 111:224 112:282 113:209 114:289 115:196 116:291 117:182 118:288 119:171 120:281 121:165 122:267 123:182 124:267 125:195 126:268 127:208 128:267 129:231 130:272 131:208 132:272 133:195 134:273 135:182 136:270 
-1.939520170280842e-11 0 0 1:2 2:185 3:10 4:235 5:17 6:285 7:35 8:331 9:69 10:365 11:112 12:387 13:161 14:403 15:213 16:405 17:254 18:399 19:285 20:385 21:305 22:361 23:315 24:325 25:322 26:289 27:330 28:251 29:329 30:216 31:318 32:174 33:305 34:137 35:71 36:101 37:94 38:78 39:123 40:67 41:155 42:72 43:187 44:84 45:229 46:83 47:246 48:69 49:263 50:61 51:282 52:64 53:292 54:79 55:215 56:125 57:228 58:142 59:241 60:158 61:255 62:173 63:218 64:227 65:235 66:226 67:249 68:223 69:257 70:220 71:264 72:215 73:111 74:145 75:130 76:132 77:152 78:128 79:169 80:141 81:153 82:150 83:130 84:152 85:232 86:136 87:248 88:121 89:268 90:121 91:280 92:130 93:270 94:140 95:251 96:142 97:191 98:336 99:211 100:297 101:237 102:272 103:251 104:272 105:260 106:264 107:275 108:278 109:275 110:307 111:281 112:328 113:269 114:342 115:258 116:347 117:243 118:350 119:216 120:351 121:203 122:329 123:238 124:295 125:251 126:291 127:260 128:288 129:270 130:303 131:263 132:314 133:254 134:318 135:240 136:324 
-1.132383335756178e-12 6.35340778936199e-11 1.468008216445566e-10 1:68 2:136 3:66 4:173 5:65 6:210 7:71 8:249 9:83 10:283 11:100 12:315 13:125 14:344 15:155 16:363 17:190 18:369 19:227 20:363 21:260 22:344 23:287 24:313 25:307 26:280 27:322 28:244 29:333 30:206 31:342 32:167 33:347 34:125 35:95 36:109 37:111 38:98 39:130 40:101 41:150 42:111 43:168 44:122 45:225 46:119 47:247 48:106 49:269 50:97 51:290 52:95 53:310 54:103 55:196 56:140 57:194 58:161 59:193 60:182 61:191 62:203 63:173 64:225 65:182 66:230 67:192 68:233 69:205 70:230 71:216 72:224 73:118 74:141 75:131 76:132 77:148 78:133 79:163 80:143 81:147 82:148 83:131 84:149 85:238 86:142 87:250 88:131 89:268 90:130 91:283 92:138 93:270 94:145 95:253 96:146 97:146 98:290 99:162 100:275 101:179 102:266 103:194 104:270 105:209 106:266 107:227 108:275 109:243 110:292 111:226 112:310 113:209 114:313 115:194 116:314 117:178 118:312 119:162 120:306 121:156 122:290 123:179 124:284 125:194 126:283 127:209 128:283 129:236 130:291 131:209 132:289 133:195 134:290 135:180 136:288 
-2.395564973993447e-10 0 2.878518611034418e-11 1:69 2:109 3:71 4:147 5:77 6:188 7:89 8:224 9:110 10:258 11:135 12:288 13:158 14:314 15:183 16:333 17:212 18:337 19:243 20:328 21:273 22:304 23:301 24:277 25:329 26:248 27:352 28:213 29:365 30:175 31:370 32:133 33:372 34:90 35:90 36:107 37:108 38:98 39:131 40:98 41:154 42:105 43:177 44:115 45:223 46:113 47:247 48:104 49:270 50:99 51:292 52:100 53:313 54:105 55:199 56:142 57:199 58:161 59:198 60:179 61:197 62:198 63:174 64:220 65:187 66:225 67:200 68:227 69:214 70:224 71:226 72:220 73:118 74:138 75:133 76:130 77:152 78:131 79:167 80:144 81:151 82:148 83:131 84:148 85:236 86:144 87:251 88:130 89:271 90:129 91:286 92:136 93:273 94:146 95:254 96:147 97:158 98:271 99:174 100:266 101:191 102:262 103:201 104:265 105:213 106:261 107:230 108:263 109:250 110:268 111:233 112:288 113:217 114:302 115:204 116:305 117:193 118:305 119:175 120:295 121:166 122:273 123:192 124:275 125:201 126:276 127:214 128:273 129:241 130:269 131:215 132:278 133:203 134:281 135:193 136:280 
-0 2.596689965466447e-10 0 1:15 2:130 3:16 4:175 5:17 6:221 7:28 8:264 9:56 10:301 11:92 12:331 13:131 14:355 15:170 16:373 17:206 18:374 19:234 20:365 21:249 22:339 23:262 24:312 25:276 26:284 27:287 28:254 29:296 30:220 31:300 32:186 33:298 34:154 35:90 36:107 37:111 38:90 39:140 40:84 41:170 42:86 43:198 44:96 45:238 46:102 47:255 48:93 49:274 50:88 51:291 52:89 53:299 54:103 55:217 56:141 57:222 58:168 59:227 60:195 61:233 62:222 63:192 64:245 65:208 66:248 67:222 68:252 69:235 70:248 71:245 72:240 73:116 74:140 75:133 76:132 77:152 78:132 79:166 80:145 81:150 82:149 83:131 84:148 85:240 86:145 87:254 88:131 89:271 90:131 91:282 92:140 93:272 94:147 95:255 96:147 97:158 98:293 99:184 100:284 101:208 102:280 103:222 104:283 105:232 106:279 107:243 108:281 109:251 110:286 111:243 112:301 113:234 114:310 115:222 116:312 117:207 118:312 119:183 120:306 121:166 122:292 123:207 124:291 125:221 126:292 127:232 128:289 129:246 130:287 131:234 132:291 133:222 134:293 135:208 136:293 
-6.572525442738386e-11 0 1.572315531842961e-10 1:113 2:161 3:106 4:195 5:109 6:230 7:124 8:264 9:143 10:300 11:162 12:334 13:175 14:368 15:190 16:396 17:219 18:405 19:257 20:406 21:301 22:394 23:338 24:372 25:372 26:341 27:401 28:301 29:416 30:249 31:420 32:194 33:417 34:140 35:109 36:100 37:119 38:94 39:132 40:97 41:145 42:103 43:160 44:111 45:194 46:107 47:225 48:95 49:258 50:91 51:290 52:95 53:321 54:106 55:177 56:149 57:172 58:179 59:165 60:209 61:159 62:239 63:150 64:255 65:161 66:264 67:176 68:267 69:193 70:262 71:211 72:255 73:124 74:140 75:133 76:129 77:150 78:130 79:166 80:147 81:150 82:149 83:133 84:149 85:233 86:147 87:247 88:130 89:269 90:131 91:292 92:141 93:272 94:151 95:251 96:152 97:171 98:302 99:161 100:289 101:173 102:285 103:186 104:289 105:204 106:286 107:241 108:292 109:274 110:304 111:249 112:330 113:218 114:344 115:199 116:346 117:184 118:343 119:170 120:325 121:175 122:302 123:177 124:296 125:189 126:299 127:207 128:298 129:267 130:304 131:211 132:323 133:193 134:324 135:180 136:318 
-6.240996364815206e-11 1.878845207526822e-11 1.247301929159474e-10 1:35 2:167 3:33 4:209 5:39 6:253 7:48 8:296 9:64 10:336 11:93 12:366 13:128 14:386 15:165 16:400 17:204 18:403 19:242 20:395 21:280 22:379 23:316 24:361 25:350 26:333 27:372 28:296 29:382 30:253 31:384 32:212 33:379 34:172 35:66 36:94 37:86 38:69 39:115 40:58 41:147 42:61 43:174 44:76 45:252 46:73 47:280 48:59 49:310 50:56 51:340 52:70 53:356 54:98 55:215 56:132 57:216 58:160 59:218 60:188 61:218 62:216 63:183 64:241 65:200 66:245 67:216 68:248 69:230 70:245 71:245 72:241 73:105 74:138 75:126 76:125 77:150 78:127 79:173 80:145 81:149 82:147 83:124 84:147 85:251 86:145 87:272 88:126 89:295 90:126 91:315 92:139 93:297 94:145 95:274 96:147 97:141 98:286 99:172 100:278 101:198 102:272 103:211 104:275 105:225 106:272 107:244 108:279 109:268 110:285 111:242 112:305 113:223 114:318 115:208 116:321 117:193 118:319 119:169 120:307 121:151 122:288 123:198 124:292 125:211 126:292 127:224 128:291 129:257 130:287 131:222 132:294 133:208 134:296 135:196 136:296 
-0 0 3.136485152291105e-10 1:46 2:111 3:44 4:152 5:42 6:190 7:48 8:228 9:68 10:262 11:96 12:287 13:123 14:313 15:150 16:338 17:183 18:350 19:214 20:344 21:236 22:319 23:255 24:290 25:274 26:261 27:292 28:230 29:306 30:196 31:313 32:159 33:316 34:122 35:92 36:92 37:112 38:82 39:134 40:82 41:159 42:87 43:181 44:101 45:226 46:102 47:249 48:90 49:271 50:86 51:293 52:87 53:311 54:96 55:203 56:150 57:202 58:180 59:202 60:208 61:201 62:236 63:170 64:246 65:183 66:254 67:199 68:261 69:216 70:256 71:231 72:248 73:111 74:136 75:129 76:125 77:152 78:127 79:166 80:149 81:148 82:152 83:126 84:150 85:232 86:151 87:251 88:132 89:273 90:130 91:288 92:143 93:274 94:156 95:251 96:157 97:144 98:275 99:169 100:288 101:190 102:291 103:200 104:295 105:210 106:293 107:227 108:293 109:250 110:285 111:224 112:294 113:208 114:303 115:197 116:305 117:185 118:300 119:167 120:289 121:152 122:280 123:189 124:301 125:199 126:304 127:209 128:303 129:242 130:288 131:207 132:288 133:198 134:289 135:188 136:285 
-0 4.102432532433535e-12 0 1:67 2:137 3:69 4:172 5:74 6:207 7:82 8:242 9:97 10:273 11:117 12:301 13:140 14:327 15:172 16:347 17:209 18:349 19:241 20:339 21:265 22:317 23:284 24:292 25:301 26:266 27:312 28:237 29:318 30:205 31:321 32:173 33:323 34:140 35:92 36:111 37:112 38:97 39:136 40:96 41:160 42:101 43:184 44:109 45:222 46:109 47:242 48:100 49:263 50:94 51:284 52:94 53:301 54:106 55:204 56:138 57:204 58:160 59:204 60:182 61:205 62:205 63:174 64:218 65:188 66:222 67:203 68:226 69:218 70:222 71:231 72:217 73:121 74:138 75:135 76:131 77:152 78:133 79:164 80:144 81:150 82:147 83:134 84:146 85:239 86:144 87:252 88:131 89:269 90:131 91:281 92:138 93:270 94:146 95:254 96:147 97:149 98:269 99:167 100:252 101:187 102:244 103:203 104:247 105:218 106:243 107:236 108:249 109:249 110:266 111:237 112:282 113:221 114:293 115:204 116:296 117:186 118:294 119:166 120:287 121:156 122:267 123:188 124:263 125:203 126:262 127:219 128:261 129:241 130:266 131:220 132:271 133:203 134:274 135:187 136:273 
-1.392281724184799e-10 0.9999999998267739 9.328997537342479e-11 1:-5 2:112 3:-4 4:164 5:-2 6:218 7:3 8:268 9:23 10:311 11:58 12:343 13:97 14:370 15:138 16:390 17:175 18:395 19:203 20:383 21:224 22:351 23:241 24:320 25:261 26:289 27:280 28:255 29:294 30:219 31:299 32:183 33:298 34:149 35:80 36:103 37:107 38:90 39:137 40:87 41:168 42:93 43:196 44:103 45:238 46:101 47:255 48:92 49:272 50:87 51:288 52:86 53:297 54:99 55:216 56:146 57:219 58:174 59:223 60:203 61:227 62:231 63:179 64:247 65:196 66:253 67:212 68:258 69:226 70:255 71:237 72:248 73:110 74:138 75:135 76:130 77:157 78:130 79:167 80:148 81:152 82:151 83:131 84:148 85:236 86:149 87:253 88:132 89:270 90:128 91:279 92:139 93:272 94:149 95:254 96:151 97:130 98:291 99:159 100:279 101:190 102:274 103:203 104:278 105:215 106:275 107:226 108:281 109:230 110:291 111:219 112:316 113:207 114:330 115:194 116:333 117:178 118:331 119:152 120:318 121:137 122:291 123:188 124:290 125:201 126:291 127:213 128:291 129:222 130:293 131:209 132:307 133:197 134:311 135:183 136:310 
-0 1.894755834398678e-10 2.370519451464425e-10 1:59 2:113 3:62 4:150 5:70 6:188 7:78 8:224 9:95 10:257 11:119 12:287 13:144 14:311 15:173 16:332 17:205 18:337 19:235 20:330 21:261 22:307 23:285 24:282 25:306 26:251 27:320 28:218 29:326 30:183 31:331 32:146 33:333 34:110 35:91 36:106 37:108 38:95 39:131 40:95 41:154 42:100 43:178 44:110 45:225 46:111 47:245 48:100 49:267 50:94 51:289 52:94 53:306 54:104 55:201 56:143 57:202 58:171 59:203 60:199 61:204 62:226 63:176 64:227 65:190 66:234 67:205 68:240 69:219 70:233 71:232 72:225 73:119 74:138 75:133 76:130 77:151 78:133 79:164 80:146 81:148 82:148 83:131 84:146 85:239 86:147 87:251 88:133 89:268 90:131 91:281 92:139 93:270 94:147 95:253 96:149 97:157 98:256 99:172 100:249 101:190 102:248 103:206 104:252 105:221 106:248 107:239 108:246 109:255 110:248 111:240 112:276 113:223 114:290 115:207 116:293 117:191 118:292 119:173 120:280 121:162 122:256 123:191 124:257 125:206 126:259 127:221 128:256 129:250 130:250 131:223 132:273 133:206 134:277 135:191 136:274 
-6.698414141007294e-11 1.072013353841914e-10 0 1:107 2:146 3:100 4:175 5:101 6:204 7:106 8:236 9:111 10:270 11:119 12:305 13:133 14:338 15:154 16:366 17:182 18:377 19:219 20:373 21:264 22:359 23:306 24:343 25:341 26:319 27:364 28:285 29:376 30:247 31:383 32:205 33:387 34:164 35:104 36:101 37:116 38:88 39:134 40:88 41:151 42:92 43:167 44:100 45:216 46:94 47:244 48:83 49:273 50:79 51:302 52:89 53:321 54:109 55:185 56:137 57:178 58:159 59:170 60:181 61:162 62:203 63:152 64:229 65:161 66:234 67:171 68:238 69:185 70:235 71:201 72:233 73:119 74:143 75:130 76:131 77:147 78:132 79:164 80:147 81:145 82:149 83:129 84:149 85:232 86:145 87:250 88:131 89:270 90:130 91:287 92:142 93:271 94:149 95:251 96:148 97:138 98:282 99:143 100:267 101:158 102:260 103:171 104:265 105:185 106:262 107:211 108:270 109:241 110:282 111:212 112:300 113:188 114:305 115:172 116:307 117:159 118:305 119:145 120:297 121:144 122:282 123:159 124:280 125:172 126:280 127:186 128:279 129:230 130:283 131:186 132:284 133:172 134:284 135:159 136:282 
-9.559945174041608e-12 7.392724435239167e-11 0 1:79 2:140 3:80 4:177 5:84 6:213 7:89 8:248 9:98 10:281 11:117 12:311 13:139 14:337 15:167 16:360 17:200 18:367 19:235 20:363 21:271 22:343 23:304 24:318 25:332 26:289 27:351 28:256 29:360 30:215 31:363 32:173 33:364 34:132 35:95 36:110 37:106 38:89 39:129 40:86 41:152 42:94 43:175 44:105 45:216 46:102 47:241 48:89 49:267 50:82 51:294 52:84 53:314 54:102 55:195 56:134 57:193 58:163 59:189 60:193 61:186 62:223 63:160 64:229 65:174 66:236 67:189 68:242 69:207 70:237 71:225 72:231 73:121 74:140 75:133 76:136 77:148 78:135 79:163 80:142 81:148 82:144 83:133 84:144 85:238 86:142 87:253 88:136 89:269 90:136 91:282 92:140 93:268 94:146 95:253 96:146 97:143 98:266 99:158 100:263 101:175 102:261 103:190 104:265 105:208 106:262 107:229 108:264 109:250 110:268 111:231 112:288 113:211 114:297 115:192 116:298 117:176 118:295 119:159 120:283 121:151 122:268 123:175 124:271 125:190 126:274 127:208 128:272 129:244 130:270 131:210 132:279 133:192 134:281 135:176 136:277 
-2.410910241098717e-10 0 4.676640210919581e-10 1:97 2:143 3:96 4:172 5:98 6:205 7:105 8:235 9:117 10:265 11:132 12:290 13:149 14:313 15:170 16:335 17:197 18:345 19:228 20:343 21:264 22:331 23:299 24:312 25:328 26:287 27:349 28:258 29:359 30:220 31:364 32:181 33:367 34:143 35:102 36:101 37:112 38:88 39:128 40:88 41:146 42:91 43:165 44:98 45:217 46:99 47:243 48:90 49:270 50:86 51:296 52:90 53:317 54:106 55:190 56:135 57:187 58:158 59:183 60:181 61:179 62:203 63:166 64:221 65:174 66:227 67:185 68:230 69:196 70:226 71:209 72:223 73:119 74:139 75:131 76:132 77:147 78:134 79:161 80:146 81:145 82:149 83:129 84:148 85:236 86:144 87:251 88:134 89:269 90:132 91:284 92:140 93:270 94:148 95:252 96:149 97:154 98:262 99:163 100:252 101:174 102:248 103:186 104:251 105:198 106:249 107:219 108:255 109:241 110:265 111:222 112:279 113:202 114:284 115:189 116:285 117:177 118:283 119:165 120:276 121:160 122:262 123:175 124:260 125:187 126:262 127:200 128:261 129:232 130:265 131:201 132:265 133:188 134:266 135:176 136:264 
-3.40374494045682e-10 1 1.942098269734722e-10 1:37 2:137 3:36 4:172 5:37 6:211 7:44 8:249 9:59 10:282 11:87 12:309 13:120 14:332 15:154 16:351 17:188 18:359 19:219 20:356 21:247 22:337 23:272 24:316 25:294 26:287 27:309 28:254 29:319 30:223 31:326 32:188 33:327 34:154 35:93 36:115 37:115 38:101 39:142 40:94 41:171 42:97 43:196 44:107 45:223 46:109 47:244 48:101 49:269 50:98 51:294 52:104 53:312 54:121 55:200 56:139 57:200 58:161 59:199 60:182 61:198 62:204 63:171 64:228 65:184 66:231 67:196 68:234 69:210 70:230 71:223 72:225 73:117 74:142 75:130 76:133 77:149 78:133 79:163 80:143 81:148 82:147 83:131 84:147 85:236 86:144 87:252 88:132 89:270 90:133 91:282 92:142 93:269 94:147 95:252 96:147 97:149 98:272 99:168 100:261 101:186 102:254 103:199 104:259 105:211 106:253 107:228 108:259 109:244 110:271 111:229 112:286 113:213 114:293 115:201 116:294 117:187 118:292 119:169 120:284 121:158 122:271 123:186 124:270 125:199 126:271 127:211 128:269 129:238 130:271 131:212 132:274 133:202 134:275 135:188 136:272 
-0 3.245913585713772e-10 0 1:-5 2:122 3:-3 4:170 5:1 6:220 7:10 8:268 9:33 10:311 11:69 12:345 13:111 14:371 15:157 16:388 17:196 18:388 19:224 20:374 21:242 22:342 23:259 24:309 25:275 26:276 27:289 28:243 29:300 30:208 31:303 32:175 33:300 34:145 35:83 36:94 37:111 38:83 39:142 40:82 41:170 42:90 43:197 44:104 45:245 46:107 47:259 48:95 49:275 50:87 51:291 52:82 53:303 54:91 55:221 56:144 57:226 58:174 59:232 60:203 61:238 62:232 63:193 64:251 65:209 66:254 67:223 68:259 69:235 70:255 71:244 72:248 73:112 74:139 75:131 76:129 77:153 78:131 79:169 80:149 81:150 82:152 83:127 84:150 85:235 86:149 87:250 88:130 89:270 90:128 91:282 92:138 93:272 94:150 95:253 96:152 97:139 98:289 99:170 100:284 101:199 102:280 103:216 104:283 105:228 106:278 107:240 108:279 109:248 110:284 111:237 112:302 113:226 114:314 115:211 116:319 117:194 118:319 119:167 120:310 121:148 122:290 123:198 124:295 125:214 126:295 127:228 128:292 129:240 130:287 131:227 132:293 133:213 134:297 135:197 136:297 
-2.820920799075697e-10 3.246230840829493e-11 1.169745320738328e-10 1:74 2:131 3:77 4:164 5:83 6:197 7:89 8:230 9:100 10:262 11:118 12:291 13:141 14:314 15:167 16:336 17:196 18:344 19:226 20:339 21:254 22:319 23:280 24:297 25:301 26:269 27:315 28:238 29:322 30:204 31:327 32:168 33:327 34:134 35:87 36:117 37:107 38:109 39:129 40:108 41:152 42:111 43:175 44:120 45:223 46:119 47:246 48:110 49:268 50:107 51:291 52:107 53:313 54:113 55:199 56:146 57:199 58:172 59:198 60:198 61:197 62:223 63:175 64:235 65:186 66:239 67:198 68:242 69:210 70:239 71:222 72:236 73:116 74:139 75:131 76:130 77:151 78:132 79:166 80:147 81:148 82:149 83:130 84:148 85:235 86:147 87:251 88:131 89:271 90:129 91:285 92:138 93:273 94:148 95:253 96:148 97:150 98:267 99:166 100:262 101:185 102:261 103:197 104:266 105:209 106:263 107:228 108:267 109:246 110:271 111:226 112:288 113:208 114:296 115:195 116:296 117:182 118:294 119:165 120:284 121:157 122:269 123:185 124:273 125:197 126:275 127:209 128:274 129:238 130:273 131:208 132:276 133:195 134:276 135:183 136:274 
-0 3.771700255591228e-12 0 1:48 2:147 3:51 4:189 5:56 6:231 7:64 8:270 9:80 10:305 11:112 12:337 13:148 14:362 15:184 16:381 17:222 18:386 19:259 20:380 21:296 22:362 23:324 24:338 25:350 26:308 27:367 28:273 29:372 30:236 31:372 32:196 33:368 34:158 35:91 36:112 37:109 38:96 39:135 40:92 41:163 42:95 43:193 44:102 45:231 46:98 47:258 48:89 49:286 50:88 51:312 52:94 53:333 54:110 55:208 56:138 57:208 58:163 59:208 60:189 61:208 62:216 63:183 64:234 65:196 66:239 67:208 68:245 69:221 70:240 71:234 72:236 73:116 74:145 75:130 76:136 77:148 78:136 79:166 80:146 81:148 82:150 83:131 84:151 85:249 86:146 87:267 88:133 89:287 90:133 91:304 92:141 93:289 94:146 95:270 96:148 97:163 98:282 99:186 100:275 101:202 102:272 103:215 104:275 105:230 106:272 107:255 108:277 109:281 110:280 111:256 112:297 113:232 114:298 115:216 116:299 117:202 118:298 119:185 120:294 121:174 122:283 123:203 124:281 125:215 126:282 127:230 128:282 129:273 130:281 131:231 132:282 133:216 134:282 135:203 136:281 
-0 2.722892241987206e-10 1.178089266812649e-10 1:12 2:96 3:11 4:141 5:13 6:189 7:17 8:235 9:31 10:276 11:55 12:313 13:86 14:345 15:122 16:371 17:159 18:382 19:193 20:375 21:220 22:351 23:239 24:318 25:258 26:283 27:273 28:243 29:287 30:207 31:298 32:169 33:302 34:132 35:82 36:97 37:110 38:86 39:139 40:88 41:168 42:96 43:195 44:107 45:228 46:108 47:247 48:101 49:264 50:94 51:282 52:89 53:297 54:94 55:209 56:138 57:210 58:163 59:211 60:189 61:212 62:215 63:171 64:226 65:187 66:233 67:203 68:239 69:218 70:235 71:230 72:229 73:114 74:136 75:132 76:139 77:149 78:138 79:163 80:139 81:147 82:145 83:131 84:144 85:237 86:139 87:253 88:138 89:266 90:138 91:278 92:139 93:265 94:145 95:252 96:144 97:133 98:279 99:153 100:267 101:177 102:263 103:191 104:267 105:202 106:263 107:216 108:270 109:224 110:286 111:211 112:312 113:195 114:326 115:182 116:329 117:167 118:326 119:146 120:309 121:143 122:279 123:175 124:280 125:190 126:282 127:199 128:281 129:217 130:286 131:197 132:294 133:187 134:298 135:171 136:296 
-0 1.3492453817384e-10 2.279743932753565e-10 1:81 2:153 3:87 4:188 5:95 6:221 7:103 8:254 9:111 10:285 11:127 12:312 13:147 14:332 15:173 16:348 17:205 18:353 19:237 20:347 21:263 22:329 23:284 24:308 25:299 26:281 27:308 28:249 29:314 30:216 31:319 32:181 33:320 34:146 35:96 36:110 37:113 38:96 39:133 40:94 41:154 42:101 43:173 44:113 45:227 46:114 47:245 48:101 49:265 50:93 51:286 52:93 53:303 54:105 55:200 56:136 57:201 58:160 59:202 60:183 61:202 62:206 63:176 64:225 65:190 66:229 67:204 68:232 69:218 70:229 71:230 72:223 73:119 74:144 75:130 76:129 77:149 78:128 79:166 80:142 81:150 82:150 83:130 84:152 85:235 86:142 87:251 88:126 89:272 90:127 91:284 92:142 93:272 94:152 95:252 96:150 97:164 98:279 99:177 100:265 101:192 102:260 103:204 104:263 105:216 106:260 107:231 108:264 109:247 110:277 111:233 112:286 113:218 114:291 115:204 116:292 117:192 118:291 119:177 120:287 121:170 122:276 123:192 124:269 125:204 126:270 127:216 128:269 129:241 130:276 131:216 132:276 133:204 134:278 135:192 136:276 
-4.259999494194406e-10 2.186453418427832e-10 5.668148230379996e-10 1:94 2:139 3:94 4:170 5:94 6:201 7:97 8:232 9:106 10:263 11:121 12:288 13:141 14:313 15:167 16:331 17:196 18:338 19:227 20:335 21:255 22:318 23:281 24:297 25:302 26:271 27:317 28:243 29:325 30:212 31:332 32:179 33:336 34:145 35:102 36:99 37:116 38:88 39:134 40:86 41:152 42:89 43:169 44:97 45:225 46:95 47:246 48:86 49:267 50:83 51:290 52:87 53:308 54:99 55:198 56:135 57:196 58:158 59:193 60:181 61:190 62:204 63:175 64:220 65:184 66:223 67:193 68:227 69:204 70:224 71:215 72:222 73:119 74:139 75:132 76:128 77:151 78:130 79:164 80:143 81:148 82:147 83:130 84:146 85:238 86:142 87:253 88:130 89:271 90:129 91:284 92:139 93:271 94:146 95:254 96:146 97:153 98:259 99:169 100:249 101:184 102:245 103:195 104:249 105:206 106:247 107:227 108:254 109:247 110:260 111:227 112:281 113:207 114:290 115:194 116:289 117:182 118:286 119:166 120:275 121:160 122:260 123:185 124:261 125:195 126:262 127:207 128:262 129:239 130:262 131:206 132:265 133:195 134:265 135:184 136:263 
-1.317011362675382e-10 2.867058792371481e-11 7.116005496202502e-11 1:69 2:123 3:71 4:163 5:77 6:203 7:82 8:243 9:90 10:280 11:109 12:312 13:133 14:340 15:161 16:363 17:197 18:369 19:237 20:363 21:273 22:341 23:304 24:314 25:329 26:281 27:343 28:243 29:351 30:203 31:353 32:163 33:352 34:123 35:87 36:114 37:107 38:102 39:132 40:100 41:157 42:103 43:183 44:113 45:224 46:114 47:246 48:98 49:269 50:89 51:294 52:88 53:317 54:97 55:199 56:138 57:198 58:163 59:198 60:190 61:198 62:217 63:171 64:229 65:184 66:235 67:198 68:240 69:212 70:235 71:226 72:229 73:118 74:140 75:133 76:132 77:152 78:132 79:167 80:145 81:150 82:150 83:131 84:149 85:234 86:145 87:250 88:132 89:269 90:131 91:285 92:138 93:271 94:148 95:253 96:149 97:150 98:273 99:169 100:269 101:186 102:266 103:197 104:270 105:210 106:266 107:228 108:270 109:249 110:274 111:226 112:292 113:208 114:297 115:194 116:298 117:181 118:297 119:165 120:290 121:159 122:273 123:185 124:277 125:197 126:279 127:210 128:278 129:239 130:276 131:208 132:276 133:194 134:278 135:182 136:276 
-0 0 6.174911243397971e-11 1:45 2:122 3:44 4:163 5:49 6:205 7:60 8:245 9:82 10:280 11:113 12:309 13:144 14:333 15:174 16:353 17:205 18:357 19:233 20:349 21:256 22:323 23:280 24:294 25:306 26:264 27:326 28:227 29:338 30:186 31:343 32:146 33:341 34:107 35:72 36:93 37:94 38:79 39:123 40:80 41:149 42:90 43:173 44:106 45:232 46:111 47:253 48:99 49:275 50:91 51:300 52:90 53:318 54:100 55:205 56:137 57:205 58:166 59:206 60:196 61:208 62:226 63:170 64:232 65:186 66:239 67:204 68:245 69:222 70:238 71:238 72:231 73:106 74:123 75:124 76:115 77:145 78:117 79:161 80:133 81:144 82:136 83:122 84:135 85:239 86:136 87:257 88:122 89:278 90:121 91:292 92:131 93:278 94:141 95:257 96:141 97:144 98:260 99:168 100:261 101:189 102:260 103:205 104:264 105:220 106:259 107:237 108:258 109:257 110:261 111:238 112:281 113:222 114:292 115:205 116:295 117:189 118:293 119:167 120:283 121:151 122:262 123:189 124:270 125:204 126:273 127:220 128:270 129:248 130:263 131:220 132:270 133:204 134:274 135:189 136:272 
-0 0 8.406796106896466e-11 1:41 2:122 3:39 4:169 5:42 6:220 7:52 8:265 9:71 10:309 11:97 12:346 13:127 14:375 15:160 16:395 17:200 18:398 19:245 20:390 21:290 22:369 23:335 24:345 25:370 26:310 27:390 28:270 29:400 30:222 31:405 32:173 33:405 34:127 35:71 36:81 37:93 38:63 39:124 40:61 41:152 42:71 43:177 44:89 45:216 46:95 47:249 48:84 49:283 50:76 51:319 52:80 53:346 54:100 55:195 56:132 57:190 58:161 59:185 60:190 61:179 62:220 63:145 64:237 65:162 66:244 67:180 68:250 69:199 70:246 71:220 72:240 73:100 74:126 75:118 76:117 77:139 78:119 79:158 80:135 81:136 82:139 83:114 84:137 85:237 86:141 87:257 88:129 89:280 90:130 91:300 92:138 93:280 94:147 95:257 96:147 97:118 98:289 99:136 100:277 101:156 102:269 103:174 104:272 105:192 106:267 107:217 108:275 109:242 110:288 111:219 112:312 113:197 114:323 115:178 116:326 117:158 118:325 119:138 120:315 121:128 122:290 123:157 124:284 125:175 126:286 127:193 128:283 129:231 130:288 131:194 132:296 133:177 134:299 135:158 136:297 
-0 0 4.635831972132855e-11 1:99 2:147 3:84 4:178 5:76 6:215 7:78 8:254 9:84 10:293 11:90 12:333 13:101 14:367 15:117 16:391 17:147 18:401 19:192 20:403 21:248 22:401 23:305 24:391 25:356 26:369 27:391 28:334 29:408 30:287 31:417 32:236 33:426 34:187 35:112 36:87 37:120 38:69 39:138 40:60 41:158 42:66 43:172 44:82 45:198 46:80 47:231 48:66 49:270 50:62 51:307 52:76 53:338 54:99 55:172 56:135 57:157 58:159 59:140 60:181 61:123 62:204 63:118 64:236 65:126 66:241 67:135 68:244 69:151 70:245 71:170 72:246 73:123 74:138 75:133 76:123 77:150 78:126 79:161 80:145 81:146 82:147 83:129 84:145 85:230 86:147 87:248 88:127 89:269 90:127 91:290 92:144 93:269 94:150 95:247 96:150 97:110 98:317 99:108 100:293 101:118 102:279 103:128 104:285 105:140 106:282 107:167 108:299 109:196 110:324 111:165 112:339 113:141 114:344 115:128 116:344 117:118 118:342 119:110 120:333 121:116 122:314 123:121 124:303 125:130 126:303 127:141 128:304 129:185 130:322 131:141 132:321 133:129 134:321 135:120 136:319 
-1.112962098878261e-09 4.697976378847417e-10 5.924303648575146e-10 1:23 2:140 3:24 4:182 5:23 6:224 7:31 8:265 9:54 10:299 11:86 12:326 13:122 14:346 15:159 16:363 17:196 18:367 19:229 20:360 21:257 22:340 23:283 24:318 25:301 26:290 27:311 28:255 29:314 30:219 31:315 32:183 33:317 34:147 35:90 36:106 37:108 38:90 39:131 40:82 41:156 42:81 43:179 44:90 45:234 46:91 47:253 48:84 49:273 50:84 51:290 52:93 53:301 54:110 55:209 56:135 57:210 58:159 59:212 60:183 61:214 62:206 63:180 64:228 65:195 66:230 67:210 68:233 69:223 70:231 71:236 72:228 73:118 74:139 75:134 76:131 77:152 78:131 79:165 80:143 81:151 82:148 83:133 84:147 85:237 86:144 87:252 88:133 89:269 90:132 91:280 92:141 93:270 94:148 95:253 96:148 97:152 98:285 99:176 100:275 101:196 102:269 103:209 104:273 105:221 106:269 107:236 108:274 109:248 110:283 111:236 112:295 113:223 114:297 115:210 116:299 117:196 118:298 119:175 120:295 121:160 122:285 123:196 124:281 125:209 126:282 127:221 128:280 129:242 130:283 131:222 132:283 133:210 134:284 135:197 136:283 
-1.007747184288691e-10 1.229765962914043e-10 2.866860961628559e-10 1:102 2:139 3:107 4:173 5:117 6:206 7:130 8:239 9:144 10:272 11:161 12:304 13:175 14:331 15:197 16:357 17:225 18:365 19:261 20:356 21:299 22:330 23:331 24:300 25:358 26:266 27:377 28:227 29:385 30:186 31:388 32:141 33:385 34:98 35:102 36:100 37:114 38:90 39:131 40:93 41:149 42:101 43:167 44:112 45:205 46:112 47:233 48:100 49:262 50:92 51:292 52:92 53:318 54:103 55:190 56:141 57:188 58:169 59:187 60:196 61:185 62:224 63:170 64:233 65:180 66:241 67:195 68:245 69:211 70:239 71:228 72:235 73:122 74:139 75:131 76:134 77:147 78:135 79:164 80:141 81:146 82:145 83:131 84:146 85:236 86:143 87:249 88:135 89:269 90:135 91:287 92:138 93:271 94:146 95:252 96:147 97:169 98:278 99:178 100:274 101:191 102:272 103:203 104:275 105:215 106:272 107:237 108:275 109:263 110:280 111:240 112:297 113:221 114:305 115:208 116:306 117:194 118:304 119:181 120:295 121:174 122:279 123:193 124:282 125:205 126:284 127:217 128:283 129:255 130:280 131:217 132:284 133:204 134:285 135:193 136:283 
-3.580541970179845e-11 2.535728390993571e-10 2.181951643014161e-10 1:79 2:115 3:80 4:151 5:84 6:186 7:94 8:221 9:110 10:253 11:131 12:282 13:153 14:308 15:175 16:333 17:208 18:340 19:244 20:334 21:273 22:311 23:298 24:284 25:321 26:252 27:338 28:217 29:346 30:178 31:349 32:139 33:349 34:100 35:96 36:107 37:113 38:98 39:135 40:103 41:157 42:111 43:178 44:122 45:217 46:120 47:240 48:108 49:264 50:98 51:290 52:95 53:313 54:104 55:198 56:148 57:198 58:174 59:197 60:201 61:196 62:228 63:171 64:229 65:183 66:238 67:199 68:244 69:214 70:236 71:230 72:229 73:120 74:138 75:134 76:132 77:152 78:134 79:166 80:147 81:149 82:150 83:132 84:147 85:238 86:147 87:251 88:133 89:270 90:130 91:284 92:136 93:272 94:147 95:254 96:150 97:156 98:257 99:171 100:258 101:187 102:261 103:201 104:264 105:216 106:261 107:238 108:257 109:259 110:249 111:241 112:276 113:220 114:286 115:204 116:287 117:189 118:285 119:173 120:278 121:162 122:259 123:187 124:267 125:201 126:269 127:216 128:267 129:253 130:254 131:219 132:274 133:204 134:275 135:189 136:272 
-5.945717533663587e-11 3.086179239303827e-11 0 1:60 2:191 3:62 4:229 5:69 6:271 7:84 8:306 9:106 10:341 11:133 12:371 13:167 14:393 15:199 16:403 17:235 18:404 19:272 20:392 21:306 22:370 23:339 24:344 25:364 26:309 27:381 28:271 29:388 30:229 31:388 32:186 33:383 34:143 35:64 36:103 37:79 38:79 39:103 40:68 41:131 42:67 43:154 44:79 45:194 46:82 47:224 48:67 49:258 50:62 51:291 52:70 53:318 54:87 55:182 56:115 57:184 58:138 59:187 60:160 61:189 62:184 63:161 64:231 65:180 66:236 67:198 68:238 69:216 70:231 71:234 72:224 73:84 74:146 75:102 76:137 77:123 78:134 79:147 80:141 81:126 82:149 83:104 84:152 85:236 86:137 87:258 88:129 89:279 90:131 91:300 92:137 93:280 94:145 95:259 96:144 97:159 98:306 99:177 100:290 101:194 102:279 103:205 104:280 105:216 106:276 107:241 108:286 109:279 110:298 111:248 112:313 113:226 114:321 115:214 116:324 117:202 118:323 119:183 120:316 121:169 122:304 123:195 124:294 125:207 126:295 127:218 128:293 129:266 130:298 131:221 132:298 133:211 134:301 135:199 136:299 
-4.043187640785596e-11 3.770921286934156e-10 1.782651399199103e-10 1:62 2:129 3:65 4:167 5:71 6:206 7:80 8:243 9:95 10:275 11:116 12:303 13:142 14:326 15:171 16:344 17:202 18:347 19:231 20:342 21:258 22:323 23:279 24:301 25:299 26:276 27:311 28:244 29:317 30:207 31:323 32:171 33:327 34:135 35:94 36:112 37:114 38:99 39:137 40:102 41:161 42:107 43:182 44:118 45:220 46:122 47:242 48:111 49:265 50:104 51:289 52:103 53:307 54:117 55:201 56:145 57:202 58:174 59:202 60:204 61:203 62:233 63:171 64:235 65:186 66:243 67:203 68:249 69:219 70:242 71:233 72:233 73:119 74:137 75:134 76:128 77:153 78:131 79:164 80:144 81:149 82:148 83:131 84:146 85:239 86:145 87:251 88:132 89:269 90:130 91:282 92:140 93:271 94:148 95:255 96:149 97:148 98:272 99:167 100:269 101:185 102:267 103:199 104:271 105:213 106:266 107:231 108:269 109:248 110:268 111:231 112:287 113:215 114:297 115:201 116:298 117:186 118:297 119:167 120:289 121:154 122:274 123:185 124:278 125:199 126:280 127:214 128:277 129:241 130:272 131:214 132:277 133:200 134:280 135:186 136:277 
-5.010089902927678e-10 4.678729775274727e-10 1.80715741256828e-10 1:30 2:158 3:33 4:198 5:38 6:241 7:52 8:280 9:77 10:309 11:110 12:330 13:143 14:346 15:178 16:358 17:209 18:358 19:235 20:350 21:252 22:327 23:268 24:303 25:281 26:275 27:290 28:245 29:295 30:214 31:296 32:181 33:291 34:152 35:86 36:106 37:108 38:97 39:134 40:93 41:160 42:96 43:187 44:106 45:238 46:111 47:254 48:101 49:272 50:97 51:288 52:97 53:300 54:104 55:216 56:138 57:221 58:159 59:228 60:181 61:234 62:202 63:196 64:229 65:211 66:230 67:225 68:231 69:235 70:228 71:244 72:223 73:112 74:141 75:129 76:130 77:151 78:130 79:169 80:144 81:150 82:150 83:129 84:151 85:235 86:143 87:251 88:129 89:270 90:130 91:282 92:141 93:270 94:150 95:252 96:149 97:165 98:285 99:188 100:268 101:212 102:258 103:225 104:261 105:235 106:256 107:248 108:263 109:252 110:278 111:247 112:295 113:235 114:304 115:222 116:307 117:208 118:308 119:185 120:303 121:175 122:284 123:210 124:278 125:223 126:277 127:234 128:275 129:246 130:278 131:235 132:275 133:224 134:278 135:211 136:278 
-1.328291754973521e-10 2.467083950518957e-10 5.054398371703041e-11 1:79 2:141 3:78 4:174 5:83 6:207 7:96 8:239 9:116 10:268 11:137 12:294 13:154 14:320 15:171 16:346 17:193 18:357 19:216 20:355 21:240 22:339 23:264 24:315 25:290 26:289 27:315 28:258 29:332 30:222 31:341 32:183 33:343 34:146 35:102 36:111 37:115 38:103 39:133 40:103 41:151 42:106 43:168 44:115 45:222 46:111 47:246 48:100 49:272 50:100 51:294 52:104 53:314 54:115 55:197 56:150 57:195 58:184 59:193 60:219 61:191 62:252 63:170 64:262 65:182 66:268 67:195 68:272 69:209 70:269 71:222 72:264 73:121 74:142 75:135 76:132 77:152 78:134 79:164 80:149 81:151 82:154 83:133 84:152 85:237 86:148 87:252 88:133 89:270 90:132 91:285 92:140 93:272 94:150 95:254 96:151 97:163 98:294 99:176 100:297 101:186 102:298 103:197 104:301 105:208 106:299 107:221 108:298 109:235 110:294 111:220 112:292 113:209 114:296 115:197 116:298 117:187 118:295 119:177 120:292 121:166 122:294 123:187 124:305 125:197 126:308 127:209 128:305 129:230 130:294 131:207 132:282 133:197 134:283 135:187 136:282 
-1.689006697841252e-10 2.572750697190104e-10 2.022568451117339e-10 1:27 2:152 3:25 4:195 5:26 6:241 7:33 8:287 9:54 10:327 11:85 12:359 13:124 14:384 15:165 16:398 17:213 18:401 19:261 20:393 21:299 22:373 23:333 24:345 25:361 26:310 27:380 28:269 29:386 30:228 31:384 32:185 33:380 34:144 35:82 36:110 37:104 38:96 39:131 40:95 41:159 42:102 43:184 44:113 45:217 46:112 47:240 48:100 49:267 50:94 51:293 52:95 53:314 54:108 55:204 56:137 57:204 58:159 59:205 60:181 61:206 62:203 63:173 64:233 65:189 66:238 67:205 68:242 69:221 70:238 71:235 72:234 73:116 74:140 75:131 76:133 77:149 78:132 79:165 80:143 81:149 82:147 83:132 84:146 85:236 86:144 87:252 88:133 89:270 90:132 91:286 92:140 93:271 94:146 95:253 96:148 97:133 98:295 99:164 100:291 101:190 102:287 103:207 104:289 105:223 106:286 107:248 108:289 109:279 110:293 111:249 112:299 113:225 114:301 115:208 116:303 117:190 118:302 119:164 120:300 121:142 122:296 123:190 124:299 125:207 126:301 127:223 128:299 129:270 130:295 131:223 132:289 133:207 134:291 135:191 136:291 
-1.305998883082223e-10 3.05435097322116e-10 1.841870999819621e-10 1:91 2:163 3:86 4:191 5:85 6:221 7:89 8:255 9:97 10:287 11:113 12:315 13:134 14:335 15:158 16:351 17:190 18:355 19:229 20:354 21:272 22:346 23:316 24:335 25:351 26:318 27:374 28:288 29:385 30:251 31:388 32:214 33:390 34:178 35:101 36:117 37:112 38:100 39:131 40:93 41:154 42:94 43:173 44:102 45:211 46:99 47:239 48:93 49:269 50:94 51:296 52:105 53:316 54:123 55:192 56:135 57:188 58:151 59:182 60:167 61:177 62:184 63:152 64:207 65:167 66:212 67:182 68:217 69:201 70:212 71:219 72:208 73:119 74:143 75:130 76:132 77:147 78:134 79:163 80:146 81:146 82:146 83:130 84:146 85:235 86:146 87:250 88:133 89:269 90:134 91:286 92:146 93:270 94:147 95:252 96:147 97:134 98:259 99:147 100:237 101:167 102:229 103:181 104:232 105:200 106:231 107:229 108:240 109:259 110:261 111:230 112:277 113:200 114:280 115:182 116:280 117:165 118:279 119:147 120:275 121:138 122:257 123:167 124:241 125:182 126:241 127:199 128:241 129:252 130:259 131:200 132:269 133:182 134:269 135:166 136:268 
-0 5.449024895475132e-10 0 1:58 2:137 3:59 4:182 5:61 6:226 7:66 8:271 9:82 10:310 11:107 12:340 13:137 14:364 15:172 16:380 17:208 18:383 19:246 20:375 21:279 22:356 23:311 24:332 25:333 26:301 27:346 28:267 29:350 30:226 31:347 32:186 33:348 34:144 35:95 36:123 37:107 38:100 39:133 40:94 41:160 42:99 43:187 44:107 45:217 46:105 47:241 48:96 49:268 50:91 51:294 52:99 53:309 54:119 55:201 56:134 57:201 58:157 59:200 60:180 61:200 62:204 63:164 64:224 65:182 66:230 67:200 68:235 69:218 70:230 71:237 72:224 73:117 74:144 75:132 76:136 77:149 78:137 79:165 80:144 81:148 82:145 83:132 84:145 85:238 86:144 87:253 88:137 89:269 90:137 91:284 92:143 93:269 94:145 95:254 96:145 97:144 98:277 99:163 100:259 101:184 102:254 103:202 104:257 105:221 106:252 107:243 108:256 109:262 110:272 111:246 112:294 113:226 114:306 115:207 116:309 117:187 118:307 119:167 120:300 121:154 122:276 123:185 124:266 125:202 126:266 127:221 128:264 129:252 130:272 131:224 132:286 133:205 134:289 135:187 136:288 
-0 4.727206598541957e-11 0 1:72 2:145 3:75 4:181 5:83 6:219 7:91 8:253 9:104 10:285 11:126 12:309 13:150 14:328 15:179 16:344 17:213 18:348 19:244 20:341 21:273 22:321 23:295 24:297 25:314 26:273 27:330 28:242 29:334 30:208 31:332 32:176 33:328 34:146 35:91 36:109 37:109 38:95 39:132 40:92 41:157 42:97 43:181 44:108 45:222 46:109 47:242 48:98 49:260 50:92 51:281 52:90 53:302 54:94 55:200 56:136 57:200 58:158 59:201 60:181 61:201 62:203 63:179 64:221 65:190 66:225 67:202 68:227 69:215 70:222 71:226 72:218 73:117 74:140 75:132 76:132 77:150 78:132 79:165 80:145 81:148 82:149 83:131 84:149 85:240 86:144 87:252 88:132 89:268 90:130 91:281 92:138 93:269 94:146 95:254 96:147 97:165 98:273 99:176 100:256 101:191 102:249 103:204 104:252 105:217 106:248 107:234 108:253 109:247 110:269 111:234 112:285 113:218 114:293 115:204 116:295 117:191 118:294 119:176 120:287 121:172 122:272 123:191 124:267 125:205 126:267 127:217 128:267 129:242 130:268 131:217 132:268 133:204 134:270 135:192 136:269 
-0 0 1 1:113 2:151 3:102 4:184 5:99 6:221 7:103 8:256 9:110 10:291 11:121 12:324 13:133 14:352 15:151 16:373 17:181 18:380 19:220 20:383 21:266 22:374 23:308 24:356 25:347 26:333 27:374 28:303 29:389 30:262 31:400 32:217 33:408 34:173 35:115 36:96 37:124 38:83 39:138 40:79 41:156 42:79 43:172 44:87 45:215 46:81 47:246 48:68 49:280 50:68 51:314 52:79 53:339 54:102 55:185 56:130 57:175 58:153 59:165 60:175 61:154 62:198 63:149 64:231 65:157 66:235 67:166 68:237 69:180 70:236 71:196 72:234 73:127 74:142 75:137 76:128 77:156 78:129 79:173 80:145 81:155 82:149 83:136 84:149 85:237 86:143 87:255 88:127 89:277 90:127 91:297 92:141 93:278 94:148 95:256 96:147 97:142 98:294 99:143 100:277 101:157 102:264 103:168 104:268 105:181 106:264 107:207 108:276 109:238 110:294 111:210 112:312 113:186 114:317 115:171 116:318 117:161 118:318 119:147 120:311 121:149 122:293 123:160 124:282 125:169 126:281 127:182 128:281 129:228 130:293 131:184 132:295 133:170 134:294 135:161 136:294 
-1.014487133315756e-10 1.504362782492352e-10 1.007981542492648e-10 1:56 2:157 3:51 4:196 5:51 6:236 7:57 8:275 9:71 10:312 11:88 12:349 13:111 14:380 15:145 16:398 17:191 18:401 19:239 20:399 21:280 22:387 23:311 24:358 25:336 26:322 27:356 28:282 29:365 30:240 31:367 32:198 33:366 34:158 35:83 36:94 37:109 38:81 39:137 40:83 41:164 42:94 43:189 44:108 45:217 46:107 47:242 48:92 49:268 50:82 51:296 52:81 53:319 54:94 55:199 56:132 57:198 58:160 59:196 60:187 61:195 62:214 63:168 64:237 65:183 66:242 67:198 68:245 69:213 70:241 71:227 72:236 73:113 74:138 75:127 76:130 77:147 78:131 79:163 80:141 81:146 82:148 83:127 84:148 85:238 86:140 87:254 88:129 89:274 90:130 91:290 92:137 93:275 94:147 95:256 96:148 97:151 98:313 99:167 100:295 101:184 102:284 103:197 104:287 105:210 106:283 107:227 108:294 109:244 110:313 111:227 112:311 113:211 114:314 115:196 116:315 117:184 118:314 119:167 120:313 121:162 122:311 123:184 124:306 125:196 126:306 127:210 128:305 129:236 130:310 131:210 132:293 133:197 134:294 135:185 136:293 
-0 0 1.16553803698254e-10 1:-1 2:147 3:-2 4:194 5:-1 6:245 7:6 8:292 9:29 10:332 11:65 12:362 13:110 14:384 15:153 16:402 17:192 18:408 19:227 20:403 21:258 22:379 23:287 24:351 25:310 26:317 27:327 28:278 29:335 30:237 31:335 32:193 33:329 34:154 35:91 36:110 37:115 38:95 39:143 40:89 41:171 42:94 43:195 44:106 45:235 46:101 47:255 48:88 49:276 50:84 51:296 52:91 53:305 54:111 55:216 56:143 57:220 58:172 59:222 60:200 61:225 62:229 63:176 64:252 65:196 66:258 67:214 68:263 69:230 70:259 71:243 72:254 73:116 74:144 75:136 76:133 77:155 78:133 79:168 80:148 81:153 82:151 83:134 84:149 85:239 86:147 87:255 88:131 89:272 90:129 91:284 92:141 93:274 94:149 95:256 96:150 97:144 98:303 99:170 100:290 101:194 102:285 103:209 104:289 105:225 106:286 107:242 108:294 109:253 110:302 111:239 112:318 113:223 114:325 115:206 116:325 117:190 118:321 119:167 120:310 121:153 122:301 123:193 124:300 125:209 126:301 127:225 128:300 129:245 130:303 131:223 132:301 133:207 134:301 135:192 136:299 
-5.309704109953134e-11 0 7.39630839225372e-11 1:50 2:156 3:54 4:191 5:64 6:228 7:79 8:264 9:105 10:294 11:136 12:320 13:165 14:340 15:195 16:356 17:222 18:356 19:249 20:348 21:270 22:325 23:288 24:300 25:304 26:272 27:311 28:237 29:316 30:201 31:320 32:163 33:317 34:127 35:78 36:103 37:104 38:98 39:130 40:103 41:154 42:108 43:177 44:119 45:219 46:121 47:240 48:109 49:262 50:101 51:285 52:98 53:303 54:106 55:202 56:134 57:206 58:162 59:210 60:192 61:215 62:222 63:185 64:238 65:199 66:241 67:212 68:244 69:223 70:239 71:234 72:233 73:104 74:129 75:122 76:119 77:145 78:120 79:161 80:136 81:142 82:140 83:121 84:139 85:235 86:134 87:251 88:118 89:272 90:116 91:288 92:125 93:276 94:136 95:255 96:136 97:151 98:271 99:177 100:271 101:198 102:266 103:211 104:268 105:225 106:263 107:244 108:263 109:270 110:256 111:251 112:280 113:234 114:293 115:219 116:299 117:204 118:299 119:180 120:292 121:159 122:274 123:199 124:275 125:213 126:276 127:227 128:272 129:260 130:261 131:230 132:273 133:215 134:278 135:202 136:278 
-0 1 0 1:6 2:125 3:9 4:173 5:14 6:219 7:23 8:261 9:46 10:296 11:78 12:325 13:116 14:351 15:157 16:372 17:194 18:380 19:228 20:376 21:249 22:352 23:270 24:327 25:289 26:296 27:304 28:265 29:313 30:230 31:317 32:193 33:315 34:161 35:81 36:113 37:101 38:90 39:130 40:80 41:161 42:80 43:194 44:87 45:236 46:102 47:261 48:91 49:286 50:90 51:309 52:98 53:322 54:120 55:215 56:140 57:217 58:166 59:219 60:192 61:222 62:219 63:179 64:234 65:196 66:238 67:212 68:245 69:227 70:241 71:240 72:236 73:112 74:142 75:130 76:135 77:149 78:135 79:163 80:144 81:147 82:148 83:128 84:147 85:248 86:146 87:266 88:139 89:284 90:140 91:297 92:148 93:283 94:153 95:265 96:152 97:132 98:275 99:163 100:265 101:188 102:265 103:206 104:269 105:222 106:267 107:239 108:271 109:246 110:286 111:236 112:303 113:218 114:306 115:201 116:306 117:182 118:304 119:158 120:295 121:143 122:276 123:186 124:274 125:205 126:277 127:220 128:277 129:239 130:285 131:219 132:292 133:203 134:293 135:185 136:291 
-1.345795581008745e-11 8.273904212442939e-11 0 1:72 2:126 3:71 4:158 5:77 6:192 7:88 8:229 9:100 10:263 11:118 12:293 13:139 14:321 15:162 16:345 17:192 18:357 19:230 20:362 21:270 22:353 23:311 24:333 25:343 26:304 27:367 28:268 29:381 30:225 31:392 32:179 33:397 34:133 35:68 36:83 37:85 38:74 39:109 40:81 41:132 42:92 43:154 44:107 45:203 46:106 47:237 48:94 49:273 50:92 51:309 52:94 53:339 54:111 55:180 56:137 57:175 58:161 59:170 60:184 61:165 62:209 63:151 64:228 65:161 66:236 67:174 68:241 69:190 70:238 71:207 72:236 73:93 74:129 75:108 76:121 77:131 78:122 79:148 80:141 81:128 82:148 83:105 84:146 85:238 86:149 87:258 88:135 89:284 90:136 91:302 92:148 93:285 94:163 95:259 96:160 97:157 98:293 99:164 100:290 101:170 102:286 103:178 104:292 105:190 106:291 107:209 108:301 109:239 110:311 111:211 112:307 113:191 114:301 115:180 116:297 117:171 118:293 119:166 120:292 121:167 122:293 123:170 124:301 125:179 126:304 127:190 128:306 129:227 130:308 131:191 132:280 133:180 134:277 135:172 136:273 
-1.205735244202867e-10 1.06514534567665e-10 2.675477348235318e-10 1:62 2:105 3:66 4:145 5:74 6:184 7:83 8:221 9:95 10:257 11:116 12:287 13:141 14:317 15:169 16:338 17:201 18:345 19:233 20:339 21:264 22:317 23:291 24:290 25:313 26:257 27:325 28:219 29:332 30:180 31:339 32:139 33:342 34:98 35:89 36:105 37:110 38:94 39:134 40:96 41:157 42:104 43:179 44:114 45:220 46:114 47:241 48:101 49:263 50:93 51:286 52:89 53:307 54:98 55:201 56:139 57:200 58:167 59:200 60:195 61:200 62:222 63:174 64:229 65:187 66:236 67:201 68:240 69:215 70:235 71:227 72:229 73:115 74:140 75:132 76:130 77:152 78:132 79:165 80:147 81:149 82:151 83:129 84:149 85:237 86:147 87:250 88:132 89:269 90:129 91:284 92:137 93:272 94:148 95:253 96:150 97:155 98:267 99:173 100:261 101:191 102:257 103:203 104:260 105:215 106:257 107:232 108:261 109:251 110:263 111:233 112:279 113:215 114:287 115:202 116:289 117:190 118:288 119:173 120:281 121:162 122:268 123:191 124:270 125:203 126:272 127:215 128:270 129:244 130:265 131:215 132:271 133:203 134:273 135:191 136:272 
-0 1.66439793740635e-10 1.190581162094815e-10 1:78 2:144 3:83 4:179 5:87 6:214 7:94 8:247 9:107 10:280 11:126 12:310 13:146 14:337 15:172 16:363 17:209 18:371 19:245 20:370 21:279 22:349 23:304 24:324 25:325 26:296 27:339 28:260 29:343 30:218 31:342 32:174 33:341 34:133 35:88 36:134 37:102 38:112 39:129 40:107 41:156 42:112 43:180 44:127 45:210 46:124 47:235 48:110 49:263 50:105 51:290 52:110 53:307 54:131 55:196 56:146 57:195 58:169 59:194 60:193 61:194 62:217 63:166 64:223 65:181 66:232 67:198 68:238 69:215 70:231 71:230 72:224 73:119 74:139 75:132 76:132 77:149 78:134 79:164 80:146 81:148 82:147 83:131 84:146 85:234 86:144 87:248 88:133 89:265 90:132 91:282 92:139 93:267 94:145 95:250 96:146 97:151 98:267 99:164 100:259 101:183 102:254 103:201 104:259 105:221 106:255 107:245 108:262 109:267 110:276 111:246 112:299 113:225 114:310 115:204 116:312 117:184 118:309 119:165 120:294 121:159 122:269 123:183 124:270 125:202 126:272 127:221 128:271 129:259 130:275 131:222 132:288 133:204 134:289 135:185 136:285 
-7.624355251476007e-11 0 9.020832157343463e-12 1:29 2:163 3:31 4:203 5:36 6:244 7:49 8:284 9:70 10:321 11:99 12:352 13:130 14:374 15:166 16:386 17:204 18:388 19:238 20:384 21:264 22:372 23:287 24:348 25:306 26:316 27:322 28:282 29:332 30:247 31:337 32:207 33:336 34:168 35:83 36:94 37:102 38:76 39:128 40:69 41:157 42:75 43:183 44:86 45:218 46:88 47:243 48:76 49:268 50:71 51:293 52:77 53:308 54:95 55:201 56:130 57:202 58:149 59:204 60:167 61:206 62:185 63:173 64:228 65:188 66:228 67:201 68:229 69:214 70:228 71:228 72:228 73:109 74:143 75:126 76:134 77:148 78:133 79:165 80:145 81:147 82:154 83:125 84:154 85:233 86:145 87:251 88:134 89:273 90:136 91:288 92:147 93:273 94:156 95:252 96:154 97:154 98:316 99:172 100:291 101:189 102:275 103:200 104:278 105:212 106:274 107:229 108:289 109:245 110:316 111:231 112:318 113:216 114:322 115:203 116:324 117:190 118:323 119:173 120:318 121:164 122:313 123:190 124:298 125:200 126:296 127:213 128:297 129:235 130:313 131:214 132:301 133:202 134:302 135:192 136:302 
